{"learner":{"attributes":{"best_iteration":"76","best_ntree_limit":"77","scikit_learn":"{\"n_estimators\": 25, \"objective\": \"reg:squarederror\", \"max_depth\": 2, \"max_leaves\": null, \"max_bin\": null, \"grow_policy\": null, \"learning_rate\": 0.45000000000000007, \"verbosity\": null, \"booster\": null, \"tree_method\": null, \"gamma\": null, \"min_child_weight\": null, \"max_delta_step\": null, \"subsample\": null, \"sampling_method\": null, \"colsample_bytree\": null, \"colsample_bylevel\": null, \"colsample_bynode\": null, \"reg_alpha\": null, \"reg_lambda\": null, \"scale_pos_weight\": null, \"base_score\": null, \"missing\": NaN, \"num_parallel_tree\": null, \"random_state\": null, \"n_jobs\": null, \"monotone_constraints\": null, \"interaction_constraints\": null, \"importance_type\": null, \"gpu_id\": null, \"validate_parameters\": null, \"predictor\": null, \"enable_categorical\": false, \"feature_types\": null, \"max_cat_to_onehot\": null, \"max_cat_threshold\": null, \"eval_metric\": null, \"early_stopping_rounds\": null, \"callbacks\": null, \"_estimator_type\": \"regressor\"}"},"feature_names":[],"feature_types":[],"gradient_booster":{"model":{"gbtree_model_param":{"num_parallel_tree":"1","num_trees":"77","size_leaf_vector":"0"},"tree_info":[0,0,0,0,0,0,0,0,0,0,0,0,0,0,0,0,0,0,0,0,0,0,0,0,0,0,0,0,0,0,0,0,0,0,0,0,0,0,0,0,0,0,0,0,0,0,0,0,0,0,0,0,0,0,0,0,0,0,0,0,0,0,0,0,0,0,0,0,0,0,0,0,0,0,0,0,0],"trees":[{"base_weights":[-4.3332455E-1,-4.4903442E-1,-3.7928945E-1,-4.67903E-1,-4.3589503E-1,-3.8349095E-1,-1.0039733E-1],"categories":[],"categories_nodes":[],"categories_segments":[],"categories_sizes":[],"default_left":[1,1,1,0,0,0,0],"id":0,"left_children":[1,3,5,-1,-1,-1,-1],"loss_changes":[9.8501587E-1,5.6106567E-2,3.2826233E-1,0E0,0E0,0E0,0E0],"parents":[2147483647,0,0,1,1,2,2],"right_children":[2,4,6,-1,-1,-1,-1],"split_conditions":[3.6215043E0,2.5583396E0,3.649731E1,-2.1055634E-1,-1.9615276E-1,-1.7257093E-1,-4.5178797E-2],"split_indices":[1,1,0,0,0,0,0],"split_type":[0,0,0,0,0,0,0],"sum_hessian":[1.36E3,1.048E3,3.12E2,4.16E2,6.32E2,3.07E2,5E0],"tree_param":{"num_deleted":"0","num_feature":"4","num_nodes":"7","size_leaf_vector":"0"}},{"base_weights":[-2.3878732E-1,-2.4660623E-1,-1.8577863E-1,-2.5701737E-1,-2.3156516E-1,-2.0077467E-1,-1.2679866E-1],"categories":[],"categories_nodes":[],"categories_segments":[],"categories_sizes":[],"default_left":[1,1,1,0,0,0,0],"id":1,"left_children":[1,3,5,-1,-1,-1,-1],"loss_changes":[5.1828766E-1,1.2573242E-1,1.3286066E-1,0E0,0E0,0E0,0E0],"parents":[2147483647,0,0,1,1,2,2],"right_children":[2,4,6,-1,-1,-1,-1],"split_conditions":[5.5562614E1,3.9229885E1,1.9243698E1,-1.15657814E-1,-1.0420432E-1,-9.03486E-2,-5.7059396E-2],"split_indices":[3,3,0,0,0,0,0],"split_type":[0,0,0,0,0,0,0],"sum_hessian":[1.36E3,1.182E3,1.78E2,6.89E2,4.93E2,1.4E2,3.8E1],"tree_param":{"num_deleted":"0","num_feature":"4","num_nodes":"7","size_leaf_vector":"0"}},{"base_weights":[-1.3160288E-1,-1.4093985E-1,-1.16087735E-1,-1.5745556E-1,-1.3717793E-1,-1.2797624E-1,-9.766545E-2],"categories":[],"categories_nodes":[],"categories_segments":[],"categories_sizes":[],"default_left":[1,1,1,0,0,0,0],"id":2,"left_children":[1,3,5,-1,-1,-1,-1],"loss_changes":[1.8079948E-1,3.0900955E-2,1.00730896E-1,0E0,0E0,0E0,0E0],"parents":[2147483647,0,0,1,1,2,2],"right_children":[2,4,6,-1,-1,-1,-1],"split_conditions":[3.22831E0,3.5516074E0,2.475642E3,-7.0855E-2,-6.173007E-2,-5.7589307E-2,-4.394945E-2],"split_indices":[1,0,2,0,0,0,0],"split_type":[0,0,0,0,0,0,0],"sum_hessian":[1.36E3,8.44E2,5.16E2,1.49E2,6.95E2,3.1E2,2.06E2],"tree_param":{"num_deleted":"0","num_feature":"4","num_nodes":"7","size_leaf_vector":"0"}},{"base_weights":[-7.255361E-2,-7.470597E-2,-4.205306E-2,-8.481503E-2,-7.13392E-2,-4.8644684E-2,4.4937342E-2],"categories":[],"categories_nodes":[],"categories_segments":[],"categories_sizes":[],"default_left":[1,1,1,0,0,0,0],"id":3,"left_children":[1,3,5,-1,-1,-1,-1],"loss_changes":[8.620548E-2,3.717327E-2,5.493951E-2,0E0,0E0,0E0,0E0],"parents":[2147483647,0,0,1,1,2,2],"right_children":[2,4,6,-1,-1,-1,-1],"split_conditions":[4.362111E0,3.0647854E1,7.7283755E3,-3.8166765E-2,-3.2102637E-2,-2.1890108E-2,2.0221803E-2],"split_indices":[1,3,2,0,0,0,0],"split_type":[0,0,0,0,0,0,0],"sum_hessian":[1.36E3,1.269E3,9.1E1,3.11E2,9.58E2,8.5E1,6E0],"tree_param":{"num_deleted":"0","num_feature":"4","num_nodes":"7","size_leaf_vector":"0"}},{"base_weights":[-3.9957345E-2,-4.1540872E-2,-1.792017E-2,-4.583037E-2,-3.8372215E-2,-4.12997E-2,-4.373102E-3],"categories":[],"categories_nodes":[],"categories_segments":[],"categories_sizes":[],"default_left":[1,1,1,0,0,0,0],"id":4,"left_children":[1,3,5,-1,-1,-1,-1],"loss_changes":[4.674983E-2,1.5489578E-2,2.9274732E-2,0E0,0E0,0E0,0E0],"parents":[2147483647,0,0,1,1,2,2],"right_children":[2,4,6,-1,-1,-1,-1],"split_conditions":[3.9356882E3,1.2438855E3,1.4569294E1,-2.0623665E-2,-1.7267495E-2,-1.8584864E-2,-1.9678958E-3],"split_indices":[2,2,0,0,0,0,0],"split_type":[0,0,0,0,0,0,0],"sum_hessian":[1.36E3,1.268E3,9.2E1,5.33E2,7.35E2,3.3E1,5.9E1],"tree_param":{"num_deleted":"0","num_feature":"4","num_nodes":"7","size_leaf_vector":"0"}},{"base_weights":[-2.2019483E-2,-2.5642969E-2,-1.7848618E-2,-3.633242E-2,-2.4518974E-2,-2.285796E-2,-1.2638853E-2],"categories":[],"categories_nodes":[],"categories_segments":[],"categories_sizes":[],"default_left":[1,1,1,0,0,0,0],"id":5,"left_children":[1,3,5,-1,-1,-1,-1],"loss_changes":[2.0111203E-2,7.831931E-3,1.6309097E-2,0E0,0E0,0E0,0E0],"parents":[2147483647,0,0,1,1,2,2],"right_children":[2,4,6,-1,-1,-1,-1],"split_conditions":[3.0491366E0,4.5828363E2,4.55961E1,-1.634959E-2,-1.1033538E-2,-1.0286082E-2,-5.6874836E-3],"split_indices":[1,2,3,0,0,0,0],"split_type":[0,0,0,0,0,0,0],"sum_hessian":[1.36E3,7.25E2,6.35E2,6.6E1,6.59E2,3.22E2,3.13E2],"tree_param":{"num_deleted":"0","num_feature":"4","num_nodes":"7","size_leaf_vector":"0"}},{"base_weights":[-1.2142573E-2,-1.26453405E-2,5.224215E-3,-1.7081285E-2,-1.17450785E-2,-8.7888585E-4,3.893775E-2],"categories":[],"categories_nodes":[],"categories_segments":[],"categories_sizes":[],"default_left":[1,1,1,0,0,0,0],"id":6,"left_children":[1,3,5,-1,-1,-1,-1],"loss_changes":[1.1949599E-2,5.082786E-3,8.058748E-3,0E0,0E0,0E0,0E0],"parents":[2147483647,0,0,1,1,2,2],"right_children":[2,4,6,-1,-1,-1,-1],"split_conditions":[2.1527727E1,2.1853266E0,7.7283755E3,-7.686578E-3,-5.285285E-3,-3.9549862E-4,1.7521987E-2],"split_indices":[0,1,2,0,0,0,0],"split_type":[0,0,0,0,0,0,0],"sum_hessian":[1.36E3,1.322E3,3.8E1,2.2E2,1.102E3,3.3E1,5E0],"tree_param":{"num_deleted":"0","num_feature":"4","num_nodes":"7","size_leaf_vector":"0"}},{"base_weights":[-6.6753626E-3,-7.4386895E-3,-1.0973141E-3,-6.814166E-3,-1.2260786E-2,-2.9383391E-2,3.9257305E-3],"categories":[],"categories_nodes":[],"categories_segments":[],"categories_sizes":[],"default_left":[1,1,1,0,0,0,0],"id":7,"left_children":[1,3,5,-1,-1,-1,-1],"loss_changes":[5.78681E-3,3.5212263E-3,2.355892E-2,0E0,0E0,0E0,0E0],"parents":[2147483647,0,0,1,1,2,2],"right_children":[2,4,6,-1,-1,-1,-1],"split_conditions":[4.042551E0,3.6627195E0,1.3272456E3,-3.0663747E-3,-5.517354E-3,-1.3222526E-2,1.7665786E-3],"split_indices":[1,1,2,0,0,0,0],"split_type":[0,0,0,0,0,0,0],"sum_hessian":[1.36E3,1.196E3,1.64E2,1.061E3,1.35E2,2.4E1,1.4E2],"tree_param":{"num_deleted":"0","num_feature":"4","num_nodes":"7","size_leaf_vector":"0"}},{"base_weights":[-3.686173E-3,-3.7738883E-3,2.7014755E-2,-3.6018142E-3,-2.0035746E-2,3.426811E-2,2.627343E-3],"categories":[],"categories_nodes":[],"categories_segments":[],"categories_sizes":[],"default_left":[1,1,1,0,0,0,0],"id":8,"left_children":[1,3,5,-1,-1,-1,-1],"loss_changes":[3.767049E-3,3.7278552E-3,6.175281E-4,0E0,0E0,0E0,0E0],"parents":[2147483647,0,0,1,1,2,2],"right_children":[2,4,6,-1,-1,-1,-1],"split_conditions":[3.7563168E1,7.3611836E3,6.2924557E0,-1.6208163E-3,-9.016085E-3,1.5420649E-2,1.1823043E-3],"split_indices":[0,2,1,0,0,0,0],"split_type":[0,0,0,0,0,0,0],"sum_hessian":[1.36E3,1.357E3,3E0,1.344E3,1.3E1,2E0,1E0],"tree_param":{"num_deleted":"0","num_feature":"4","num_nodes":"7","size_leaf_vector":"0"}},{"base_weights":[-2.023012E-3,-2.4064863E-3,4.5843828E-3,-1.9217939E-3,-1.1638628E-2,3.3542454E-2,2.4805132E-3],"categories":[],"categories_nodes":[],"categories_segments":[],"categories_sizes":[],"default_left":[1,1,1,0,0,0,0],"id":9,"left_children":[1,3,5,-1,-1,-1,-1],"loss_changes":[3.4594894E-3,5.736635E-3,4.486098E-3,0E0,0E0,0E0,0E0],"parents":[2147483647,0,0,1,1,2,2],"right_children":[2,4,6,-1,-1,-1,-1],"split_conditions":[4.240806E3,5.865724E1,4.318451E3,-8.648072E-4,-5.237383E-3,1.5094104E-2,1.1162309E-3],"split_indices":[2,3,2,0,0,0,0],"split_type":[0,0,0,0,0,0,0],"sum_hessian":[1.36E3,1.286E3,7.4E1,1.223E3,6.3E1,4E0,7E1],"tree_param":{"num_deleted":"0","num_feature":"4","num_nodes":"7","size_leaf_vector":"0"}},{"base_weights":[-1.1052307E-3,-2.5695225E-3,4.957168E-4,-2.09113E-3,-2.4627527E-2,-8.782066E-3,1.6826723E-3],"categories":[],"categories_nodes":[],"categories_segments":[],"categories_sizes":[],"default_left":[1,1,1,0,0,0,0],"id":10,"left_children":[1,3,5,-1,-1,-1,-1],"loss_changes":[3.1918043E-3,7.451246E-3,7.183795E-3,0E0,0E0,0E0,0E0],"parents":[2147483647,0,0,1,1,2,2],"right_children":[2,4,6,-1,-1,-1,-1],"split_conditions":[3.0227404E0,3.0940684E3,1.0291829E3,-9.410085E-4,-1.1082387E-2,-3.95193E-3,7.572025E-4],"split_indices":[1,2,2,0,0,0,0],"split_type":[0,0,0,0,0,0,0],"sum_hessian":[1.36E3,7.1E2,6.5E2,6.96E2,1.4E1,7.3E1,5.77E2],"tree_param":{"num_deleted":"0","num_feature":"4","num_nodes":"7","size_leaf_vector":"0"}},{"base_weights":[-6.1905856E-4,-7.942599E-3,-3.336889E-4,-7.002937E-3,-1.7232902E-2,-4.286758E-4,1.0931008E-2],"categories":[],"categories_nodes":[],"categories_segments":[],"categories_sizes":[],"default_left":[1,1,1,0,0,0,0],"id":11,"left_children":[1,3,5,-1,-1,-1,-1],"loss_changes":[2.841726E-3,3.2453658E-4,1.4074541E-3,0E0,0E0,0E0,0E0],"parents":[2147483647,0,0,1,1,2,2],"right_children":[2,4,6,-1,-1,-1,-1],"split_conditions":[3.6527942E2,5.179446E0,7.7283755E3,-3.1513216E-3,-7.754806E-3,-1.929041E-4,4.9189534E-3],"split_indices":[2,0,2,0,0,0,0],"split_type":[0,0,0,0,0,0,0],"sum_hessian":[1.36E3,5E1,1.31E3,4.7E1,3E0,1.3E3,1E1],"tree_param":{"num_deleted":"0","num_feature":"4","num_nodes":"7","size_leaf_vector":"0"}},{"base_weights":[-3.4502335E-4,-1.9904935E-4,-8.468698E-3,-3.2327234E-4,5.5187944E-2,-1.9592877E-2,6.45923E-3],"categories":[],"categories_nodes":[],"categories_segments":[],"categories_sizes":[],"default_left":[1,1,1,0,0,0,0],"id":12,"left_children":[1,3,5,-1,-1,-1,-1],"loss_changes":[1.6122496E-3,9.223734E-3,4.1120173E-3,0E0,0E0,0E0,0E0],"parents":[2147483647,0,0,1,1,2,2],"right_children":[2,4,6,-1,-1,-1,-1],"split_conditions":[6.399089E3,6.1138174E3,7.7283755E3,-1.4547254E-4,2.4834575E-2,-8.8167945E-3,2.9066536E-3],"split_indices":[2,2,2,0,0,0,0],"split_type":[0,0,0,0,0,0,0],"sum_hessian":[1.36E3,1.337E3,2.3E1,1.335E3,2E0,1.3E1,1E1],"tree_param":{"num_deleted":"0","num_feature":"4","num_nodes":"7","size_leaf_vector":"0"}},{"base_weights":[-1.7596538E-4,-2.3873215E-5,-9.879758E-3,-2.3455234E-4,1.3229984E-2,-4.718319E-2,4.726514E-3],"categories":[],"categories_nodes":[],"categories_segments":[],"categories_sizes":[],"default_left":[1,1,1,0,0,0,0],"id":13,"left_children":[1,3,5,-1,-1,-1,-1],"loss_changes":[2.0084244E-3,3.747592E-3,1.1665157E-2,0E0,0E0,0E0,0E0],"parents":[2147483647,0,0,1,1,2,2],"right_children":[2,4,6,-1,-1,-1,-1],"split_conditions":[5.0255976E0,4.6602635E0,2.6332905E1,-1.0554855E-4,5.9534926E-3,-2.1232435E-2,2.1269314E-3],"split_indices":[1,1,0,0,0,0,0],"split_type":[0,0,0,0,0,0,0],"sum_hessian":[1.36E3,1.34E3,2E1,1.32E3,2E1,5E0,1.5E1],"tree_param":{"num_deleted":"0","num_feature":"4","num_nodes":"7","size_leaf_vector":"0"}},{"base_weights":[-1.0652356E-4,1.4635723E-4,-4.9171294E-3,-1.2552233E-4,1.5871644E-2,-2.3162527E-2,-1.834444E-4],"categories":[],"categories_nodes":[],"categories_segments":[],"categories_sizes":[],"default_left":[1,1,1,0,0,0,0],"id":14,"left_children":[1,3,5,-1,-1,-1,-1],"loss_changes":[1.6563894E-3,5.5343397E-3,5.868773E-3,0E0,0E0,0E0,0E0],"parents":[2147483647,0,0,1,1,2,2],"right_children":[2,4,6,-1,-1,-1,-1],"split_conditions":[1.9602459E1,4.3722305E0,4.5543327E0,-5.648505E-5,7.1422397E-3,-1.0423137E-2,-8.2549974E-5],"split_indices":[0,1,1,0,0,0,0],"split_type":[0,0,0,0,0,0,0],"sum_hessian":[1.36E3,1.293E3,6.7E1,1.272E3,2.1E1,1.3E1,5.4E1],"tree_param":{"num_deleted":"0","num_feature":"4","num_nodes":"7","size_leaf_vector":"0"}},{"base_weights":[-6.110084E-5,5.130093E-5,-8.95047E-3,-1.48340705E-5,2.9640635E-2,-2.4268493E-2,1.611041E-3],"categories":[],"categories_nodes":[],"categories_segments":[],"categories_sizes":[],"default_left":[1,1,1,0,0,0,0],"id":15,"left_children":[1,3,5,-1,-1,-1,-1],"loss_changes":[1.3603442E-3,2.6324573E-3,2.7893828E-3,0E0,0E0,0E0,0E0],"parents":[2147483647,0,0,1,1,2,2],"right_children":[2,4,6,-1,-1,-1,-1],"split_conditions":[7.3611836E3,7.047697E3,7.7283755E3,-6.6753314E-6,1.33382855E-2,-1.0920822E-2,7.2496844E-4],"split_indices":[2,2,2,0,0,0,0],"split_type":[0,0,0,0,0,0,0],"sum_hessian":[1.36E3,1.344E3,1.6E1,1.342E3,2E0,6E0,1E1],"tree_param":{"num_deleted":"0","num_feature":"4","num_nodes":"7","size_leaf_vector":"0"}},{"base_weights":[-3.1301082E-5,-4.520418E-3,1.7199072E-4,-4.0793647E-3,-1.1393626E-2,3.3468887E-2,1.2071131E-4],"categories":[],"categories_nodes":[],"categories_segments":[],"categories_sizes":[],"default_left":[1,1,1,0,0,0,0],"id":16,"left_children":[1,3,5,-1,-1,-1,-1],"loss_changes":[1.2428272E-3,1.323768E-4,2.2207608E-3,0E0,0E0,0E0,0E0],"parents":[2147483647,0,0,1,1,2,2],"right_children":[2,4,6,-1,-1,-1,-1],"split_conditions":[1.3621168E0,8.785235E2,1.2331141E0,-1.8357141E-3,-5.1271315E-3,1.50609985E-2,5.4320088E-5],"split_indices":[1,2,0,0,0,0,0],"split_type":[0,0,0,0,0,0,0],"sum_hessian":[1.36E3,5.8E1,1.302E3,5.6E1,2E0,1E0,1.301E3],"tree_param":{"num_deleted":"0","num_feature":"4","num_nodes":"7","size_leaf_vector":"0"}},{"base_weights":[-1.122548E-5,8.4178185E-4,-8.974169E-4,1.7620604E-3,-8.567544E-3,-1.176379E-2,-1.4957116E-4],"categories":[],"categories_nodes":[],"categories_segments":[],"categories_sizes":[],"default_left":[1,1,1,0,0,0,0],"id":17,"left_children":[1,3,5,-1,-1,-1,-1],"loss_changes":[1.0295731E-3,6.0245814E-3,5.426656E-3,0E0,0E0,0E0,0E0],"parents":[2147483647,0,0,1,1,2,2],"right_children":[2,4,6,-1,-1,-1,-1],"split_conditions":[1.5108995E3,3.6884103E0,2.4267128E0,7.9292717E-4,-3.8553947E-3,-5.293705E-3,-6.7307024E-5],"split_indices":[2,1,1,0,0,0,0],"split_type":[0,0,0,0,0,0,0],"sum_hessian":[1.36E3,6.93E2,6.67E2,6.32E2,6.1E1,4.2E1,6.25E2],"tree_param":{"num_deleted":"0","num_feature":"4","num_nodes":"7","size_leaf_vector":"0"}},{"base_weights":[-1.2363009E-5,-4.2922678E-4,2.236411E-3,-1.7711398E-4,-1.1311749E-2,1.6055036E-2,3.1342852E-4],"categories":[],"categories_nodes":[],"categories_segments":[],"categories_sizes":[],"default_left":[1,1,1,0,0,0,0],"id":18,"left_children":[1,3,5,-1,-1,-1,-1],"loss_changes":[1.2768054E-3,3.1504193E-3,5.655011E-3,0E0,0E0,0E0,0E0],"parents":[2147483647,0,0,1,1,2,2],"right_children":[2,4,6,-1,-1,-1,-1],"split_conditions":[1.4810595E1,3.810647E0,1.5394485E1,-7.970129E-5,-5.090287E-3,7.224766E-3,1.4104284E-4],"split_indices":[0,1,0,0,0,0,0],"split_type":[0,0,0,0,0,0,0],"sum_hessian":[1.36E3,1.148E3,2.12E2,1.123E3,2.5E1,2.5E1,1.87E2],"tree_param":{"num_deleted":"0","num_feature":"4","num_nodes":"7","size_leaf_vector":"0"}},{"base_weights":[-5.1862535E-6,-3.3368642E-4,2.3779646E-3,-6.0231392E-5,-7.023326E-3,2.769359E-2,3.0617743E-5],"categories":[],"categories_nodes":[],"categories_segments":[],"categories_sizes":[],"default_left":[1,1,1,0,0,0,0],"id":19,"left_children":[1,3,5,-1,-1,-1,-1],"loss_changes":[1.0662734E-3,2.189268E-3,9.804204E-3,0E0,0E0,0E0,0E0],"parents":[2147483647,0,0,1,1,2,2],"right_children":[2,4,6,-1,-1,-1,-1],"split_conditions":[4.042551E0,3.8958979E0,1.631335E1,-2.7104126E-5,-3.1604967E-3,1.2462115E-2,1.3777983E-5],"split_indices":[1,1,0,0,0,0,0],"split_type":[0,0,0,0,0,0,0],"sum_hessian":[1.36E3,1.196E3,1.64E2,1.15E3,4.6E1,1.3E1,1.51E2],"tree_param":{"num_deleted":"0","num_feature":"4","num_nodes":"7","size_leaf_vector":"0"}},{"base_weights":[3.9726942E-6,-3.0210773E-3,2.3078862E-4,-2.2496101E-3,-1.2398147E-2,1.9441481E-3,-3.846521E-4],"categories":[],"categories_nodes":[],"categories_segments":[],"categories_sizes":[],"default_left":[1,1,1,0,0,0,0],"id":20,"left_children":[1,3,5,-1,-1,-1,-1],"loss_changes":[9.345194E-4,6.5934856E-4,1.3367629E-3,0E0,0E0,0E0,0E0],"parents":[2147483647,0,0,1,1,2,2],"right_children":[2,4,6,-1,-1,-1,-1],"split_conditions":[1.6125202E0,1.2415896E3,2.5851703E0,-1.0123246E-3,-5.579166E-3,8.748666E-4,-1.7309345E-4],"split_indices":[1,2,1,0,0,0,0],"split_type":[0,0,0,0,0,0,0],"sum_hessian":[1.36E3,9.4E1,1.266E3,8.8E1,6E0,3.34E2,9.32E2],"tree_param":{"num_deleted":"0","num_feature":"4","num_nodes":"7","size_leaf_vector":"0"}},{"base_weights":[-2.143462E-6,-8.8209705E-4,9.5047016E-4,4.031509E-4,-3.487271E-3,6.7484663E-3,1.7642834E-4],"categories":[],"categories_nodes":[],"categories_segments":[],"categories_sizes":[],"default_left":[1,1,1,0,0,0,0],"id":21,"left_children":[1,3,5,-1,-1,-1,-1],"loss_changes":[1.1417046E-3,2.3719983E-3,2.9338903E-3,0E0,0E0,0E0,0E0],"parents":[2147483647,0,0,1,1,2,2],"right_children":[2,4,6,-1,-1,-1,-1],"split_conditions":[3.0189004E0,3.853776E1,3.1243322E0,1.814179E-4,-1.5692719E-3,3.0368099E-3,7.939275E-5],"split_indices":[1,3,1,0,0,0,0],"split_type":[0,0,0,0,0,0,0],"sum_hessian":[1.36E3,7.07E2,6.53E2,4.74E2,2.33E2,7.6E1,5.77E2],"tree_param":{"num_deleted":"0","num_feature":"4","num_nodes":"7","size_leaf_vector":"0"}},{"base_weights":[9.056787E-8,7.761752E-5,-8.044829E-3,1.1933461E-4,-2.8078511E-2,-3.664281E-2,4.859682E-4],"categories":[],"categories_nodes":[],"categories_segments":[],"categories_sizes":[],"default_left":[1,1,1,0,0,0,0],"id":22,"left_children":[1,3,5,-1,-1,-1,-1],"loss_changes":[8.494774E-4,1.5878751E-3,3.1893337E-3,0E0,0E0,0E0,0E0],"parents":[2147483647,0,0,1,1,2,2],"right_children":[2,4,6,-1,-1,-1,-1],"split_conditions":[7.58583E3,3.70939E1,7.7283755E3,5.3700573E-5,-1.263533E-2,-1.6489264E-2,2.1868569E-4],"split_indices":[2,0,2,0,0,0,0],"split_type":[0,0,0,0,0,0,0],"sum_hessian":[1.36E3,1.348E3,1.2E1,1.347E3,1E0,2E0,1E1],"tree_param":{"num_deleted":"0","num_feature":"4","num_nodes":"7","size_leaf_vector":"0"}},{"base_weights":[-2.115076E-5,-5.9659505E-4,1.1928485E-3,-2.6458062E-4,-7.740599E-3,1.6273797E-2,4.3233953E-4],"categories":[],"categories_nodes":[],"categories_segments":[],"categories_sizes":[],"default_left":[1,1,1,0,0,0,0],"id":23,"left_children":[1,3,5,-1,-1,-1,-1],"loss_changes":[9.514912E-4,2.1895992E-3,5.016472E-3,0E0,0E0,0E0,0E0],"parents":[2147483647,0,0,1,1,2,2],"right_children":[2,4,6,-1,-1,-1,-1],"split_conditions":[1.083309E1,3.0945034E3,1.1204483E1,-1.19061275E-4,-3.4832696E-3,7.3232083E-3,1.9455278E-4],"split_indices":[0,2,0,0,0,0,0],"split_type":[0,0,0,0,0,0,0],"sum_hessian":[1.36E3,9.23E2,4.37E2,8.83E2,4E1,2E1,4.17E2],"tree_param":{"num_deleted":"0","num_feature":"4","num_nodes":"7","size_leaf_vector":"0"}},{"base_weights":[-8.755539E-6,-5.4497994E-4,1.1262933E-3,1.0633016E-3,-1.7456111E-3,-1.0317747E-2,1.4736962E-3],"categories":[],"categories_nodes":[],"categories_segments":[],"categories_sizes":[],"default_left":[1,1,1,0,0,0,0],"id":24,"left_children":[1,3,5,-1,-1,-1,-1],"loss_changes":[8.2897407E-4,1.7879875E-3,1.7525828E-3,0E0,0E0,0E0,0E0],"parents":[2147483647,0,0,1,1,2,2],"right_children":[2,4,6,-1,-1,-1,-1],"split_conditions":[2.0220944E3,6.419156E0,2.1875443E0,4.784857E-4,-7.8552496E-4,-4.6429858E-3,6.6316326E-4],"split_indices":[2,0,1,0,0,0,0],"split_type":[0,0,0,0,0,0,0],"sum_hessian":[1.36E3,9.24E2,4.36E2,3.95E2,5.29E2,1.2E1,4.24E2],"tree_param":{"num_deleted":"0","num_feature":"4","num_nodes":"7","size_leaf_vector":"0"}},{"base_weights":[2.0249246E-3,1.1645505E-3,7.78795E-2,1.6181786E-3,-5.589972E-2,8.979362E-2,-1.4673799E-2,1.3338655E-3,8.409822E-2,-6.0485665E-2,-1.4192037E-2,2.3103662E-2,9.524191E-2,1.748917E-3,-4.3917846E-2,1.7169662E-2,1.0897767E-1],"categories":[],"categories_nodes":[],"categories_segments":[],"categories_sizes":[],"default_left":[1,1,1,1,1,1,0,1,1,0,0,0,0,0,0,0,0],"id":25,"left_children":[1,3,5,7,9,11,-1,13,15,-1,-1,-1,-1,-1,-1,-1,-1],"loss_changes":[5.8189444E-2,2.2973636E-2,1.2344532E-2,2.0477064E-2,4.8046745E-4,1.0696724E-3,0E0,1.652966E-2,3.1243265E-3,0E0,0E0,0E0,0E0,0E0,0E0,0E0,0E0],"parents":[2147483647,0,0,1,1,2,2,3,3,4,4,5,5,7,7,8,8],"right_children":[2,4,6,8,10,12,-1,14,16,-1,-1,-1,-1,-1,-1,-1,-1],"split_conditions":[2.9921818E1,1.1944914E4,1.7810186E4,1.1304445E4,2.799615E1,4.9023193E3,-1.4673799E-4,8.897511E3,2.4462118E1,-6.0485664E-4,-1.4192038E-4,2.3103661E-4,9.5241907E-4,1.748917E-5,-4.3917846E-4,1.716966E-4,1.0897766E-3],"split_indices":[0,2,2,2,0,2,0,2,0,0,0,0,0,0,0,0,0],"split_type":[0,0,0,0,0,0,0,0,0,0,0,0,0,0,0,0,0],"sum_hessian":[8.92E2,8.83E2,9E0,8.77E2,6E0,8E0,1E0,8.75E2,2E0,5E0,1E0,1E0,7E0,8.68E2,7E0,1E0,1E0],"tree_param":{"num_deleted":"0","num_feature":"4","num_nodes":"17","size_leaf_vector":"0"}},{"base_weights":[2.0059408E-3,1.1530105E-3,7.720438E-2,1.6029534E-3,-5.5447407E-2,8.902718E-2,-1.4600426E-2,1.3200456E-3,8.367773E-2,-5.9981614E-2,-1.4121078E-2,2.298814E-2,9.440854E-2,1.7314482E-3,-4.3533564E-2,1.7083816E-2,1.0843278E-1],"categories":[],"categories_nodes":[],"categories_segments":[],"categories_sizes":[],"default_left":[1,1,1,1,1,1,0,1,1,0,0,0,0,0,0,0,0],"id":26,"left_children":[1,3,5,7,9,11,-1,13,15,-1,-1,-1,-1,-1,-1,-1,-1],"loss_changes":[5.7187125E-2,2.260167E-2,1.215373E-2,2.0276347E-2,4.646685E-4,1.0281429E-3,0E0,1.624011E-2,3.0931626E-3,0E0,0E0,0E0,0E0,0E0,0E0,0E0,0E0],"parents":[2147483647,0,0,1,1,2,2,3,3,4,4,5,5,7,7,8,8],"right_children":[2,4,6,8,10,12,-1,14,16,-1,-1,-1,-1,-1,-1,-1,-1],"split_conditions":[2.9921818E1,1.1944914E4,1.7810186E4,1.1304445E4,2.799615E1,4.9023193E3,-1.4600425E-4,8.897511E3,2.4462118E1,-5.9981615E-4,-1.4121078E-4,2.298814E-4,9.440854E-4,1.7314482E-5,-4.3533562E-4,1.7083816E-4,1.0843277E-3],"split_indices":[0,2,2,2,0,2,0,2,0,0,0,0,0,0,0,0,0],"split_type":[0,0,0,0,0,0,0,0,0,0,0,0,0,0,0,0,0],"sum_hessian":[8.92E2,8.83E2,9E0,8.77E2,6E0,8E0,1E0,8.75E2,2E0,5E0,1E0,1E0,7E0,8.68E2,7E0,1E0,1E0],"tree_param":{"num_deleted":"0","num_feature":"4","num_nodes":"17","size_leaf_vector":"0"}},{"base_weights":[1.9871395E-3,1.1415884E-3,7.653513E-2,1.5878767E-3,-5.4998796E-2,8.826735E-2,-1.4527425E-2,1.3063673E-3,8.325934E-2,-5.9481774E-2,-1.4050476E-2,2.28732E-2,9.3582466E-2,1.714153E-3,-4.315265E-2,1.6998395E-2,1.0789061E-1],"categories":[],"categories_nodes":[],"categories_segments":[],"categories_sizes":[],"default_left":[1,1,1,1,1,1,0,1,1,0,0,0,0,0,0,0,0],"id":27,"left_children":[1,3,5,7,9,11,-1,13,15,-1,-1,-1,-1,-1,-1,-1,-1],"loss_changes":[5.6202102E-2,2.2235774E-2,1.1965953E-2,2.0077582E-2,4.4924393E-4,9.876713E-4,0E0,1.595563E-2,3.0623078E-3,0E0,0E0,0E0,0E0,0E0,0E0,0E0,0E0],"parents":[2147483647,0,0,1,1,2,2,3,3,4,4,5,5,7,7,8,8],"right_children":[2,4,6,8,10,12,-1,14,16,-1,-1,-1,-1,-1,-1,-1,-1],"split_conditions":[2.9921818E1,1.1944914E4,1.7810186E4,1.1304445E4,2.799615E1,4.9023193E3,-1.4527424E-4,8.897511E3,2.4462118E1,-5.9481774E-4,-1.4050477E-4,2.28732E-4,9.3582465E-4,1.7141529E-5,-4.3152648E-4,1.6998395E-4,1.0789061E-3],"split_indices":[0,2,2,2,0,2,0,2,0,0,0,0,0,0,0,0,0],"split_type":[0,0,0,0,0,0,0,0,0,0,0,0,0,0,0,0,0],"sum_hessian":[8.92E2,8.83E2,9E0,8.77E2,6E0,8E0,1E0,8.75E2,2E0,5E0,1E0,1E0,7E0,8.68E2,7E0,1E0,1E0],"tree_param":{"num_deleted":"0","num_feature":"4","num_nodes":"17","size_leaf_vector":"0"}},{"base_weights":[1.9685207E-3,1.130285E-3,7.587171E-2,1.5729486E-3,-5.4553848E-2,8.751407E-2,-1.4454782E-2,1.2928308E-3,8.284304E-2,-5.8986086E-2,-1.3980217E-2,2.2758834E-2,9.2763625E-2,1.6970313E-3,-4.277506E-2,1.6913407E-2,1.0735116E-1],"categories":[],"categories_nodes":[],"categories_segments":[],"categories_sizes":[],"default_left":[1,1,1,1,1,1,0,1,1,0,0,0,0,0,0,0,0],"id":28,"left_children":[1,3,5,7,9,11,-1,13,15,-1,-1,-1,-1,-1,-1,-1,-1],"loss_changes":[5.523407E-2,2.1875827E-2,1.1781137E-2,1.9880747E-2,4.3418445E-4,9.4822794E-4,0E0,1.5676137E-2,3.0317605E-3,0E0,0E0,0E0,0E0,0E0,0E0,0E0,0E0],"parents":[2147483647,0,0,1,1,2,2,3,3,4,4,5,5,7,7,8,8],"right_children":[2,4,6,8,10,12,-1,14,16,-1,-1,-1,-1,-1,-1,-1,-1],"split_conditions":[2.9921818E1,1.1944914E4,1.7810186E4,1.1304445E4,2.799615E1,4.9023193E3,-1.4454781E-4,8.897511E3,2.4462118E1,-5.8986084E-4,-1.3980217E-4,2.2758833E-4,9.276362E-4,1.6970313E-5,-4.277506E-4,1.6913406E-4,1.0735116E-3],"split_indices":[0,2,2,2,0,2,0,2,0,0,0,0,0,0,0,0,0],"split_type":[0,0,0,0,0,0,0,0,0,0,0,0,0,0,0,0,0],"sum_hessian":[8.92E2,8.83E2,9E0,8.77E2,6E0,8E0,1E0,8.75E2,2E0,5E0,1E0,1E0,7E0,8.68E2,7E0,1E0,1E0],"tree_param":{"num_deleted":"0","num_feature":"4","num_nodes":"17","size_leaf_vector":"0"}},{"base_weights":[1.9500816E-3,1.1190976E-3,7.5214066E-2,1.5581663E-3,-5.411255E-2,8.676729E-2,-1.4382511E-2,1.2794334E-3,8.2428835E-2,-5.8494538E-2,-1.3910316E-2,2.2645041E-2,9.195195E-2,1.6800803E-3,-4.2400777E-2,1.6828842E-2,1.0681441E-1],"categories":[],"categories_nodes":[],"categories_segments":[],"categories_sizes":[],"default_left":[1,1,1,1,1,1,0,1,1,0,0,0,0,0,0,0,0],"id":29,"left_children":[1,3,5,7,9,11,-1,13,15,-1,-1,-1,-1,-1,-1,-1,-1],"loss_changes":[5.4282743E-2,2.1521753E-2,1.15992315E-2,1.9685827E-2,4.1948445E-4,9.0981275E-4,0E0,1.5401541E-2,3.0015148E-3,0E0,0E0,0E0,0E0,0E0,0E0,0E0,0E0],"parents":[2147483647,0,0,1,1,2,2,3,3,4,4,5,5,7,7,8,8],"right_children":[2,4,6,8,10,12,-1,14,16,-1,-1,-1,-1,-1,-1,-1,-1],"split_conditions":[2.9921818E1,1.1944914E4,1.7810186E4,1.1304445E4,2.799615E1,4.9023193E3,-1.438251E-4,8.897511E3,2.4462118E1,-5.849454E-4,-1.3910315E-4,2.2645041E-4,9.195195E-4,1.6800803E-5,-4.2400777E-4,1.6828842E-4,1.068144E-3],"split_indices":[0,2,2,2,0,2,0,2,0,0,0,0,0,0,0,0,0],"split_type":[0,0,0,0,0,0,0,0,0,0,0,0,0,0,0,0,0],"sum_hessian":[8.92E2,8.83E2,9E0,8.77E2,6E0,8E0,1E0,8.75E2,2E0,5E0,1E0,1E0,7E0,8.68E2,7E0,1E0,1E0],"tree_param":{"num_deleted":"0","num_feature":"4","num_nodes":"17","size_leaf_vector":"0"}},{"base_weights":[1.9318211E-3,1.1080259E-3,7.456214E-2,1.5435294E-3,-5.3674854E-2,8.602695E-2,-1.4310598E-2,1.2661744E-3,8.2016684E-2,-5.800708E-2,-1.3840757E-2,2.2531815E-2,9.114736E-2,1.6632992E-3,-4.2029772E-2,1.6744696E-2,1.06280334E-1],"categories":[],"categories_nodes":[],"categories_segments":[],"categories_sizes":[],"default_left":[1,1,1,1,1,1,0,1,1,0,0,0,0,0,0,0,0],"id":30,"left_children":[1,3,5,7,9,11,-1,13,15,-1,-1,-1,-1,-1,-1,-1,-1],"loss_changes":[5.3347815E-2,2.1173446E-2,1.142019E-2,1.949279E-2,4.0512905E-4,8.7238103E-4,0E0,1.5131757E-2,2.9715784E-3,0E0,0E0,0E0,0E0,0E0,0E0,0E0,0E0],"parents":[2147483647,0,0,1,1,2,2,3,3,4,4,5,5,7,7,8,8],"right_children":[2,4,6,8,10,12,-1,14,16,-1,-1,-1,-1,-1,-1,-1,-1],"split_conditions":[2.9921818E1,1.1944914E4,1.7810186E4,1.1304445E4,2.799615E1,4.9023193E3,-1.4310598E-4,8.897511E3,2.4462118E1,-5.800708E-4,-1.3840757E-4,2.2531814E-4,9.114736E-4,1.6632992E-5,-4.202977E-4,1.6744695E-4,1.0628033E-3],"split_indices":[0,2,2,2,0,2,0,2,0,0,0,0,0,0,0,0,0],"split_type":[0,0,0,0,0,0,0,0,0,0,0,0,0,0,0,0,0],"sum_hessian":[8.92E2,8.83E2,9E0,8.77E2,6E0,8E0,1E0,8.75E2,2E0,5E0,1E0,1E0,7E0,8.68E2,7E0,1E0,1E0],"tree_param":{"num_deleted":"0","num_feature":"4","num_nodes":"17","size_leaf_vector":"0"}},{"base_weights":[1.9137379E-3,1.0970691E-3,7.3915884E-2,1.5290368E-3,-5.3240746E-2,8.5292995E-2,-1.4239043E-2,1.2530531E-3,8.1606604E-2,-5.7523686E-2,-1.3771556E-2,2.2419155E-2,9.034982E-2,1.6466865E-3,-4.1662008E-2,1.6660973E-2,1.0574893E-1],"categories":[],"categories_nodes":[],"categories_segments":[],"categories_sizes":[],"default_left":[1,1,1,1,1,1,0,1,1,0,0,0,0,0,0,0,0],"id":31,"left_children":[1,3,5,7,9,11,-1,13,15,-1,-1,-1,-1,-1,-1,-1,-1],"loss_changes":[5.2429006E-2,2.0830814E-2,1.1243969E-2,1.9301634E-2,3.9111823E-4,8.359179E-4,0E0,1.48667E-2,2.9419363E-3,0E0,0E0,0E0,0E0,0E0,0E0,0E0,0E0],"parents":[2147483647,0,0,1,1,2,2,3,3,4,4,5,5,7,7,8,8],"right_children":[2,4,6,8,10,12,-1,14,16,-1,-1,-1,-1,-1,-1,-1,-1],"split_conditions":[2.9921818E1,1.1944914E4,1.7810186E4,1.1304445E4,2.799615E1,4.9023193E3,-1.4239043E-4,8.897511E3,2.4462118E1,-5.7523686E-4,-1.3771556E-4,2.2419154E-4,9.034982E-4,1.6466864E-5,-4.1662005E-4,1.6660974E-4,1.0574893E-3],"split_indices":[0,2,2,2,0,2,0,2,0,0,0,0,0,0,0,0,0],"split_type":[0,0,0,0,0,0,0,0,0,0,0,0,0,0,0,0,0],"sum_hessian":[8.92E2,8.83E2,9E0,8.77E2,6E0,8E0,1E0,8.75E2,2E0,5E0,1E0,1E0,7E0,8.68E2,7E0,1E0,1E0],"tree_param":{"num_deleted":"0","num_feature":"4","num_nodes":"17","size_leaf_vector":"0"}},{"base_weights":[1.895829E-3,1.0862248E-3,7.327526E-2,1.5146857E-3,-5.281019E-2,8.4565364E-2,-1.4167845E-2,1.2400666E-3,8.1198566E-2,-5.7044324E-2,-1.3702698E-2,2.230706E-2,8.955927E-2,1.6302394E-3,-4.129747E-2,1.6577668E-2,1.05220184E-1],"categories":[],"categories_nodes":[],"categories_segments":[],"categories_sizes":[],"default_left":[1,1,1,1,1,1,0,1,1,0,0,0,0,0,0,0,0],"id":32,"left_children":[1,3,5,7,9,11,-1,13,15,-1,-1,-1,-1,-1,-1,-1,-1],"loss_changes":[5.1526066E-2,2.0493766E-2,1.1070527E-2,1.9112334E-2,3.774427E-4,8.00401E-4,0E0,1.460629E-2,2.9125903E-3,0E0,0E0,0E0,0E0,0E0,0E0,0E0,0E0],"parents":[2147483647,0,0,1,1,2,2,3,3,4,4,5,5,7,7,8,8],"right_children":[2,4,6,8,10,12,-1,14,16,-1,-1,-1,-1,-1,-1,-1,-1],"split_conditions":[2.9921818E1,1.1944914E4,1.7810186E4,1.1304445E4,2.799615E1,4.9023193E3,-1.4167845E-4,8.897511E3,2.4462118E1,-5.704432E-4,-1.3702697E-4,2.230706E-4,8.955927E-4,1.6302394E-5,-4.1297468E-4,1.6577668E-4,1.0522018E-3],"split_indices":[0,2,2,2,0,2,0,2,0,0,0,0,0,0,0,0,0],"split_type":[0,0,0,0,0,0,0,0,0,0,0,0,0,0,0,0,0],"sum_hessian":[8.92E2,8.83E2,9E0,8.77E2,6E0,8E0,1E0,8.75E2,2E0,5E0,1E0,1E0,7E0,8.68E2,7E0,1E0,1E0],"tree_param":{"num_deleted":"0","num_feature":"4","num_nodes":"17","size_leaf_vector":"0"}},{"base_weights":[1.8780928E-3,1.0754918E-3,7.264021E-2,1.5004748E-3,-5.238315E-2,8.384401E-2,-1.4097005E-2,1.2272135E-3,8.0792576E-2,-5.656895E-2,-1.36341825E-2,2.2195525E-2,8.8775635E-2,1.6139563E-3,-4.093612E-2,1.649478E-2,1.0469408E-1],"categories":[],"categories_nodes":[],"categories_segments":[],"categories_sizes":[],"default_left":[1,1,1,1,1,1,0,1,1,0,0,0,0,0,0,0,0],"id":33,"left_children":[1,3,5,7,9,11,-1,13,15,-1,-1,-1,-1,-1,-1,-1,-1],"loss_changes":[5.063869E-2,2.0162206E-2,1.0899812E-2,1.8924873E-2,3.6409497E-4,7.658154E-4,0E0,1.4350442E-2,2.8835349E-3,0E0,0E0,0E0,0E0,0E0,0E0,0E0,0E0],"parents":[2147483647,0,0,1,1,2,2,3,3,4,4,5,5,7,7,8,8],"right_children":[2,4,6,8,10,12,-1,14,16,-1,-1,-1,-1,-1,-1,-1,-1],"split_conditions":[2.9921818E1,1.1944914E4,1.7810186E4,1.1304445E4,2.799615E1,4.9023193E3,-1.4097005E-4,8.897511E3,2.4462118E1,-5.6568946E-4,-1.3634183E-4,2.2195526E-4,8.8775635E-4,1.6139562E-5,-4.0936118E-4,1.649478E-4,1.0469408E-3],"split_indices":[0,2,2,2,0,2,0,2,0,0,0,0,0,0,0,0,0],"split_type":[0,0,0,0,0,0,0,0,0,0,0,0,0,0,0,0,0],"sum_hessian":[8.92E2,8.83E2,9E0,8.77E2,6E0,8E0,1E0,8.75E2,2E0,5E0,1E0,1E0,7E0,8.68E2,7E0,1E0,1E0],"tree_param":{"num_deleted":"0","num_feature":"4","num_nodes":"17","size_leaf_vector":"0"}},{"base_weights":[1.8605286E-3,1.0648702E-3,7.201068E-2,1.4864038E-3,-5.195961E-2,8.312888E-2,-1.4026523E-2,1.2144939E-3,8.038861E-2,-5.6097545E-2,-1.356601E-2,2.208455E-2,8.799885E-2,1.5978366E-3,-4.0577926E-2,1.641231E-2,1.0417061E-1],"categories":[],"categories_nodes":[],"categories_segments":[],"categories_sizes":[],"default_left":[1,1,1,1,1,1,0,1,1,0,0,0,0,0,0,0,0],"id":34,"left_children":[1,3,5,7,9,11,-1,13,15,-1,-1,-1,-1,-1,-1,-1,-1],"loss_changes":[4.976662E-2,1.9836048E-2,1.0731794E-2,1.8739235E-2,3.5107136E-4,7.3213875E-4,0E0,1.4099076E-2,2.854772E-3,0E0,0E0,0E0,0E0,0E0,0E0,0E0,0E0],"parents":[2147483647,0,0,1,1,2,2,3,3,4,4,5,5,7,7,8,8],"right_children":[2,4,6,8,10,12,-1,14,16,-1,-1,-1,-1,-1,-1,-1,-1],"split_conditions":[2.9921818E1,1.1944914E4,1.7810186E4,1.1304445E4,2.799615E1,4.9023193E3,-1.4026523E-4,8.897511E3,2.4462118E1,-5.6097546E-4,-1.356601E-4,2.2084548E-4,8.799885E-4,1.5978365E-5,-4.0577925E-4,1.641231E-4,1.0417061E-3],"split_indices":[0,2,2,2,0,2,0,2,0,0,0,0,0,0,0,0,0],"split_type":[0,0,0,0,0,0,0,0,0,0,0,0,0,0,0,0,0],"sum_hessian":[8.92E2,8.83E2,9E0,8.77E2,6E0,8E0,1E0,8.75E2,2E0,5E0,1E0,1E0,7E0,8.68E2,7E0,1E0,1E0],"tree_param":{"num_deleted":"0","num_feature":"4","num_nodes":"17","size_leaf_vector":"0"}},{"base_weights":[1.8431321E-3,1.054356E-3,7.138663E-2,1.4724687E-3,-5.153954E-2,8.2419895E-2,-1.3956383E-2,1.2019034E-3,7.998668E-2,-5.563007E-2,-1.349818E-2,2.1974124E-2,8.722885E-2,1.5818762E-3,-4.022287E-2,1.633025E-2,1.03649765E-1],"categories":[],"categories_nodes":[],"categories_segments":[],"categories_sizes":[],"default_left":[1,1,1,1,1,1,0,1,1,0,0,0,0,0,0,0,0],"id":35,"left_children":[1,3,5,7,9,11,-1,13,15,-1,-1,-1,-1,-1,-1,-1,-1],"loss_changes":[4.8909575E-2,1.9515203E-2,1.056641E-2,1.8555405E-2,3.3836253E-4,6.993525E-4,0E0,1.3852114E-2,2.826294E-3,0E0,0E0,0E0,0E0,0E0,0E0,0E0,0E0],"parents":[2147483647,0,0,1,1,2,2,3,3,4,4,5,5,7,7,8,8],"right_children":[2,4,6,8,10,12,-1,14,16,-1,-1,-1,-1,-1,-1,-1,-1],"split_conditions":[2.9921818E1,1.1944914E4,1.7810186E4,1.1304445E4,2.799615E1,4.9023193E3,-1.3956382E-4,8.897511E3,2.4462118E1,-5.563007E-4,-1.3498179E-4,2.1974124E-4,8.722885E-4,1.5818761E-5,-4.0222867E-4,1.633025E-4,1.0364976E-3],"split_indices":[0,2,2,2,0,2,0,2,0,0,0,0,0,0,0,0,0],"split_type":[0,0,0,0,0,0,0,0,0,0,0,0,0,0,0,0,0],"sum_hessian":[8.92E2,8.83E2,9E0,8.77E2,6E0,8E0,1E0,8.75E2,2E0,5E0,1E0,1E0,7E0,8.68E2,7E0,1E0,1E0],"tree_param":{"num_deleted":"0","num_feature":"4","num_nodes":"17","size_leaf_vector":"0"}},{"base_weights":[1.8259046E-3,1.043951E-3,7.076801E-2,1.4586708E-3,-5.11229E-2,8.171704E-2,-1.3886601E-2,1.1894437E-3,7.9586744E-2,-5.5166487E-2,-1.3430692E-2,2.186425E-2,8.64656E-2,1.5660761E-3,-3.9870914E-2,1.6248599E-2,1.0313152E-1],"categories":[],"categories_nodes":[],"categories_segments":[],"categories_sizes":[],"default_left":[1,1,1,1,1,1,0,1,1,0,0,0,0,0,0,0,0],"id":36,"left_children":[1,3,5,7,9,11,-1,13,15,-1,-1,-1,-1,-1,-1,-1,-1],"loss_changes":[4.806733E-2,1.9199584E-2,1.0403626E-2,1.8373355E-2,3.259573E-4,6.6742674E-4,0E0,1.3609478E-2,2.7981047E-3,0E0,0E0,0E0,0E0,0E0,0E0,0E0,0E0],"parents":[2147483647,0,0,1,1,2,2,3,3,4,4,5,5,7,7,8,8],"right_children":[2,4,6,8,10,12,-1,14,16,-1,-1,-1,-1,-1,-1,-1,-1],"split_conditions":[2.9921818E1,1.1944914E4,1.7810186E4,1.1304445E4,2.799615E1,4.9023193E3,-1.38866E-4,8.897511E3,2.4462118E1,-5.5166485E-4,-1.3430692E-4,2.186425E-4,8.6465594E-4,1.566076E-5,-3.9870912E-4,1.6248599E-4,1.0313152E-3],"split_indices":[0,2,2,2,0,2,0,2,0,0,0,0,0,0,0,0,0],"split_type":[0,0,0,0,0,0,0,0,0,0,0,0,0,0,0,0,0],"sum_hessian":[8.92E2,8.83E2,9E0,8.77E2,6E0,8E0,1E0,8.75E2,2E0,5E0,1E0,1E0,7E0,8.68E2,7E0,1E0,1E0],"tree_param":{"num_deleted":"0","num_feature":"4","num_nodes":"17","size_leaf_vector":"0"}},{"base_weights":[1.8088426E-3,1.0336523E-3,7.015478E-2,1.4450072E-3,-5.070966E-2,8.102023E-2,-1.3817161E-2,1.1771118E-3,7.9188816E-2,-5.4706763E-2,-1.3363533E-2,2.1754928E-2,8.570903E-2,1.550433E-3,-3.9522048E-2,1.6167358E-2,1.0261586E-1],"categories":[],"categories_nodes":[],"categories_segments":[],"categories_sizes":[],"default_left":[1,1,1,1,1,1,0,1,1,0,0,0,0,0,0,0,0],"id":37,"left_children":[1,3,5,7,9,11,-1,13,15,-1,-1,-1,-1,-1,-1,-1,-1],"loss_changes":[4.723961E-2,1.8889096E-2,1.0243401E-2,1.8193077E-2,3.1385757E-4,6.363541E-4,0E0,1.3371098E-2,2.770193E-3,0E0,0E0,0E0,0E0,0E0,0E0,0E0,0E0],"parents":[2147483647,0,0,1,1,2,2,3,3,4,4,5,5,7,7,8,8],"right_children":[2,4,6,8,10,12,-1,14,16,-1,-1,-1,-1,-1,-1,-1,-1],"split_conditions":[2.9921818E1,1.1944914E4,1.7810186E4,1.1304445E4,2.799615E1,4.9023193E3,-1.3817161E-4,8.897511E3,2.4462118E1,-5.470676E-4,-1.3363533E-4,2.1754927E-4,8.570903E-4,1.5504329E-5,-3.9522047E-4,1.6167357E-4,1.0261586E-3],"split_indices":[0,2,2,2,0,2,0,2,0,0,0,0,0,0,0,0,0],"split_type":[0,0,0,0,0,0,0,0,0,0,0,0,0,0,0,0,0],"sum_hessian":[8.92E2,8.83E2,9E0,8.77E2,6E0,8E0,1E0,8.75E2,2E0,5E0,1E0,1E0,7E0,8.68E2,7E0,1E0,1E0],"tree_param":{"num_deleted":"0","num_feature":"4","num_nodes":"17","size_leaf_vector":"0"}},{"base_weights":[1.7919458E-3,1.0234602E-3,6.954688E-2,1.4314777E-3,-5.0299805E-2,8.032944E-2,-1.374808E-2,1.1649074E-3,7.879287E-2,-5.425087E-2,-1.3296716E-2,2.1646157E-2,8.4959075E-2,1.5349467E-3,-3.917623E-2,1.6086519E-2,1.0210279E-1],"categories":[],"categories_nodes":[],"categories_segments":[],"categories_sizes":[],"default_left":[1,1,1,1,1,1,0,1,1,0,0,0,0,0,0,0,0],"id":38,"left_children":[1,3,5,7,9,11,-1,13,15,-1,-1,-1,-1,-1,-1,-1,-1],"loss_changes":[4.6426162E-2,1.8583665E-2,1.0085706E-2,1.8014554E-2,3.0205026E-4,6.0610473E-4,0E0,1.31368935E-2,2.7425624E-3,0E0,0E0,0E0,0E0,0E0,0E0,0E0,0E0],"parents":[2147483647,0,0,1,1,2,2,3,3,4,4,5,5,7,7,8,8],"right_children":[2,4,6,8,10,12,-1,14,16,-1,-1,-1,-1,-1,-1,-1,-1],"split_conditions":[2.9921818E1,1.1944914E4,1.7810186E4,1.1304445E4,2.799615E1,4.9023193E3,-1.3748079E-4,8.897511E3,2.4462118E1,-5.425087E-4,-1.3296715E-4,2.1646156E-4,8.4959075E-4,1.5349468E-5,-3.917623E-4,1.6086518E-4,1.0210278E-3],"split_indices":[0,2,2,2,0,2,0,2,0,0,0,0,0,0,0,0,0],"split_type":[0,0,0,0,0,0,0,0,0,0,0,0,0,0,0,0,0],"sum_hessian":[8.92E2,8.83E2,9E0,8.77E2,6E0,8E0,1E0,8.75E2,2E0,5E0,1E0,1E0,7E0,8.68E2,7E0,1E0,1E0],"tree_param":{"num_deleted":"0","num_feature":"4","num_nodes":"17","size_leaf_vector":"0"}},{"base_weights":[1.7752127E-3,1.0133737E-3,6.894426E-2,1.4180815E-3,-4.98933E-2,7.964459E-2,-1.36793405E-2,1.1528296E-3,7.8398906E-2,-5.3798776E-2,-1.3230227E-2,2.153793E-2,8.421568E-2,1.519616E-3,-3.883344E-2,1.600609E-2,1.0159227E-1],"categories":[],"categories_nodes":[],"categories_segments":[],"categories_sizes":[],"default_left":[1,1,1,1,1,1,0,1,1,0,0,0,0,0,0,0,0],"id":39,"left_children":[1,3,5,7,9,11,-1,13,15,-1,-1,-1,-1,-1,-1,-1,-1],"loss_changes":[4.562673E-2,1.8283205E-2,9.930484E-3,1.7837767E-2,2.9053725E-4,5.7666376E-4,0E0,1.29067935E-2,2.715202E-3,0E0,0E0,0E0,0E0,0E0,0E0,0E0,0E0],"parents":[2147483647,0,0,1,1,2,2,3,3,4,4,5,5,7,7,8,8],"right_children":[2,4,6,8,10,12,-1,14,16,-1,-1,-1,-1,-1,-1,-1,-1],"split_conditions":[2.9921818E1,1.1944914E4,1.7810186E4,1.1304445E4,2.799615E1,4.9023193E3,-1.367934E-4,8.897511E3,2.4462118E1,-5.3798774E-4,-1.3230227E-4,2.1537929E-4,8.4215676E-4,1.5196159E-5,-3.883344E-4,1.600609E-4,1.0159228E-3],"split_indices":[0,2,2,2,0,2,0,2,0,0,0,0,0,0,0,0,0],"split_type":[0,0,0,0,0,0,0,0,0,0,0,0,0,0,0,0,0],"sum_hessian":[8.92E2,8.83E2,9E0,8.77E2,6E0,8E0,1E0,8.75E2,2E0,5E0,1E0,1E0,7E0,8.68E2,7E0,1E0,1E0],"tree_param":{"num_deleted":"0","num_feature":"4","num_nodes":"17","size_leaf_vector":"0"}},{"base_weights":[1.7586392E-3,1.003389E-3,6.8346895E-2,1.4048141E-3,-4.949012E-2,7.896565E-2,-1.3610944E-2,1.1408745E-3,7.800691E-2,-5.335045E-2,-1.3164081E-2,2.143024E-2,8.347879E-2,1.5044364E-3,-3.849365E-2,1.5926056E-2,1.0108431E-1],"categories":[],"categories_nodes":[],"categories_segments":[],"categories_sizes":[],"default_left":[1,1,1,1,1,1,0,1,1,0,0,0,0,0,0,0,0],"id":40,"left_children":[1,3,5,7,9,11,-1,13,15,-1,-1,-1,-1,-1,-1,-1,-1],"loss_changes":[4.48411E-2,1.7987639E-2,9.777702E-3,1.7662695E-2,2.7930364E-4,5.4802E-4,0E0,1.2680723E-2,2.6881192E-3,0E0,0E0,0E0,0E0,0E0,0E0,0E0,0E0],"parents":[2147483647,0,0,1,1,2,2,3,3,4,4,5,5,7,7,8,8],"right_children":[2,4,6,8,10,12,-1,14,16,-1,-1,-1,-1,-1,-1,-1,-1],"split_conditions":[2.9921818E1,1.1944914E4,1.7810186E4,1.1304445E4,2.799615E1,4.9023193E3,-1.3610943E-4,8.897511E3,2.4462118E1,-5.3350447E-4,-1.316408E-4,2.1430239E-4,8.347879E-4,1.5044363E-5,-3.849365E-4,1.5926055E-4,1.0108431E-3],"split_indices":[0,2,2,2,0,2,0,2,0,0,0,0,0,0,0,0,0],"split_type":[0,0,0,0,0,0,0,0,0,0,0,0,0,0,0,0,0],"sum_hessian":[8.92E2,8.83E2,9E0,8.77E2,6E0,8E0,1E0,8.75E2,2E0,5E0,1E0,1E0,7E0,8.68E2,7E0,1E0,1E0],"tree_param":{"num_deleted":"0","num_feature":"4","num_nodes":"17","size_leaf_vector":"0"}},{"base_weights":[1.7422272E-3,9.935087E-4,6.7754716E-2,1.3916781E-3,-4.9090244E-2,7.829255E-2,-1.3542891E-2,1.1290443E-3,7.761688E-2,-5.2905865E-2,-1.3098262E-2,2.1323085E-2,8.274835E-2,1.4894102E-3,-3.815683E-2,1.5846424E-2,1.0057889E-1],"categories":[],"categories_nodes":[],"categories_segments":[],"categories_sizes":[],"default_left":[1,1,1,1,1,1,0,1,1,0,0,0,0,0,0,0,0],"id":41,"left_children":[1,3,5,7,9,11,-1,13,15,-1,-1,-1,-1,-1,-1,-1,-1],"loss_changes":[4.4069003E-2,1.7696887E-2,9.627312E-3,1.7489329E-2,2.6834756E-4,5.201511E-4,0E0,1.2458615E-2,2.6613064E-3,0E0,0E0,0E0,0E0,0E0,0E0,0E0,0E0],"parents":[2147483647,0,0,1,1,2,2,3,3,4,4,5,5,7,7,8,8],"right_children":[2,4,6,8,10,12,-1,14,16,-1,-1,-1,-1,-1,-1,-1,-1],"split_conditions":[2.9921818E1,1.1944914E4,1.7810186E4,1.1304445E4,2.799615E1,4.9023193E3,-1.354289E-4,8.897511E3,2.4462118E1,-5.290586E-4,-1.3098262E-4,2.1323084E-4,8.2748354E-4,1.4894102E-5,-3.815683E-4,1.5846423E-4,1.0057889E-3],"split_indices":[0,2,2,2,0,2,0,2,0,0,0,0,0,0,0,0,0],"split_type":[0,0,0,0,0,0,0,0,0,0,0,0,0,0,0,0,0],"sum_hessian":[8.92E2,8.83E2,9E0,8.77E2,6E0,8E0,1E0,8.75E2,2E0,5E0,1E0,1E0,7E0,8.68E2,7E0,1E0,1E0],"tree_param":{"num_deleted":"0","num_feature":"4","num_nodes":"17","size_leaf_vector":"0"}},{"base_weights":[1.7259725E-3,9.83729E-4,6.71677E-2,1.3786696E-3,-4.8693635E-2,7.762526E-2,-1.347518E-2,1.117335E-3,7.722879E-2,-5.246498E-2,-1.3032772E-2,2.1216467E-2,8.20243E-2,1.474533E-3,-3.7822954E-2,1.5767194E-2,1.0007599E-1],"categories":[],"categories_nodes":[],"categories_segments":[],"categories_sizes":[],"default_left":[1,1,1,1,1,1,0,1,1,0,0,0,0,0,0,0,0],"id":42,"left_children":[1,3,5,7,9,11,-1,13,15,-1,-1,-1,-1,-1,-1,-1,-1],"loss_changes":[4.3310232E-2,1.7410863E-2,9.479292E-3,1.7317649E-2,2.5766343E-4,4.930347E-4,0E0,1.2240397E-2,2.6347581E-3,0E0,0E0,0E0,0E0,0E0,0E0,0E0,0E0],"parents":[2147483647,0,0,1,1,2,2,3,3,4,4,5,5,7,7,8,8],"right_children":[2,4,6,8,10,12,-1,14,16,-1,-1,-1,-1,-1,-1,-1,-1],"split_conditions":[2.9921818E1,1.1944914E4,1.7810186E4,1.1304445E4,2.799615E1,4.9023193E3,-1.347518E-4,8.897511E3,2.4462118E1,-5.246498E-4,-1.3032771E-4,2.1216467E-4,8.20243E-4,1.4745329E-5,-3.7822954E-4,1.5767194E-4,1.0007599E-3],"split_indices":[0,2,2,2,0,2,0,2,0,0,0,0,0,0,0,0,0],"split_type":[0,0,0,0,0,0,0,0,0,0,0,0,0,0,0,0,0],"sum_hessian":[8.92E2,8.83E2,9E0,8.77E2,6E0,8E0,1E0,8.75E2,2E0,5E0,1E0,1E0,7E0,8.68E2,7E0,1E0,1E0],"tree_param":{"num_deleted":"0","num_feature":"4","num_nodes":"17","size_leaf_vector":"0"}},{"base_weights":[1.7098747E-3,9.7405014E-4,6.658578E-2,1.3657884E-3,-4.8300266E-2,7.6963715E-2,-1.3407797E-2,1.1057468E-3,7.684264E-2,-5.2027773E-2,-1.2967609E-2,2.1110386E-2,8.130658E-2,1.4598047E-3,-3.7492003E-2,1.568836E-2,9.957561E-2],"categories":[],"categories_nodes":[],"categories_segments":[],"categories_sizes":[],"default_left":[1,1,1,1,1,1,0,1,1,0,0,0,0,0,0,0,0],"id":43,"left_children":[1,3,5,7,9,11,-1,13,15,-1,-1,-1,-1,-1,-1,-1,-1],"loss_changes":[4.256454E-2,1.7129496E-2,9.333592E-3,1.7147638E-2,2.472438E-4,4.6665967E-4,0E0,1.2026003E-2,2.6084762E-3,0E0,0E0,0E0,0E0,0E0,0E0,0E0,0E0],"parents":[2147483647,0,0,1,1,2,2,3,3,4,4,5,5,7,7,8,8],"right_children":[2,4,6,8,10,12,-1,14,16,-1,-1,-1,-1,-1,-1,-1,-1],"split_conditions":[2.9921818E1,1.1944914E4,1.7810186E4,1.1304445E4,2.799615E1,4.9023193E3,-1.3407796E-4,8.897511E3,2.4462118E1,-5.202777E-4,-1.2967609E-4,2.1110385E-4,8.1306574E-4,1.4598047E-5,-3.7492003E-4,1.5688359E-4,9.95756E-4],"split_indices":[0,2,2,2,0,2,0,2,0,0,0,0,0,0,0,0,0],"split_type":[0,0,0,0,0,0,0,0,0,0,0,0,0,0,0,0,0],"sum_hessian":[8.92E2,8.83E2,9E0,8.77E2,6E0,8E0,1E0,8.75E2,2E0,5E0,1E0,1E0,7E0,8.68E2,7E0,1E0,1E0],"tree_param":{"num_deleted":"0","num_feature":"4","num_nodes":"17","size_leaf_vector":"0"}},{"base_weights":[1.693932E-3,9.6447056E-4,6.600893E-2,1.3530328E-3,-4.7910113E-2,7.630787E-2,-1.3340756E-2,1.094278E-3,7.645843E-2,-5.159421E-2,-1.2902774E-2,2.1004833E-2,8.059515E-2,1.4452233E-3,-3.7163954E-2,1.560992E-2,9.907773E-2],"categories":[],"categories_nodes":[],"categories_segments":[],"categories_sizes":[],"default_left":[1,1,1,1,1,1,0,1,1,0,0,0,0,0,0,0,0],"id":44,"left_children":[1,3,5,7,9,11,-1,13,15,-1,-1,-1,-1,-1,-1,-1,-1],"loss_changes":[4.1831713E-2,1.6852705E-2,9.190179E-3,1.6979286E-2,2.3708493E-4,4.4100732E-4,0E0,1.1815369E-2,2.582455E-3,0E0,0E0,0E0,0E0,0E0,0E0,0E0,0E0],"parents":[2147483647,0,0,1,1,2,2,3,3,4,4,5,5,7,7,8,8],"right_children":[2,4,6,8,10,12,-1,14,16,-1,-1,-1,-1,-1,-1,-1,-1],"split_conditions":[2.9921818E1,1.1944914E4,1.7810186E4,1.1304445E4,2.799615E1,4.9023193E3,-1.3340756E-4,8.897511E3,2.4462118E1,-5.1594205E-4,-1.2902774E-4,2.1004833E-4,8.059515E-4,1.4452233E-5,-3.7163953E-4,1.560992E-4,9.907773E-4],"split_indices":[0,2,2,2,0,2,0,2,0,0,0,0,0,0,0,0,0],"split_type":[0,0,0,0,0,0,0,0,0,0,0,0,0,0,0,0,0],"sum_hessian":[8.92E2,8.83E2,9E0,8.77E2,6E0,8E0,1E0,8.75E2,2E0,5E0,1E0,1E0,7E0,8.68E2,7E0,1E0,1E0],"tree_param":{"num_deleted":"0","num_feature":"4","num_nodes":"17","size_leaf_vector":"0"}},{"base_weights":[1.678143E-3,9.5498946E-4,6.543711E-2,1.3404018E-3,-4.7523156E-2,7.565769E-2,-1.3274059E-2,1.0829273E-3,7.607614E-2,-5.116426E-2,-1.2838267E-2,2.089981E-2,7.9889946E-2,1.4307877E-3,-3.683877E-2,1.5531868E-2,9.858234E-2],"categories":[],"categories_nodes":[],"categories_segments":[],"categories_sizes":[],"default_left":[1,1,1,1,1,1,0,1,1,0,0,0,0,0,0,0,0],"id":45,"left_children":[1,3,5,7,9,11,-1,13,15,-1,-1,-1,-1,-1,-1,-1,-1],"loss_changes":[4.1111525E-2,1.6580421E-2,9.049024E-3,1.6812569E-2,2.2717752E-4,4.1605905E-4,0E0,1.1608424E-2,2.5566965E-3,0E0,0E0,0E0,0E0,0E0,0E0,0E0,0E0],"parents":[2147483647,0,0,1,1,2,2,3,3,4,4,5,5,7,7,8,8],"right_children":[2,4,6,8,10,12,-1,14,16,-1,-1,-1,-1,-1,-1,-1,-1],"split_conditions":[2.9921818E1,1.1944914E4,1.7810186E4,1.1304445E4,2.799615E1,4.9023193E3,-1.3274058E-4,8.897511E3,2.4462118E1,-5.1164255E-4,-1.2838267E-4,2.089981E-4,7.9889945E-4,1.4307877E-5,-3.683877E-4,1.5531867E-4,9.858235E-4],"split_indices":[0,2,2,2,0,2,0,2,0,0,0,0,0,0,0,0,0],"split_type":[0,0,0,0,0,0,0,0,0,0,0,0,0,0,0,0,0],"sum_hessian":[8.92E2,8.83E2,9E0,8.77E2,6E0,8E0,1E0,8.75E2,2E0,5E0,1E0,1E0,7E0,8.68E2,7E0,1E0,1E0],"tree_param":{"num_deleted":"0","num_feature":"4","num_nodes":"17","size_leaf_vector":"0"}},{"base_weights":[1.6625071E-3,9.456068E-4,6.4870246E-2,1.3278951E-3,-4.7139354E-2,7.501309E-2,-1.3207689E-2,1.0716948E-3,7.569576E-2,-5.0737888E-2,-1.2774073E-2,2.0795308E-2,7.91909E-2,1.4164972E-3,-3.6516435E-2,1.545421E-2,9.808943E-2],"categories":[],"categories_nodes":[],"categories_segments":[],"categories_sizes":[],"default_left":[1,1,1,1,1,1,0,1,1,0,0,0,0,0,0,0,0],"id":46,"left_children":[1,3,5,7,9,11,-1,13,15,-1,-1,-1,-1,-1,-1,-1,-1],"loss_changes":[4.0403742E-2,1.6312564E-2,8.910075E-3,1.6647473E-2,2.1752343E-4,3.9180368E-4,0E0,1.1405105E-2,2.5311932E-3,0E0,0E0,0E0,0E0,0E0,0E0,0E0,0E0],"parents":[2147483647,0,0,1,1,2,2,3,3,4,4,5,5,7,7,8,8],"right_children":[2,4,6,8,10,12,-1,14,16,-1,-1,-1,-1,-1,-1,-1,-1],"split_conditions":[2.9921818E1,1.1944914E4,1.7810186E4,1.1304445E4,2.799615E1,4.9023193E3,-1.320769E-4,8.897511E3,2.4462118E1,-5.073789E-4,-1.2774073E-4,2.0795308E-4,7.91909E-4,1.4164972E-5,-3.6516433E-4,1.545421E-4,9.808942E-4],"split_indices":[0,2,2,2,0,2,0,2,0,0,0,0,0,0,0,0,0],"split_type":[0,0,0,0,0,0,0,0,0,0,0,0,0,0,0,0,0],"sum_hessian":[8.92E2,8.83E2,9E0,8.77E2,6E0,8E0,1E0,8.75E2,2E0,5E0,1E0,1E0,7E0,8.68E2,7E0,1E0,1E0],"tree_param":{"num_deleted":"0","num_feature":"4","num_nodes":"17","size_leaf_vector":"0"}},{"base_weights":[1.6470217E-3,9.3632034E-4,6.430832E-2,1.3155102E-3,-4.675869E-2,7.437406E-2,-1.3141647E-2,1.0605778E-3,7.5317286E-2,-5.0315067E-2,-1.2710206E-2,2.0691335E-2,7.849798E-2,1.4023492E-3,-3.619691E-2,1.537694E-2,9.7598985E-2],"categories":[],"categories_nodes":[],"categories_segments":[],"categories_sizes":[],"default_left":[1,1,1,1,1,1,0,1,1,0,0,0,0,0,0,0,0],"id":47,"left_children":[1,3,5,7,9,11,-1,13,15,-1,-1,-1,-1,-1,-1,-1,-1],"loss_changes":[3.9708182E-2,1.6049065E-2,8.773308E-3,1.6483989E-2,2.0811148E-4,3.6821887E-4,0E0,1.1205345E-2,2.505945E-3,0E0,0E0,0E0,0E0,0E0,0E0,0E0,0E0],"parents":[2147483647,0,0,1,1,2,2,3,3,4,4,5,5,7,7,8,8],"right_children":[2,4,6,8,10,12,-1,14,16,-1,-1,-1,-1,-1,-1,-1,-1],"split_conditions":[2.9921818E1,1.1944914E4,1.7810186E4,1.1304445E4,2.799615E1,4.9023193E3,-1.3141647E-4,8.897511E3,2.4462118E1,-5.031507E-4,-1.2710206E-4,2.0691335E-4,7.8497984E-4,1.40234915E-5,-3.6196908E-4,1.537694E-4,9.7598985E-4],"split_indices":[0,2,2,2,0,2,0,2,0,0,0,0,0,0,0,0,0],"split_type":[0,0,0,0,0,0,0,0,0,0,0,0,0,0,0,0,0],"sum_hessian":[8.92E2,8.83E2,9E0,8.77E2,6E0,8E0,1E0,8.75E2,2E0,5E0,1E0,1E0,7E0,8.68E2,7E0,1E0,1E0],"tree_param":{"num_deleted":"0","num_feature":"4","num_nodes":"17","size_leaf_vector":"0"}},{"base_weights":[1.631686E-3,9.271298E-4,6.375128E-2,1.3032468E-3,-4.6381135E-2,7.374052E-2,-1.3075933E-2,8.158678E-4,3.9643407E-2,-4.9895775E-2,-1.2646653E-2,2.0587876E-2,7.781112E-2,1.4971704E-3,-1.167767E-2,6.2383663E-2,-1.5747957E-2],"categories":[],"categories_nodes":[],"categories_segments":[],"categories_sizes":[],"default_left":[1,1,1,1,1,1,0,1,1,0,0,0,0,0,0,0,0],"id":48,"left_children":[1,3,5,7,9,11,-1,13,15,-1,-1,-1,-1,-1,-1,-1,-1],"loss_changes":[3.90246E-2,1.5789848E-2,8.638676E-3,1.637413E-2,1.9893702E-4,3.4530088E-4,0E0,7.405795E-3,1.4838168E-2,0E0,0E0,0E0,0E0,0E0,0E0,0E0,0E0],"parents":[2147483647,0,0,1,1,2,2,3,3,4,4,5,5,7,7,8,8],"right_children":[2,4,6,8,10,12,-1,14,16,-1,-1,-1,-1,-1,-1,-1,-1],"split_conditions":[2.9921818E1,1.1944914E4,1.7810186E4,2.5161278E1,2.799615E1,4.9023193E3,-1.3075932E-4,7.341801E1,2.6923998E1,-4.9895776E-4,-1.2646652E-4,2.0587876E-4,7.781112E-4,1.4971704E-5,-1.167767E-4,6.238366E-4,-1.5747956E-4],"split_indices":[0,2,2,0,0,2,0,3,0,0,0,0,0,0,0,0,0],"split_type":[0,0,0,0,0,0,0,0,0,0,0,0,0,0,0,0,0],"sum_hessian":[8.92E2,8.83E2,9E0,8.77E2,6E0,8E0,1E0,8.67E2,1E1,5E0,1E0,1E0,7E0,8.23E2,4.4E1,7E0,3E0],"tree_param":{"num_deleted":"0","num_feature":"4","num_nodes":"17","size_leaf_vector":"0"}},{"base_weights":[1.6160335E-3,9.1756444E-4,6.3199095E-2,1.2906307E-3,-4.6006672E-2,7.311245E-2,-1.3010547E-2,1.0375099E-3,7.477168E-2,-4.947998E-2,-1.2583412E-2,2.048494E-2,7.713027E-2,1.3760913E-3,-3.5870586E-2,1.5358448E-2,9.6799076E-2],"categories":[],"categories_nodes":[],"categories_segments":[],"categories_sizes":[],"default_left":[1,1,1,1,1,1,0,1,1,0,0,0,0,0,0,0,0],"id":49,"left_children":[1,3,5,7,9,11,-1,13,15,-1,-1,-1,-1,-1,-1,-1,-1],"loss_changes":[3.835339E-2,1.5534546E-2,8.506164E-3,1.6252855E-2,1.8999819E-4,3.2302365E-4,0E0,1.0996204E-2,2.439471E-3,0E0,0E0,0E0,0E0,0E0,0E0,0E0,0E0],"parents":[2147483647,0,0,1,1,2,2,3,3,4,4,5,5,7,7,8,8],"right_children":[2,4,6,8,10,12,-1,14,16,-1,-1,-1,-1,-1,-1,-1,-1],"split_conditions":[2.9921818E1,1.1944914E4,1.7810186E4,1.1304445E4,2.799615E1,4.9023193E3,-1.3010546E-4,8.897511E3,2.4462118E1,-4.947998E-4,-1.2583412E-4,2.0484939E-4,7.7130273E-4,1.3760912E-5,-3.5870585E-4,1.5358448E-4,9.679907E-4],"split_indices":[0,2,2,2,0,2,0,2,0,0,0,0,0,0,0,0,0],"split_type":[0,0,0,0,0,0,0,0,0,0,0,0,0,0,0,0,0],"sum_hessian":[8.92E2,8.83E2,9E0,8.77E2,6E0,8E0,1E0,8.75E2,2E0,5E0,1E0,1E0,7E0,8.68E2,7E0,1E0,1E0],"tree_param":{"num_deleted":"0","num_feature":"4","num_nodes":"17","size_leaf_vector":"0"}},{"base_weights":[1.6009954E-3,9.085655E-4,6.265171E-2,1.278609E-3,-4.5635276E-2,7.248978E-2,-1.2945488E-2,1.0267412E-3,7.4397825E-2,-4.9067654E-2,-1.25204995E-2,2.0382516E-2,7.645538E-2,1.3623465E-3,-3.5556722E-2,1.5281655E-2,9.6315086E-2],"categories":[],"categories_nodes":[],"categories_segments":[],"categories_sizes":[],"default_left":[1,1,1,1,1,1,0,1,1,0,0,0,0,0,0,0,0],"id":50,"left_children":[1,3,5,7,9,11,-1,13,15,-1,-1,-1,-1,-1,-1,-1,-1],"loss_changes":[3.7693173E-2,1.5283704E-2,8.375727E-3,1.6093198E-2,1.812866E-4,3.0137226E-4,0E0,1.080362E-2,2.4151392E-3,0E0,0E0,0E0,0E0,0E0,0E0,0E0,0E0],"parents":[2147483647,0,0,1,1,2,2,3,3,4,4,5,5,7,7,8,8],"right_children":[2,4,6,8,10,12,-1,14,16,-1,-1,-1,-1,-1,-1,-1,-1],"split_conditions":[2.9921818E1,1.1944914E4,1.7810186E4,1.1304445E4,2.799615E1,4.9023193E3,-1.2945487E-4,8.897511E3,2.4462118E1,-4.9067655E-4,-1.25205E-4,2.0382516E-4,7.645537E-4,1.3623464E-5,-3.5556723E-4,1.5281654E-4,9.631508E-4],"split_indices":[0,2,2,2,0,2,0,2,0,0,0,0,0,0,0,0,0],"split_type":[0,0,0,0,0,0,0,0,0,0,0,0,0,0,0,0,0],"sum_hessian":[8.92E2,8.83E2,9E0,8.77E2,6E0,8E0,1E0,8.75E2,2E0,5E0,1E0,1E0,7E0,8.68E2,7E0,1E0,1E0],"tree_param":{"num_deleted":"0","num_feature":"4","num_nodes":"17","size_leaf_vector":"0"}},{"base_weights":[1.5861011E-3,8.996577E-4,6.2109087E-2,1.2667036E-3,-4.5266904E-2,7.187249E-2,-1.2880757E-2,7.8504445E-4,3.9158832E-2,-4.8658755E-2,-1.24579E-2,2.0280607E-2,7.57864E-2,1.4548656E-3,-1.1497569E-2,6.166859E-2,-1.5650386E-2],"categories":[],"categories_nodes":[],"categories_segments":[],"categories_sizes":[],"default_left":[1,1,1,1,1,1,0,1,1,0,0,0,0,0,0,0,0],"id":51,"left_children":[1,3,5,7,9,11,-1,13,15,-1,-1,-1,-1,-1,-1,-1,-1],"loss_changes":[3.7044346E-2,1.5036936E-2,8.247331E-3,1.5993716E-2,1.7279666E-4,2.8033927E-4,0E0,7.1578976E-3,1.4536299E-2,0E0,0E0,0E0,0E0,0E0,0E0,0E0,0E0],"parents":[2147483647,0,0,1,1,2,2,3,3,4,4,5,5,7,7,8,8],"right_children":[2,4,6,8,10,12,-1,14,16,-1,-1,-1,-1,-1,-1,-1,-1],"split_conditions":[2.9921818E1,1.1944914E4,1.7810186E4,2.5161278E1,2.799615E1,4.9023193E3,-1.2880757E-4,7.341801E1,2.6923998E1,-4.8658752E-4,-1.2457899E-4,2.0280607E-4,7.57864E-4,1.4548656E-5,-1.1497569E-4,6.166859E-4,-1.5650385E-4],"split_indices":[0,2,2,0,0,2,0,3,0,0,0,0,0,0,0,0,0],"split_type":[0,0,0,0,0,0,0,0,0,0,0,0,0,0,0,0,0],"sum_hessian":[8.92E2,8.83E2,9E0,8.77E2,6E0,8E0,1E0,8.67E2,1E1,5E0,1E0,1E0,7E0,8.23E2,4.4E1,7E0,3E0],"tree_param":{"num_deleted":"0","num_feature":"4","num_nodes":"17","size_leaf_vector":"0"}},{"base_weights":[1.5708901E-3,8.9037674E-4,6.157118E-2,1.2544463E-3,-4.4901546E-2,7.12605E-2,-1.2816355E-2,1.0043699E-3,7.38586E-2,-4.8253268E-2,-1.2395613E-2,2.0179205E-2,7.5123265E-2,1.3368466E-3,-3.523645E-2,1.5262738E-2,9.552516E-2],"categories":[],"categories_nodes":[],"categories_segments":[],"categories_sizes":[],"default_left":[1,1,1,1,1,1,0,1,1,0,0,0,0,0,0,0,0],"id":52,"left_children":[1,3,5,7,9,11,-1,13,15,-1,-1,-1,-1,-1,-1,-1,-1],"loss_changes":[3.640726E-2,1.4793887E-2,8.12095E-3,1.5867297E-2,1.6452558E-4,2.5990605E-4,0E0,1.0602228E-2,2.3507383E-3,0E0,0E0,0E0,0E0,0E0,0E0,0E0,0E0],"parents":[2147483647,0,0,1,1,2,2,3,3,4,4,5,5,7,7,8,8],"right_children":[2,4,6,8,10,12,-1,14,16,-1,-1,-1,-1,-1,-1,-1,-1],"split_conditions":[2.9921818E1,1.1944914E4,1.7810186E4,1.1304445E4,2.799615E1,4.9023193E3,-1.2816355E-4,8.897511E3,2.4462118E1,-4.8253266E-4,-1.2395612E-4,2.0179205E-4,7.512326E-4,1.3368466E-5,-3.523645E-4,1.5262737E-4,9.5525157E-4],"split_indices":[0,2,2,2,0,2,0,2,0,0,0,0,0,0,0,0,0],"split_type":[0,0,0,0,0,0,0,0,0,0,0,0,0,0,0,0,0],"sum_hessian":[8.92E2,8.83E2,9E0,8.77E2,6E0,8E0,1E0,8.75E2,2E0,5E0,1E0,1E0,7E0,8.68E2,7E0,1E0,1E0],"tree_param":{"num_deleted":"0","num_feature":"4","num_nodes":"17","size_leaf_vector":"0"}},{"base_weights":[1.5562869E-3,8.816569E-4,6.1037958E-2,1.2427778E-3,-4.4539176E-2,7.065379E-2,-1.275228E-2,9.939395E-4,7.34893E-2,-4.785116E-2,-1.2333639E-2,2.0078309E-2,7.446594E-2,1.3234938E-3,-3.492813E-2,1.5186422E-2,9.504753E-2],"categories":[],"categories_nodes":[],"categories_segments":[],"categories_sizes":[],"default_left":[1,1,1,1,1,1,0,1,1,0,0,0,0,0,0,0,0],"id":53,"left_children":[1,3,5,7,9,11,-1,13,15,-1,-1,-1,-1,-1,-1,-1,-1],"loss_changes":[3.57806E-2,1.4555085E-2,7.9965405E-3,1.5711378E-2,1.5647057E-4,2.4006143E-4,0E0,1.0416553E-2,2.3272894E-3,0E0,0E0,0E0,0E0,0E0,0E0,0E0,0E0],"parents":[2147483647,0,0,1,1,2,2,3,3,4,4,5,5,7,7,8,8],"right_children":[2,4,6,8,10,12,-1,14,16,-1,-1,-1,-1,-1,-1,-1,-1],"split_conditions":[2.9921818E1,1.1944914E4,1.7810186E4,1.1304445E4,2.799615E1,4.9023193E3,-1.275228E-4,8.897511E3,2.4462118E1,-4.785116E-4,-1.2333639E-4,2.0078308E-4,7.4465934E-4,1.3234938E-5,-3.492813E-4,1.5186421E-4,9.5047534E-4],"split_indices":[0,2,2,2,0,2,0,2,0,0,0,0,0,0,0,0,0],"split_type":[0,0,0,0,0,0,0,0,0,0,0,0,0,0,0,0,0],"sum_hessian":[8.92E2,8.83E2,9E0,8.77E2,6E0,8E0,1E0,8.75E2,2E0,5E0,1E0,1E0,7E0,8.68E2,7E0,1E0,1E0],"tree_param":{"num_deleted":"0","num_feature":"4","num_nodes":"17","size_leaf_vector":"0"}},{"base_weights":[1.5418249E-3,8.7302714E-4,6.0509365E-2,1.2312237E-3,-4.417977E-2,7.0052296E-2,-1.2688518E-2,7.552205E-4,3.868027E-2,-4.7452405E-2,-1.2271978E-2,1.997792E-2,7.3814355E-2,1.4137643E-3,-1.13202315E-2,6.0961854E-2,-1.5552962E-2],"categories":[],"categories_nodes":[],"categories_segments":[],"categories_sizes":[],"default_left":[1,1,1,1,1,1,0,1,1,0,0,0,0,0,0,0,0],"id":54,"left_children":[1,3,5,7,9,11,-1,13,15,-1,-1,-1,-1,-1,-1,-1,-1],"loss_changes":[3.5164732E-2,1.43201705E-2,7.8740865E-3,1.5621897E-2,1.4862325E-4,2.2078305E-4,0E0,6.918526E-3,1.4240563E-2,0E0,0E0,0E0,0E0,0E0,0E0,0E0,0E0],"parents":[2147483647,0,0,1,1,2,2,3,3,4,4,5,5,7,7,8,8],"right_children":[2,4,6,8,10,12,-1,14,16,-1,-1,-1,-1,-1,-1,-1,-1],"split_conditions":[2.9921818E1,1.1944914E4,1.7810186E4,2.5161278E1,2.799615E1,4.9023193E3,-1.2688518E-4,7.341801E1,2.6923998E1,-4.7452404E-4,-1.2271978E-4,1.997792E-4,7.381435E-4,1.4137643E-5,-1.1320231E-4,6.096185E-4,-1.5552962E-4],"split_indices":[0,2,2,0,0,2,0,3,0,0,0,0,0,0,0,0,0],"split_type":[0,0,0,0,0,0,0,0,0,0,0,0,0,0,0,0,0],"sum_hessian":[8.92E2,8.83E2,9E0,8.77E2,6E0,8E0,1E0,8.67E2,1E1,5E0,1E0,1E0,7E0,8.23E2,4.4E1,7E0,3E0],"tree_param":{"num_deleted":"0","num_feature":"4","num_nodes":"17","size_leaf_vector":"0"}},{"base_weights":[1.5270424E-3,8.6402165E-4,5.9985377E-2,1.2193145E-3,-4.382329E-2,6.945599E-2,-1.2625068E-2,9.722477E-4,7.295639E-2,-4.7056966E-2,-1.2210615E-2,1.987803E-2,7.316848E-2,1.2987336E-3,-3.4613814E-2,1.5167095E-2,9.426749E-2],"categories":[],"categories_nodes":[],"categories_segments":[],"categories_sizes":[],"default_left":[1,1,1,1,1,1,0,1,1,0,0,0,0,0,0,0,0],"id":55,"left_children":[1,3,5,7,9,11,-1,13,15,-1,-1,-1,-1,-1,-1,-1,-1],"loss_changes":[3.456004E-2,1.4088777E-2,7.75354E-3,1.5490608E-2,1.4098175E-4,2.0207465E-4,0E0,1.0222626E-2,2.2648964E-3,0E0,0E0,0E0,0E0,0E0,0E0,0E0,0E0],"parents":[2147483647,0,0,1,1,2,2,3,3,4,4,5,5,7,7,8,8],"right_children":[2,4,6,8,10,12,-1,14,16,-1,-1,-1,-1,-1,-1,-1,-1],"split_conditions":[2.9921818E1,1.1944914E4,1.7810186E4,1.1304445E4,2.799615E1,4.9023193E3,-1.2625068E-4,8.897511E3,2.4462118E1,-4.7056965E-4,-1.2210615E-4,1.987803E-4,7.316848E-4,1.2987336E-5,-3.4613814E-4,1.5167095E-4,9.426749E-4],"split_indices":[0,2,2,2,0,2,0,2,0,0,0,0,0,0,0,0,0],"split_type":[0,0,0,0,0,0,0,0,0,0,0,0,0,0,0,0,0],"sum_hessian":[8.92E2,8.83E2,9E0,8.77E2,6E0,8E0,1E0,8.75E2,2E0,5E0,1E0,1E0,7E0,8.68E2,7E0,1E0,1E0],"tree_param":{"num_deleted":"0","num_feature":"4","num_nodes":"17","size_leaf_vector":"0"}},{"base_weights":[1.5128615E-3,8.555722E-4,5.9465945E-2,1.2079885E-3,-4.346973E-2,6.8864815E-2,-1.2561947E-2,9.6214504E-4,7.259161E-2,-4.666483E-2,-1.2149565E-2,1.977864E-2,7.252826E-2,1.2857614E-3,-3.4310944E-2,1.5091263E-2,9.379615E-2],"categories":[],"categories_nodes":[],"categories_segments":[],"categories_sizes":[],"default_left":[1,1,1,1,1,1,0,1,1,0,0,0,0,0,0,0,0],"id":56,"left_children":[1,3,5,7,9,11,-1,13,15,-1,-1,-1,-1,-1,-1,-1,-1],"loss_changes":[3.3965223E-2,1.3861439E-2,7.6348856E-3,1.533835E-2,1.3353955E-4,1.8391013E-4,0E0,1.004361E-2,2.2423025E-3,0E0,0E0,0E0,0E0,0E0,0E0,0E0,0E0],"parents":[2147483647,0,0,1,1,2,2,3,3,4,4,5,5,7,7,8,8],"right_children":[2,4,6,8,10,12,-1,14,16,-1,-1,-1,-1,-1,-1,-1,-1],"split_conditions":[2.9921818E1,1.1944914E4,1.7810186E4,1.1304445E4,2.799615E1,4.9023193E3,-1.2561947E-4,8.897511E3,2.4462118E1,-4.666483E-4,-1.2149565E-4,1.9778639E-4,7.252826E-4,1.2857613E-5,-3.4310942E-4,1.5091263E-4,9.3796145E-4],"split_indices":[0,2,2,2,0,2,0,2,0,0,0,0,0,0,0,0,0],"split_type":[0,0,0,0,0,0,0,0,0,0,0,0,0,0,0,0,0],"sum_hessian":[8.92E2,8.83E2,9E0,8.77E2,6E0,8E0,1E0,8.75E2,2E0,5E0,1E0,1E0,7E0,8.68E2,7E0,1E0,1E0],"tree_param":{"num_deleted":"0","num_feature":"4","num_nodes":"17","size_leaf_vector":"0"}},{"base_weights":[1.4988167E-3,8.472091E-4,5.8951035E-2,1.1967724E-3,-4.3119054E-2,6.827874E-2,-1.2499139E-2,7.26362E-4,3.820764E-2,-4.627596E-2,-1.2088813E-2,1.9679748E-2,7.189365E-2,1.3738292E-3,-1.1145623E-2,6.0263354E-2,-1.5455699E-2],"categories":[],"categories_nodes":[],"categories_segments":[],"categories_sizes":[],"default_left":[1,1,1,1,1,1,0,1,1,0,0,0,0,0,0,0,0],"id":57,"left_children":[1,3,5,7,9,11,-1,13,15,-1,-1,-1,-1,-1,-1,-1,-1],"loss_changes":[3.338067E-2,1.3637796E-2,7.5180866E-3,1.5258491E-2,1.2629479E-4,1.6627833E-4,0E0,6.6873864E-3,1.3950828E-2,0E0,0E0,0E0,0E0,0E0,0E0,0E0,0E0],"parents":[2147483647,0,0,1,1,2,2,3,3,4,4,5,5,7,7,8,8],"right_children":[2,4,6,8,10,12,-1,14,16,-1,-1,-1,-1,-1,-1,-1,-1],"split_conditions":[2.9921818E1,1.1944914E4,1.7810186E4,2.5161278E1,2.799615E1,4.9023193E3,-1.2499139E-4,7.341801E1,2.6923998E1,-4.6275958E-4,-1.2088813E-4,1.9679747E-4,7.1893644E-4,1.3738292E-5,-1.1145623E-4,6.026335E-4,-1.5455698E-4],"split_indices":[0,2,2,0,0,2,0,3,0,0,0,0,0,0,0,0,0],"split_type":[0,0,0,0,0,0,0,0,0,0,0,0,0,0,0,0,0],"sum_hessian":[8.92E2,8.83E2,9E0,8.77E2,6E0,8E0,1E0,8.67E2,1E1,5E0,1E0,1E0,7E0,8.23E2,4.4E1,7E0,3E0],"tree_param":{"num_deleted":"0","num_feature":"4","num_nodes":"17","size_leaf_vector":"0"}},{"base_weights":[1.4844522E-3,8.384727E-4,5.8440592E-2,1.1852034E-3,-4.2771243E-2,6.769769E-2,-1.2436643E-2,9.4111165E-4,7.206492E-2,-4.5890328E-2,-1.2028374E-2,1.9581348E-2,7.1264565E-2,1.2617186E-3,-3.4002457E-2,1.5071534E-2,9.302585E-2],"categories":[],"categories_nodes":[],"categories_segments":[],"categories_sizes":[],"default_left":[1,1,1,1,1,1,0,1,1,0,0,0,0,0,0,0,0],"id":58,"left_children":[1,3,5,7,9,11,-1,13,15,-1,-1,-1,-1,-1,-1,-1,-1],"loss_changes":[3.28067E-2,1.3417503E-2,7.4031055E-3,1.51225915E-2,1.19241886E-4,1.491718E-4,0E0,9.856861E-3,2.1818615E-3,0E0,0E0,0E0,0E0,0E0,0E0,0E0,0E0],"parents":[2147483647,0,0,1,1,2,2,3,3,4,4,5,5,7,7,8,8],"right_children":[2,4,6,8,10,12,-1,14,16,-1,-1,-1,-1,-1,-1,-1,-1],"split_conditions":[2.9921818E1,1.1944914E4,1.7810186E4,1.1304445E4,2.799615E1,4.9023193E3,-1.2436643E-4,8.897511E3,2.4462118E1,-4.5890326E-4,-1.2028374E-4,1.9581347E-4,7.1264565E-4,1.2617185E-5,-3.4002456E-4,1.5071534E-4,9.302585E-4],"split_indices":[0,2,2,2,0,2,0,2,0,0,0,0,0,0,0,0,0],"split_type":[0,0,0,0,0,0,0,0,0,0,0,0,0,0,0,0,0],"sum_hessian":[8.92E2,8.83E2,9E0,8.77E2,6E0,8E0,1E0,8.75E2,2E0,5E0,1E0,1E0,7E0,8.68E2,7E0,1E0,1E0],"tree_param":{"num_deleted":"0","num_feature":"4","num_nodes":"17","size_leaf_vector":"0"}},{"base_weights":[1.4706817E-3,8.3028595E-4,5.79346E-2,1.1742103E-3,-4.2426277E-2,6.712166E-2,-1.2374461E-2,9.313275E-4,7.1704604E-2,-4.550791E-2,-1.1968233E-2,1.948344E-2,7.064101E-2,1.2491166E-3,-3.3704937E-2,1.4996178E-2,9.256072E-2],"categories":[],"categories_nodes":[],"categories_segments":[],"categories_sizes":[],"default_left":[1,1,1,1,1,1,0,1,1,0,0,0,0,0,0,0,0],"id":59,"left_children":[1,3,5,7,9,11,-1,13,15,-1,-1,-1,-1,-1,-1,-1,-1],"loss_changes":[3.2242116E-2,1.3201076E-2,7.289931E-3,1.4973906E-2,1.12376176E-4,1.325719E-4,0E0,9.684258E-3,2.1600975E-3,0E0,0E0,0E0,0E0,0E0,0E0,0E0,0E0],"parents":[2147483647,0,0,1,1,2,2,3,3,4,4,5,5,7,7,8,8],"right_children":[2,4,6,8,10,12,-1,14,16,-1,-1,-1,-1,-1,-1,-1,-1],"split_conditions":[2.9921818E1,1.1944914E4,1.7810186E4,1.1304445E4,2.799615E1,4.9023193E3,-1.237446E-4,8.897511E3,2.4462118E1,-4.550791E-4,-1.1968232E-4,1.9483439E-4,7.064101E-4,1.2491166E-5,-3.3704937E-4,1.4996178E-4,9.256072E-4],"split_indices":[0,2,2,2,0,2,0,2,0,0,0,0,0,0,0,0,0],"split_type":[0,0,0,0,0,0,0,0,0,0,0,0,0,0,0,0,0],"sum_hessian":[8.92E2,8.83E2,9E0,8.77E2,6E0,8E0,1E0,8.75E2,2E0,5E0,1E0,1E0,7E0,8.68E2,7E0,1E0,1E0],"tree_param":{"num_deleted":"0","num_feature":"4","num_nodes":"17","size_leaf_vector":"0"}},{"base_weights":[1.4570422E-3,8.2218164E-4,5.743301E-2,1.1633228E-3,-4.208412E-2,6.655058E-2,-1.2312591E-2,6.984421E-4,3.774088E-2,-4.5128677E-2,-1.190839E-2,1.9386023E-2,7.00229E-2,1.335029E-3,-1.0973692E-2,5.957301E-2,-1.535861E-2],"categories":[],"categories_nodes":[],"categories_segments":[],"categories_sizes":[],"default_left":[1,1,1,1,1,1,0,1,1,0,0,0,0,0,0,0,0],"id":60,"left_children":[1,3,5,7,9,11,-1,13,15,-1,-1,-1,-1,-1,-1,-1,-1],"loss_changes":[3.168726E-2,1.2988159E-2,7.1785226E-3,1.4903326E-2,1.05692074E-4,1.16467476E-4,0E0,6.4641745E-3,1.3666986E-2,0E0,0E0,0E0,0E0,0E0,0E0,0E0,0E0],"parents":[2147483647,0,0,1,1,2,2,3,3,4,4,5,5,7,7,8,8],"right_children":[2,4,6,8,10,12,-1,14,16,-1,-1,-1,-1,-1,-1,-1,-1],"split_conditions":[2.9921818E1,1.1944914E4,1.7810186E4,2.5161278E1,2.799615E1,4.9023193E3,-1.2312591E-4,7.341801E1,2.6923998E1,-4.5128676E-4,-1.19083896E-4,1.9386022E-4,7.00229E-4,1.335029E-5,-1.0973692E-4,5.957301E-4,-1.535861E-4],"split_indices":[0,2,2,0,0,2,0,3,0,0,0,0,0,0,0,0,0],"split_type":[0,0,0,0,0,0,0,0,0,0,0,0,0,0,0,0,0],"sum_hessian":[8.92E2,8.83E2,9E0,8.77E2,6E0,8E0,1E0,8.67E2,1E1,5E0,1E0,1E0,7E0,8.23E2,4.4E1,7E0,3E0],"tree_param":{"num_deleted":"0","num_feature":"4","num_nodes":"17","size_leaf_vector":"0"}},{"base_weights":[1.4430825E-3,8.137047E-4,5.693577E-2,1.1520823E-3,-4.174476E-2,6.598442E-2,-1.2251034E-2,9.1093156E-4,7.1184084E-2,-4.475261E-2,-1.1848845E-2,1.9289091E-2,6.94102E-2,1.2257693E-3,-3.3402186E-2,1.4976062E-2,9.1800064E-2],"categories":[],"categories_nodes":[],"categories_segments":[],"categories_sizes":[],"default_left":[1,1,1,1,1,1,0,1,1,0,0,0,0,0,0,0,0],"id":61,"left_children":[1,3,5,7,9,11,-1,13,15,-1,-1,-1,-1,-1,-1,-1,-1],"loss_changes":[3.1142466E-2,1.277843E-2,7.06885E-3,1.4763059E-2,9.918958E-5,1.0085106E-4,0E0,9.504428E-3,2.101547E-3,0E0,0E0,0E0,0E0,0E0,0E0,0E0,0E0],"parents":[2147483647,0,0,1,1,2,2,3,3,4,4,5,5,7,7,8,8],"right_children":[2,4,6,8,10,12,-1,14,16,-1,-1,-1,-1,-1,-1,-1,-1],"split_conditions":[2.9921818E1,1.1944914E4,1.7810186E4,1.1304445E4,2.799615E1,4.9023193E3,-1.2251035E-4,8.897511E3,2.4462118E1,-4.4752608E-4,-1.18488446E-4,1.928909E-4,6.9410197E-4,1.2257693E-5,-3.3402184E-4,1.4976061E-4,9.1800065E-4],"split_indices":[0,2,2,2,0,2,0,2,0,0,0,0,0,0,0,0,0],"split_type":[0,0,0,0,0,0,0,0,0,0,0,0,0,0,0,0,0],"sum_hessian":[8.92E2,8.83E2,9E0,8.77E2,6E0,8E0,1E0,8.75E2,2E0,5E0,1E0,1E0,7E0,8.68E2,7E0,1E0,1E0],"tree_param":{"num_deleted":"0","num_feature":"4","num_nodes":"17","size_leaf_vector":"0"}},{"base_weights":[1.4297101E-3,8.0577197E-4,5.6442864E-2,1.141412E-3,-4.1408174E-2,6.542313E-2,-1.2189776E-2,9.0145564E-4,7.082816E-2,-4.437967E-2,-1.1789598E-2,1.9192643E-2,6.880286E-2,1.2135265E-3,-3.3109915E-2,1.4901184E-2,9.134106E-2],"categories":[],"categories_nodes":[],"categories_segments":[],"categories_sizes":[],"default_left":[1,1,1,1,1,1,0,1,1,0,0,0,0,0,0,0,0],"id":62,"left_children":[1,3,5,7,9,11,-1,13,15,-1,-1,-1,-1,-1,-1,-1,-1],"loss_changes":[3.0606568E-2,1.2572382E-2,6.9608875E-3,1.4617868E-2,9.286124E-5,8.5707754E-5,0E0,9.338005E-3,2.080583E-3,0E0,0E0,0E0,0E0,0E0,0E0,0E0,0E0],"parents":[2147483647,0,0,1,1,2,2,3,3,4,4,5,5,7,7,8,8],"right_children":[2,4,6,8,10,12,-1,14,16,-1,-1,-1,-1,-1,-1,-1,-1],"split_conditions":[2.9921818E1,1.1944914E4,1.7810186E4,1.1304445E4,2.799615E1,4.9023193E3,-1.21897756E-4,8.897511E3,2.4462118E1,-4.4379669E-4,-1.1789597E-4,1.9192643E-4,6.8802864E-4,1.2135264E-5,-3.3109915E-4,1.4901183E-4,9.134106E-4],"split_indices":[0,2,2,2,0,2,0,2,0,0,0,0,0,0,0,0,0],"split_type":[0,0,0,0,0,0,0,0,0,0,0,0,0,0,0,0,0],"sum_hessian":[8.92E2,8.83E2,9E0,8.77E2,6E0,8E0,1E0,8.75E2,2E0,5E0,1E0,1E0,7E0,8.68E2,7E0,1E0,1E0],"tree_param":{"num_deleted":"0","num_feature":"4","num_nodes":"17","size_leaf_vector":"0"}},{"base_weights":[1.4164646E-3,7.97919E-4,5.5954248E-2,1.1308437E-3,-4.107433E-2,6.486668E-2,-1.212883E-2,6.714307E-4,3.7279896E-2,-4.4009835E-2,-1.1730649E-2,1.909668E-2,6.820084E-2,1.2973304E-3,-1.0804408E-2,5.8890715E-2,-1.5261715E-2],"categories":[],"categories_nodes":[],"categories_segments":[],"categories_sizes":[],"default_left":[1,1,1,1,1,1,0,1,1,0,0,0,0,0,0,0,0],"id":63,"left_children":[1,3,5,7,9,11,-1,13,15,-1,-1,-1,-1,-1,-1,-1,-1],"loss_changes":[3.0079909E-2,1.2369677E-2,6.8546124E-3,1.4556216E-2,8.670613E-5,7.1033835E-5,0E0,6.2486213E-3,1.3388913E-2,0E0,0E0,0E0,0E0,0E0,0E0,0E0,0E0],"parents":[2147483647,0,0,1,1,2,2,3,3,4,4,5,5,7,7,8,8],"right_children":[2,4,6,8,10,12,-1,14,16,-1,-1,-1,-1,-1,-1,-1,-1],"split_conditions":[2.9921818E1,1.1944914E4,1.7810186E4,2.5161278E1,2.799615E1,4.9023193E3,-1.212883E-4,7.341801E1,2.6923998E1,-4.4009835E-4,-1.1730648E-4,1.9096679E-4,6.820084E-4,1.29733035E-5,-1.0804408E-4,5.8890716E-4,-1.5261715E-4],"split_indices":[0,2,2,0,0,2,0,3,0,0,0,0,0,0,0,0,0],"split_type":[0,0,0,0,0,0,0,0,0,0,0,0,0,0,0,0,0],"sum_hessian":[8.92E2,8.83E2,9E0,8.77E2,6E0,8E0,1E0,8.67E2,1E1,5E0,1E0,1E0,7E0,8.23E2,4.4E1,7E0,3E0],"tree_param":{"num_deleted":"0","num_feature":"4","num_nodes":"17","size_leaf_vector":"0"}},{"base_weights":[1.4029009E-3,7.896965E-4,5.5469878E-2,1.1199252E-3,-4.074322E-2,6.431501E-2,-1.2068182E-2,8.8168157E-4,7.0313744E-2,-4.364309E-2,-1.1671998E-2,1.9001193E-2,6.7604095E-2,1.1908576E-3,-3.281278E-2,1.4880702E-2,9.058991E-2],"categories":[],"categories_nodes":[],"categories_segments":[],"categories_sizes":[],"default_left":[1,1,1,1,1,1,0,1,1,0,0,0,0,0,0,0,0],"id":64,"left_children":[1,3,5,7,9,11,-1,13,15,-1,-1,-1,-1,-1,-1,-1,-1],"loss_changes":[2.9562814E-2,1.2170005E-2,6.7500006E-3,1.441182E-2,8.071866E-5,5.680695E-5,0E0,9.164826E-3,2.0238673E-3,0E0,0E0,0E0,0E0,0E0,0E0,0E0,0E0],"parents":[2147483647,0,0,1,1,2,2,3,3,4,4,5,5,7,7,8,8],"right_children":[2,4,6,8,10,12,-1,14,16,-1,-1,-1,-1,-1,-1,-1,-1],"split_conditions":[2.9921818E1,1.1944914E4,1.7810186E4,1.1304445E4,2.799615E1,4.9023193E3,-1.2068182E-4,8.897511E3,2.4462118E1,-4.364309E-4,-1.1671997E-4,1.9001192E-4,6.7604095E-4,1.1908576E-5,-3.2812782E-4,1.4880701E-4,9.058991E-4],"split_indices":[0,2,2,2,0,2,0,2,0,0,0,0,0,0,0,0,0],"split_type":[0,0,0,0,0,0,0,0,0,0,0,0,0,0,0,0,0],"sum_hessian":[8.92E2,8.83E2,9E0,8.77E2,6E0,8E0,1E0,8.75E2,2E0,5E0,1E0,1E0,7E0,8.68E2,7E0,1E0,1E0],"tree_param":{"num_deleted":"0","num_feature":"4","num_nodes":"17","size_leaf_vector":"0"}},{"base_weights":[1.3899148E-3,7.820098E-4,5.4989718E-2,1.1095676E-3,-4.0414814E-2,6.3768096E-2,-1.2007847E-2,8.725044E-4,6.996217E-2,-4.3279402E-2,-1.1613645E-2,1.8906191E-2,6.701256E-2,1.1789635E-3,-3.2525674E-2,1.48063E-2,9.013696E-2],"categories":[],"categories_nodes":[],"categories_segments":[],"categories_sizes":[],"default_left":[1,1,1,1,1,1,0,1,1,0,0,0,0,0,0,0,0],"id":65,"left_children":[1,3,5,7,9,11,-1,13,15,-1,-1,-1,-1,-1,-1,-1,-1],"loss_changes":[2.9054139E-2,1.197384E-2,6.6470206E-3,1.4270043E-2,7.4893236E-5,4.3023378E-5,0E0,9.004359E-3,2.00368E-3,0E0,0E0,0E0,0E0,0E0,0E0,0E0,0E0],"parents":[2147483647,0,0,1,1,2,2,3,3,4,4,5,5,7,7,8,8],"right_children":[2,4,6,8,10,12,-1,14,16,-1,-1,-1,-1,-1,-1,-1,-1],"split_conditions":[2.9921818E1,1.1944914E4,1.7810186E4,1.1304445E4,2.799615E1,4.9023193E3,-1.2007847E-4,8.897511E3,2.4462118E1,-4.32794E-4,-1.1613644E-4,1.890619E-4,6.701256E-4,1.1789634E-5,-3.2525673E-4,1.48063E-4,9.0136955E-4],"split_indices":[0,2,2,2,0,2,0,2,0,0,0,0,0,0,0,0,0],"split_type":[0,0,0,0,0,0,0,0,0,0,0,0,0,0,0,0,0],"sum_hessian":[8.92E2,8.83E2,9E0,8.77E2,6E0,8E0,1E0,8.75E2,2E0,5E0,1E0,1E0,7E0,8.68E2,7E0,1E0,1E0],"tree_param":{"num_deleted":"0","num_feature":"4","num_nodes":"17","size_leaf_vector":"0"}},{"base_weights":[1.3770533E-3,7.74402E-4,5.451373E-2,1.0993109E-3,-4.0089086E-2,6.322588E-2,-1.1947811E-2,6.453042E-4,3.682463E-2,-4.291874E-2,-1.1555575E-2,1.8811658E-2,6.64262E-2,1.2607059E-3,-1.0637724E-2,5.8216378E-2,-1.5165029E-2],"categories":[],"categories_nodes":[],"categories_segments":[],"categories_sizes":[],"default_left":[1,1,1,1,1,1,0,1,1,0,0,0,0,0,0,0,0],"id":66,"left_children":[1,3,5,7,9,11,-1,13,15,-1,-1,-1,-1,-1,-1,-1,-1],"loss_changes":[2.8554223E-2,1.178086E-2,6.5456387E-3,1.4216986E-2,6.922893E-5,2.9671937E-5,0E0,6.040451E-3,1.31165E-2,0E0,0E0,0E0,0E0,0E0,0E0,0E0,0E0],"parents":[2147483647,0,0,1,1,2,2,3,3,4,4,5,5,7,7,8,8],"right_children":[2,4,6,8,10,12,-1,14,16,-1,-1,-1,-1,-1,-1,-1,-1],"split_conditions":[2.9921818E1,1.1944914E4,1.7810186E4,2.5161278E1,2.799615E1,4.9023193E3,-1.1947811E-4,7.341801E1,2.6923998E1,-4.291874E-4,-1.1555575E-4,1.8811658E-4,6.64262E-4,1.2607058E-5,-1.06377236E-4,5.8216375E-4,-1.5165028E-4],"split_indices":[0,2,2,0,0,2,0,3,0,0,0,0,0,0,0,0,0],"split_type":[0,0,0,0,0,0,0,0,0,0,0,0,0,0,0,0,0],"sum_hessian":[8.92E2,8.83E2,9E0,8.77E2,6E0,8E0,1E0,8.67E2,1E1,5E0,1E0,1E0,7E0,8.23E2,4.4E1,7E0,3E0],"tree_param":{"num_deleted":"0","num_feature":"4","num_nodes":"17","size_leaf_vector":"0"}},{"base_weights":[1.3638713E-3,7.664234E-4,5.404188E-2,1.0887021E-3,-3.976602E-2,6.268833E-2,-1.1888072E-2,8.5333234E-4,6.945377E-2,-4.2561088E-2,-1.1497803E-2,1.8717602E-2,6.584497E-2,1.1569523E-3,-3.2234058E-2,1.4785461E-2,8.9395195E-2],"categories":[],"categories_nodes":[],"categories_segments":[],"categories_sizes":[],"default_left":[1,1,1,1,1,1,0,1,1,0,0,0,0,0,0,0,0],"id":67,"left_children":[1,3,5,7,9,11,-1,13,15,-1,-1,-1,-1,-1,-1,-1,-1],"loss_changes":[2.8063405E-2,1.1590758E-2,6.4458437E-3,1.4068692E-2,6.372109E-5,1.673773E-5,0E0,8.837584E-3,1.9487441E-3,0E0,0E0,0E0,0E0,0E0,0E0,0E0,0E0],"parents":[2147483647,0,0,1,1,2,2,3,3,4,4,5,5,7,7,8,8],"right_children":[2,4,6,8,10,12,-1,14,16,-1,-1,-1,-1,-1,-1,-1,-1],"split_conditions":[2.9921818E1,1.1944914E4,1.7810186E4,1.1304445E4,2.799615E1,4.9023193E3,-1.18880715E-4,8.897511E3,2.4462118E1,-4.2561087E-4,-1.1497803E-4,1.8717602E-4,6.5844966E-4,1.1569523E-5,-3.2234058E-4,1.478546E-4,8.939519E-4],"split_indices":[0,2,2,2,0,2,0,2,0,0,0,0,0,0,0,0,0],"split_type":[0,0,0,0,0,0,0,0,0,0,0,0,0,0,0,0,0],"sum_hessian":[8.92E2,8.83E2,9E0,8.77E2,6E0,8E0,1E0,8.75E2,2E0,5E0,1E0,1E0,7E0,8.68E2,7E0,1E0,1E0],"tree_param":{"num_deleted":"0","num_feature":"4","num_nodes":"17","size_leaf_vector":"0"}},{"base_weights":[1.3512592E-3,7.589742E-4,5.3574134E-2,1.0786472E-3,-3.9445587E-2,6.21554E-2,-1.1828631E-2,8.444438E-4,6.9106504E-2,-4.2206414E-2,-1.1440314E-2,1.8624015E-2,6.526882E-2,1.1453957E-3,-3.195201E-2,1.47115365E-2,8.894822E-2],"categories":[],"categories_nodes":[],"categories_segments":[],"categories_sizes":[],"default_left":[1,1,1,1,1,1,0,1,1,0,0,0,0,0,0,0,0],"id":68,"left_children":[1,3,5,7,9,11,-1,13,15,-1,-1,-1,-1,-1,-1,-1,-1],"loss_changes":[2.7580569E-2,1.1403996E-2,6.3475985E-3,1.3930255E-2,5.836878E-5,4.2170286E-6,0E0,8.682853E-3,1.9293027E-3,0E0,0E0,0E0,0E0,0E0,0E0,0E0,0E0],"parents":[2147483647,0,0,1,1,2,2,3,3,4,4,5,5,7,7,8,8],"right_children":[2,4,6,8,10,12,-1,14,16,-1,-1,-1,-1,-1,-1,-1,-1],"split_conditions":[2.9921818E1,1.1944914E4,1.7810186E4,1.1304445E4,2.799615E1,4.9023193E3,-1.1828631E-4,8.897511E3,2.4462118E1,-4.2206413E-4,-1.1440314E-4,1.8624014E-4,6.526882E-4,1.1453956E-5,-3.1952007E-4,1.4711537E-4,8.8948215E-4],"split_indices":[0,2,2,2,0,2,0,2,0,0,0,0,0,0,0,0,0],"split_type":[0,0,0,0,0,0,0,0,0,0,0,0,0,0,0,0,0],"sum_hessian":[8.92E2,8.83E2,9E0,8.77E2,6E0,8E0,1E0,8.75E2,2E0,5E0,1E0,1E0,7E0,8.68E2,7E0,1E0,1E0],"tree_param":{"num_deleted":"0","num_feature":"4","num_nodes":"17","size_leaf_vector":"0"}},{"base_weights":[1.3387686E-3,7.516017E-4,5.311045E-2,1.0686906E-3,-3.912777E-2,6.1627056E-2,-1.1769488E-2,6.200291E-4,3.6375005E-2,-4.18547E-2,-1.1383109E-2,1.2251188E-3,-1.0473613E-2,5.7549905E-2,-1.50685515E-2],"categories":[],"categories_nodes":[],"categories_segments":[],"categories_sizes":[],"default_left":[1,1,1,1,1,0,0,1,1,0,0,0,0,0,0],"id":69,"left_children":[1,3,5,7,9,-1,-1,11,13,-1,-1,-1,-1,-1,-1],"loss_changes":[2.7106052E-2,1.1220265E-2,6.2508844E-3,1.3885476E-2,5.3167343E-5,0E0,0E0,5.839409E-3,1.2849627E-2,0E0,0E0,0E0,0E0,0E0,0E0],"parents":[2147483647,0,0,1,1,2,2,3,3,4,4,7,7,8,8],"right_children":[2,4,6,8,10,-1,-1,12,14,-1,-1,-1,-1,-1,-1],"split_conditions":[2.9921818E1,1.1944914E4,1.7810186E4,2.5161278E1,2.799615E1,6.162705E-4,-1.1769488E-4,7.341801E1,2.6923998E1,-4.1854696E-4,-1.1383108E-4,1.2251187E-5,-1.0473612E-4,5.75499E-4,-1.5068552E-4],"split_indices":[0,2,2,0,0,0,0,3,0,0,0,0,0,0,0],"split_type":[0,0,0,0,0,0,0,0,0,0,0,0,0,0,0],"sum_hessian":[8.92E2,8.83E2,9E0,8.77E2,6E0,8E0,1E0,8.67E2,1E1,5E0,1E0,8.23E2,4.4E1,7E0,3E0],"tree_param":{"num_deleted":"0","num_feature":"4","num_nodes":"15","size_leaf_vector":"0"}},{"base_weights":[1.3257157E-3,7.4385985E-4,5.26292E-2,1.0583826E-3,-3.8812548E-2,6.1079253E-2,-1.1710644E-2,8.258536E-4,6.8604045E-2,-4.150591E-2,-1.1326186E-2,1.8222764E-2,6.415847E-2,1.1240211E-3,-3.1665817E-2,1.4690347E-2,8.821572E-2],"categories":[],"categories_nodes":[],"categories_segments":[],"categories_sizes":[],"default_left":[1,1,1,1,1,1,0,1,1,0,0,0,0,0,0,0,0],"id":70,"left_children":[1,3,5,7,9,11,-1,13,15,-1,-1,-1,-1,-1,-1,-1,-1],"loss_changes":[2.6618002E-2,1.1039268E-2,6.15203E-3,1.3733495E-2,4.8112124E-5,1.853332E-5,0E0,8.522244E-3,1.8760944E-3,0E0,0E0,0E0,0E0,0E0,0E0,0E0,0E0],"parents":[2147483647,0,0,1,1,2,2,3,3,4,4,5,5,7,7,8,8],"right_children":[2,4,6,8,10,12,-1,14,16,-1,-1,-1,-1,-1,-1,-1,-1],"split_conditions":[2.9921818E1,1.1944914E4,1.7810186E4,1.1304445E4,2.799615E1,4.9023193E3,-1.17106436E-4,8.897511E3,2.4462118E1,-4.150591E-4,-1.1326186E-4,1.8222764E-4,6.415847E-4,1.1240211E-5,-3.1665817E-4,1.4690346E-4,8.8215724E-4],"split_indices":[0,2,2,2,0,2,0,2,0,0,0,0,0,0,0,0,0],"split_type":[0,0,0,0,0,0,0,0,0,0,0,0,0,0,0,0,0],"sum_hessian":[8.92E2,8.83E2,9E0,8.77E2,6E0,8E0,1E0,8.75E2,2E0,5E0,1E0,1E0,7E0,8.68E2,7E0,1E0,1E0],"tree_param":{"num_deleted":"0","num_feature":"4","num_nodes":"17","size_leaf_vector":"0"}},{"base_weights":[1.3134683E-3,7.3664193E-4,5.2173577E-2,1.0486228E-3,-3.84999E-2,6.0559995E-2,-1.1652097E-2,6.046055E-4,3.599029E-2,-4.1160032E-2,-1.1269562E-2,1.8131651E-2,6.359708E-2,1.2016558E-3,-1.0341486E-2,5.6968637E-2,-1.4963968E-2],"categories":[],"categories_nodes":[],"categories_segments":[],"categories_sizes":[],"default_left":[1,1,1,1,1,1,0,1,1,0,0,0,0,0,0,0,0],"id":71,"left_children":[1,3,5,7,9,11,-1,13,15,-1,-1,-1,-1,-1,-1,-1,-1],"loss_changes":[2.6159912E-2,1.0861458E-2,6.058341E-3,1.3600149E-2,4.3198466E-5,6.608665E-6,0E0,5.6851264E-3,1.2610773E-2,0E0,0E0,0E0,0E0,0E0,0E0,0E0,0E0],"parents":[2147483647,0,0,1,1,2,2,3,3,4,4,5,5,7,7,8,8],"right_children":[2,4,6,8,10,12,-1,14,16,-1,-1,-1,-1,-1,-1,-1,-1],"split_conditions":[2.9921818E1,1.1944914E4,1.7810186E4,2.5161278E1,2.799615E1,4.9023193E3,-1.1652097E-4,7.341801E1,2.6923998E1,-4.116003E-4,-1.1269562E-4,1.813165E-4,6.359708E-4,1.2016558E-5,-1.0341486E-4,5.6968635E-4,-1.4963967E-4],"split_indices":[0,2,2,0,0,2,0,3,0,0,0,0,0,0,0,0,0],"split_type":[0,0,0,0,0,0,0,0,0,0,0,0,0,0,0,0,0],"sum_hessian":[8.92E2,8.83E2,9E0,8.77E2,6E0,8E0,1E0,8.67E2,1E1,5E0,1E0,1E0,7E0,8.23E2,4.4E1,7E0,3E0],"tree_param":{"num_deleted":"0","num_feature":"4","num_nodes":"17","size_leaf_vector":"0"}},{"base_weights":[1.3008985E-3,7.2905346E-4,5.1721916E-2,1.0385101E-3,-3.8189802E-2,6.00452E-2,-1.1593834E-2,8.0764276E-4,6.81056E-2,-4.081703E-2,-1.1213221E-2,1.1030543E-3,-3.138239E-2,1.4668599E-2,8.74898E-2],"categories":[],"categories_nodes":[],"categories_segments":[],"categories_sizes":[],"default_left":[1,1,1,1,1,0,0,1,1,0,0,0,0,0,0],"id":72,"left_children":[1,3,5,7,9,-1,-1,11,13,-1,-1,-1,-1,-1,-1],"loss_changes":[2.571017E-2,1.068629E-2,5.9661083E-3,1.35395955E-2,3.842637E-5,0E0,0E0,8.364769E-3,1.824148E-3,0E0,0E0,0E0,0E0,0E0,0E0],"parents":[2147483647,0,0,1,1,2,2,3,3,4,4,7,7,8,8],"right_children":[2,4,6,8,10,-1,-1,12,14,-1,-1,-1,-1,-1,-1],"split_conditions":[2.9921818E1,1.1944914E4,1.7810186E4,1.1304445E4,2.799615E1,6.00452E-4,-1.1593833E-4,8.897511E3,2.4462118E1,-4.0817028E-4,-1.12132206E-4,1.1030543E-5,-3.138239E-4,1.4668598E-4,8.74898E-4],"split_indices":[0,2,2,2,0,0,0,2,0,0,0,0,0,0,0],"split_type":[0,0,0,0,0,0,0,0,0,0,0,0,0,0,0],"sum_hessian":[8.92E2,8.83E2,9E0,8.77E2,6E0,8E0,1E0,8.75E2,2E0,5E0,1E0,8.68E2,7E0,1E0,1E0],"tree_param":{"num_deleted":"0","num_feature":"4","num_nodes":"15","size_leaf_vector":"0"}},{"base_weights":[1.2886559E-3,7.21989E-4,5.125314E-2,1.0289452E-3,-3.788223E-2,5.951146E-2,-1.1535868E-2,7.9922227E-4,6.7765065E-2,-4.047689E-2,-1.1157148E-2,1.7740764E-2,6.25152E-2,1.092038E-3,-3.1107798E-2,1.4595255E-2,8.7052345E-2],"categories":[],"categories_nodes":[],"categories_segments":[],"categories_sizes":[],"default_left":[1,1,1,1,1,1,0,1,1,0,0,0,0,0,0,0,0],"id":73,"left_children":[1,3,5,7,9,11,-1,13,15,-1,-1,-1,-1,-1,-1,-1,-1],"loss_changes":[2.52467E-2,1.0514206E-2,5.8718342E-3,1.3406301E-2,3.3790246E-5,2.014637E-5,0E0,8.218333E-3,1.8059509E-3,0E0,0E0,0E0,0E0,0E0,0E0,0E0,0E0],"parents":[2147483647,0,0,1,1,2,2,3,3,4,4,5,5,7,7,8,8],"right_children":[2,4,6,8,10,12,-1,14,16,-1,-1,-1,-1,-1,-1,-1,-1],"split_conditions":[2.9921818E1,1.1944914E4,1.7810186E4,1.1304445E4,2.799615E1,4.9023193E3,-1.1535868E-4,8.897511E3,2.4462118E1,-4.0476889E-4,-1.1157148E-4,1.7740764E-4,6.2515197E-4,1.092038E-5,-3.1107798E-4,1.4595255E-4,8.7052345E-4],"split_indices":[0,2,2,2,0,2,0,2,0,0,0,0,0,0,0,0,0],"split_type":[0,0,0,0,0,0,0,0,0,0,0,0,0,0,0,0,0],"sum_hessian":[8.92E2,8.83E2,9E0,8.77E2,6E0,8E0,1E0,8.75E2,2E0,5E0,1E0,1E0,7E0,8.68E2,7E0,1E0,1E0],"tree_param":{"num_deleted":"0","num_feature":"4","num_nodes":"17","size_leaf_vector":"0"}},{"base_weights":[1.2767625E-3,7.149951E-4,5.0809324E-2,1.0194713E-3,-3.7577167E-2,5.9005514E-2,-1.1478186E-2,5.8068853E-4,3.5550743E-2,-4.0139575E-2,-1.1101358E-2,1.7652057E-2,6.196819E-2,1.1677302E-3,-1.01816E-2,5.6316372E-2,-1.4868198E-2],"categories":[],"categories_nodes":[],"categories_segments":[],"categories_sizes":[],"default_left":[1,1,1,1,1,1,0,1,1,0,0,0,0,0,0,0,0],"id":74,"left_children":[1,3,5,7,9,11,-1,13,15,-1,-1,-1,-1,-1,-1,-1,-1],"loss_changes":[2.4812091E-2,1.0344912E-2,5.7824813E-3,1.3282574E-2,2.9288232E-5,8.7842345E-6,0E0,5.495837E-3,1.2354114E-2,0E0,0E0,0E0,0E0,0E0,0E0,0E0,0E0],"parents":[2147483647,0,0,1,1,2,2,3,3,4,4,5,5,7,7,8,8],"right_children":[2,4,6,8,10,12,-1,14,16,-1,-1,-1,-1,-1,-1,-1,-1],"split_conditions":[2.9921818E1,1.1944914E4,1.7810186E4,2.5161278E1,2.799615E1,4.9023193E3,-1.14781855E-4,7.341801E1,2.6923998E1,-4.0139572E-4,-1.1101357E-4,1.7652057E-4,6.196819E-4,1.1677302E-5,-1.01816E-4,5.631637E-4,-1.4868198E-4],"split_indices":[0,2,2,0,0,2,0,3,0,0,0,0,0,0,0,0,0],"split_type":[0,0,0,0,0,0,0,0,0,0,0,0,0,0,0,0,0],"sum_hessian":[8.92E2,8.83E2,9E0,8.77E2,6E0,8E0,1E0,8.67E2,1E1,5E0,1E0,1E0,7E0,8.23E2,4.4E1,7E0,3E0],"tree_param":{"num_deleted":"0","num_feature":"4","num_nodes":"17","size_leaf_vector":"0"}},{"base_weights":[1.2645475E-3,7.0763245E-4,5.0369374E-2,1.0096461E-3,-3.72746E-2,5.8503926E-2,-1.1420801E-2,7.8156614E-4,6.7272455E-2,-3.980508E-2,-1.1045851E-2,1.0716789E-3,-3.0829638E-2,1.4573187E-2,8.6335495E-2],"categories":[],"categories_nodes":[],"categories_segments":[],"categories_sizes":[],"default_left":[1,1,1,1,1,0,0,1,1,0,0,0,0,0,0],"id":75,"left_children":[1,3,5,7,9,-1,-1,11,13,-1,-1,-1,-1,-1,-1],"loss_changes":[2.4385417E-2,1.0178133E-2,5.694518E-3,1.321683E-2,2.4918467E-5,0E0,0E0,8.066676E-3,1.7556418E-3,0E0,0E0,0E0,0E0,0E0,0E0],"parents":[2147483647,0,0,1,1,2,2,3,3,4,4,7,7,8,8],"right_children":[2,4,6,8,10,-1,-1,12,14,-1,-1,-1,-1,-1,-1],"split_conditions":[2.9921818E1,1.1944914E4,1.7810186E4,1.1304445E4,2.799615E1,5.8503926E-4,-1.1420801E-4,8.897511E3,2.4462118E1,-3.980508E-4,-1.104585E-4,1.0716789E-5,-3.0829638E-4,1.4573186E-4,8.6335494E-4],"split_indices":[0,2,2,2,0,0,0,2,0,0,0,0,0,0,0],"split_type":[0,0,0,0,0,0,0,0,0,0,0,0,0,0,0],"sum_hessian":[8.92E2,8.83E2,9E0,8.77E2,6E0,8E0,1E0,8.75E2,2E0,5E0,1E0,8.68E2,7E0,1E0,1E0],"tree_param":{"num_deleted":"0","num_feature":"4","num_nodes":"15","size_leaf_vector":"0"}},{"base_weights":[1.2526573E-3,7.0078654E-4,4.991276E-2,1.0003608E-3,-3.6974497E-2,5.798389E-2,-1.13637E-2,7.7341154E-4,6.69361E-2,-3.947337E-2,-1.0990627E-2,1.727128E-2,6.0914055E-2,1.0609754E-3,-3.055988E-2,1.450032E-2,8.590382E-2],"categories":[],"categories_nodes":[],"categories_segments":[],"categories_sizes":[],"default_left":[1,1,1,1,1,1,0,1,1,0,0,0,0,0,0,0,0],"id":76,"left_children":[1,3,5,7,9,11,-1,13,15,-1,-1,-1,-1,-1,-1,-1,-1],"loss_changes":[2.3945719E-2,1.0014294E-2,5.6046136E-3,1.3086682E-2,2.0675361E-5,2.1588057E-5,0E0,7.925464E-3,1.7381283E-3,0E0,0E0,0E0,0E0,0E0,0E0,0E0,0E0],"parents":[2147483647,0,0,1,1,2,2,3,3,4,4,5,5,7,7,8,8],"right_children":[2,4,6,8,10,12,-1,14,16,-1,-1,-1,-1,-1,-1,-1,-1],"split_conditions":[2.9921818E1,1.1944914E4,1.7810186E4,1.1304445E4,2.799615E1,4.9023193E3,-1.13637E-4,8.897511E3,2.4462118E1,-3.9473368E-4,-1.0990627E-4,1.727128E-4,6.0914055E-4,1.0609753E-5,-3.055988E-4,1.450032E-4,8.590382E-4],"split_indices":[0,2,2,2,0,2,0,2,0,0,0,0,0,0,0,0,0],"split_type":[0,0,0,0,0,0,0,0,0,0,0,0,0,0,0,0,0],"sum_hessian":[8.92E2,8.83E2,9E0,8.77E2,6E0,8E0,1E0,8.75E2,2E0,5E0,1E0,1E0,7E0,8.68E2,7E0,1E0,1E0],"tree_param":{"num_deleted":"0","num_feature":"4","num_nodes":"17","size_leaf_vector":"0"}}]},"name":"gbtree"},"learner_model_param":{"base_score":"5E-1","boost_from_average":"1","num_class":"0","num_feature":"4","num_target":"1"},"objective":{"name":"reg:squarederror","reg_loss_param":{"scale_pos_weight":"1"}}},"version":[1,7,6]}