{"learner":{"attributes":{"best_iteration":"287","best_ntree_limit":"288","scikit_learn":"{\"n_estimators\": 25, \"objective\": \"reg:squarederror\", \"max_depth\": 2, \"max_leaves\": null, \"max_bin\": null, \"grow_policy\": null, \"learning_rate\": 0.45000000000000007, \"verbosity\": null, \"booster\": null, \"tree_method\": null, \"gamma\": null, \"min_child_weight\": null, \"max_delta_step\": null, \"subsample\": null, \"sampling_method\": null, \"colsample_bytree\": null, \"colsample_bylevel\": null, \"colsample_bynode\": null, \"reg_alpha\": null, \"reg_lambda\": null, \"scale_pos_weight\": null, \"base_score\": null, \"missing\": NaN, \"num_parallel_tree\": null, \"random_state\": null, \"n_jobs\": null, \"monotone_constraints\": null, \"interaction_constraints\": null, \"importance_type\": null, \"gpu_id\": null, \"validate_parameters\": null, \"predictor\": null, \"enable_categorical\": false, \"feature_types\": null, \"max_cat_to_onehot\": null, \"max_cat_threshold\": null, \"eval_metric\": null, \"early_stopping_rounds\": null, \"callbacks\": null, \"_estimator_type\": \"regressor\"}"},"feature_names":[],"feature_types":[],"gradient_booster":{"model":{"gbtree_model_param":{"num_parallel_tree":"1","num_trees":"288","size_leaf_vector":"0"},"tree_info":[0,0,0,0,0,0,0,0,0,0,0,0,0,0,0,0,0,0,0,0,0,0,0,0,0,0,0,0,0,0,0,0,0,0,0,0,0,0,0,0,0,0,0,0,0,0,0,0,0,0,0,0,0,0,0,0,0,0,0,0,0,0,0,0,0,0,0,0,0,0,0,0,0,0,0,0,0,0,0,0,0,0,0,0,0,0,0,0,0,0,0,0,0,0,0,0,0,0,0,0,0,0,0,0,0,0,0,0,0,0,0,0,0,0,0,0,0,0,0,0,0,0,0,0,0,0,0,0,0,0,0,0,0,0,0,0,0,0,0,0,0,0,0,0,0,0,0,0,0,0,0,0,0,0,0,0,0,0,0,0,0,0,0,0,0,0,0,0,0,0,0,0,0,0,0,0,0,0,0,0,0,0,0,0,0,0,0,0,0,0,0,0,0,0,0,0,0,0,0,0,0,0,0,0,0,0,0,0,0,0,0,0,0,0,0,0,0,0,0,0,0,0,0,0,0,0,0,0,0,0,0,0,0,0,0,0,0,0,0,0,0,0,0,0,0,0,0,0,0,0,0,0,0,0,0,0,0,0,0,0,0,0,0,0,0,0,0,0,0,0,0,0,0,0,0,0,0,0,0,0,0,0,0,0,0,0,0,0],"trees":[{"base_weights":[-4.1863212E-1,-4.3759075E-1,-3.5375595E-1,-4.530834E-1,-4.137778E-1,-3.5908678E-1,-2.1148095E-2],"categories":[],"categories_nodes":[],"categories_segments":[],"categories_sizes":[],"default_left":[1,1,1,0,0,0,0],"id":0,"left_children":[1,3,5,-1,-1,-1,-1],"loss_changes":[1.519165E0,1.9955444E-1,5.473747E-1,0E0,0E0,0E0,0E0],"parents":[2147483647,0,0,1,1,2,2],"right_children":[2,4,6,-1,-1,-1,-1],"split_conditions":[3.6215043E0,3.9229885E1,3.649731E1,-2.0388752E-1,-1.8620001E-1,-1.6158904E-1,-9.516642E-3],"split_indices":[1,3,0,0,0,0,0],"split_type":[0,0,0,0,0,0,0],"sum_hessian":[1.36E3,1.048E3,3.12E2,6.24E2,4.24E2,3.07E2,5E0],"tree_param":{"num_deleted":"0","num_feature":"4","num_nodes":"7","size_leaf_vector":"0"}},{"base_weights":[-2.3066E-1,-2.3984736E-1,-1.6166426E-1,-2.6004702E-1,-2.2850136E-1,-1.844227E-1,-1.0157058E-1],"categories":[],"categories_nodes":[],"categories_segments":[],"categories_sizes":[],"default_left":[1,1,1,0,0,0,0],"id":1,"left_children":[1,3,5,-1,-1,-1,-1],"loss_changes":[8.239441E-1,2.1537781E-1,2.0419312E-1,0E0,0E0,0E0,0E0],"parents":[2147483647,0,0,1,1,2,2],"right_children":[2,4,6,-1,-1,-1,-1],"split_conditions":[5.6136795E1,2.5836763E0,4.362111E0,-1.1702116E-1,-1.0282561E-1,-8.2990214E-2,-4.5706756E-2],"split_indices":[3,1,1,0,0,0,0],"split_type":[0,0,0,0,0,0,0],"sum_hessian":[1.36E3,1.198E3,1.62E2,4.23E2,7.75E2,1.16E2,4.6E1],"tree_param":{"num_deleted":"0","num_feature":"4","num_nodes":"7","size_leaf_vector":"0"}},{"base_weights":[-1.271191E-1,-1.3537337E-1,-9.722089E-2,-1.58213E-1,-1.3091436E-1,-9.944418E-2,9.105204E-2],"categories":[],"categories_nodes":[],"categories_segments":[],"categories_sizes":[],"default_left":[1,1,1,0,0,0,0],"id":2,"left_children":[1,3,5,-1,-1,-1,-1],"loss_changes":[3.2271957E-1,8.7646484E-2,1.3379312E-1,0E0,0E0,0E0,0E0],"parents":[2147483647,0,0,1,1,2,2],"right_children":[2,4,6,-1,-1,-1,-1],"split_conditions":[2.4437356E3,2.0007892E0,3.7563168E1,-7.119585E-2,-5.891146E-2,-4.474988E-2,4.0973417E-2],"split_indices":[2,1,0,0,0,0,0],"split_type":[0,0,0,0,0,0,0],"sum_hessian":[1.36E3,1.063E3,2.97E2,1.68E2,8.95E2,2.94E2,3E0],"tree_param":{"num_deleted":"0","num_feature":"4","num_nodes":"7","size_leaf_vector":"0"}},{"base_weights":[-7.001388E-2,-7.189075E-2,-4.5492765E-3,-7.9655424E-2,-6.2019452E-2,-2.5697442E-2,5.161855E-2],"categories":[],"categories_nodes":[],"categories_segments":[],"categories_sizes":[],"default_left":[1,1,1,0,0,0,0],"id":3,"left_children":[1,3,5,-1,-1,-1,-1],"loss_changes":[1.6689777E-1,9.6464634E-2,4.765248E-2,0E0,0E0,0E0,0E0],"parents":[2147483647,0,0,1,1,2,2],"right_children":[2,4,6,-1,-1,-1,-1],"split_conditions":[2.1527727E1,9.106241E0,5.2163623E3,-3.584494E-2,-2.7908754E-2,-1.1563849E-2,2.3228347E-2],"split_indices":[0,0,2,0,0,0,0],"split_type":[0,0,0,0,0,0,0],"sum_hessian":[1.36E3,1.322E3,3.8E1,7.36E2,5.86E2,2.8E1,1E1],"tree_param":{"num_deleted":"0","num_feature":"4","num_nodes":"7","size_leaf_vector":"0"}},{"base_weights":[-3.8545907E-2,-4.0888485E-2,-7.938094E-3,-4.9636394E-2,-3.688439E-2,-1.309765E-2,3.406E-2],"categories":[],"categories_nodes":[],"categories_segments":[],"categories_sizes":[],"default_left":[1,1,1,0,0,0,0],"id":4,"left_children":[1,3,5,-1,-1,-1,-1],"loss_changes":[9.726071E-2,4.244399E-2,2.1681877E-2,0E0,0E0,0E0,0E0],"parents":[2147483647,0,0,1,1,2,2],"right_children":[2,4,6,-1,-1,-1,-1],"split_conditions":[3.860012E3,1.030062E3,7.7283755E3,-2.2336377E-2,-1.6597975E-2,-5.8939424E-3,1.5327E-2],"split_indices":[2,2,2,0,0,0,0],"split_type":[0,0,0,0,0,0,0],"sum_hessian":[1.36E3,1.263E3,9.7E1,3.93E2,8.7E2,8.7E1,1E1],"tree_param":{"num_deleted":"0","num_feature":"4","num_nodes":"7","size_leaf_vector":"0"}},{"base_weights":[-2.1221926E-2,-2.2630721E-2,-7.257394E-5,-3.913642E-2,-2.1493938E-2,-4.6612777E-2,5.9725507E-3],"categories":[],"categories_nodes":[],"categories_segments":[],"categories_sizes":[],"default_left":[1,1,1,0,0,0,0],"id":5,"left_children":[1,3,5,-1,-1,-1,-1],"loss_changes":[4.0549517E-2,2.3100853E-2,2.4473751E-2,0E0,0E0,0E0,0E0],"parents":[2147483647,0,0,1,1,2,2],"right_children":[2,4,6,-1,-1,-1,-1],"split_conditions":[4.38245E0,2.2623741E1,1.2875574E3,-1.7611388E-2,-9.672272E-3,-2.097575E-2,2.6876477E-3],"split_indices":[1,3,2,0,0,0,0],"split_type":[0,0,0,0,0,0,0],"sum_hessian":[1.36E3,1.275E3,8.5E1,8E1,1.195E3,9E0,7.6E1],"tree_param":{"num_deleted":"0","num_feature":"4","num_nodes":"7","size_leaf_vector":"0"}},{"base_weights":[-1.1705545E-2,-1.23101445E-2,1.3788928E-2,-1.4176313E-2,-7.935864E-3,-1.4949255E-2,1.8428285E-2],"categories":[],"categories_nodes":[],"categories_segments":[],"categories_sizes":[],"default_left":[1,1,1,0,0,0,0],"id":6,"left_children":[1,3,5,-1,-1,-1,-1],"loss_changes":[2.1148115E-2,1.0744497E-2,4.541943E-3,0E0,0E0,0E0,0E0],"parents":[2147483647,0,0,1,1,2,2],"right_children":[2,4,6,-1,-1,-1,-1],"split_conditions":[7.530919E1,4.5491356E1,1.0767793E1,-6.379341E-3,-3.5711387E-3,-6.7271646E-3,8.292728E-3],"split_indices":[3,3,0,0,0,0,0],"split_type":[0,0,0,0,0,0,0],"sum_hessian":[1.36E3,1.329E3,3.1E1,9.3E2,3.99E2,4E0,2.7E1],"tree_param":{"num_deleted":"0","num_feature":"4","num_nodes":"7","size_leaf_vector":"0"}},{"base_weights":[-6.44421E-3,-8.512511E-3,-2.8655722E-3,-7.771606E-3,-2.9526364E-2,-1.7334046E-2,9.3187566E-4],"categories":[],"categories_nodes":[],"categories_segments":[],"categories_sizes":[],"default_left":[1,1,1,0,0,0,0],"id":7,"left_children":[1,3,5,-1,-1,-1,-1],"loss_changes":[1.0049317E-2,1.3191231E-2,2.748779E-2,0E0,0E0,0E0,0E0],"parents":[2147483647,0,0,1,1,2,2],"right_children":[2,4,6,-1,-1,-1,-1],"split_conditions":[1.0314533E1,3.1213428E3,3.655339E1,-3.4972227E-3,-1.3286863E-2,-7.8003206E-3,4.1934403E-4],"split_indices":[0,2,3,0,0,0,0],"split_type":[0,0,0,0,0,0,0],"sum_hessian":[1.36E3,8.61E2,4.99E2,8.33E2,2.8E1,1.03E2,3.96E2],"tree_param":{"num_deleted":"0","num_feature":"4","num_nodes":"7","size_leaf_vector":"0"}},{"base_weights":[-3.5620714E-3,-1.0389385E-2,-2.751977E-3,-9.16935E-3,-2.430713E-2,-2.9990673E-3,1.599813E-2],"categories":[],"categories_nodes":[],"categories_segments":[],"categories_sizes":[],"default_left":[1,1,1,0,0,0,0],"id":8,"left_children":[1,3,5,-1,-1,-1,-1],"loss_changes":[7.498784E-3,2.2222577E-3,5.690939E-3,0E0,0E0,0E0,0E0],"parents":[2147483647,0,0,1,1,2,2],"right_children":[2,4,6,-1,-1,-1,-1],"split_conditions":[3.4785662E0,1.5984749E3,2.6332905E1,-4.1262074E-3,-1.0938209E-2,-1.3495802E-3,7.1991584E-3],"split_indices":[0,2,0,0,0,0,0],"split_type":[0,0,0,0,0,0,0],"sum_hessian":[1.36E3,1.43E2,1.217E3,1.33E2,1E1,1.202E3,1.5E1],"tree_param":{"num_deleted":"0","num_feature":"4","num_nodes":"7","size_leaf_vector":"0"}},{"base_weights":[-1.9659083E-3,-2.2882812E-3,7.7353E-3,-1.0887848E-2,-1.9476456E-3,1.3126459E-2,-1.5992736E-3],"categories":[],"categories_nodes":[],"categories_segments":[],"categories_sizes":[],"default_left":[1,1,1,0,0,0,0],"id":9,"left_children":[1,3,5,-1,-1,-1,-1],"loss_changes":[4.274098E-3,3.8396372E-3,2.2352561E-3,0E0,0E0,0E0,0E0],"parents":[2147483647,0,0,1,1,2,2],"right_children":[2,4,6,-1,-1,-1,-1],"split_conditions":[7.1872925E1,3.5994296E2,7.3611836E3,-4.8995316E-3,-8.764405E-4,5.9069064E-3,-7.196731E-4],"split_indices":[3,2,2,0,0,0,0],"split_type":[0,0,0,0,0,0,0],"sum_hessian":[1.36E3,1.317E3,4.3E1,4.9E1,1.268E3,2.7E1,1.6E1],"tree_param":{"num_deleted":"0","num_feature":"4","num_nodes":"7","size_leaf_vector":"0"}},{"base_weights":[-1.0816815E-3,-1.2043709E-3,1.981871E-2,-1.0875289E-3,-3.2510825E-2,2.650732E-2,-1.350078E-2],"categories":[],"categories_nodes":[],"categories_segments":[],"categories_sizes":[],"default_left":[1,1,1,0,0,0,0],"id":10,"left_children":[1,3,5,-1,-1,-1,-1],"loss_changes":[3.513822E-3,4.9174507E-3,2.140758E-3,0E0,0E0,0E0,0E0],"parents":[2147483647,0,0,1,1,2,2],"right_children":[2,4,6,-1,-1,-1,-1],"split_conditions":[8.692516E3,7.620159E3,6.2924557E0,-4.89388E-4,-1.4629871E-2,1.1928294E-2,-6.0753506E-3],"split_indices":[2,2,1,0,0,0,0],"split_type":[0,0,0,0,0,0,0],"sum_hessian":[1.36E3,1.353E3,7E0,1.349E3,4E0,6E0,1E0],"tree_param":{"num_deleted":"0","num_feature":"4","num_nodes":"7","size_leaf_vector":"0"}},{"base_weights":[-6.017326E-4,-3.6521147E-3,-7.6191965E-5,-1.0828903E-3,-1.0943698E-2,4.5155932E-4,-3.360233E-3],"categories":[],"categories_nodes":[],"categories_segments":[],"categories_sizes":[],"default_left":[1,1,1,0,0,0,0],"id":11,"left_children":[1,3,5,-1,-1,-1,-1],"loss_changes":[2.18154E-3,3.7348918E-3,2.0154456E-3,0E0,0E0,0E0,0E0],"parents":[2147483647,0,0,1,1,2,2],"right_children":[2,4,6,-1,-1,-1,-1],"split_conditions":[7.1567456E2,6.354061E0,5.6353615E1,-4.8730063E-4,-4.924664E-3,2.032017E-4,-1.5121049E-3],"split_indices":[2,0,3,0,0,0,0],"split_type":[0,0,0,0,0,0,0],"sum_hessian":[1.36E3,1.99E2,1.161E3,1.48E2,5.1E1,1.001E3,1.6E2],"tree_param":{"num_deleted":"0","num_feature":"4","num_nodes":"7","size_leaf_vector":"0"}},{"base_weights":[-3.3589048E-4,-7.670942E-4,4.8294323E-3,-2.6515019E-4,-2.4522014E-2,-1.8819375E-2,6.200067E-3],"categories":[],"categories_nodes":[],"categories_segments":[],"categories_sizes":[],"default_left":[1,1,1,0,0,0,0],"id":12,"left_children":[1,3,5,-1,-1,-1,-1],"loss_changes":[3.0350685E-3,1.4981513E-2,3.520137E-3,0E0,0E0,0E0,0E0],"parents":[2147483647,0,0,1,1,2,2],"right_children":[2,4,6,-1,-1,-1,-1],"split_conditions":[3.7488516E3,3.448687E3,3.0304818E0,-1.1931758E-4,-1.1034906E-2,-8.468718E-3,2.7900299E-3],"split_indices":[2,2,1,0,0,0,0],"split_type":[0,0,0,0,0,0,0],"sum_hessian":[1.36E3,1.256E3,1.04E2,1.231E3,2.5E1,5E0,9.9E1],"tree_param":{"num_deleted":"0","num_feature":"4","num_nodes":"7","size_leaf_vector":"0"}},{"base_weights":[-1.9710689E-4,-4.1273286E-4,7.1226438E-3,3.8086847E-4,-3.3304936E-3,4.8043877E-2,1.0732492E-3],"categories":[],"categories_nodes":[],"categories_segments":[],"categories_sizes":[],"default_left":[1,1,1,0,0,0,0],"id":13,"left_children":[1,3,5,-1,-1,-1,-1],"loss_changes":[2.1510448E-3,3.0647262E-3,9.602835E-3,0E0,0E0,0E0,0E0],"parents":[2147483647,0,0,1,1,2,2],"right_children":[2,4,6,-1,-1,-1,-1],"split_conditions":[2.1527727E1,3.599576E0,4.7814155E0,1.7139081E-4,-1.4987221E-3,2.1619745E-2,4.8296212E-4],"split_indices":[0,1,1,0,0,0,0],"split_type":[0,0,0,0,0,0,0],"sum_hessian":[1.36E3,1.322E3,3.8E1,1.04E3,2.82E2,4E0,3.4E1],"tree_param":{"num_deleted":"0","num_feature":"4","num_nodes":"7","size_leaf_vector":"0"}},{"base_weights":[-9.314394E-5,-1.0653632E-3,1.4618424E-3,1.2806024E-3,-5.410553E-3,-5.0998093E-3,3.82093E-3],"categories":[],"categories_nodes":[],"categories_segments":[],"categories_sizes":[],"default_left":[1,1,1,0,0,0,0],"id":14,"left_children":[1,3,5,-1,-1,-1,-1],"loss_changes":[2.0591002E-3,8.549221E-3,8.130749E-3,0E0,0E0,0E0,0E0],"parents":[2147483647,0,0,1,1,2,2],"right_children":[2,4,6,-1,-1,-1,-1],"split_conditions":[3.2213144E0,3.9098625E1,3.8878616E1,5.762711E-4,-2.4347487E-3,-2.294914E-3,1.7194184E-3],"split_indices":[1,3,3,0,0,0,0],"split_type":[0,0,0,0,0,0,0],"sum_hessian":[1.36E3,8.37E2,5.23E2,5.44E2,2.93E2,1.38E2,3.85E2],"tree_param":{"num_deleted":"0","num_feature":"4","num_nodes":"7","size_leaf_vector":"0"}},{"base_weights":[-5.301778E-5,-5.0587356E-3,2.9699158E-4,-6.0883234E-3,-2.9360133E-3,1.0953894E-3,-1.9327527E-3],"categories":[],"categories_nodes":[],"categories_segments":[],"categories_sizes":[],"default_left":[1,1,1,0,0,0,0],"id":15,"left_children":[1,3,5,-1,-1,-1,-1],"loss_changes":[2.38604E-3,1.766365E-4,2.2683407E-3,0E0,0E0,0E0,0E0],"parents":[2147483647,0,0,1,1,2,2],"right_children":[2,4,6,-1,-1,-1,-1],"split_conditions":[2.2944856E0,1.3621168E0,3.5619025E0,-2.7397454E-3,-1.321206E-3,4.929252E-4,-8.697387E-4],"split_indices":[0,1,1,0,0,0,0],"split_type":[0,0,0,0,0,0,0],"sum_hessian":[1.36E3,8.8E1,1.272E3,5.8E1,3E1,9.37E2,3.35E2],"tree_param":{"num_deleted":"0","num_feature":"4","num_nodes":"7","size_leaf_vector":"0"}},{"base_weights":[-3.2420863E-5,-7.641755E-5,2.9901534E-2,1.1819863E-5,-2.399112E-2],"categories":[],"categories_nodes":[],"categories_segments":[],"categories_sizes":[],"default_left":[1,1,0,0,0],"id":16,"left_children":[1,3,-1,-1,-1],"loss_changes":[1.794715E-3,2.8701168E-3,0E0,0E0,0E0],"parents":[2147483647,0,0,1,1],"right_children":[2,4,-1,-1,-1],"split_conditions":[3.9273643E1,3.649731E1,1.345569E-2,5.3189383E-6,-1.0796003E-2],"split_indices":[0,0,0,0,0],"split_type":[0,0,0,0,0],"sum_hessian":[1.36E3,1.359E3,1E0,1.355E3,4E0],"tree_param":{"num_deleted":"0","num_feature":"4","num_nodes":"5","size_leaf_vector":"0"}},{"base_weights":[-1.5873977E-5,-1.356034E-4,1.0057356E-2,1.854646E-5,-6.914955E-2,2.2762395E-2,1.5809387E-4],"categories":[],"categories_nodes":[],"categories_segments":[],"categories_sizes":[],"default_left":[1,1,1,0,0,0,0],"id":17,"left_children":[1,3,5,-1,-1,-1,-1],"loss_changes":[1.6428144E-3,1.4320689E-2,2.0087296E-3,0E0,0E0,0E0,0E0],"parents":[2147483647,0,0,1,1,2,2],"right_children":[2,4,6,-1,-1,-1,-1],"split_conditions":[2.6332905E1,2.555054E1,3.4897944E3,8.345906E-6,-3.1117296E-2,1.0243078E-2,7.114224E-5],"split_indices":[0,0,2,0,0,0,0],"split_type":[0,0,0,0,0,0,0],"sum_hessian":[1.36E3,1.345E3,1.5E1,1.343E3,2E0,6E0,9E0],"tree_param":{"num_deleted":"0","num_feature":"4","num_nodes":"7","size_leaf_vector":"0"}},{"base_weights":[-2.4008643E-5,-1.8106055E-4,6.5042116E-3,5.3540738E-5,-1.0013338E-2,1.991173E-2,1.2053825E-3],"categories":[],"categories_nodes":[],"categories_segments":[],"categories_sizes":[],"default_left":[1,1,1,0,0,0,0],"id":18,"left_children":[1,3,5,-1,-1,-1,-1],"loss_changes":[1.3965692E-3,3.0684008E-3,2.2494118E-3,0E0,0E0,0E0,0E0],"parents":[2147483647,0,0,1,1,2,2],"right_children":[2,4,6,-1,-1,-1,-1],"split_conditions":[7.530919E1,4.564928E3,6.399089E3,2.4093331E-5,-4.506002E-3,8.960279E-3,5.424221E-4],"split_indices":[3,2,2,0,0,0,0],"split_type":[0,0,0,0,0,0,0],"sum_hessian":[1.36E3,1.329E3,3.1E1,1.299E3,3E1,8E0,2.3E1],"tree_param":{"num_deleted":"0","num_feature":"4","num_nodes":"7","size_leaf_vector":"0"}},{"base_weights":[-9.517098E-6,-8.352629E-4,1.311064E-3,6.162352E-4,-3.5231241E-3,5.6089438E-3,-8.2324405E-4],"categories":[],"categories_nodes":[],"categories_segments":[],"categories_sizes":[],"default_left":[1,1,1,0,0,0,0],"id":19,"left_children":[1,3,5,-1,-1,-1,-1],"loss_changes":[1.485217E-3,3.2715658E-3,4.811269E-3,0E0,0E0,0E0,0E0],"parents":[2147483647,0,0,1,1,2,2],"right_children":[2,4,6,-1,-1,-1,-1],"split_conditions":[3.2213144E0,3.9098625E1,3.536426E0,2.7730584E-4,-1.5854058E-3,2.5240246E-3,-3.704598E-4],"split_indices":[1,3,1,0,0,0,0],"split_type":[0,0,0,0,0,0,0],"sum_hessian":[1.36E3,8.37E2,5.23E2,5.44E2,2.93E2,1.73E2,3.5E2],"tree_param":{"num_deleted":"0","num_feature":"4","num_nodes":"7","size_leaf_vector":"0"}},{"base_weights":[-4.613241E-6,-7.9404144E-4,1.7006357E-3,1.2443885E-4,-7.0024743E-3,-5.1030326E-3,3.5877486E-3],"categories":[],"categories_nodes":[],"categories_segments":[],"categories_sizes":[],"default_left":[1,1,1,0,0,0,0],"id":20,"left_children":[1,3,5,-1,-1,-1,-1],"loss_changes":[1.8334897E-3,5.309734E-3,5.552042E-3,0E0,0E0,0E0,0E0],"parents":[2147483647,0,0,1,1,2,2],"right_children":[2,4,6,-1,-1,-1,-1],"split_conditions":[4.5491356E1,3.6451612E0,2.9627342E0,5.5997483E-5,-3.1511134E-3,-2.2963646E-3,1.6144868E-3],"split_indices":[3,1,1,0,0,0,0],"split_type":[0,0,0,0,0,0,0],"sum_hessian":[1.36E3,9.3E2,4.3E2,8.11E2,1.19E2,9.3E1,3.37E2],"tree_param":{"num_deleted":"0","num_feature":"4","num_nodes":"7","size_leaf_vector":"0"}},{"base_weights":[-5.312487E-6,-4.2733812E-4,2.6797117E-3,-1.6959399E-4,-2.7732799E-2,-1.2535065E-2,6.0653873E-3],"categories":[],"categories_nodes":[],"categories_segments":[],"categories_sizes":[],"default_left":[1,1,1,0,0,0,0],"id":21,"left_children":[1,3,5,-1,-1,-1,-1],"loss_changes":[1.5433611E-3,8.278815E-3,9.605805E-3,0E0,0E0,0E0,0E0],"parents":[2147483647,0,0,1,1,2,2],"right_children":[2,4,6,-1,-1,-1,-1],"split_conditions":[3.9639046E0,1.5356015E1,1.5278762E3,-7.6317294E-5,-1.2479759E-2,-5.640779E-3,2.7294243E-3],"split_indices":[1,0,2,0,0,0,0],"split_type":[0,0,0,0,0,0,0],"sum_hessian":[1.36E3,1.176E3,1.84E2,1.166E3,1E1,3.3E1,1.51E2],"tree_param":{"num_deleted":"0","num_feature":"4","num_nodes":"7","size_leaf_vector":"0"}},{"base_weights":[-1.4287207E-5,4.7745337E-4,-3.6823999E-3,-7.164935E-5,8.493857E-3,-1.3094725E-2,9.280189E-4],"categories":[],"categories_nodes":[],"categories_segments":[],"categories_sizes":[],"default_left":[1,1,1,0,0,0,0],"id":22,"left_children":[1,3,5,-1,-1,-1,-1],"loss_changes":[2.4566755E-3,5.2872053E-3,6.9987085E-3,0E0,0E0,0E0,0E0],"parents":[2147483647,0,0,1,1,2,2],"right_children":[2,4,6,-1,-1,-1,-1],"split_conditions":[5.6353615E1,4.128564E0,3.6670103E3,-3.224221E-5,3.8222359E-3,-5.892626E-3,4.1760848E-4],"split_indices":[3,1,2,0,0,0,0],"split_type":[0,0,0,0,0,0,0],"sum_hessian":[1.36E3,1.2E3,1.6E2,1.124E3,7.6E1,5.2E1,1.08E2],"tree_param":{"num_deleted":"0","num_feature":"4","num_nodes":"7","size_leaf_vector":"0"}},{"base_weights":[-9.097152E-6,1.6478686E-4,-8.9437105E-3,-2.1580161E-5,1.9132875E-2,1.4639897E-2,-2.229032E-2],"categories":[],"categories_nodes":[],"categories_segments":[],"categories_sizes":[],"default_left":[1,1,1,0,0,0,0],"id":23,"left_children":[1,3,5,-1,-1,-1,-1],"loss_changes":[2.1159048E-3,4.723208E-3,8.51012E-3,0E0,0E0,0E0,0E0],"parents":[2147483647,0,0,1,1,2,2],"right_children":[2,4,6,-1,-1,-1,-1],"split_conditions":[4.952424E0,2.2152046E1,3.4045684E3,-9.711072E-6,8.609793E-3,6.587954E-3,-1.0030643E-2],"split_indices":[1,0,2,0,0,0,0],"split_type":[0,0,0,0,0,0,0],"sum_hessian":[1.36E3,1.335E3,2.5E1,1.323E3,1.2E1,9E0,1.6E1],"tree_param":{"num_deleted":"0","num_feature":"4","num_nodes":"7","size_leaf_vector":"0"}},{"base_weights":[-1.214421E-6,2.3206868E-4,-4.1808533E-3,6.09327E-5,4.420183E-2,-2.3308503E-2,1.7004128E-3],"categories":[],"categories_nodes":[],"categories_segments":[],"categories_sizes":[],"default_left":[1,1,1,0,0,0,0],"id":24,"left_children":[1,3,5,-1,-1,-1,-1],"loss_changes":[1.3279985E-3,9.7043095E-3,8.139259E-3,0E0,0E0,0E0,0E0],"parents":[2147483647,0,0,1,1,2,2],"right_children":[2,4,6,-1,-1,-1,-1],"split_conditions":[4.4452543E0,1.9287712E1,4.5543327E0,2.7419714E-5,1.9890822E-2,-1.0488826E-2,7.6518574E-4],"split_indices":[1,0,1,0,0,0,0],"split_type":[0,0,0,0,0,0,0],"sum_hessian":[1.36E3,1.289E3,7.1E1,1.285E3,4E0,1.6E1,5.5E1],"tree_param":{"num_deleted":"0","num_feature":"4","num_nodes":"7","size_leaf_vector":"0"}},{"base_weights":[5.0823395E-3,4.396951E-3,6.516247E-2,-2.857002E-3,7.0738825E-3,9.493847E-2,1.6398782E-2,1.20492376E-4,-2.624031E-2,7.5082197E-3,-4.050677E-2,-1.1752225E-2,1.1862706E-1,2.0610146E-2,-2.233386E-4,-3.7927082E-4,1.488199E-2,-2.8633934E-2,-9.981578E-3,6.685057E-3,7.180533E-2,-5.7086058E-2,-4.8987963E-3],"categories":[],"categories_nodes":[],"categories_segments":[],"categories_sizes":[],"default_left":[1,1,1,1,1,1,1,1,1,1,1,0,0,0,0,0,0,0,0,0,0,0,0],"id":25,"left_children":[1,3,5,7,9,11,13,15,17,19,21,-1,-1,-1,-1,-1,-1,-1,-1,-1,-1,-1,-1],"loss_changes":[3.6485657E-2,1.718602E-2,1.2963001E-2,1.6643217E-2,1.3654392E-2,1.6558241E-2,3.5461213E-4,1.5769993E-3,7.6495484E-4,3.344617E-2,3.262476E-3,0E0,0E0,0E0,0E0,0E0,0E0,0E0,0E0,0E0,0E0,0E0,0E0],"parents":[2147483647,0,0,1,1,2,2,3,3,4,4,5,5,6,6,7,7,8,8,9,9,10,10],"right_children":[2,4,6,8,10,12,14,16,18,20,22,-1,-1,-1,-1,-1,-1,-1,-1,-1,-1,-1,-1],"split_conditions":[2.9921818E1,3.1208706E1,3.4205845E1,3.6200476E0,2.6678143E1,5.5010083E3,1.7810186E4,3.5041904E0,2.9320606E1,2.570626E1,2.8523006E1,-1.1752225E-4,1.1862705E-3,2.0610145E-4,-2.2333859E-6,-3.7927082E-6,1.4881989E-4,-2.8633932E-4,-9.981578E-5,6.685057E-5,7.1805326E-4,-5.708606E-4,-4.898796E-5],"split_indices":[0,3,0,1,0,2,2,1,3,0,0,0,0,0,0,0,0,0,0,0,0,0,0],"split_type":[0,0,0,0,0,0,0,0,0,0,0,0,0,0,0,0,0,0,0,0,0,0,0],"sum_hessian":[8.92E2,8.83E2,9E0,2.38E2,6.45E2,5E0,4E0,2.12E2,2.6E1,6.4E2,5E0,1E0,4E0,3E0,1E0,2.06E2,6E0,2.2E1,4E0,6.33E2,7E0,3E0,2E0],"tree_param":{"num_deleted":"0","num_feature":"4","num_nodes":"23","size_leaf_vector":"0"}},{"base_weights":[5.0328556E-3,4.3528946E-3,6.46381E-2,-2.829441E-3,7.0033986E-3,9.41672E-2,1.6275555E-2,1.1996793E-4,-2.5992207E-2,7.434361E-3,-4.0205006E-2,-1.1693463E-2,1.1767803E-1,2.0455562E-2,-2.2223592E-4,-3.7549678E-4,1.47544285E-2,-3.1674605E-2,-1.7436195E-2,6.618311E-3,7.117703E-2,-6.4142264E-2,-1.2200808E-2],"categories":[],"categories_nodes":[],"categories_segments":[],"categories_sizes":[],"default_left":[1,1,1,1,1,1,1,1,1,1,1,0,0,0,0,0,0,0,0,0,0,0,0],"id":26,"left_children":[1,3,5,7,9,11,13,15,17,19,21,-1,-1,-1,-1,-1,-1,-1,-1,-1,-1,-1,-1],"loss_changes":[3.5911236E-2,1.6848354E-2,1.2748405E-2,1.6330756E-2,1.34418085E-2,1.6309291E-2,3.4935016E-4,1.5499733E-3,7.604193E-4,3.287195E-2,3.2394761E-3,0E0,0E0,0E0,0E0,0E0,0E0,0E0,0E0,0E0,0E0,0E0,0E0],"parents":[2147483647,0,0,1,1,2,2,3,3,4,4,5,5,6,6,7,7,8,8,9,9,10,10],"right_children":[2,4,6,8,10,12,14,16,18,20,22,-1,-1,-1,-1,-1,-1,-1,-1,-1,-1,-1,-1],"split_conditions":[2.9921818E1,3.1208706E1,3.4205845E1,3.6200476E0,2.6678143E1,5.5010083E3,1.7810186E4,3.5041904E0,3.949107E0,2.570626E1,2.7411999E1,-1.1693462E-4,1.1767803E-3,2.0455562E-4,-2.2223592E-6,-3.7549678E-6,1.4754428E-4,-3.1674604E-4,-1.7436195E-4,6.618311E-5,7.1177026E-4,-6.4142264E-4,-1.2200808E-4],"split_indices":[0,3,0,1,0,2,2,1,1,0,0,0,0,0,0,0,0,0,0,0,0,0,0],"split_type":[0,0,0,0,0,0,0,0,0,0,0,0,0,0,0,0,0,0,0,0,0,0,0],"sum_hessian":[8.92E2,8.83E2,9E0,2.38E2,6.45E2,5E0,4E0,2.12E2,2.6E1,6.4E2,5E0,1E0,4E0,3E0,1E0,2.06E2,6E0,1.4E1,1.2E1,6.33E2,7E0,2E0,3E0],"tree_param":{"num_deleted":"0","num_feature":"4","num_nodes":"23","size_leaf_vector":"0"}},{"base_weights":[4.983568E-3,4.3089897E-3,6.411793E-2,-2.8026E-3,6.933388E-3,9.340218E-2,1.6153257E-2,1.1944345E-4,-2.5750475E-2,7.361232E-3,-3.993019E-2,-1.1634998E-2,1.16736606E-1,2.030214E-2,-2.2113323E-4,-3.7175982E-4,1.4627962E-2,-2.8112784E-2,-9.733762E-3,6.552233E-3,7.055423E-2,-6.3714646E-2,-1.21093E-2],"categories":[],"categories_nodes":[],"categories_segments":[],"categories_sizes":[],"default_left":[1,1,1,1,1,1,1,1,1,1,1,0,0,0,0,0,0,0,0,0,0,0,0],"id":27,"left_children":[1,3,5,7,9,11,13,15,17,19,21,-1,-1,-1,-1,-1,-1,-1,-1,-1,-1,-1,-1],"loss_changes":[3.5346165E-2,1.651809E-2,1.2537342E-2,1.6029146E-2,1.3246428E-2,1.6064133E-2,3.4416642E-4,1.5234108E-3,7.479396E-4,3.230759E-2,3.1986898E-3,0E0,0E0,0E0,0E0,0E0,0E0,0E0,0E0,0E0,0E0,0E0,0E0],"parents":[2147483647,0,0,1,1,2,2,3,3,4,4,5,5,6,6,7,7,8,8,9,9,10,10],"right_children":[2,4,6,8,10,12,14,16,18,20,22,-1,-1,-1,-1,-1,-1,-1,-1,-1,-1,-1,-1],"split_conditions":[2.9921818E1,3.1208706E1,3.4205845E1,3.6200476E0,2.6678143E1,5.5010083E3,1.7810186E4,3.5041904E0,2.9320606E1,2.570626E1,2.7411999E1,-1.1634998E-4,1.167366E-3,2.030214E-4,-2.2113322E-6,-3.717598E-6,1.4627962E-4,-2.8112784E-4,-9.7337615E-5,6.552233E-5,7.055423E-4,-6.3714647E-4,-1.21093E-4],"split_indices":[0,3,0,1,0,2,2,1,3,0,0,0,0,0,0,0,0,0,0,0,0,0,0],"split_type":[0,0,0,0,0,0,0,0,0,0,0,0,0,0,0,0,0,0,0,0,0,0,0],"sum_hessian":[8.92E2,8.83E2,9E0,2.38E2,6.45E2,5E0,4E0,2.12E2,2.6E1,6.4E2,5E0,1E0,4E0,3E0,1E0,2.06E2,6E0,2.2E1,4E0,6.33E2,7E0,2E0,3E0],"tree_param":{"num_deleted":"0","num_feature":"4","num_nodes":"23","size_leaf_vector":"0"}},{"base_weights":[4.9348846E-3,4.265648E-3,6.360194E-2,-2.775561E-3,6.864074E-3,9.264333E-2,1.6031891E-2,1.1891851E-4,-2.550699E-2,7.104644E-3,-7.415185E-2,-1.1576824E-2,1.1580272E-1,2.014988E-2,-2.2003055E-4,-3.6805996E-4,1.4502579E-2,-3.1128842E-2,-1.7058162E-2,5.358699E-3,1.9727621E-2],"categories":[],"categories_nodes":[],"categories_segments":[],"categories_sizes":[],"default_left":[1,1,1,1,1,1,1,1,1,1,0,0,0,0,0,0,0,0,0,0,0],"id":28,"left_children":[1,3,5,7,9,11,13,15,17,19,-1,-1,-1,-1,-1,-1,-1,-1,-1,-1,-1],"loss_changes":[3.4789808E-2,1.6192768E-2,1.23297535E-2,1.5728196E-2,1.3117375E-2,1.5822675E-2,3.3905986E-4,1.4973034E-3,7.5144693E-4,1.4109459E-2,0E0,0E0,0E0,0E0,0E0,0E0,0E0,0E0,0E0,0E0,0E0],"parents":[2147483647,0,0,1,1,2,2,3,3,4,4,5,5,6,6,7,7,8,8,9,9],"right_children":[2,4,6,8,10,12,14,16,18,20,-1,-1,-1,-1,-1,-1,-1,-1,-1,-1,-1],"split_conditions":[2.9921818E1,3.1208706E1,3.4205845E1,3.6200476E0,5.511098E0,5.5010083E3,1.7810186E4,3.5041904E0,3.949107E0,1.6257729E1,-7.415185E-4,-1.15768235E-4,1.1580272E-3,2.0149878E-4,-2.2003055E-6,-3.6805995E-6,1.4502578E-4,-3.1128843E-4,-1.7058161E-4,5.3586988E-5,1.9727621E-4],"split_indices":[0,3,0,1,1,2,2,1,1,0,0,0,0,0,0,0,0,0,0,0,0],"split_type":[0,0,0,0,0,0,0,0,0,0,0,0,0,0,0,0,0,0,0,0,0],"sum_hessian":[8.92E2,8.83E2,9E0,2.38E2,6.45E2,5E0,4E0,2.12E2,2.6E1,6.44E2,1E0,1E0,4E0,3E0,1E0,2.06E2,6E0,1.4E1,1.2E1,5.67E2,7.7E1],"tree_param":{"num_deleted":"0","num_feature":"4","num_nodes":"21","size_leaf_vector":"0"}},{"base_weights":[4.885996E-3,4.2220517E-3,6.309007E-2,-2.7492305E-3,6.794675E-3,9.18906E-2,1.5911425E-2,1.1839292E-4,-2.526977E-2,7.2189565E-3,-3.9665192E-2,-1.151894E-2,1.148763E-1,1.9998744E-2,-2.1892786E-4,-3.6439716E-4,1.4378271E-2,-3.0838309E-2,-1.6900703E-2,6.418355E-3,6.976427E-2,-5.5871107E-2,-4.835576E-3],"categories":[],"categories_nodes":[],"categories_segments":[],"categories_sizes":[],"default_left":[1,1,1,1,1,1,1,1,1,1,1,0,0,0,0,0,0,0,0,0,0,0,0],"id":29,"left_children":[1,3,5,7,9,11,13,15,17,19,21,-1,-1,-1,-1,-1,-1,-1,-1,-1,-1,-1,-1],"loss_changes":[3.4242958E-2,1.5872763E-2,1.2125593E-2,1.5437714E-2,1.3020333E-2,1.5584905E-2,3.340278E-4,1.4716438E-3,7.3710456E-4,3.1649593E-2,3.1165052E-3,0E0,0E0,0E0,0E0,0E0,0E0,0E0,0E0,0E0,0E0,0E0,0E0],"parents":[2147483647,0,0,1,1,2,2,3,3,4,4,5,5,6,6,7,7,8,8,9,9,10,10],"right_children":[2,4,6,8,10,12,14,16,18,20,22,-1,-1,-1,-1,-1,-1,-1,-1,-1,-1,-1,-1],"split_conditions":[2.9921818E1,3.1208706E1,3.4205845E1,3.6200476E0,2.6678143E1,5.5010083E3,1.7810186E4,3.5041904E0,3.949107E0,2.570626E1,2.8523006E1,-1.151894E-4,1.148763E-3,1.9998744E-4,-2.1892786E-6,-3.6439715E-6,1.437827E-4,-3.0838308E-4,-1.6900703E-4,6.418354E-5,6.976427E-4,-5.5871106E-4,-4.8355756E-5],"split_indices":[0,3,0,1,0,2,2,1,1,0,0,0,0,0,0,0,0,0,0,0,0,0,0],"split_type":[0,0,0,0,0,0,0,0,0,0,0,0,0,0,0,0,0,0,0,0,0,0,0],"sum_hessian":[8.92E2,8.83E2,9E0,2.38E2,6.45E2,5E0,4E0,2.12E2,2.6E1,6.4E2,5E0,1E0,4E0,3E0,1E0,2.06E2,6E0,1.4E1,1.2E1,6.33E2,7E0,3E0,2E0],"tree_param":{"num_deleted":"0","num_feature":"4","num_nodes":"23","size_leaf_vector":"0"}},{"base_weights":[4.83831E-3,4.1796244E-3,6.2582314E-2,-2.72315E-3,6.726967E-3,9.114396E-2,1.5791882E-2,1.17866395E-4,-2.5034754E-2,6.965309E-3,-7.350174E-2,-1.1461347E-2,1.1395729E-1,1.9848764E-2,-2.1782517E-4,-3.6077134E-4,1.425503E-2,-2.7360754E-2,-9.328207E-3,5.2411356E-3,1.9431528E-2],"categories":[],"categories_nodes":[],"categories_segments":[],"categories_sizes":[],"default_left":[1,1,1,1,1,1,1,1,1,1,0,0,0,0,0,0,0,0,0,0,0],"id":30,"left_children":[1,3,5,7,9,11,13,15,17,19,-1,-1,-1,-1,-1,-1,-1,-1,-1,-1,-1],"loss_changes":[3.3703834E-2,1.5562338E-2,1.1924785E-2,1.5152595E-2,1.2864677E-2,1.5350711E-2,3.2907107E-4,1.4464244E-3,7.3117577E-4,1.3761736E-2,0E0,0E0,0E0,0E0,0E0,0E0,0E0,0E0,0E0,0E0,0E0],"parents":[2147483647,0,0,1,1,2,2,3,3,4,4,5,5,6,6,7,7,8,8,9,9],"right_children":[2,4,6,8,10,12,14,16,18,20,-1,-1,-1,-1,-1,-1,-1,-1,-1,-1,-1],"split_conditions":[2.9921818E1,3.1208706E1,3.4205845E1,3.6200476E0,5.511098E0,5.5010083E3,1.7810186E4,3.5041904E0,2.9320606E1,1.6257729E1,-7.350174E-4,-1.1461347E-4,1.1395729E-3,1.9848763E-4,-2.1782516E-6,-3.6077133E-6,1.425503E-4,-2.7360753E-4,-9.328207E-5,5.2411357E-5,1.9431527E-4],"split_indices":[0,3,0,1,1,2,2,1,3,0,0,0,0,0,0,0,0,0,0,0,0],"split_type":[0,0,0,0,0,0,0,0,0,0,0,0,0,0,0,0,0,0,0,0,0],"sum_hessian":[8.92E2,8.83E2,9E0,2.38E2,6.45E2,5E0,4E0,2.12E2,2.6E1,6.44E2,1E0,1E0,4E0,3E0,1E0,2.06E2,6E0,2.2E1,4E0,5.67E2,7.7E1],"tree_param":{"num_deleted":"0","num_feature":"4","num_nodes":"21","size_leaf_vector":"0"}},{"base_weights":[4.790492E-3,4.137017E-3,6.207862E-2,-2.6968732E-3,6.6589406E-3,9.040334E-2,1.5673231E-2,1.1733896E-4,-2.4797995E-2,7.079464E-3,-3.9376758E-2,-1.14040375E-2,1.13045625E-1,1.9699901E-2,-2.1672249E-4,-3.5718214E-4,1.4132843E-2,-3.0307144E-2,-1.6533747E-2,6.28717E-3,6.8983816E-2,-5.536548E-2,-4.9328706E-3],"categories":[],"categories_nodes":[],"categories_segments":[],"categories_sizes":[],"default_left":[1,1,1,1,1,1,1,1,1,1,1,0,0,0,0,0,0,0,0,0,0,0,0],"id":31,"left_children":[1,3,5,7,9,11,13,15,17,19,21,-1,-1,-1,-1,-1,-1,-1,-1,-1,-1,-1,-1],"loss_changes":[3.3173844E-2,1.5253299E-2,1.1727285E-2,1.4868051E-2,1.2784727E-2,1.5120085E-2,3.2418733E-4,1.421637E-3,7.281918E-4,3.1005051E-2,3.0311728E-3,0E0,0E0,0E0,0E0,0E0,0E0,0E0,0E0,0E0,0E0,0E0,0E0],"parents":[2147483647,0,0,1,1,2,2,3,3,4,4,5,5,6,6,7,7,8,8,9,9,10,10],"right_children":[2,4,6,8,10,12,14,16,18,20,22,-1,-1,-1,-1,-1,-1,-1,-1,-1,-1,-1,-1],"split_conditions":[2.9921818E1,3.1208706E1,3.4205845E1,3.6200476E0,2.6678143E1,5.5010083E3,1.7810186E4,3.5041904E0,3.949107E0,2.570626E1,2.8523006E1,-1.1404037E-4,1.1304562E-3,1.9699901E-4,-2.167225E-6,-3.5718213E-6,1.4132843E-4,-3.0307143E-4,-1.6533746E-4,6.28717E-5,6.8983814E-4,-5.536548E-4,-4.9328704E-5],"split_indices":[0,3,0,1,0,2,2,1,1,0,0,0,0,0,0,0,0,0,0,0,0,0,0],"split_type":[0,0,0,0,0,0,0,0,0,0,0,0,0,0,0,0,0,0,0,0,0,0,0],"sum_hessian":[8.92E2,8.83E2,9E0,2.38E2,6.45E2,5E0,4E0,2.12E2,2.6E1,6.4E2,5E0,1E0,4E0,3E0,1E0,2.06E2,6E0,1.4E1,1.2E1,6.33E2,7E0,3E0,2E0],"tree_param":{"num_deleted":"0","num_feature":"4","num_nodes":"23","size_leaf_vector":"0"}},{"base_weights":[4.7437423E-3,4.095444E-3,6.157896E-2,-2.6712872E-3,6.5925852E-3,8.9668706E-2,1.5555466E-2,1.1681289E-4,-2.4567362E-2,6.8287207E-3,-7.28574E-2,-1.1347018E-2,1.1214126E-1,1.9552156E-2,-2.156496E-4,-8.5749675E-4,6.860483E-3,-2.6863042E-2,-9.093766E-3,5.1260567E-3,1.9140061E-2],"categories":[],"categories_nodes":[],"categories_segments":[],"categories_sizes":[],"default_left":[1,1,1,1,1,1,1,1,1,1,0,0,0,0,0,0,0,0,0,0,0],"id":32,"left_children":[1,3,5,7,9,11,13,15,17,19,-1,-1,-1,-1,-1,-1,-1,-1,-1,-1,-1],"loss_changes":[3.2651447E-2,1.4954986E-2,1.1533048E-2,1.4593449E-2,1.26171075E-2,1.4892954E-2,3.1937775E-4,1.405383E-3,7.14818E-4,1.3422422E-2,0E0,0E0,0E0,0E0,0E0,0E0,0E0,0E0,0E0,0E0,0E0],"parents":[2147483647,0,0,1,1,2,2,3,3,4,4,5,5,6,6,7,7,8,8,9,9],"right_children":[2,4,6,8,10,12,14,16,18,20,-1,-1,-1,-1,-1,-1,-1,-1,-1,-1,-1],"split_conditions":[2.9921818E1,3.1208706E1,3.4205845E1,3.6200476E0,5.511098E0,5.5010083E3,1.7810186E4,3.2172225E0,2.9320606E1,1.6257729E1,-7.28574E-4,-1.1347018E-4,1.1214126E-3,1.9552156E-4,-2.156496E-6,-8.574967E-6,6.860483E-5,-2.6863042E-4,-9.093766E-5,5.1260566E-5,1.914006E-4],"split_indices":[0,3,0,1,1,2,2,1,3,0,0,0,0,0,0,0,0,0,0,0,0],"split_type":[0,0,0,0,0,0,0,0,0,0,0,0,0,0,0,0,0,0,0,0,0],"sum_hessian":[8.92E2,8.83E2,9E0,2.38E2,6.45E2,5E0,4E0,2.12E2,2.6E1,6.44E2,1E0,1E0,4E0,3E0,1E0,1.86E2,2.6E1,2.2E1,4E0,5.67E2,7.7E1],"tree_param":{"num_deleted":"0","num_feature":"4","num_nodes":"21","size_leaf_vector":"0"}},{"base_weights":[4.696771E-3,4.0536015E-3,6.1083306E-2,-2.6458274E-3,6.5259077E-3,8.894002E-2,1.54385865E-2,1.1592708E-4,-2.4335006E-2,6.9427057E-3,-3.9089657E-2,-1.1290282E-2,1.11244135E-1,1.9405521E-2,-2.1457672E-4,-3.7590116E-3,1.8055586E-3,-2.9785398E-2,-1.6174171E-2,6.1586313E-3,6.821274E-2,-6.2007606E-2,-1.212878E-2],"categories":[],"categories_nodes":[],"categories_segments":[],"categories_sizes":[],"default_left":[1,1,1,1,1,1,1,1,1,1,1,0,0,0,0,0,0,0,0,0,0,0,0],"id":33,"left_children":[1,3,5,7,9,11,13,15,17,19,21,-1,-1,-1,-1,-1,-1,-1,-1,-1,-1,-1,-1],"loss_changes":[3.2138035E-2,1.4658993E-2,1.1342011E-2,1.4318966E-2,1.2553448E-2,1.4669269E-2,3.146393E-4,1.4013447E-3,7.1919896E-4,3.0373698E-2,2.9552514E-3,0E0,0E0,0E0,0E0,0E0,0E0,0E0,0E0,0E0,0E0,0E0,0E0],"parents":[2147483647,0,0,1,1,2,2,3,3,4,4,5,5,6,6,7,7,8,8,9,9,10,10],"right_children":[2,4,6,8,10,12,14,16,18,20,22,-1,-1,-1,-1,-1,-1,-1,-1,-1,-1,-1,-1],"split_conditions":[2.9921818E1,3.1208706E1,3.4205845E1,3.6200476E0,2.6678143E1,5.5010083E3,1.7810186E4,2.4153286E1,3.949107E0,2.570626E1,2.7411999E1,-1.1290282E-4,1.1124413E-3,1.9405522E-4,-2.1457672E-6,-3.7590115E-5,1.8055585E-5,-2.9785399E-4,-1.6174171E-4,6.158631E-5,6.821274E-4,-6.20076E-4,-1.2128779E-4],"split_indices":[0,3,0,1,0,2,2,3,1,0,0,0,0,0,0,0,0,0,0,0,0,0,0],"split_type":[0,0,0,0,0,0,0,0,0,0,0,0,0,0,0,0,0,0,0,0,0,0,0],"sum_hessian":[8.92E2,8.83E2,9E0,2.38E2,6.45E2,5E0,4E0,2.12E2,2.6E1,6.4E2,5E0,1E0,4E0,3E0,1E0,6.4E1,1.48E2,1.4E1,1.2E1,6.33E2,7E0,2E0,3E0],"tree_param":{"num_deleted":"0","num_feature":"4","num_nodes":"23","size_leaf_vector":"0"}},{"base_weights":[4.650604E-3,4.012526E-3,6.059162E-2,-2.621374E-3,6.460652E-3,8.8217214E-2,1.5322578E-2,1.1467578E-4,-2.4108678E-2,6.874439E-3,-3.882232E-2,-1.1233829E-2,1.1035419E-1,1.9259974E-2,-2.1350384E-4,-3.5331407E-4,1.3937422E-2,-2.9507402E-2,-1.6024867E-2,6.0971426E-3,6.761588E-2,-1.771355E-2,-7.218308E-2],"categories":[],"categories_nodes":[],"categories_segments":[],"categories_sizes":[],"default_left":[1,1,1,1,1,1,1,1,1,1,1,0,0,0,0,0,0,0,0,0,0,0,0],"id":34,"left_children":[1,3,5,7,9,11,13,15,17,19,21,-1,-1,-1,-1,-1,-1,-1,-1,-1,-1,-1,-1],"loss_changes":[3.163226E-2,1.4373647E-2,1.1154126E-2,1.4053656E-2,1.2371298E-2,1.4448974E-2,3.099707E-4,1.382801E-3,7.05488E-4,2.9851984E-2,2.9466078E-3,0E0,0E0,0E0,0E0,0E0,0E0,0E0,0E0,0E0,0E0,0E0,0E0],"parents":[2147483647,0,0,1,1,2,2,3,3,4,4,5,5,6,6,7,7,8,8,9,9,10,10],"right_children":[2,4,6,8,10,12,14,16,18,20,22,-1,-1,-1,-1,-1,-1,-1,-1,-1,-1,-1,-1],"split_conditions":[2.9921818E1,3.1208706E1,3.4205845E1,3.6200476E0,2.6678143E1,5.5010083E3,1.7810186E4,3.5041904E0,3.949107E0,2.570626E1,5.511098E0,-1.1233829E-4,1.1035419E-3,1.9259973E-4,-2.1350384E-6,-3.5331407E-6,1.3937421E-4,-2.9507402E-4,-1.6024867E-4,6.0971426E-5,6.761588E-4,-1.771355E-4,-7.2183076E-4],"split_indices":[0,3,0,1,0,2,2,1,1,0,1,0,0,0,0,0,0,0,0,0,0,0,0],"split_type":[0,0,0,0,0,0,0,0,0,0,0,0,0,0,0,0,0,0,0,0,0,0,0],"sum_hessian":[8.92E2,8.83E2,9E0,2.38E2,6.45E2,5E0,4E0,2.12E2,2.6E1,6.4E2,5E0,1E0,4E0,3E0,1E0,2.06E2,6E0,1.4E1,1.2E1,6.33E2,7E0,4E0,1E0],"tree_param":{"num_deleted":"0","num_feature":"4","num_nodes":"23","size_leaf_vector":"0"}},{"base_weights":[4.604882E-3,3.9718566E-3,6.010387E-2,-2.596498E-3,6.395796E-3,8.750024E-2,1.5207452E-2,1.141658E-4,-2.3884457E-2,6.6284165E-3,-7.182216E-2,-1.1177659E-2,1.0947135E-1,1.911553E-2,-2.1243095E-4,-3.7185207E-3,1.7853769E-3,-2.6144963E-2,-8.709239E-3,4.9042404E-3,1.840655E-2],"categories":[],"categories_nodes":[],"categories_segments":[],"categories_sizes":[],"default_left":[1,1,1,1,1,1,1,1,1,1,0,0,0,0,0,0,0,0,0,0,0],"id":35,"left_children":[1,3,5,7,9,11,13,15,17,19,-1,-1,-1,-1,-1,-1,-1,-1,-1,-1,-1],"loss_changes":[3.1134408E-2,1.4091029E-2,1.0969333E-2,1.3794103E-2,1.2230096E-2,1.4232013E-2,3.0537124E-4,1.3709527E-3,6.984975E-4,1.3008116E-2,0E0,0E0,0E0,0E0,0E0,0E0,0E0,0E0,0E0,0E0,0E0],"parents":[2147483647,0,0,1,1,2,2,3,3,4,4,5,5,6,6,7,7,8,8,9,9],"right_children":[2,4,6,8,10,12,14,16,18,20,-1,-1,-1,-1,-1,-1,-1,-1,-1,-1,-1],"split_conditions":[2.9921818E1,3.1208706E1,3.4205845E1,3.6200476E0,5.511098E0,5.5010083E3,1.7810186E4,2.4153286E1,2.9320606E1,1.587421E1,-7.182216E-4,-1.11776586E-4,1.0947135E-3,1.911553E-4,-2.1243095E-6,-3.7185207E-5,1.7853768E-5,-2.6144963E-4,-8.709238E-5,4.9042403E-5,1.8406549E-4],"split_indices":[0,3,0,1,1,2,2,3,3,0,0,0,0,0,0,0,0,0,0,0,0],"split_type":[0,0,0,0,0,0,0,0,0,0,0,0,0,0,0,0,0,0,0,0,0],"sum_hessian":[8.92E2,8.83E2,9E0,2.38E2,6.45E2,5E0,4E0,2.12E2,2.6E1,6.44E2,1E0,1E0,4E0,3E0,1E0,6.4E1,1.48E2,2.2E1,4E0,5.63E2,8.1E1],"tree_param":{"num_deleted":"0","num_feature":"4","num_nodes":"21","size_leaf_vector":"0"}},{"base_weights":[4.559192E-3,3.931174E-3,5.9620038E-2,-2.572073E-3,6.331089E-3,8.678907E-2,1.509319E-2,1.1293275E-4,-2.3658523E-2,6.7416616E-3,-3.8586922E-2,-1.1121772E-2,1.08595595E-1,1.8972166E-2,-2.1135807E-4,-8.4625004E-4,6.7519792E-3,-2.8999606E-2,-1.5675846E-2,5.9723966E-3,6.6863194E-2,-5.4166883E-2,-4.951328E-3],"categories":[],"categories_nodes":[],"categories_segments":[],"categories_sizes":[],"default_left":[1,1,1,1,1,1,1,1,1,1,1,0,0,0,0,0,0,0,0,0,0,0,0],"id":36,"left_children":[1,3,5,7,9,11,13,15,17,19,21,-1,-1,-1,-1,-1,-1,-1,-1,-1,-1,-1,-1],"loss_changes":[3.0644836E-2,1.3813082E-2,1.0787591E-2,1.3534193E-2,1.217374E-2,1.4018349E-2,3.0083978E-4,1.3621105E-3,6.965818E-4,2.924652E-2,2.8760498E-3,0E0,0E0,0E0,0E0,0E0,0E0,0E0,0E0,0E0,0E0,0E0,0E0],"parents":[2147483647,0,0,1,1,2,2,3,3,4,4,5,5,6,6,7,7,8,8,9,9,10,10],"right_children":[2,4,6,8,10,12,14,16,18,20,22,-1,-1,-1,-1,-1,-1,-1,-1,-1,-1,-1,-1],"split_conditions":[2.9921818E1,3.1208706E1,3.4205845E1,3.6200476E0,2.6678143E1,5.5010083E3,1.7810186E4,3.2172225E0,3.949107E0,2.570626E1,2.8523006E1,-1.1121772E-4,1.0859559E-3,1.8972166E-4,-2.1135806E-6,-8.4625E-6,6.751979E-5,-2.8999607E-4,-1.5675845E-4,5.9723963E-5,6.686319E-4,-5.416688E-4,-4.951328E-5],"split_indices":[0,3,0,1,0,2,2,1,1,0,0,0,0,0,0,0,0,0,0,0,0,0,0],"split_type":[0,0,0,0,0,0,0,0,0,0,0,0,0,0,0,0,0,0,0,0,0,0,0],"sum_hessian":[8.92E2,8.83E2,9E0,2.38E2,6.45E2,5E0,4E0,2.12E2,2.6E1,6.4E2,5E0,1E0,4E0,3E0,1E0,1.86E2,2.6E1,1.4E1,1.2E1,6.33E2,7E0,3E0,2E0],"tree_param":{"num_deleted":"0","num_feature":"4","num_nodes":"23","size_leaf_vector":"0"}},{"base_weights":[4.514621E-3,3.891579E-3,5.9140064E-2,-2.5479735E-3,6.2679905E-3,8.608363E-2,1.4979774E-2,1.1208126E-4,-2.3438482E-2,6.4984593E-3,-7.119221E-2,-1.1066161E-2,1.0772682E-1,1.8829875E-2,-2.1031499E-4,-3.4946928E-4,1.3744778E-2,-2.8728941E-2,-1.5531145E-2,4.8430213E-3,1.8470129E-2],"categories":[],"categories_nodes":[],"categories_segments":[],"categories_sizes":[],"default_left":[1,1,1,1,1,1,1,1,1,1,0,0,0,0,0,0,0,0,0,0,0],"id":37,"left_children":[1,3,5,7,9,11,13,15,17,19,-1,-1,-1,-1,-1,-1,-1,-1,-1,-1,-1],"loss_changes":[3.0162161E-2,1.3543845E-2,1.0608844E-2,1.3283834E-2,1.1995139E-2,1.3807908E-2,2.96377E-4,1.3450374E-3,6.833095E-4,1.269339E-2,0E0,0E0,0E0,0E0,0E0,0E0,0E0,0E0,0E0,0E0,0E0],"parents":[2147483647,0,0,1,1,2,2,3,3,4,4,5,5,6,6,7,7,8,8,9,9],"right_children":[2,4,6,8,10,12,14,16,18,20,-1,-1,-1,-1,-1,-1,-1,-1,-1,-1,-1],"split_conditions":[2.9921818E1,3.1208706E1,3.4205845E1,3.6200476E0,5.511098E0,5.5010083E3,1.7810186E4,3.5041904E0,3.949107E0,1.6257729E1,-7.119221E-4,-1.1066161E-4,1.0772682E-3,1.8829874E-4,-2.1031499E-6,-3.4946927E-6,1.3744777E-4,-2.872894E-4,-1.5531144E-4,4.843021E-5,1.8470129E-4],"split_indices":[0,3,0,1,1,2,2,1,1,0,0,0,0,0,0,0,0,0,0,0,0],"split_type":[0,0,0,0,0,0,0,0,0,0,0,0,0,0,0,0,0,0,0,0,0],"sum_hessian":[8.92E2,8.83E2,9E0,2.38E2,6.45E2,5E0,4E0,2.12E2,2.6E1,6.44E2,1E0,1E0,4E0,3E0,1E0,2.06E2,6E0,1.4E1,1.2E1,5.67E2,7.7E1],"tree_param":{"num_deleted":"0","num_feature":"4","num_nodes":"21","size_leaf_vector":"0"}},{"base_weights":[4.4698846E-3,3.8517732E-3,5.8663946E-2,-2.5237857E-3,6.20457E-3,8.538389E-2,1.4867216E-2,1.1158896E-4,-2.3220489E-2,6.6115083E-3,-3.8304072E-2,-1.1010833E-2,1.06865E-1,1.8688656E-2,-2.0927191E-4,-3.6759786E-3,1.7631346E-3,-2.5446475E-2,-8.336864E-3,5.850228E-3,6.611651E-2,-5.3675003E-2,-5.0414703E-3],"categories":[],"categories_nodes":[],"categories_segments":[],"categories_sizes":[],"default_left":[1,1,1,1,1,1,1,1,1,1,1,0,0,0,0,0,0,0,0,0,0,0,0],"id":38,"left_children":[1,3,5,7,9,11,13,15,17,19,21,-1,-1,-1,-1,-1,-1,-1,-1,-1,-1,-1,-1],"loss_changes":[2.9687723E-2,1.3276008E-2,1.0433048E-2,1.3038504E-2,1.1953769E-2,1.3600662E-2,2.9198045E-4,1.3388689E-3,6.823847E-4,2.8650487E-2,2.7970616E-3,0E0,0E0,0E0,0E0,0E0,0E0,0E0,0E0,0E0,0E0,0E0,0E0],"parents":[2147483647,0,0,1,1,2,2,3,3,4,4,5,5,6,6,7,7,8,8,9,9,10,10],"right_children":[2,4,6,8,10,12,14,16,18,20,22,-1,-1,-1,-1,-1,-1,-1,-1,-1,-1,-1,-1],"split_conditions":[2.9921818E1,3.1208706E1,3.4205845E1,3.6200476E0,2.6678143E1,5.5010083E3,1.7810186E4,2.4153286E1,2.9320606E1,2.570626E1,2.8523006E1,-1.10108325E-4,1.06865E-3,1.8688657E-4,-2.0927191E-6,-3.6759786E-5,1.7631346E-5,-2.5446474E-4,-8.336864E-5,5.850228E-5,6.611651E-4,-5.3675E-4,-5.0414703E-5],"split_indices":[0,3,0,1,0,2,2,3,3,0,0,0,0,0,0,0,0,0,0,0,0,0,0],"split_type":[0,0,0,0,0,0,0,0,0,0,0,0,0,0,0,0,0,0,0,0,0,0,0],"sum_hessian":[8.92E2,8.83E2,9E0,2.38E2,6.45E2,5E0,4E0,2.12E2,2.6E1,6.4E2,5E0,1E0,4E0,3E0,1E0,6.4E1,1.48E2,2.2E1,4E0,6.33E2,7E0,3E0,2E0],"tree_param":{"num_deleted":"0","num_feature":"4","num_nodes":"23","size_leaf_vector":"0"}},{"base_weights":[4.4262153E-3,3.813002E-3,5.8191642E-2,-3.920687E-3,5.7138223E-3,8.468981E-2,1.4755512E-2,-6.957492E-4,-2.520307E-2,6.179157E-4,9.190134E-3,-1.0955781E-2,1.0601009E-1,1.8548504E-2,-2.0822883E-4,-3.6397837E-3,1.4622059E-3,-2.6106944E-2,-2.6589148E-3,1.997761E-3,-1.5427154E-2,9.847362E-3,-3.801889E-2],"categories":[],"categories_nodes":[],"categories_segments":[],"categories_sizes":[],"default_left":[1,1,1,1,1,1,1,1,1,1,1,0,0,0,0,0,0,0,0,0,0,0,0],"id":39,"left_children":[1,3,5,7,9,11,13,15,17,19,21,-1,-1,-1,-1,-1,-1,-1,-1,-1,-1,-1,-1],"loss_changes":[2.922003E-2,1.3017515E-2,1.0260139E-2,1.1993479E-2,1.2571942E-2,1.3396565E-2,2.876491E-4,9.773455E-4,3.9925706E-4,6.429197E-3,1.3467815E-2,0E0,0E0,0E0,0E0,0E0,0E0,0E0,0E0,0E0,0E0,0E0,0E0],"parents":[2147483647,0,0,1,1,2,2,3,3,4,4,5,5,6,6,7,7,8,8,9,9,10,10],"right_children":[2,4,6,8,10,12,14,16,18,20,22,-1,-1,-1,-1,-1,-1,-1,-1,-1,-1,-1,-1],"split_conditions":[2.9921818E1,2.899407E1,3.4205845E1,3.6012483E0,2.8623238E0,5.5010083E3,1.7810186E4,2.4153286E1,7.6412854E2,2.5168564E3,2.6678143E1,-1.09557805E-4,1.0601009E-3,1.8548503E-4,-2.0822881E-6,-3.6397836E-5,1.4622058E-5,-2.6106945E-4,-2.6589147E-5,1.997761E-5,-1.5427153E-4,9.847361E-5,-3.801889E-4],"split_indices":[0,3,0,1,1,2,2,3,2,2,0,0,0,0,0,0,0,0,0,0,0,0,0],"split_type":[0,0,0,0,0,0,0,0,0,0,0,0,0,0,0,0,0,0,0,0,0,0,0],"sum_hessian":[8.92E2,8.83E2,9E0,1.74E2,7.09E2,5E0,4E0,1.52E2,2.2E1,2.88E2,4.21E2,1E0,4E0,3E0,1E0,6.4E1,8.8E1,2.1E1,1E0,2.66E2,2.2E1,4.16E2,5E0],"tree_param":{"num_deleted":"0","num_feature":"4","num_nodes":"23","size_leaf_vector":"0"}},{"base_weights":[4.382411E-3,3.7740518E-3,5.772312E-2,-2.4865172E-3,6.0844263E-3,8.400134E-2,1.4644635E-2,1.0154318E-4,-2.2811346E-2,6.3120853E-3,-7.037779E-2,-1.0901004E-2,1.0516201E-1,1.8409386E-2,-2.0718575E-4,-8.392004E-4,6.6133025E-3,-2.8015016E-2,-1.5052391E-2,4.632219E-3,1.7789308E-2],"categories":[],"categories_nodes":[],"categories_segments":[],"categories_sizes":[],"default_left":[1,1,1,1,1,1,1,1,1,1,0,0,0,0,0,0,0,0,0,0,0],"id":40,"left_children":[1,3,5,7,9,11,13,15,17,19,-1,-1,-1,-1,-1,-1,-1,-1,-1,-1,-1],"loss_changes":[2.8760275E-2,1.28015345E-2,1.009009E-2,1.2574168E-2,1.168935E-2,1.3195556E-2,2.833811E-4,1.3103656E-3,6.6843163E-4,1.2353322E-2,0E0,0E0,0E0,0E0,0E0,0E0,0E0,0E0,0E0,0E0,0E0],"parents":[2147483647,0,0,1,1,2,2,3,3,4,4,5,5,6,6,7,7,8,8,9,9],"right_children":[2,4,6,8,10,12,14,16,18,20,-1,-1,-1,-1,-1,-1,-1,-1,-1,-1,-1],"split_conditions":[2.9921818E1,3.1208706E1,3.4205845E1,3.6200476E0,5.511098E0,5.5010083E3,1.7810186E4,3.2172225E0,3.949107E0,1.587421E1,-7.037779E-4,-1.0901004E-4,1.0516201E-3,1.8409386E-4,-2.0718574E-6,-8.392004E-6,6.613303E-5,-2.8015015E-4,-1.505239E-4,4.632219E-5,1.7789307E-4],"split_indices":[0,3,0,1,1,2,2,1,1,0,0,0,0,0,0,0,0,0,0,0,0],"split_type":[0,0,0,0,0,0,0,0,0,0,0,0,0,0,0,0,0,0,0,0,0],"sum_hessian":[8.92E2,8.83E2,9E0,2.38E2,6.45E2,5E0,4E0,2.12E2,2.6E1,6.44E2,1E0,1E0,4E0,3E0,1E0,1.86E2,2.6E1,1.4E1,1.2E1,5.63E2,8.1E1],"tree_param":{"num_deleted":"0","num_feature":"4","num_nodes":"21","size_leaf_vector":"0"}},{"base_weights":[4.3388917E-3,3.7353472E-3,5.7258345E-2,-2.463212E-3,6.02284E-3,8.331842E-2,1.4534587E-2,1.0079945E-4,-2.2599183E-2,6.2493123E-3,-7.00259E-2,-1.0846496E-2,1.043207E-1,1.8271305E-2,-2.0614266E-4,-3.52622E-4,1.349472E-2,-2.7753543E-2,-1.4913445E-2,4.63211E-3,1.7945744E-2],"categories":[],"categories_nodes":[],"categories_segments":[],"categories_sizes":[],"default_left":[1,1,1,1,1,1,1,1,1,1,0,0,0,0,0,0,0,0,0,0,0],"id":41,"left_children":[1,3,5,7,9,11,13,15,17,19,-1,-1,-1,-1,-1,-1,-1,-1,-1,-1,-1],"loss_changes":[2.830787E-2,1.2549211E-2,9.922843E-3,1.2341576E-2,1.1563633E-2,1.2997583E-2,2.7917628E-4,1.298327E-3,6.557051E-4,1.2117367E-2,0E0,0E0,0E0,0E0,0E0,0E0,0E0,0E0,0E0,0E0,0E0],"parents":[2147483647,0,0,1,1,2,2,3,3,4,4,5,5,6,6,7,7,8,8,9,9],"right_children":[2,4,6,8,10,12,14,16,18,20,-1,-1,-1,-1,-1,-1,-1,-1,-1,-1,-1],"split_conditions":[2.9921818E1,3.1208706E1,3.4205845E1,3.6200476E0,5.511098E0,5.5010083E3,1.7810186E4,3.5041904E0,3.949107E0,1.6257729E1,-7.0025894E-4,-1.08464956E-4,1.0432069E-3,1.8271305E-4,-2.0614266E-6,-3.52622E-6,1.349472E-4,-2.7753544E-4,-1.4913444E-4,4.6321096E-5,1.7945743E-4],"split_indices":[0,3,0,1,1,2,2,1,1,0,0,0,0,0,0,0,0,0,0,0,0],"split_type":[0,0,0,0,0,0,0,0,0,0,0,0,0,0,0,0,0,0,0,0,0],"sum_hessian":[8.92E2,8.83E2,9E0,2.38E2,6.45E2,5E0,4E0,2.12E2,2.6E1,6.44E2,1E0,1E0,4E0,3E0,1E0,2.06E2,6E0,1.4E1,1.2E1,5.67E2,7.7E1],"tree_param":{"num_deleted":"0","num_feature":"4","num_nodes":"21","size_leaf_vector":"0"}},{"base_weights":[4.29589E-3,3.6971231E-3,5.679731E-2,-3.8240273E-3,5.5457205E-3,8.264103E-2,1.4425385E-2,-6.862089E-4,-2.453108E-2,5.3269754E-4,8.965668E-3,-1.0792263E-2,1.03486136E-1,1.8134281E-2,-2.0509958E-4,-3.5979433E-3,1.448049E-3,-2.5419237E-2,-2.4957918E-3,1.9004429E-3,-1.5368203E-2,9.615707E-3,-3.7706293E-2],"categories":[],"categories_nodes":[],"categories_segments":[],"categories_sizes":[],"default_left":[1,1,1,1,1,1,1,1,1,1,1,0,0,0,0,0,0,0,0,0,0,0,0],"id":42,"left_children":[1,3,5,7,9,11,13,15,17,19,21,-1,-1,-1,-1,-1,-1,-1,-1,-1,-1,-1,-1],"loss_changes":[2.7862467E-2,1.231197E-2,9.758353E-3,1.1353786E-2,1.2167662E-2,1.2802616E-2,2.750341E-4,9.5601205E-4,3.8668793E-4,6.3144886E-3,1.3165448E-2,0E0,0E0,0E0,0E0,0E0,0E0,0E0,0E0,0E0,0E0,0E0,0E0],"parents":[2147483647,0,0,1,1,2,2,3,3,4,4,5,5,6,6,7,7,8,8,9,9,10,10],"right_children":[2,4,6,8,10,12,14,16,18,20,22,-1,-1,-1,-1,-1,-1,-1,-1,-1,-1,-1,-1],"split_conditions":[2.9921818E1,2.899407E1,3.4205845E1,3.6012483E0,2.8623238E0,5.5010083E3,1.7810186E4,2.4153286E1,7.6412854E2,2.5168564E3,2.6678143E1,-1.0792263E-4,1.0348613E-3,1.8134281E-4,-2.0509958E-6,-3.5979432E-5,1.448049E-5,-2.5419236E-4,-2.4957917E-5,1.9004428E-5,-1.5368202E-4,9.615707E-5,-3.770629E-4],"split_indices":[0,3,0,1,1,2,2,3,2,2,0,0,0,0,0,0,0,0,0,0,0,0,0],"split_type":[0,0,0,0,0,0,0,0,0,0,0,0,0,0,0,0,0,0,0,0,0,0,0],"sum_hessian":[8.92E2,8.83E2,9E0,1.74E2,7.09E2,5E0,4E0,1.52E2,2.2E1,2.88E2,4.21E2,1E0,4E0,3E0,1E0,6.4E1,8.8E1,2.1E1,1E0,2.66E2,2.2E1,4.16E2,5E0],"tree_param":{"num_deleted":"0","num_feature":"4","num_nodes":"23","size_leaf_vector":"0"}},{"base_weights":[4.2533684E-3,3.6593422E-3,5.6339964E-2,-2.4265544E-3,5.905271E-3,8.196911E-2,1.4316994E-2,9.191566E-5,-2.2204613E-2,6.1298907E-3,-6.948724E-2,-1.0738298E-2,1.0265826E-1,1.7998286E-2,-2.040863E-4,-3.5585373E-4,1.3319965E-2,-2.7280623E-2,-1.4639631E-2,4.5305295E-3,1.7697932E-2],"categories":[],"categories_nodes":[],"categories_segments":[],"categories_sizes":[],"default_left":[1,1,1,1,1,1,1,1,1,1,0,0,0,0,0,0,0,0,0,0,0],"id":43,"left_children":[1,3,5,7,9,11,13,15,17,19,-1,-1,-1,-1,-1,-1,-1,-1,-1,-1,-1],"loss_changes":[2.7423978E-2,1.2097273E-2,9.596579E-3,1.1906737E-2,1.136573E-2,1.2610596E-2,2.7095492E-4,1.2663635E-3,6.3742045E-4,1.1853274E-2,0E0,0E0,0E0,0E0,0E0,0E0,0E0,0E0,0E0,0E0,0E0],"parents":[2147483647,0,0,1,1,2,2,3,3,4,4,5,5,6,6,7,7,8,8,9,9],"right_children":[2,4,6,8,10,12,14,16,18,20,-1,-1,-1,-1,-1,-1,-1,-1,-1,-1,-1],"split_conditions":[2.9921818E1,3.1208706E1,3.4205845E1,3.6200476E0,5.511098E0,5.5010083E3,1.7810186E4,3.5041904E0,3.949107E0,1.6257729E1,-6.9487235E-4,-1.0738298E-4,1.0265826E-3,1.7998285E-4,-2.040863E-6,-3.5585372E-6,1.3319965E-4,-2.7280624E-4,-1.4639631E-4,4.5305293E-5,1.7697932E-4],"split_indices":[0,3,0,1,1,2,2,1,1,0,0,0,0,0,0,0,0,0,0,0,0],"split_type":[0,0,0,0,0,0,0,0,0,0,0,0,0,0,0,0,0,0,0,0,0],"sum_hessian":[8.92E2,8.83E2,9E0,2.38E2,6.45E2,5E0,4E0,2.12E2,2.6E1,6.44E2,1E0,1E0,4E0,3E0,1E0,2.06E2,6E0,1.4E1,1.2E1,5.67E2,7.7E1],"tree_param":{"num_deleted":"0","num_feature":"4","num_nodes":"21","size_leaf_vector":"0"}},{"base_weights":[4.2112092E-3,3.621886E-3,5.5886276E-2,-2.4035014E-3,5.845486E-3,8.130263E-2,1.4209402E-2,9.160435E-5,-2.1998094E-2,6.241107E-3,-3.7394248E-2,-1.0684609E-2,1.01836994E-1,1.7863289E-2,-2.0307302E-4,-8.280118E-4,6.4574047E-3,-2.7026007E-2,-1.4504496E-2,5.4910854E-3,6.4900175E-2,-5.244694E-2,-4.859239E-3],"categories":[],"categories_nodes":[],"categories_segments":[],"categories_sizes":[],"default_left":[1,1,1,1,1,1,1,1,1,1,1,0,0,0,0,0,0,0,0,0,0,0,0],"id":44,"left_children":[1,3,5,7,9,11,13,15,17,19,21,-1,-1,-1,-1,-1,-1,-1,-1,-1,-1,-1,-1],"loss_changes":[2.6992407E-2,1.1857926E-2,9.437479E-3,1.1686864E-2,1.1284206E-2,1.24214925E-2,2.669352E-4,1.2522686E-3,6.252844E-4,2.7844783E-2,2.6835846E-3,0E0,0E0,0E0,0E0,0E0,0E0,0E0,0E0,0E0,0E0,0E0,0E0],"parents":[2147483647,0,0,1,1,2,2,3,3,4,4,5,5,6,6,7,7,8,8,9,9,10,10],"right_children":[2,4,6,8,10,12,14,16,18,20,22,-1,-1,-1,-1,-1,-1,-1,-1,-1,-1,-1,-1],"split_conditions":[2.9921818E1,3.1208706E1,3.4205845E1,3.6200476E0,2.6678143E1,5.5010083E3,1.7810186E4,3.2172225E0,3.949107E0,2.570626E1,2.8523006E1,-1.0684609E-4,1.0183699E-3,1.7863288E-4,-2.0307302E-6,-8.280118E-6,6.4574044E-5,-2.7026006E-4,-1.4504496E-4,5.491085E-5,6.4900174E-4,-5.2446936E-4,-4.859239E-5],"split_indices":[0,3,0,1,0,2,2,1,1,0,0,0,0,0,0,0,0,0,0,0,0,0,0],"split_type":[0,0,0,0,0,0,0,0,0,0,0,0,0,0,0,0,0,0,0,0,0,0,0],"sum_hessian":[8.92E2,8.83E2,9E0,2.38E2,6.45E2,5E0,4E0,2.12E2,2.6E1,6.4E2,5E0,1E0,4E0,3E0,1E0,1.86E2,2.6E1,1.4E1,1.2E1,6.33E2,7E0,3E0,2E0],"tree_param":{"num_deleted":"0","num_feature":"4","num_nodes":"23","size_leaf_vector":"0"}},{"base_weights":[4.17006E-3,3.585409E-3,5.5436224E-2,-3.7296996E-3,5.383379E-3,8.0641516E-2,1.4102626E-2,-6.7665655E-4,-2.3876913E-2,4.4176876E-4,8.754806E-3,-1.0631189E-2,1.01022296E-1,1.7729312E-2,-2.0205975E-4,-3.5564657E-3,1.4341776E-3,-2.4749719E-2,-2.3375899E-3,1.7976165E-3,-1.5317062E-2,9.39382E-3,-3.711582E-2],"categories":[],"categories_nodes":[],"categories_segments":[],"categories_sizes":[],"default_left":[1,1,1,1,1,1,1,1,1,1,1,0,0,0,0,0,0,0,0,0,0,0,0],"id":45,"left_children":[1,3,5,7,9,11,13,15,17,19,21,-1,-1,-1,-1,-1,-1,-1,-1,-1,-1,-1,-1],"loss_changes":[2.6566973E-2,1.164675E-2,9.280998E-3,1.0748147E-2,1.182493E-2,1.2235243E-2,2.6297534E-4,9.351569E-4,3.745379E-4,6.2024733E-3,1.2718312E-2,0E0,0E0,0E0,0E0,0E0,0E0,0E0,0E0,0E0,0E0,0E0,0E0],"parents":[2147483647,0,0,1,1,2,2,3,3,4,4,5,5,6,6,7,7,8,8,9,9,10,10],"right_children":[2,4,6,8,10,12,14,16,18,20,22,-1,-1,-1,-1,-1,-1,-1,-1,-1,-1,-1,-1],"split_conditions":[2.9921818E1,2.899407E1,3.4205845E1,3.6012483E0,2.8623238E0,5.5010083E3,1.7810186E4,2.4153286E1,7.6412854E2,2.5168564E3,2.6678143E1,-1.0631188E-4,1.010223E-3,1.7729311E-4,-2.0205973E-6,-3.5564655E-5,1.4341776E-5,-2.4749717E-4,-2.3375898E-5,1.7976165E-5,-1.5317062E-4,9.393819E-5,-3.7115818E-4],"split_indices":[0,3,0,1,1,2,2,3,2,2,0,0,0,0,0,0,0,0,0,0,0,0,0],"split_type":[0,0,0,0,0,0,0,0,0,0,0,0,0,0,0,0,0,0,0,0,0,0,0],"sum_hessian":[8.92E2,8.83E2,9E0,1.74E2,7.09E2,5E0,4E0,1.52E2,2.2E1,2.88E2,4.21E2,1E0,4E0,3E0,1E0,6.4E1,8.8E1,2.1E1,1E0,2.66E2,2.2E1,4.16E2,5E0],"tree_param":{"num_deleted":"0","num_feature":"4","num_nodes":"23","size_leaf_vector":"0"}},{"base_weights":[4.12878E-3,3.2614004E-3,3.832089E-2,3.550892E-3,-4.7646645E-2,-2.065412E-3,7.889496E-2,2.2442625E-3,1.5406008E-2,4.027614E-2,-2.065439E-2,1.5031807E-1,1.6607735E-2,2.785918E-3,-3.6023375E-2,2.6117578E-2,-2.5888633E-3,-3.683425E-2,2.3983419E-2,2.8649628E-2,9.825815E-3],"categories":[],"categories_nodes":[],"categories_segments":[],"categories_sizes":[],"default_left":[1,1,1,1,0,1,1,1,1,0,1,0,1,0,0,0,0,0,0,0,0],"id":46,"left_children":[1,3,5,7,-1,9,11,13,15,-1,17,-1,19,-1,-1,-1,-1,-1,-1,-1,-1],"loss_changes":[2.635921E-2,1.3020252E-2,3.6212955E-2,1.3410956E-2,0E0,1.0276913E-2,4.6439774E-2,1.6330289E-2,1.66444E-2,0E0,7.383514E-3,0E0,2.9016414E-4,0E0,0E0,0E0,0E0,0E0,0E0,0E0,0E0],"parents":[2147483647,0,0,1,1,2,2,3,3,5,5,6,6,7,7,8,8,10,10,12,12],"right_children":[2,4,6,8,-1,10,12,14,16,-1,18,-1,20,-1,-1,-1,-1,-1,-1,-1,-1],"split_conditions":[2.570626E1,1.15224375E4,9.185846E3,1.5071899E1,-4.7646643E-4,2.628263E1,1.2128723E4,5.7238574E3,1.8794497E1,4.027614E-4,3.0953249E1,1.5031807E-3,2.6540777E1,2.785918E-5,-3.6023374E-4,2.6117577E-4,-2.5888632E-5,-3.683425E-4,2.3983419E-4,2.8649627E-4,9.8258155E-5],"split_indices":[0,2,2,0,0,0,2,2,0,0,0,0,0,0,0,0,0,0,0,0,0],"split_type":[0,0,0,0,0,0,0,0,0,0,0,0,0,0,0,0,0,0,0,0,0],"sum_hessian":[8.92E2,8.71E2,2.1E1,8.67E2,4E0,1.1E1,1E1,7.82E2,8.5E1,3E0,8E0,4E0,6E0,7.72E2,1E1,5.3E1,3.2E1,6E0,2E0,1E0,5E0],"tree_param":{"num_deleted":"0","num_feature":"4","num_nodes":"21","size_leaf_vector":"0"}},{"base_weights":[4.0892726E-3,3.2281298E-3,3.8035974E-2,3.5152724E-3,-4.7265463E-2,-2.021897E-3,7.827765E-2,2.2213964E-3,1.5254686E-2,3.9974075E-2,-2.0462118E-2,1.4911553E-1,1.6496638E-2,2.758096E-3,-3.5695888E-2,2.586124E-2,-2.5637592E-3,-3.6518525E-2,2.3823539E-2,2.8506383E-2,9.7439485E-3],"categories":[],"categories_nodes":[],"categories_segments":[],"categories_sizes":[],"default_left":[1,1,1,1,0,1,1,1,1,0,1,0,1,0,0,0,0,0,0,0,0],"id":47,"left_children":[1,3,5,7,-1,9,11,13,15,-1,17,-1,19,-1,-1,-1,-1,-1,-1,-1,-1],"loss_changes":[2.5982246E-2,1.2809162E-2,3.562218E-2,1.3150465E-2,0E0,1.0110934E-2,4.5680895E-2,1.6032653E-2,1.631964E-2,0E0,7.2696176E-3,0E0,2.8992177E-4,0E0,0E0,0E0,0E0,0E0,0E0,0E0,0E0],"parents":[2147483647,0,0,1,1,2,2,3,3,5,5,6,6,7,7,8,8,10,10,12,12],"right_children":[2,4,6,8,-1,10,12,14,16,-1,18,-1,20,-1,-1,-1,-1,-1,-1,-1,-1],"split_conditions":[2.570626E1,1.15224375E4,9.185846E3,1.5071899E1,-4.7265462E-4,2.628263E1,1.2128723E4,5.7238574E3,1.8794497E1,3.9974073E-4,3.0953249E1,1.4911552E-3,2.6540777E1,2.758096E-5,-3.5695886E-4,2.5861242E-4,-2.5637592E-5,-3.6518523E-4,2.3823539E-4,2.8506384E-4,9.7439486E-5],"split_indices":[0,2,2,0,0,0,2,2,0,0,0,0,0,0,0,0,0,0,0,0,0],"split_type":[0,0,0,0,0,0,0,0,0,0,0,0,0,0,0,0,0,0,0,0,0],"sum_hessian":[8.92E2,8.71E2,2.1E1,8.67E2,4E0,1.1E1,1E1,7.82E2,8.5E1,3E0,8E0,4E0,6E0,7.72E2,1E1,5.3E1,3.2E1,6E0,2E0,1E0,5E0],"tree_param":{"num_deleted":"0","num_feature":"4","num_nodes":"21","size_leaf_vector":"0"}},{"base_weights":[4.050146E-3,3.1951952E-3,3.7753176E-2,3.4800079E-3,-4.6887334E-2,-1.9789443E-3,7.76652E-2,2.1987609E-3,1.5104851E-2,3.967427E-2,-2.0271601E-2,1.479226E-1,1.6386304E-2,2.7305498E-3,-3.537138E-2,2.5607422E-2,-2.5388966E-3,-3.6205508E-2,2.3664713E-2,2.8363854E-2,9.662737E-3],"categories":[],"categories_nodes":[],"categories_segments":[],"categories_sizes":[],"default_left":[1,1,1,1,0,1,1,1,1,0,1,0,1,0,0,0,0,0,0,0,0],"id":48,"left_children":[1,3,5,7,-1,9,11,13,15,-1,17,-1,19,-1,-1,-1,-1,-1,-1,-1,-1],"loss_changes":[2.5610648E-2,1.2601501E-2,3.5041064E-2,1.28950365E-2,0E0,9.947637E-3,4.4934362E-2,1.5740443E-2,1.6001219E-2,0E0,7.157487E-3,0E0,2.8965063E-4,0E0,0E0,0E0,0E0,0E0,0E0,0E0,0E0],"parents":[2147483647,0,0,1,1,2,2,3,3,5,5,6,6,7,7,8,8,10,10,12,12],"right_children":[2,4,6,8,-1,10,12,14,16,-1,18,-1,20,-1,-1,-1,-1,-1,-1,-1,-1],"split_conditions":[2.570626E1,1.15224375E4,9.185846E3,1.5071899E1,-4.6887333E-4,2.628263E1,1.2128723E4,5.7238574E3,1.8794497E1,3.967427E-4,3.0953249E1,1.479226E-3,2.6540777E1,2.7305497E-5,-3.537138E-4,2.560742E-4,-2.5388967E-5,-3.6205506E-4,2.3664713E-4,2.8363854E-4,9.662737E-5],"split_indices":[0,2,2,0,0,0,2,2,0,0,0,0,0,0,0,0,0,0,0,0,0],"split_type":[0,0,0,0,0,0,0,0,0,0,0,0,0,0,0,0,0,0,0,0,0],"sum_hessian":[8.92E2,8.71E2,2.1E1,8.67E2,4E0,1.1E1,1E1,7.82E2,8.5E1,3E0,8E0,4E0,6E0,7.72E2,1E1,5.3E1,3.2E1,6E0,2E0,1E0,5E0],"tree_param":{"num_deleted":"0","num_feature":"4","num_nodes":"21","size_leaf_vector":"0"}},{"base_weights":[4.0113977E-3,3.1625952E-3,3.74725E-2,3.445097E-3,-4.651223E-2,-1.9365419E-3,7.705759E-2,2.1763558E-3,1.4956485E-2,3.937672E-2,-2.008282E-2,1.4673921E-1,1.6276773E-2,2.703279E-3,-3.504983E-2,2.5356086E-2,-2.5142743E-3,-3.5895173E-2,2.350694E-2,2.822204E-2,9.5822215E-3],"categories":[],"categories_nodes":[],"categories_segments":[],"categories_sizes":[],"default_left":[1,1,1,1,0,1,1,1,1,0,1,0,1,0,0,0,0,0,0,0,0],"id":49,"left_children":[1,3,5,7,-1,9,11,13,15,-1,17,-1,19,-1,-1,-1,-1,-1,-1,-1,-1],"loss_changes":[2.5244355E-2,1.2397213E-2,3.4469455E-2,1.2644563E-2,0E0,9.786979E-3,4.4199936E-2,1.5453563E-2,1.5689004E-2,0E0,7.0470953E-3,0E0,2.893475E-4,0E0,0E0,0E0,0E0,0E0,0E0,0E0,0E0],"parents":[2147483647,0,0,1,1,2,2,3,3,5,5,6,6,7,7,8,8,10,10,12,12],"right_children":[2,4,6,8,-1,10,12,14,16,-1,18,-1,20,-1,-1,-1,-1,-1,-1,-1,-1],"split_conditions":[2.570626E1,1.15224375E4,9.185846E3,1.5071899E1,-4.651223E-4,2.628263E1,1.2128723E4,5.7238574E3,1.8794497E1,3.937672E-4,3.0953249E1,1.4673921E-3,2.6540777E1,2.703279E-5,-3.5049827E-4,2.5356087E-4,-2.5142743E-5,-3.5895171E-4,2.3506938E-4,2.822204E-4,9.5822215E-5],"split_indices":[0,2,2,0,0,0,2,2,0,0,0,0,0,0,0,0,0,0,0,0,0],"split_type":[0,0,0,0,0,0,0,0,0,0,0,0,0,0,0,0,0,0,0,0,0],"sum_hessian":[8.92E2,8.71E2,2.1E1,8.67E2,4E0,1.1E1,1E1,7.82E2,8.5E1,3E0,8E0,4E0,6E0,7.72E2,1E1,5.3E1,3.2E1,6E0,2E0,1E0,5E0],"tree_param":{"num_deleted":"0","num_feature":"4","num_nodes":"21","size_leaf_vector":"0"}},{"base_weights":[3.9730254E-3,3.1303274E-3,3.7193917E-2,3.410537E-3,-4.614013E-2,-1.8946907E-3,7.645477E-2,2.1541794E-3,1.4809578E-2,3.908139E-2,-1.9895762E-2,1.455653E-1,1.6168002E-2,2.6762814E-3,-3.4731187E-2,2.5107224E-2,-2.4898928E-3,-3.55875E-2,2.3350218E-2,2.8080925E-2,9.5023615E-3],"categories":[],"categories_nodes":[],"categories_segments":[],"categories_sizes":[],"default_left":[1,1,1,1,0,1,1,1,1,0,1,0,1,0,0,0,0,0,0,0,0],"id":50,"left_children":[1,3,5,7,-1,9,11,13,15,-1,17,-1,19,-1,-1,-1,-1,-1,-1,-1,-1],"loss_changes":[2.4883267E-2,1.2196246E-2,3.3907205E-2,1.2398961E-2,0E0,9.628914E-3,4.347746E-2,1.5171906E-2,1.5382884E-2,0E0,6.9384184E-3,0E0,2.8901582E-4,0E0,0E0,0E0,0E0,0E0,0E0,0E0,0E0],"parents":[2147483647,0,0,1,1,2,2,3,3,5,5,6,6,7,7,8,8,10,10,12,12],"right_children":[2,4,6,8,-1,10,12,14,16,-1,18,-1,20,-1,-1,-1,-1,-1,-1,-1,-1],"split_conditions":[2.570626E1,1.15224375E4,9.185846E3,1.5071899E1,-4.614013E-4,2.628263E1,1.2128723E4,5.7238574E3,1.8794497E1,3.908139E-4,3.0953249E1,1.455653E-3,2.6540777E1,2.6762813E-5,-3.4731187E-4,2.5107223E-4,-2.4898927E-5,-3.55875E-4,2.3350217E-4,2.8080924E-4,9.502361E-5],"split_indices":[0,2,2,0,0,0,2,2,0,0,0,0,0,0,0,0,0,0,0,0,0],"split_type":[0,0,0,0,0,0,0,0,0,0,0,0,0,0,0,0,0,0,0,0,0],"sum_hessian":[8.92E2,8.71E2,2.1E1,8.67E2,4E0,1.1E1,1E1,7.82E2,8.5E1,3E0,8E0,4E0,6E0,7.72E2,1E1,5.3E1,3.2E1,6E0,2E0,1E0,5E0],"tree_param":{"num_deleted":"0","num_feature":"4","num_nodes":"21","size_leaf_vector":"0"}},{"base_weights":[3.9350246E-3,3.098387E-3,3.691743E-2,3.3763233E-3,-4.577101E-2,-1.8533779E-3,7.585672E-2,2.1322286E-3,1.4664112E-2,3.8788274E-2,-1.9710403E-2,1.4440076E-1,1.6060024E-2,2.6495536E-3,-3.4415446E-2,2.4860803E-2,-2.465752E-3,-3.528247E-2,2.3194551E-2,2.7940527E-2,9.423186E-3],"categories":[],"categories_nodes":[],"categories_segments":[],"categories_sizes":[],"default_left":[1,1,1,1,0,1,1,1,1,0,1,0,1,0,0,0,0,0,0,0,0],"id":51,"left_children":[1,3,5,7,-1,9,11,13,15,-1,17,-1,19,-1,-1,-1,-1,-1,-1,-1,-1],"loss_changes":[2.4527343E-2,1.19985435E-2,3.3354156E-2,1.2158123E-2,0E0,9.4734E-3,4.2766705E-2,1.4895385E-2,1.5082745E-2,0E0,6.831431E-3,0E0,2.88654E-4,0E0,0E0,0E0,0E0,0E0,0E0,0E0,0E0],"parents":[2147483647,0,0,1,1,2,2,3,3,5,5,6,6,7,7,8,8,10,10,12,12],"right_children":[2,4,6,8,-1,10,12,14,16,-1,18,-1,20,-1,-1,-1,-1,-1,-1,-1,-1],"split_conditions":[2.570626E1,1.15224375E4,9.185846E3,1.5071899E1,-4.577101E-4,2.628263E1,1.2128723E4,5.7238574E3,1.8794497E1,3.8788273E-4,3.0953249E1,1.4440076E-3,2.6540777E1,2.6495536E-5,-3.4415445E-4,2.4860803E-4,-2.4657518E-5,-3.528247E-4,2.3194551E-4,2.7940527E-4,9.423186E-5],"split_indices":[0,2,2,0,0,0,2,2,0,0,0,0,0,0,0,0,0,0,0,0,0],"split_type":[0,0,0,0,0,0,0,0,0,0,0,0,0,0,0,0,0,0,0,0,0],"sum_hessian":[8.92E2,8.71E2,2.1E1,8.67E2,4E0,1.1E1,1E1,7.82E2,8.5E1,3E0,8E0,4E0,6E0,7.72E2,1E1,5.3E1,3.2E1,6E0,2E0,1E0,5E0],"tree_param":{"num_deleted":"0","num_feature":"4","num_nodes":"21","size_leaf_vector":"0"}},{"base_weights":[3.897392E-3,3.0667714E-3,3.6643013E-2,3.3424527E-3,-4.5404848E-2,-1.8125916E-3,7.5263396E-2,2.1105018E-3,1.4520072E-2,3.8497366E-2,-1.952673E-2,1.4324555E-1,1.59528E-2,2.6230933E-3,-3.4102578E-2,2.4616797E-2,-2.441843E-3,-3.4980044E-2,2.3039917E-2,2.7800828E-2,9.344657E-3],"categories":[],"categories_nodes":[],"categories_segments":[],"categories_sizes":[],"default_left":[1,1,1,1,0,1,1,1,1,0,1,0,1,0,0,0,0,0,0,0,0],"id":52,"left_children":[1,3,5,7,-1,9,11,13,15,-1,17,-1,19,-1,-1,-1,-1,-1,-1,-1,-1],"loss_changes":[2.4176493E-2,1.1804053E-2,3.2810166E-2,1.1921959E-2,0E0,9.320402E-3,4.206751E-2,1.4623908E-2,1.4788453E-2,0E0,6.7260996E-3,0E0,2.8826494E-4,0E0,0E0,0E0,0E0,0E0,0E0,0E0,0E0],"parents":[2147483647,0,0,1,1,2,2,3,3,5,5,6,6,7,7,8,8,10,10,12,12],"right_children":[2,4,6,8,-1,10,12,14,16,-1,18,-1,20,-1,-1,-1,-1,-1,-1,-1,-1],"split_conditions":[2.570626E1,1.15224375E4,9.185846E3,1.5071899E1,-4.5404848E-4,2.628263E1,1.2128723E4,5.7238574E3,1.8794497E1,3.8497365E-4,3.0953249E1,1.4324555E-3,2.6540777E1,2.6230933E-5,-3.4102576E-4,2.4616797E-4,-2.441843E-5,-3.4980042E-4,2.3039916E-4,2.780083E-4,9.3446564E-5],"split_indices":[0,2,2,0,0,0,2,2,0,0,0,0,0,0,0,0,0,0,0,0,0],"split_type":[0,0,0,0,0,0,0,0,0,0,0,0,0,0,0,0,0,0,0,0,0],"sum_hessian":[8.92E2,8.71E2,2.1E1,8.67E2,4E0,1.1E1,1E1,7.82E2,8.5E1,3E0,8E0,4E0,6E0,7.72E2,1E1,5.3E1,3.2E1,6E0,2E0,1E0,5E0],"tree_param":{"num_deleted":"0","num_feature":"4","num_nodes":"21","size_leaf_vector":"0"}},{"base_weights":[3.8601225E-3,3.035476E-3,3.6370646E-2,3.3089207E-3,-4.5041613E-2,-1.772338E-3,7.4674755E-2,2.0889943E-3,1.4377451E-2,3.820863E-2,-1.934473E-2,1.4209959E-1,1.5846329E-2,2.596896E-3,-3.379255E-2,2.437519E-2,-2.4181653E-3,-3.4680218E-2,2.2886315E-2,2.766183E-2,9.266774E-3],"categories":[],"categories_nodes":[],"categories_segments":[],"categories_sizes":[],"default_left":[1,1,1,1,0,1,1,1,1,0,1,0,1,0,0,0,0,0,0,0,0],"id":53,"left_children":[1,3,5,7,-1,9,11,13,15,-1,17,-1,19,-1,-1,-1,-1,-1,-1,-1,-1],"loss_changes":[2.3830652E-2,1.1612723E-2,3.2275066E-2,1.1690389E-2,0E0,9.169871E-3,4.137971E-2,1.4357382E-2,1.4499906E-2,0E0,6.622406E-3,0E0,2.8784934E-4,0E0,0E0,0E0,0E0,0E0,0E0,0E0,0E0],"parents":[2147483647,0,0,1,1,2,2,3,3,5,5,6,6,7,7,8,8,10,10,12,12],"right_children":[2,4,6,8,-1,10,12,14,16,-1,18,-1,20,-1,-1,-1,-1,-1,-1,-1,-1],"split_conditions":[2.570626E1,1.15224375E4,9.185846E3,1.5071899E1,-4.5041612E-4,2.628263E1,1.2128723E4,5.7238574E3,1.8794497E1,3.820863E-4,3.0953249E1,1.4209958E-3,2.6540777E1,2.5968959E-5,-3.379255E-4,2.4375189E-4,-2.4181652E-5,-3.4680218E-4,2.2886315E-4,2.766183E-4,9.266774E-5],"split_indices":[0,2,2,0,0,0,2,2,0,0,0,0,0,0,0,0,0,0,0,0,0],"split_type":[0,0,0,0,0,0,0,0,0,0,0,0,0,0,0,0,0,0,0,0,0],"sum_hessian":[8.92E2,8.71E2,2.1E1,8.67E2,4E0,1.1E1,1E1,7.82E2,8.5E1,3E0,8E0,4E0,6E0,7.72E2,1E1,5.3E1,3.2E1,6E0,2E0,1E0,5E0],"tree_param":{"num_deleted":"0","num_feature":"4","num_nodes":"21","size_leaf_vector":"0"}},{"base_weights":[3.823215E-3,3.0045E-3,3.610032E-2,3.2757262E-3,-4.468129E-2,-1.7325996E-3,7.409075E-2,2.0677072E-3,1.4236228E-2,3.7922062E-2,-1.9164383E-2,1.409628E-1,1.5740616E-2,2.570962E-3,-3.348534E-2,2.413595E-2,-2.3947181E-3,-3.4382954E-2,2.2733748E-2,2.7523518E-2,9.189546E-3],"categories":[],"categories_nodes":[],"categories_segments":[],"categories_sizes":[],"default_left":[1,1,1,1,0,1,1,1,1,0,1,0,1,0,0,0,0,0,0,0,0],"id":54,"left_children":[1,3,5,7,-1,9,11,13,15,-1,17,-1,19,-1,-1,-1,-1,-1,-1,-1,-1],"loss_changes":[2.3489736E-2,1.14245005E-2,3.1748727E-2,1.1463311E-2,0E0,9.021771E-3,4.070308E-2,1.4095712E-2,1.4216989E-2,0E0,6.5203207E-3,0E0,2.874058E-4,0E0,0E0,0E0,0E0,0E0,0E0,0E0,0E0],"parents":[2147483647,0,0,1,1,2,2,3,3,5,5,6,6,7,7,8,8,10,10,12,12],"right_children":[2,4,6,8,-1,10,12,14,16,-1,18,-1,20,-1,-1,-1,-1,-1,-1,-1,-1],"split_conditions":[2.570626E1,1.15224375E4,9.185846E3,1.5071899E1,-4.4681286E-4,2.628263E1,1.2128723E4,5.7238574E3,1.8794497E1,3.792206E-4,3.0953249E1,1.409628E-3,2.6540777E1,2.570962E-5,-3.3485342E-4,2.4135949E-4,-2.3947181E-5,-3.4382954E-4,2.2733747E-4,2.7523516E-4,9.189546E-5],"split_indices":[0,2,2,0,0,0,2,2,0,0,0,0,0,0,0,0,0,0,0,0,0],"split_type":[0,0,0,0,0,0,0,0,0,0,0,0,0,0,0,0,0,0,0,0,0],"sum_hessian":[8.92E2,8.71E2,2.1E1,8.67E2,4E0,1.1E1,1E1,7.82E2,8.5E1,3E0,8E0,4E0,6E0,7.72E2,1E1,5.3E1,3.2E1,6E0,2E0,1E0,5E0],"tree_param":{"num_deleted":"0","num_feature":"4","num_nodes":"21","size_leaf_vector":"0"}},{"base_weights":[3.786664E-3,2.9738375E-3,3.583202E-2,3.2428636E-3,-4.4323836E-2,-1.693381E-3,7.351137E-2,-2.6228472E-3,5.4629617E-3,3.763764E-2,-1.8985681E-2,1.3983509E-1,1.5635656E-2,-1.5700936E-4,-2.1978425E-2,6.7429594E-4,8.960519E-3,-3.4088243E-2,2.2582194E-2,2.7385905E-2,9.112964E-3],"categories":[],"categories_nodes":[],"categories_segments":[],"categories_sizes":[],"default_left":[1,1,1,1,0,1,1,1,1,0,1,0,1,0,0,0,0,0,0,0,0],"id":55,"left_children":[1,3,5,7,-1,9,11,13,15,-1,17,-1,19,-1,-1,-1,-1,-1,-1,-1,-1],"loss_changes":[2.315369E-2,1.1239327E-2,3.1231005E-2,1.1317819E-2,0E0,8.876062E-3,4.0037453E-2,1.1403473E-2,1.05455965E-2,0E0,6.41982E-3,0E0,2.8693595E-4,0E0,0E0,0E0,0E0,0E0,0E0,0E0,0E0],"parents":[2147483647,0,0,1,1,2,2,3,3,5,5,6,6,7,7,8,8,10,10,12,12],"right_children":[2,4,6,8,-1,10,12,14,16,-1,18,-1,20,-1,-1,-1,-1,-1,-1,-1,-1],"split_conditions":[2.570626E1,1.15224375E4,9.185846E3,3.1208706E1,-4.4323836E-4,2.628263E1,1.2128723E4,3.6200476E0,2.9162617E0,3.7637638E-4,3.0953249E1,1.3983508E-3,2.6540777E1,-1.5700936E-6,-2.1978424E-4,6.742959E-6,8.9605186E-5,-3.4088243E-4,2.2582193E-4,2.7385904E-4,9.1129645E-5],"split_indices":[0,2,2,3,0,0,2,1,1,0,0,0,0,0,0,0,0,0,0,0,0],"split_type":[0,0,0,0,0,0,0,0,0,0,0,0,0,0,0,0,0,0,0,0,0],"sum_hessian":[8.92E2,8.71E2,2.1E1,8.67E2,4E0,1.1E1,1E1,2.38E2,6.29E2,3E0,8E0,4E0,6E0,2.12E2,2.6E1,2.66E2,3.63E2,6E0,2E0,1E0,5E0],"tree_param":{"num_deleted":"0","num_feature":"4","num_nodes":"21","size_leaf_vector":"0"}},{"base_weights":[3.7504276E-3,2.943447E-3,3.556573E-2,3.2102903E-3,-4.396924E-2,-1.6546702E-3,7.293656E-2,2.0190678E-3,1.4018628E-2,3.735536E-2,-1.8808609E-2,1.3871641E-1,1.55314375E-2,2.5185202E-3,-3.3262383E-2,2.382258E-2,-2.4490082E-3,-3.379606E-2,2.2431651E-2,2.7248979E-2,9.037018E-3],"categories":[],"categories_nodes":[],"categories_segments":[],"categories_sizes":[],"default_left":[1,1,1,1,0,1,1,1,1,0,1,0,1,0,0,0,0,0,0,0,0],"id":56,"left_children":[1,3,5,7,-1,9,11,13,15,-1,17,-1,19,-1,-1,-1,-1,-1,-1,-1,-1],"loss_changes":[2.2822492E-2,1.1057144E-2,3.0721746E-2,1.1147313E-2,0E0,8.73271E-3,3.9382633E-2,1.3881338E-2,1.3942862E-2,0E0,6.32088E-3,0E0,2.864407E-4,0E0,0E0,0E0,0E0,0E0,0E0,0E0,0E0],"parents":[2147483647,0,0,1,1,2,2,3,3,5,5,6,6,7,7,8,8,10,10,12,12],"right_children":[2,4,6,8,-1,10,12,14,16,-1,18,-1,20,-1,-1,-1,-1,-1,-1,-1,-1],"split_conditions":[2.570626E1,1.15224375E4,9.185846E3,1.5071899E1,-4.396924E-4,2.628263E1,1.2128723E4,5.7238574E3,1.8794497E1,3.735536E-4,3.0953249E1,1.3871641E-3,2.6540777E1,2.5185202E-5,-3.3262384E-4,2.382258E-4,-2.449008E-5,-3.379606E-4,2.243165E-4,2.724898E-4,9.037017E-5],"split_indices":[0,2,2,0,0,0,2,2,0,0,0,0,0,0,0,0,0,0,0,0,0],"split_type":[0,0,0,0,0,0,0,0,0,0,0,0,0,0,0,0,0,0,0,0,0],"sum_hessian":[8.92E2,8.71E2,2.1E1,8.67E2,4E0,1.1E1,1E1,7.82E2,8.5E1,3E0,8E0,4E0,6E0,7.72E2,1E1,5.3E1,3.2E1,6E0,2E0,1E0,5E0],"tree_param":{"num_deleted":"0","num_feature":"4","num_nodes":"21","size_leaf_vector":"0"}},{"base_weights":[3.7145775E-3,2.9134015E-3,3.5301432E-2,3.17808E-3,-4.3617483E-2,-1.6164649E-3,7.236628E-2,-3.9395043E-3,4.968281E-3,3.70752E-2,-1.8633153E-2,1.3760667E-1,1.5427968E-2,-9.328621E-4,-2.3768928E-2,-1.17434276E-4,8.187516E-3,-3.3506382E-2,2.2282103E-2,2.7112737E-2,8.961718E-3],"categories":[],"categories_nodes":[],"categories_segments":[],"categories_sizes":[],"default_left":[1,1,1,1,0,1,1,1,1,0,1,0,1,0,0,0,0,0,0,0,0],"id":57,"left_children":[1,3,5,7,-1,9,11,13,15,-1,17,-1,19,-1,-1,-1,-1,-1,-1,-1,-1],"loss_changes":[2.249597E-2,1.0877935E-2,3.0220818E-2,1.1079546E-2,0E0,8.591675E-3,3.8738467E-2,1.0411324E-2,1.1363205E-2,0E0,6.223471E-3,0E0,2.8591976E-4,0E0,0E0,0E0,0E0,0E0,0E0,0E0,0E0],"parents":[2147483647,0,0,1,1,2,2,3,3,5,5,6,6,7,7,8,8,10,10,12,12],"right_children":[2,4,6,8,-1,10,12,14,16,-1,18,-1,20,-1,-1,-1,-1,-1,-1,-1,-1],"split_conditions":[2.570626E1,1.15224375E4,9.185846E3,2.899407E1,-4.3617483E-4,2.628263E1,1.2128723E4,3.6012483E0,2.8051472E0,3.7075198E-4,3.0953249E1,1.3760666E-3,2.6540777E1,-9.328621E-6,-2.3768928E-4,-1.1743427E-6,8.187516E-5,-3.350638E-4,2.2282102E-4,2.7112736E-4,8.961718E-5],"split_indices":[0,2,2,3,0,0,2,1,1,0,0,0,0,0,0,0,0,0,0,0,0],"split_type":[0,0,0,0,0,0,0,0,0,0,0,0,0,0,0,0,0,0,0,0,0],"sum_hessian":[8.92E2,8.71E2,2.1E1,8.67E2,4E0,1.1E1,1E1,1.74E2,6.93E2,3E0,8E0,4E0,6E0,1.52E2,2.2E1,2.69E2,4.24E2,6E0,2E0,1E0,5E0],"tree_param":{"num_deleted":"0","num_feature":"4","num_nodes":"21","size_leaf_vector":"0"}},{"base_weights":[3.678991E-3,2.883576E-3,3.5039112E-2,3.1461073E-3,-4.326854E-2,-1.5787563E-3,7.180051E-2,-2.6051097E-3,5.3229243E-3,3.679714E-2,-1.8459292E-2,1.3650581E-1,1.532521E-2,-1.8210609E-4,-2.1623429E-2,6.3277106E-4,8.748606E-3,-3.3219185E-2,2.213355E-2,2.6977167E-2,8.887023E-3],"categories":[],"categories_nodes":[],"categories_segments":[],"categories_sizes":[],"default_left":[1,1,1,1,0,1,1,1,1,0,1,0,1,0,0,0,0,0,0,0,0],"id":58,"left_children":[1,3,5,7,-1,9,11,13,15,-1,17,-1,19,-1,-1,-1,-1,-1,-1,-1,-1],"loss_changes":[2.2174228E-2,1.07016E-2,2.9728083E-2,1.0880661E-2,0E0,8.452918E-3,3.8104795E-2,1.1009531E-2,1.0116655E-2,0E0,6.1275717E-3,0E0,2.8537563E-4,0E0,0E0,0E0,0E0,0E0,0E0,0E0,0E0],"parents":[2147483647,0,0,1,1,2,2,3,3,5,5,6,6,7,7,8,8,10,10,12,12],"right_children":[2,4,6,8,-1,10,12,14,16,-1,18,-1,20,-1,-1,-1,-1,-1,-1,-1,-1],"split_conditions":[2.570626E1,1.15224375E4,9.185846E3,3.1208706E1,-4.3268537E-4,2.628263E1,1.2128723E4,3.6200476E0,2.9162617E0,3.679714E-4,3.0953249E1,1.3650581E-3,2.6540777E1,-1.8210608E-6,-2.1623429E-4,6.3277103E-6,8.7486056E-5,-3.3219185E-4,2.2133549E-4,2.6977167E-4,8.887023E-5],"split_indices":[0,2,2,3,0,0,2,1,1,0,0,0,0,0,0,0,0,0,0,0,0],"split_type":[0,0,0,0,0,0,0,0,0,0,0,0,0,0,0,0,0,0,0,0,0],"sum_hessian":[8.92E2,8.71E2,2.1E1,8.67E2,4E0,1.1E1,1E1,2.38E2,6.29E2,3E0,8E0,4E0,6E0,2.12E2,2.6E1,2.66E2,3.63E2,6E0,2E0,1E0,5E0],"tree_param":{"num_deleted":"0","num_feature":"4","num_nodes":"21","size_leaf_vector":"0"}},{"base_weights":[3.6437958E-3,2.854102E-3,3.477876E-2,3.1145033E-3,-4.2922385E-2,-1.5415406E-3,7.1239196E-2,1.9444122E-3,1.3731561E-2,3.6521163E-2,-1.8287016E-2,1.3541377E-1,1.5223192E-2,2.4407872E-3,-3.3113968E-2,2.3439704E-2,-2.5706E-3,-3.2934442E-2,2.1985987E-2,2.6842281E-2,8.812964E-3],"categories":[],"categories_nodes":[],"categories_segments":[],"categories_sizes":[],"default_left":[1,1,1,1,0,1,1,1,1,0,1,0,1,0,0,0,0,0,0,0,0],"id":59,"left_children":[1,3,5,7,-1,9,11,13,15,-1,17,-1,19,-1,-1,-1,-1,-1,-1,-1,-1],"loss_changes":[2.1857008E-2,1.0528147E-2,2.9243406E-2,1.0756399E-2,0E0,8.3163995E-3,3.7481412E-2,1.37066655E-2,1.3670934E-2,0E0,6.033159E-3,0E0,2.8480706E-4,0E0,0E0,0E0,0E0,0E0,0E0,0E0,0E0],"parents":[2147483647,0,0,1,1,2,2,3,3,5,5,6,6,7,7,8,8,10,10,12,12],"right_children":[2,4,6,8,-1,10,12,14,16,-1,18,-1,20,-1,-1,-1,-1,-1,-1,-1,-1],"split_conditions":[2.570626E1,1.15224375E4,9.185846E3,1.5071899E1,-4.2922384E-4,2.628263E1,1.2128723E4,5.7238574E3,1.8794497E1,3.6521163E-4,3.0953249E1,1.3541377E-3,2.6540777E1,2.4407871E-5,-3.3113966E-4,2.3439703E-4,-2.5706E-5,-3.2934442E-4,2.1985987E-4,2.684228E-4,8.812964E-5],"split_indices":[0,2,2,0,0,0,2,2,0,0,0,0,0,0,0,0,0,0,0,0,0],"split_type":[0,0,0,0,0,0,0,0,0,0,0,0,0,0,0,0,0,0,0,0,0],"sum_hessian":[8.92E2,8.71E2,2.1E1,8.67E2,4E0,1.1E1,1E1,7.82E2,8.5E1,3E0,8E0,4E0,6E0,7.72E2,1E1,5.3E1,3.2E1,6E0,2E0,1E0,5E0],"tree_param":{"num_deleted":"0","num_feature":"4","num_nodes":"21","size_leaf_vector":"0"}},{"base_weights":[3.6089695E-3,2.8249563E-3,3.4520354E-2,3.0832454E-3,-4.257901E-2,-1.5048105E-3,7.068232E-2,-3.897938E-3,4.8391875E-3,3.624726E-2,-1.8116308E-2,1.3433047E-1,1.5121886E-2,-9.460338E-4,-2.3365041E-2,-1.4573961E-4,7.994696E-3,-3.2652147E-2,2.183942E-2,2.6708066E-2,8.7395115E-3],"categories":[],"categories_nodes":[],"categories_segments":[],"categories_sizes":[],"default_left":[1,1,1,1,0,1,1,1,1,0,1,0,1,0,0,0,0,0,0,0,0],"id":60,"left_children":[1,3,5,7,-1,9,11,13,15,-1,17,-1,19,-1,-1,-1,-1,-1,-1,-1,-1],"loss_changes":[2.1544276E-2,1.0357528E-2,2.8766662E-2,1.0659287E-2,0E0,8.182088E-3,3.6868166E-2,1.0034275E-2,1.0917772E-2,0E0,5.9402143E-3,0E0,2.842159E-4,0E0,0E0,0E0,0E0,0E0,0E0,0E0,0E0],"parents":[2147483647,0,0,1,1,2,2,3,3,5,5,6,6,7,7,8,8,10,10,12,12],"right_children":[2,4,6,8,-1,10,12,14,16,-1,18,-1,20,-1,-1,-1,-1,-1,-1,-1,-1],"split_conditions":[2.570626E1,1.15224375E4,9.185846E3,2.899407E1,-4.257901E-4,2.628263E1,1.2128723E4,3.6012483E0,2.8051472E0,3.624726E-4,3.0953249E1,1.3433046E-3,2.6540777E1,-9.460337E-6,-2.3365041E-4,-1.4573961E-6,7.9946956E-5,-3.2652146E-4,2.1839418E-4,2.6708067E-4,8.7395114E-5],"split_indices":[0,2,2,3,0,0,2,1,1,0,0,0,0,0,0,0,0,0,0,0,0],"split_type":[0,0,0,0,0,0,0,0,0,0,0,0,0,0,0,0,0,0,0,0,0],"sum_hessian":[8.92E2,8.71E2,2.1E1,8.67E2,4E0,1.1E1,1E1,1.74E2,6.93E2,3E0,8E0,4E0,6E0,1.52E2,2.2E1,2.69E2,4.24E2,6E0,2E0,1E0,5E0],"tree_param":{"num_deleted":"0","num_feature":"4","num_nodes":"21","size_leaf_vector":"0"}},{"base_weights":[3.574405E-3,2.7960304E-3,3.4263883E-2,3.052224E-3,-4.223838E-2,-1.4685715E-3,7.012984E-2,1.8980646E-3,1.352495E-2,3.59754E-2,-1.7947162E-2,1.3325581E-1,1.5021316E-2,2.3905905E-3,-3.288561E-2,2.3136992E-2,-2.6136937E-3,-3.2372277E-2,2.1693826E-2,2.6574522E-2,8.666694E-3],"categories":[],"categories_nodes":[],"categories_segments":[],"categories_sizes":[],"default_left":[1,1,1,1,0,1,1,1,1,0,1,0,1,0,0,0,0,0,0,0,0],"id":61,"left_children":[1,3,5,7,-1,9,11,13,15,-1,17,-1,19,-1,-1,-1,-1,-1,-1,-1,-1],"loss_changes":[2.123611E-2,1.0189644E-2,2.8297722E-2,1.0466014E-2,5.2619725E-7,8.049943E-3,3.6264893E-2,1.3492859E-2,1.3401249E-2,0E0,5.8487104E-3,0E0,2.8360065E-4,0E0,0E0,0E0,0E0,0E0,0E0,0E0,0E0],"parents":[2147483647,0,0,1,1,2,2,3,3,5,5,6,6,7,7,8,8,10,10,12,12],"right_children":[2,4,6,8,-1,10,12,14,16,-1,18,-1,20,-1,-1,-1,-1,-1,-1,-1,-1],"split_conditions":[2.570626E1,1.15224375E4,9.185846E3,1.5071899E1,-4.223838E-4,2.628263E1,1.2128723E4,5.7238574E3,1.8794497E1,3.59754E-4,3.0953249E1,1.3325581E-3,2.6540777E1,2.3905905E-5,-3.288561E-4,2.3136991E-4,-2.6136937E-5,-3.2372278E-4,2.1693825E-4,2.657452E-4,8.6666936E-5],"split_indices":[0,2,2,0,0,0,2,2,0,0,0,0,0,0,0,0,0,0,0,0,0],"split_type":[0,0,0,0,0,0,0,0,0,0,0,0,0,0,0,0,0,0,0,0,0],"sum_hessian":[8.92E2,8.71E2,2.1E1,8.67E2,4E0,1.1E1,1E1,7.82E2,8.5E1,3E0,8E0,4E0,6E0,7.72E2,1E1,5.3E1,3.2E1,6E0,2E0,1E0,5E0],"tree_param":{"num_deleted":"0","num_feature":"4","num_nodes":"21","size_leaf_vector":"0"}},{"base_weights":[3.540246E-3,2.7674704E-3,3.4009334E-2,3.021586E-3,-4.190047E-2,-1.4328031E-3,6.9581725E-2,-2.6120988E-3,5.154013E-3,-4.6014618E-2,-1.2721941E-2,3.570559E-2,-1.7779555E-2,1.3218978E-1,1.4921448E-2,-2.296271E-4,-2.131041E-2,5.6911464E-4,8.502952E-3,-1.2878761E-2,-5.2766982E-2,-3.2094803E-2,2.1549204E-2,2.6441649E-2,8.594473E-3],"categories":[],"categories_nodes":[],"categories_segments":[],"categories_sizes":[],"default_left":[1,1,1,1,1,1,1,1,1,1,0,0,1,0,1,0,0,0,0,0,0,0,0,0,0],"id":62,"left_children":[1,3,5,7,9,11,13,15,17,19,-1,-1,21,-1,23,-1,-1,-1,-1,-1,-1,-1,-1,-1,-1],"loss_changes":[2.093225E-2,1.0024517E-2,2.7836453E-2,1.0441114E-2,1.4828518E-5,7.919934E-3,3.5671443E-2,1.0642125E-2,9.668525E-3,2.1540839E-4,0E0,0E0,5.758626E-3,0E0,2.829642E-4,0E0,0E0,0E0,0E0,0E0,0E0,0E0,0E0,0E0,0E0],"parents":[2147483647,0,0,1,1,2,2,3,3,4,4,5,5,6,6,7,7,8,8,9,9,12,12,14,14],"right_children":[2,4,6,8,10,12,14,16,18,20,-1,-1,22,-1,24,-1,-1,-1,-1,-1,-1,-1,-1,-1,-1],"split_conditions":[2.570626E1,1.15224375E4,9.185846E3,3.1208706E1,2.3908855E1,2.628263E1,1.2128723E4,3.6200476E0,2.9162617E0,1.8135626E1,-1.272194E-4,3.570559E-4,3.0953249E1,1.3218977E-3,2.6540777E1,-2.2962708E-6,-2.131041E-4,5.6911463E-6,8.502952E-5,-1.2878761E-4,-5.276698E-4,-3.2094802E-4,2.1549204E-4,2.6441648E-4,8.5944725E-5],"split_indices":[0,2,2,3,0,0,2,1,1,0,0,0,0,0,0,0,0,0,0,0,0,0,0,0,0],"split_type":[0,0,0,0,0,0,0,0,0,0,0,0,0,0,0,0,0,0,0,0,0,0,0,0,0],"sum_hessian":[8.92E2,8.71E2,2.1E1,8.67E2,4E0,1.1E1,1E1,2.38E2,6.29E2,3E0,1E0,3E0,8E0,4E0,6E0,2.12E2,2.6E1,2.66E2,3.63E2,1E0,2E0,6E0,2E0,1E0,5E0],"tree_param":{"num_deleted":"0","num_feature":"4","num_nodes":"25","size_leaf_vector":"0"}},{"base_weights":[3.5059813E-3,2.738755E-3,3.3756685E-2,2.9912272E-3,-4.16382E-2,-1.3975141E-3,6.903793E-2,-3.8562338E-3,4.7135823E-3,-4.5718584E-2,-1.2658328E-2,3.5437793E-2,-1.7613482E-2,1.3113225E-1,1.4822283E-2,-9.5810497E-4,-2.2967428E-2,-1.7265204E-4,7.8066876E-3,-1.2814365E-2,-5.2415203E-2,-3.181971E-2,2.1405539E-2,2.6309446E-2,8.522849E-3],"categories":[],"categories_nodes":[],"categories_segments":[],"categories_sizes":[],"default_left":[1,1,1,1,1,1,1,1,1,1,0,0,1,0,1,0,0,0,0,0,0,0,0,0,0],"id":63,"left_children":[1,3,5,7,9,11,13,15,17,19,-1,-1,21,-1,23,-1,-1,-1,-1,-1,-1,-1,-1,-1,-1],"loss_changes":[2.0633312E-2,9.894397E-3,2.7382726E-2,1.0255159E-2,1.2524426E-5,7.792025E-3,3.508764E-2,9.670667E-3,1.0490212E-2,2.097208E-4,0E0,0E0,5.6699347E-3,0E0,2.8230704E-4,0E0,0E0,0E0,0E0,0E0,0E0,0E0,0E0,0E0,0E0],"parents":[2147483647,0,0,1,1,2,2,3,3,4,4,5,5,6,6,7,7,8,8,9,9,12,12,14,14],"right_children":[2,4,6,8,10,12,14,16,18,20,-1,-1,22,-1,24,-1,-1,-1,-1,-1,-1,-1,-1,-1,-1],"split_conditions":[2.570626E1,1.15224375E4,9.185846E3,2.899407E1,2.3908855E1,2.628263E1,1.2128723E4,3.6012483E0,2.8051472E0,1.8135626E1,-1.2658327E-4,3.5437793E-4,3.0953249E1,1.3113224E-3,2.6540777E1,-9.581049E-6,-2.2967428E-4,-1.7265204E-6,7.806688E-5,-1.2814366E-4,-5.24152E-4,-3.1819707E-4,2.1405538E-4,2.6309444E-4,8.522849E-5],"split_indices":[0,2,2,3,0,0,2,1,1,0,0,0,0,0,0,0,0,0,0,0,0,0,0,0,0],"split_type":[0,0,0,0,0,0,0,0,0,0,0,0,0,0,0,0,0,0,0,0,0,0,0,0,0],"sum_hessian":[8.92E2,8.71E2,2.1E1,8.67E2,4E0,1.1E1,1E1,1.74E2,6.93E2,3E0,1E0,3E0,8E0,4E0,6E0,1.52E2,2.2E1,2.69E2,4.24E2,1E0,2E0,6E0,2E0,1E0,5E0],"tree_param":{"num_deleted":"0","num_feature":"4","num_nodes":"25","size_leaf_vector":"0"}},{"base_weights":[3.4720052E-3,2.710287E-3,3.3505924E-2,2.961127E-3,-4.1377593E-2,-1.3626876E-3,6.849842E-2,1.827448E-3,1.3248447E-2,-4.542447E-2,-1.2595043E-2,3.5172008E-2,-1.744892E-2,1.3008317E-1,1.4723816E-2,2.316916E-3,-3.273492E-2,2.2766573E-2,-2.728136E-3,-1.275029E-2,-5.2065764E-2,-3.1546965E-2,2.1262825E-2,2.6177898E-2,8.451819E-3],"categories":[],"categories_nodes":[],"categories_segments":[],"categories_sizes":[],"default_left":[1,1,1,1,1,1,1,1,1,1,0,0,1,0,1,0,0,0,0,0,0,0,0,0,0],"id":64,"left_children":[1,3,5,7,9,11,13,15,17,19,-1,-1,21,-1,23,-1,-1,-1,-1,-1,-1,-1,-1,-1,-1],"loss_changes":[2.0338694E-2,9.765974E-3,2.6936416E-2,1.0098856E-2,1.0274351E-5,7.6661813E-3,3.4513336E-2,1.3321986E-2,1.3139885E-2,2.0414125E-4,0E0,0E0,5.582616E-3,0E0,2.8162892E-4,0E0,0E0,0E0,0E0,0E0,0E0,0E0,0E0,0E0,0E0],"parents":[2147483647,0,0,1,1,2,2,3,3,4,4,5,5,6,6,7,7,8,8,9,9,12,12,14,14],"right_children":[2,4,6,8,10,12,14,16,18,20,-1,-1,22,-1,24,-1,-1,-1,-1,-1,-1,-1,-1,-1,-1],"split_conditions":[2.570626E1,1.15224375E4,9.185846E3,1.5071899E1,2.3908855E1,2.628263E1,1.2128723E4,5.7238574E3,1.8794497E1,1.8135626E1,-1.2595042E-4,3.5172008E-4,3.0953249E1,1.3008317E-3,2.6540777E1,2.316916E-5,-3.2734917E-4,2.2766573E-4,-2.728136E-5,-1.275029E-4,-5.2065763E-4,-3.1546963E-4,2.1262823E-4,2.6177897E-4,8.451819E-5],"split_indices":[0,2,2,0,0,0,2,2,0,0,0,0,0,0,0,0,0,0,0,0,0,0,0,0,0],"split_type":[0,0,0,0,0,0,0,0,0,0,0,0,0,0,0,0,0,0,0,0,0,0,0,0,0],"sum_hessian":[8.92E2,8.71E2,2.1E1,8.67E2,4E0,1.1E1,1E1,7.82E2,8.5E1,3E0,1E0,3E0,8E0,4E0,6E0,7.72E2,1E1,5.3E1,3.2E1,1E0,2E0,6E0,2E0,1E0,5E0],"tree_param":{"num_deleted":"0","num_feature":"4","num_nodes":"25","size_leaf_vector":"0"}},{"base_weights":[3.438425E-3,2.6821773E-3,3.3257045E-2,2.931396E-3,-4.111864E-2,-1.3283255E-3,6.796317E-2,-2.5924353E-3,5.0222916E-3,-4.5132264E-2,-1.253207E-2,3.4908213E-2,-1.7285861E-2,1.290425E-1,1.4626048E-2,-2.5131996E-4,-2.0965219E-2,5.316212E-4,8.302475E-3,-1.2686536E-2,-5.1718663E-2,-3.1276565E-2,2.1121064E-2,2.6047006E-2,8.381386E-3],"categories":[],"categories_nodes":[],"categories_segments":[],"categories_sizes":[],"default_left":[1,1,1,1,1,1,1,1,1,1,0,0,1,0,1,0,0,0,0,0,0,0,0,0,0],"id":65,"left_children":[1,3,5,7,9,11,13,15,17,19,-1,-1,21,-1,23,-1,-1,-1,-1,-1,-1,-1,-1,-1,-1],"loss_changes":[2.0048182E-2,9.639276E-3,2.6497412E-2,1.0038207E-2,8.077361E-6,7.5423694E-3,3.3948373E-2,1.0274791E-2,9.275626E-3,1.9867253E-4,0E0,0E0,5.4966533E-3,0E0,2.809302E-4,0E0,0E0,0E0,0E0,0E0,0E0,0E0,0E0,0E0,0E0],"parents":[2147483647,0,0,1,1,2,2,3,3,4,4,5,5,6,6,7,7,8,8,9,9,12,12,14,14],"right_children":[2,4,6,8,10,12,14,16,18,20,-1,-1,22,-1,24,-1,-1,-1,-1,-1,-1,-1,-1,-1,-1],"split_conditions":[2.570626E1,1.15224375E4,9.185846E3,3.1208706E1,2.3908855E1,2.628263E1,1.2128723E4,3.6200476E0,2.9162617E0,1.8135626E1,-1.253207E-4,3.490821E-4,3.0953249E1,1.2904251E-3,2.6540777E1,-2.5131994E-6,-2.0965218E-4,5.316212E-6,8.302475E-5,-1.2686536E-4,-5.1718665E-4,-3.1276565E-4,2.1121063E-4,2.6047006E-4,8.381386E-5],"split_indices":[0,2,2,3,0,0,2,1,1,0,0,0,0,0,0,0,0,0,0,0,0,0,0,0,0],"split_type":[0,0,0,0,0,0,0,0,0,0,0,0,0,0,0,0,0,0,0,0,0,0,0,0,0],"sum_hessian":[8.92E2,8.71E2,2.1E1,8.67E2,4E0,1.1E1,1E1,2.38E2,6.29E2,3E0,1E0,3E0,8E0,4E0,6E0,2.12E2,2.6E1,2.66E2,3.63E2,1E0,2E0,6E0,2E0,1E0,5E0],"tree_param":{"num_deleted":"0","num_feature":"4","num_nodes":"25","size_leaf_vector":"0"}},{"base_weights":[3.4051484E-3,2.6543313E-3,3.3010036E-2,2.9019394E-3,-4.0861327E-2,-1.2944136E-3,6.743216E-2,-3.814415E-3,4.591363E-3,-4.4841953E-2,-1.2469411E-2,3.4646403E-2,-1.7124286E-2,1.2801018E-1,1.4528977E-2,-9.6910546E-4,-2.2576066E-2,-1.982106E-4,7.623348E-3,-1.26231015E-2,-5.137387E-2,-3.1008478E-2,2.098026E-2,2.591677E-2,8.31155E-3],"categories":[],"categories_nodes":[],"categories_segments":[],"categories_sizes":[],"default_left":[1,1,1,1,1,1,1,1,1,1,0,0,1,0,1,0,0,0,0,0,0,0,0,0,0],"id":66,"left_children":[1,3,5,7,9,11,13,15,17,19,-1,-1,21,-1,23,-1,-1,-1,-1,-1,-1,-1,-1,-1,-1],"loss_changes":[1.976186E-2,9.514233E-3,2.606559E-2,9.86651E-3,5.9353188E-6,7.420558E-3,3.339261E-2,9.320094E-3,1.007972E-2,1.9330624E-4,0E0,0E0,5.4120235E-3,0E0,2.8021086E-4,0E0,0E0,0E0,0E0,0E0,0E0,0E0,0E0,0E0,0E0],"parents":[2147483647,0,0,1,1,2,2,3,3,4,4,5,5,6,6,7,7,8,8,9,9,12,12,14,14],"right_children":[2,4,6,8,10,12,14,16,18,20,-1,-1,22,-1,24,-1,-1,-1,-1,-1,-1,-1,-1,-1,-1],"split_conditions":[2.570626E1,1.15224375E4,9.185846E3,2.899407E1,2.3908855E1,2.628263E1,1.2128723E4,3.6012483E0,2.8051472E0,1.8135626E1,-1.2469411E-4,3.4646402E-4,3.0953249E1,1.2801018E-3,2.6540777E1,-9.691054E-6,-2.2576065E-4,-1.982106E-6,7.6233475E-5,-1.2623101E-4,-5.1373866E-4,-3.1008478E-4,2.0980259E-4,2.591677E-4,8.31155E-5],"split_indices":[0,2,2,3,0,0,2,1,1,0,0,0,0,0,0,0,0,0,0,0,0,0,0,0,0],"split_type":[0,0,0,0,0,0,0,0,0,0,0,0,0,0,0,0,0,0,0,0,0,0,0,0,0],"sum_hessian":[8.92E2,8.71E2,2.1E1,8.67E2,4E0,1.1E1,1E1,1.74E2,6.93E2,3E0,1E0,3E0,8E0,4E0,6E0,1.52E2,2.2E1,2.69E2,4.24E2,1E0,2E0,6E0,2E0,1E0,5E0],"tree_param":{"num_deleted":"0","num_feature":"4","num_nodes":"25","size_leaf_vector":"0"}},{"base_weights":[3.372152E-3,2.6267255E-3,3.2764874E-2,2.8727336E-3,-4.060565E-2,-1.2609536E-3,6.6905335E-2,1.7591503E-3,1.2978117E-2,-4.455353E-2,-1.2407064E-2,3.438656E-2,-1.6964188E-2,1.269861E-1,1.4432596E-2,2.288858E-3,-2.979191E-2,2.2403248E-2,-2.8380998E-3,-1.2559988E-2,-5.103138E-2,-3.0742692E-2,2.0840386E-2,2.578719E-2,8.242299E-3],"categories":[],"categories_nodes":[],"categories_segments":[],"categories_sizes":[],"default_left":[1,1,1,1,1,1,1,1,1,1,0,0,1,0,1,0,0,0,0,0,0,0,0,0,0],"id":67,"left_children":[1,3,5,7,9,11,13,15,17,19,-1,-1,21,-1,23,-1,-1,-1,-1,-1,-1,-1,-1,-1,-1],"loss_changes":[1.947967E-2,9.390822E-3,2.564083E-2,9.744936E-3,3.8444996E-6,7.300715E-3,3.2845885E-2,1.3154343E-2,1.2883596E-2,1.8804427E-4,0E0,5.820766E-8,5.3287046E-3,0E0,2.7947244E-4,0E0,0E0,0E0,0E0,0E0,0E0,0E0,0E0,0E0,0E0],"parents":[2147483647,0,0,1,1,2,2,3,3,4,4,5,5,6,6,7,7,8,8,9,9,12,12,14,14],"right_children":[2,4,6,8,10,12,14,16,18,20,-1,-1,22,-1,24,-1,-1,-1,-1,-1,-1,-1,-1,-1,-1],"split_conditions":[2.570626E1,1.15224375E4,9.185846E3,1.5071899E1,2.3908855E1,2.628263E1,1.2128723E4,5.448534E3,1.8794497E1,1.8135626E1,-1.2407065E-4,3.438656E-4,3.0953249E1,1.269861E-3,2.6540777E1,2.2888578E-5,-2.979191E-4,2.2403247E-4,-2.8380999E-5,-1.2559988E-4,-5.103138E-4,-3.074269E-4,2.0840386E-4,2.578719E-4,8.242299E-5],"split_indices":[0,2,2,0,0,0,2,2,0,0,0,0,0,0,0,0,0,0,0,0,0,0,0,0,0],"split_type":[0,0,0,0,0,0,0,0,0,0,0,0,0,0,0,0,0,0,0,0,0,0,0,0,0],"sum_hessian":[8.92E2,8.71E2,2.1E1,8.67E2,4E0,1.1E1,1E1,7.82E2,8.5E1,3E0,1E0,3E0,8E0,4E0,6E0,7.7E2,1.2E1,5.3E1,3.2E1,1E0,2E0,6E0,2E0,1E0,5E0],"tree_param":{"num_deleted":"0","num_feature":"4","num_nodes":"25","size_leaf_vector":"0"}},{"base_weights":[3.339568E-3,2.5994957E-3,3.2521546E-2,2.843915E-3,-4.0351592E-2,-1.2279376E-3,6.6382654E-2,-3.801231E-3,4.5154663E-3,-4.4266973E-2,-1.2345031E-2,3.4128666E-2,-1.6805546E-2,1.2597021E-1,1.4336876E-2,-9.822173E-4,-2.238853E-2,-2.190395E-4,7.5126453E-3,-1.2497187E-2,-5.0691172E-2,3.851096E-2,1.0490894E-2,-3.047918E-2,2.0701448E-2,2.565825E-2,8.1736045E-3],"categories":[],"categories_nodes":[],"categories_segments":[],"categories_sizes":[],"default_left":[1,1,1,1,1,1,1,1,1,1,0,1,1,0,1,0,0,0,0,0,0,0,0,0,0,0,0],"id":68,"left_children":[1,3,5,7,9,11,13,15,17,19,-1,21,23,-1,25,-1,-1,-1,-1,-1,-1,-1,-1,-1,-1,-1,-1],"loss_changes":[1.9201377E-2,9.269077E-3,2.5223004E-2,9.65865E-3,1.8039718E-6,7.1828063E-3,3.2308076E-2,9.147635E-3,9.849617E-3,1.8288475E-4,0E0,1.0336284E-5,5.2466756E-3,0E0,2.7871656E-4,0E0,0E0,0E0,0E0,0E0,0E0,0E0,0E0,0E0,0E0,0E0,0E0],"parents":[2147483647,0,0,1,1,2,2,3,3,4,4,5,5,6,6,7,7,8,8,9,9,11,11,12,12,14,14],"right_children":[2,4,6,8,10,12,14,16,18,20,-1,22,24,-1,26,-1,-1,-1,-1,-1,-1,-1,-1,-1,-1,-1,-1],"split_conditions":[2.570626E1,1.15224375E4,9.185846E3,2.899407E1,2.3908855E1,2.628263E1,1.2128723E4,3.6012483E0,2.8051472E0,1.8135626E1,-1.234503E-4,2.6010706E1,3.0953249E1,1.2597021E-3,2.6540777E1,-9.822173E-6,-2.238853E-4,-2.190395E-6,7.512645E-5,-1.2497186E-4,-5.069117E-4,3.851096E-4,1.0490894E-4,-3.0479179E-4,2.0701447E-4,2.5658248E-4,8.173604E-5],"split_indices":[0,2,2,3,0,0,2,1,1,0,0,0,0,0,0,0,0,0,0,0,0,0,0,0,0,0,0],"split_type":[0,0,0,0,0,0,0,0,0,0,0,0,0,0,0,0,0,0,0,0,0,0,0,0,0,0,0],"sum_hessian":[8.92E2,8.71E2,2.1E1,8.67E2,4E0,1.1E1,1E1,1.74E2,6.93E2,3E0,1E0,3E0,8E0,4E0,6E0,1.52E2,2.2E1,2.69E2,4.24E2,1E0,2E0,2E0,1E0,6E0,2E0,1E0,5E0],"tree_param":{"num_deleted":"0","num_feature":"4","num_nodes":"27","size_leaf_vector":"0"}},{"base_weights":[3.3073751E-3,2.57245E-3,3.2286797E-2,2.8152906E-3,-4.0099144E-2,-1.1829709E-3,6.586411E-2,-2.553662E-3,4.847615E-3,3.3909887E-2,-1.6648356E-2,1.2496245E-1,1.4241844E-2,-2.725629E-4,-2.045442E-2,4.8729E-4,8.032667E-3,3.825422E-2,1.0438442E-2,-3.0217933E-2,2.0563444E-2,2.5529966E-2,8.105497E-3],"categories":[],"categories_nodes":[],"categories_segments":[],"categories_sizes":[],"default_left":[1,1,1,1,0,1,1,1,1,1,1,0,1,0,0,0,0,0,0,0,0,0,0],"id":69,"left_children":[1,3,5,7,-1,9,11,13,15,17,19,-1,21,-1,-1,-1,-1,-1,-1,-1,-1,-1,-1],"loss_changes":[1.8935792E-2,9.148895E-3,2.4802057E-2,9.483521E-3,0E0,7.077238E-3,3.1779E-2,9.753609E-3,8.745441E-3,8.556526E-6,5.1659206E-3,0E0,2.7794193E-4,0E0,0E0,0E0,0E0,0E0,0E0,0E0,0E0,0E0,0E0],"parents":[2147483647,0,0,1,1,2,2,3,3,5,5,6,6,7,7,8,8,9,9,10,10,12,12],"right_children":[2,4,6,8,-1,10,12,14,16,18,20,-1,22,-1,-1,-1,-1,-1,-1,-1,-1,-1,-1],"split_conditions":[2.570626E1,1.15224375E4,9.185846E3,3.1208706E1,-4.0099144E-4,2.628263E1,1.2128723E4,3.6200476E0,2.9162617E0,2.6010706E1,3.0953249E1,1.2496244E-3,2.6540777E1,-2.725629E-6,-2.045442E-4,4.8729E-6,8.0326674E-5,3.825422E-4,1.0438442E-4,-3.021793E-4,2.0563444E-4,2.5529964E-4,8.105497E-5],"split_indices":[0,2,2,3,0,0,2,1,1,0,0,0,0,0,0,0,0,0,0,0,0,0,0],"split_type":[0,0,0,0,0,0,0,0,0,0,0,0,0,0,0,0,0,0,0,0,0,0,0],"sum_hessian":[8.92E2,8.71E2,2.1E1,8.67E2,4E0,1.1E1,1E1,2.38E2,6.29E2,3E0,8E0,4E0,6E0,2.12E2,2.6E1,2.66E2,3.63E2,2E0,1E0,6E0,2E0,1E0,5E0],"tree_param":{"num_deleted":"0","num_feature":"4","num_nodes":"23","size_leaf_vector":"0"}},{"base_weights":[3.275929E-3,2.5461258E-3,3.205376E-2,2.7869972E-3,-3.977835E-2,-1.1386126E-3,6.5349646E-2,1.6931324E-3,1.2713847E-2,-4.3681532E-2,-1.2082815E-2,3.3692516E-2,-1.6492601E-2,1.2396276E-1,1.41474735E-2,2.1768452E-3,-3.245261E-2,2.2046864E-2,-2.9436324E-3,-1.22342035E-2,-5.0085906E-2,3.7999194E-2,1.0386243E-2,-2.9958924E-2,2.0426353E-2,2.5402322E-2,8.037944E-3],"categories":[],"categories_nodes":[],"categories_segments":[],"categories_sizes":[],"default_left":[1,1,1,1,1,1,1,1,1,1,0,1,1,0,1,0,0,0,0,0,0,0,0,0,0,0,0],"id":70,"left_children":[1,3,5,7,9,11,13,15,17,19,-1,21,23,-1,25,-1,-1,-1,-1,-1,-1,-1,-1,-1,-1,-1,-1],"loss_changes":[1.8673306E-2,9.000685E-3,2.4388136E-2,9.403765E-3,1.27078965E-5,6.9732387E-3,3.125855E-2,1.3003246E-2,1.2632209E-2,1.9284058E-4,0E0,6.821472E-6,5.086415E-3,0E0,2.7715042E-4,0E0,0E0,0E0,0E0,0E0,0E0,0E0,0E0,0E0,0E0,0E0,0E0],"parents":[2147483647,0,0,1,1,2,2,3,3,4,4,5,5,6,6,7,7,8,8,9,9,11,11,12,12,14,14],"right_children":[2,4,6,8,10,12,14,16,18,20,-1,22,24,-1,26,-1,-1,-1,-1,-1,-1,-1,-1,-1,-1,-1,-1],"split_conditions":[2.570626E1,1.15224375E4,9.185846E3,1.5071899E1,2.3908855E1,2.628263E1,1.2128723E4,5.7238574E3,1.8794497E1,1.8135626E1,-1.2082815E-4,2.6010706E1,3.0953249E1,1.2396276E-3,2.6540777E1,2.1768452E-5,-3.2452607E-4,2.2046863E-4,-2.9436324E-5,-1.2234203E-4,-5.0085905E-4,3.7999192E-4,1.0386243E-4,-2.9958924E-4,2.0426353E-4,2.540232E-4,8.037944E-5],"split_indices":[0,2,2,0,0,0,2,2,0,0,0,0,0,0,0,0,0,0,0,0,0,0,0,0,0,0,0],"split_type":[0,0,0,0,0,0,0,0,0,0,0,0,0,0,0,0,0,0,0,0,0,0,0,0,0,0,0],"sum_hessian":[8.92E2,8.71E2,2.1E1,8.67E2,4E0,1.1E1,1E1,7.82E2,8.5E1,3E0,1E0,3E0,8E0,4E0,6E0,7.72E2,1E1,5.3E1,3.2E1,1E0,2E0,2E0,1E0,6E0,2E0,1E0,5E0],"tree_param":{"num_deleted":"0","num_feature":"4","num_nodes":"27","size_leaf_vector":"0"}},{"base_weights":[3.2444089E-3,2.5196832E-3,3.1822428E-2,2.7589984E-3,-3.9529376E-2,-1.0948466E-3,6.483924E-2,-3.7589585E-3,4.3985997E-3,-4.340052E-2,-1.2022406E-2,3.3476558E-2,-1.6338266E-2,1.2297106E-1,1.4053757E-2,-9.913753E-4,-2.2005972E-2,-2.4232952E-4,7.3366053E-3,-1.2173034E-2,-4.9752E-2,3.7745867E-2,1.0334313E-2,-2.970213E-2,2.0290175E-2,2.5275305E-2,7.970949E-3],"categories":[],"categories_nodes":[],"categories_segments":[],"categories_sizes":[],"default_left":[1,1,1,1,1,1,1,1,1,1,0,1,1,0,1,0,0,0,0,0,0,0,0,0,0,0,0],"id":71,"left_children":[1,3,5,7,9,11,13,15,17,19,-1,21,23,-1,25,-1,-1,-1,-1,-1,-1,-1,-1,-1,-1,-1,-1],"loss_changes":[1.8414944E-2,8.88398E-3,2.3981102E-2,9.292722E-3,1.0638498E-5,6.8707857E-3,3.0746568E-2,8.815707E-3,9.464522E-3,1.8773042E-4,0E0,5.127862E-6,5.0081406E-3,0E0,2.7634145E-4,0E0,0E0,0E0,0E0,0E0,0E0,0E0,0E0,0E0,0E0,0E0,0E0],"parents":[2147483647,0,0,1,1,2,2,3,3,4,4,5,5,6,6,7,7,8,8,9,9,11,11,12,12,14,14],"right_children":[2,4,6,8,10,12,14,16,18,20,-1,22,24,-1,26,-1,-1,-1,-1,-1,-1,-1,-1,-1,-1,-1,-1],"split_conditions":[2.570626E1,1.15224375E4,9.185846E3,2.899407E1,2.3908855E1,2.628263E1,1.2128723E4,3.6012483E0,2.8051472E0,1.8135626E1,-1.2022405E-4,2.6010706E1,3.0953249E1,1.2297105E-3,2.6540777E1,-9.913752E-6,-2.2005971E-4,-2.4232952E-6,7.336605E-5,-1.2173034E-4,-4.9751997E-4,3.7745867E-4,1.03343125E-4,-2.970213E-4,2.0290175E-4,2.5275303E-4,7.970948E-5],"split_indices":[0,2,2,3,0,0,2,1,1,0,0,0,0,0,0,0,0,0,0,0,0,0,0,0,0,0,0],"split_type":[0,0,0,0,0,0,0,0,0,0,0,0,0,0,0,0,0,0,0,0,0,0,0,0,0,0,0],"sum_hessian":[8.92E2,8.71E2,2.1E1,8.67E2,4E0,1.1E1,1E1,1.74E2,6.93E2,3E0,1E0,3E0,8E0,4E0,6E0,1.52E2,2.2E1,2.69E2,4.24E2,1E0,2E0,2E0,1E0,6E0,2E0,1E0,5E0],"tree_param":{"num_deleted":"0","num_feature":"4","num_nodes":"27","size_leaf_vector":"0"}},{"base_weights":[3.2131395E-3,2.4934544E-3,3.159279E-2,2.7312236E-3,-3.928198E-2,-1.0516742E-3,6.4332865E-2,1.8093534E-3,1.4283947E-2,-4.3121327E-2,-1.1962295E-2,3.3261992E-2,-1.618534E-2,1.219873E-1,1.3960719E-2,2.4211323E-3,-2.3626404E-2,3.893953E-2,-1.482891E-3,-1.211217E-2,-4.9420323E-2,3.749423E-2,1.0282636E-2,-2.9447543E-2,2.0154914E-2,2.5148928E-2,7.90453E-3],"categories":[],"categories_nodes":[],"categories_segments":[],"categories_sizes":[],"default_left":[1,1,1,1,1,1,1,1,1,1,0,1,1,0,1,0,0,0,0,0,0,0,0,0,0,0,0],"id":72,"left_children":[1,3,5,7,9,11,13,15,17,19,-1,21,23,-1,25,-1,-1,-1,-1,-1,-1,-1,-1,-1,-1,-1,-1],"loss_changes":[1.8160228E-2,8.768788E-3,2.3580868E-2,9.2184525E-3,8.618925E-6,6.769855E-3,3.024292E-2,1.2583856E-2,2.4937142E-2,1.827185E-4,0E0,3.4770928E-6,4.931079E-3,0E0,2.7551502E-4,0E0,0E0,0E0,0E0,0E0,0E0,0E0,0E0,0E0,0E0,0E0,0E0],"parents":[2147483647,0,0,1,1,2,2,3,3,4,4,5,5,6,6,7,7,8,8,9,9,11,11,12,12,14,14],"right_children":[2,4,6,8,10,12,14,16,18,20,-1,22,24,-1,26,-1,-1,-1,-1,-1,-1,-1,-1,-1,-1,-1,-1],"split_conditions":[2.570626E1,1.15224375E4,9.185846E3,1.6379238E1,2.3908855E1,2.628263E1,1.2128723E4,5.4494624E3,4.3511896E0,1.8135626E1,-1.1962294E-4,2.6010706E1,3.0953249E1,1.219873E-3,2.6540777E1,2.4211322E-5,-2.3626404E-4,3.8939528E-4,-1.482891E-5,-1.211217E-4,-4.9420324E-4,3.749423E-4,1.0282636E-4,-2.944754E-4,2.0154913E-4,2.5148928E-4,7.904529E-5],"split_indices":[0,2,2,0,0,0,2,2,1,0,0,0,0,0,0,0,0,0,0,0,0,0,0,0,0,0,0],"split_type":[0,0,0,0,0,0,0,0,0,0,0,0,0,0,0,0,0,0,0,0,0,0,0,0,0,0,0],"sum_hessian":[8.92E2,8.71E2,2.1E1,8.67E2,4E0,1.1E1,1E1,8.04E2,6.3E1,3E0,1E0,3E0,8E0,4E0,6E0,7.86E2,1.8E1,2.4E1,3.9E1,1E0,2E0,2E0,1E0,6E0,2E0,1E0,5E0],"tree_param":{"num_deleted":"0","num_feature":"4","num_nodes":"27","size_leaf_vector":"0"}},{"base_weights":[3.1825332E-3,2.467862E-3,3.1364832E-2,2.7040974E-3,-3.9036147E-2,-1.0090867E-3,6.383049E-2,-2.558627E-3,4.696299E-3,-4.2843945E-2,-1.1902481E-2,3.3048816E-2,-1.6033811E-2,1.210114E-1,1.3868337E-2,-3.1568314E-4,-2.0158198E-2,4.291052E-4,7.813454E-3,-1.2051612E-2,-4.909085E-2,3.724427E-2,1.0231227E-2,-2.9195134E-2,2.0020545E-2,2.5023177E-2,7.838666E-3],"categories":[],"categories_nodes":[],"categories_segments":[],"categories_sizes":[],"default_left":[1,1,1,1,1,1,1,1,1,1,0,1,1,0,1,0,0,0,0,0,0,0,0,0,0,0,0],"id":73,"left_children":[1,3,5,7,9,11,13,15,17,19,-1,21,23,-1,25,-1,-1,-1,-1,-1,-1,-1,-1,-1,-1,-1,-1],"loss_changes":[1.7908573E-2,8.655265E-3,2.31873E-2,9.112482E-3,6.648246E-6,6.670426E-3,2.9747464E-2,9.428125E-3,8.376595E-3,1.7780391E-4,0E0,1.8659048E-6,4.8552095E-3,0E0,2.746717E-4,0E0,0E0,0E0,0E0,0E0,0E0,0E0,0E0,0E0,0E0,0E0,0E0],"parents":[2147483647,0,0,1,1,2,2,3,3,4,4,5,5,6,6,7,7,8,8,9,9,11,11,12,12,14,14],"right_children":[2,4,6,8,10,12,14,16,18,20,-1,22,24,-1,26,-1,-1,-1,-1,-1,-1,-1,-1,-1,-1,-1,-1],"split_conditions":[2.570626E1,1.15224375E4,9.185846E3,3.1208706E1,2.3908855E1,2.628263E1,1.2128723E4,3.6200476E0,2.9162617E0,1.8135626E1,-1.1902481E-4,2.6010706E1,3.0953249E1,1.210114E-3,2.6540777E1,-3.1568313E-6,-2.0158198E-4,4.291052E-6,7.813454E-5,-1.2051612E-4,-4.909085E-4,3.724427E-4,1.0231227E-4,-2.9195132E-4,2.0020544E-4,2.5023177E-4,7.838666E-5],"split_indices":[0,2,2,3,0,0,2,1,1,0,0,0,0,0,0,0,0,0,0,0,0,0,0,0,0,0,0],"split_type":[0,0,0,0,0,0,0,0,0,0,0,0,0,0,0,0,0,0,0,0,0,0,0,0,0,0,0],"sum_hessian":[8.92E2,8.71E2,2.1E1,8.67E2,4E0,1.1E1,1E1,2.38E2,6.29E2,3E0,1E0,3E0,8E0,4E0,6E0,2.12E2,2.6E1,2.66E2,3.63E2,1E0,2E0,2E0,1E0,6E0,2E0,1E0,5E0],"tree_param":{"num_deleted":"0","num_feature":"4","num_nodes":"27","size_leaf_vector":"0"}},{"base_weights":[3.1519036E-3,2.4422044E-3,3.1138536E-2,2.6769142E-3,-3.8791876E-2,-9.6707855E-4,6.3332066E-2,1.767105E-3,1.4078782E-2,-4.2568363E-2,-1.1842966E-2,3.283702E-2,-1.588367E-2,1.200433E-1,1.3776605E-2,2.3743012E-3,-2.3476608E-2,3.850188E-2,-1.5376254E-3,-1.1991352E-2,-4.8763584E-2,-2.894489E-2,1.988707E-2,2.4898067E-2,7.7733495E-3],"categories":[],"categories_nodes":[],"categories_segments":[],"categories_sizes":[],"default_left":[1,1,1,1,1,1,1,1,1,1,0,0,1,0,1,0,0,0,0,0,0,0,0,0,0],"id":74,"left_children":[1,3,5,7,9,11,13,15,17,19,-1,-1,21,-1,23,-1,-1,-1,-1,-1,-1,-1,-1,-1,-1],"loss_changes":[1.7660804E-2,8.543099E-3,2.2800295E-2,8.979341E-3,4.7255307E-6,6.5724743E-3,2.926008E-2,1.2394691E-2,2.4468869E-2,1.7298339E-4,0E0,2.9522926E-7,4.780515E-3,0E0,2.7381338E-4,0E0,0E0,0E0,0E0,0E0,0E0,0E0,0E0,0E0,0E0],"parents":[2147483647,0,0,1,1,2,2,3,3,4,4,5,5,6,6,7,7,8,8,9,9,12,12,14,14],"right_children":[2,4,6,8,10,12,14,16,18,20,-1,-1,22,-1,24,-1,-1,-1,-1,-1,-1,-1,-1,-1,-1],"split_conditions":[2.570626E1,1.15224375E4,9.185846E3,1.6379238E1,2.3908855E1,2.628263E1,1.2128723E4,5.4494624E3,4.3511896E0,1.8135626E1,-1.18429656E-4,3.2837017E-4,3.0953249E1,1.200433E-3,2.6540777E1,2.3743012E-5,-2.3476608E-4,3.850188E-4,-1.5376254E-5,-1.19913515E-4,-4.8763584E-4,-2.894489E-4,1.988707E-4,2.4898068E-4,7.773349E-5],"split_indices":[0,2,2,0,0,0,2,2,1,0,0,0,0,0,0,0,0,0,0,0,0,0,0,0,0],"split_type":[0,0,0,0,0,0,0,0,0,0,0,0,0,0,0,0,0,0,0,0,0,0,0,0,0],"sum_hessian":[8.92E2,8.71E2,2.1E1,8.67E2,4E0,1.1E1,1E1,8.04E2,6.3E1,3E0,1E0,3E0,8E0,4E0,6E0,7.86E2,1.8E1,2.4E1,3.9E1,1E0,2E0,6E0,2E0,1E0,5E0],"tree_param":{"num_deleted":"0","num_feature":"4","num_nodes":"25","size_leaf_vector":"0"}},{"base_weights":[3.121726E-3,2.417132E-3,3.0907378E-2,2.6503282E-3,-3.8549155E-2,-9.3758974E-4,6.283758E-2,-3.7418334E-3,4.2583654E-3,-4.229457E-2,-1.1783749E-2,3.2590747E-2,-1.5734896E-2,1.1908295E-1,1.368552E-2,-1.0260309E-3,-2.1645136E-2,-2.7719623E-4,7.1472307E-3,-1.1931397E-2,-4.8438493E-2,3.6777068E-2,1.001589E-2,-2.869679E-2,1.975449E-2,2.4773583E-2,7.7085793E-3],"categories":[],"categories_nodes":[],"categories_segments":[],"categories_sizes":[],"default_left":[1,1,1,1,1,1,1,1,1,1,0,1,1,0,1,0,0,0,0,0,0,0,0,0,0,0,0],"id":75,"left_children":[1,3,5,7,9,11,13,15,17,19,-1,21,23,-1,25,-1,-1,-1,-1,-1,-1,-1,-1,-1,-1,-1,-1],"loss_changes":[1.7408097E-2,8.432543E-3,2.2428874E-2,8.937962E-3,2.8489158E-6,6.4663608E-3,2.8780628E-2,8.486613E-3,9.095206E-3,1.682574E-4,0E0,9.667594E-6,4.706977E-3,0E0,2.729398E-4,0E0,0E0,0E0,0E0,0E0,0E0,0E0,0E0,0E0,0E0,0E0,0E0],"parents":[2147483647,0,0,1,1,2,2,3,3,4,4,5,5,6,6,7,7,8,8,9,9,11,11,12,12,14,14],"right_children":[2,4,6,8,10,12,14,16,18,20,-1,22,24,-1,26,-1,-1,-1,-1,-1,-1,-1,-1,-1,-1,-1,-1],"split_conditions":[2.570626E1,1.15224375E4,9.185846E3,2.899407E1,2.3908855E1,2.628263E1,1.2128723E4,3.6012483E0,2.809041E0,1.8135626E1,-1.1783749E-4,2.6010706E1,3.0953249E1,1.1908294E-3,2.6540777E1,-1.0260308E-5,-2.1645136E-4,-2.7719623E-6,7.147231E-5,-1.1931397E-4,-4.8438492E-4,3.6777067E-4,1.001589E-4,-2.869679E-4,1.975449E-4,2.4773582E-4,7.708579E-5],"split_indices":[0,2,2,3,0,0,2,1,1,0,0,0,0,0,0,0,0,0,0,0,0,0,0,0,0,0,0],"split_type":[0,0,0,0,0,0,0,0,0,0,0,0,0,0,0,0,0,0,0,0,0,0,0,0,0,0,0],"sum_hessian":[8.92E2,8.71E2,2.1E1,8.67E2,4E0,1.1E1,1E1,1.74E2,6.93E2,3E0,1E0,3E0,8E0,4E0,6E0,1.52E2,2.2E1,2.7E2,4.23E2,1E0,2E0,2E0,1E0,6E0,2E0,1E0,5E0],