{"learner":{"attributes":{"best_iteration":"58","best_ntree_limit":"59","scikit_learn":"{\"n_estimators\": 25, \"objective\": \"reg:squarederror\", \"max_depth\": 2, \"max_leaves\": null, \"max_bin\": null, \"grow_policy\": null, \"learning_rate\": 0.45000000000000007, \"verbosity\": null, \"booster\": null, \"tree_method\": null, \"gamma\": null, \"min_child_weight\": null, \"max_delta_step\": null, \"subsample\": null, \"sampling_method\": null, \"colsample_bytree\": null, \"colsample_bylevel\": null, \"colsample_bynode\": null, \"reg_alpha\": null, \"reg_lambda\": null, \"scale_pos_weight\": null, \"base_score\": null, \"missing\": NaN, \"num_parallel_tree\": null, \"random_state\": null, \"n_jobs\": null, \"monotone_constraints\": null, \"interaction_constraints\": null, \"importance_type\": null, \"gpu_id\": null, \"validate_parameters\": null, \"predictor\": null, \"enable_categorical\": false, \"feature_types\": null, \"max_cat_to_onehot\": null, \"max_cat_threshold\": null, \"eval_metric\": null, \"early_stopping_rounds\": null, \"callbacks\": null, \"_estimator_type\": \"regressor\"}"},"feature_names":[],"feature_types":[],"gradient_booster":{"model":{"gbtree_model_param":{"num_parallel_tree":"1","num_trees":"59","size_leaf_vector":"0"},"tree_info":[0,0,0,0,0,0,0,0,0,0,0,0,0,0,0,0,0,0,0,0,0,0,0,0,0,0,0,0,0,0,0,0,0,0,0,0,0,0,0,0,0,0,0,0,0,0,0,0,0,0,0,0,0,0,0,0,0,0,0],"trees":[{"base_weights":[-4.259801E-1,-4.4304553E-1,-3.6742538E-1,-4.6430746E-1,-4.2833894E-1,-3.7221804E-1,-6.0165007E-2],"categories":[],"categories_nodes":[],"categories_segments":[],"categories_sizes":[],"default_left":[1,1,1,0,0,0,0],"id":0,"left_children":[1,3,5,-1,-1,-1,-1],"loss_changes":[1.1972198E0,1.2911987E-1,4.3852615E-1,0E0,0E0,0E0,0E0],"parents":[2147483647,0,0,1,1,2,2],"right_children":[2,4,6,-1,-1,-1,-1],"split_conditions":[3.6215043E0,2.5583396E0,3.649731E1,-2.0893835E-1,-1.9275253E-1,-1.6749811E-1,-2.7074253E-2],"split_indices":[1,1,0,0,0,0,0],"split_type":[0,0,0,0,0,0,0],"sum_hessian":[1.36E3,1.048E3,3.12E2,4.16E2,6.32E2,3.07E2,5E0],"tree_param":{"num_deleted":"0","num_feature":"4","num_nodes":"7","size_leaf_vector":"0"}},{"base_weights":[-2.3472716E-1,-2.4389334E-1,-1.7866732E-1,-2.5500268E-1,-2.2734661E-1,-1.912714E-1,-1.05817676E-1],"categories":[],"categories_nodes":[],"categories_segments":[],"categories_sizes":[],"default_left":[1,1,1,0,0,0,0],"id":1,"left_children":[1,3,5,-1,-1,-1,-1],"loss_changes":[6.55777E-1,1.5654755E-1,1.5881014E-1,0E0,0E0,0E0,0E0],"parents":[2147483647,0,0,1,1,2,2],"right_children":[2,4,6,-1,-1,-1,-1],"split_conditions":[5.480417E1,3.9229885E1,4.582507E0,-1.14751205E-1,-1.0230597E-1,-8.6072125E-2,-4.7617953E-2],"split_indices":[3,3,1,0,0,0,0],"split_type":[0,0,0,0,0,0,0],"sum_hessian":[1.36E3,1.166E3,1.94E2,6.89E2,4.77E2,1.64E2,3E1],"tree_param":{"num_deleted":"0","num_feature":"4","num_nodes":"7","size_leaf_vector":"0"}},{"base_weights":[-1.2935765E-1,-1.3975644E-1,-1.1211135E-1,-1.5811723E-1,-1.3563089E-1,-1.1952015E-1,-7.750028E-2],"categories":[],"categories_nodes":[],"categories_segments":[],"categories_sizes":[],"default_left":[1,1,1,0,0,0,0],"id":2,"left_children":[1,3,5,-1,-1,-1,-1],"loss_changes":[2.2841454E-1,4.2560577E-2,1.23309135E-1,0E0,0E0,0E0,0E0],"parents":[2147483647,0,0,1,1,2,2],"right_children":[2,4,6,-1,-1,-1,-1],"split_conditions":[3.22831E0,3.5442443E0,6.1673466E1,-7.1152754E-2,-6.10339E-2,-5.3784065E-2,-3.487513E-2],"split_indices":[1,0,3,0,0,0,0],"split_type":[0,0,0,0,0,0,0],"sum_hessian":[1.36E3,8.44E2,5.16E2,1.48E2,6.96E2,4.23E2,9.3E1],"tree_param":{"num_deleted":"0","num_feature":"4","num_nodes":"7","size_leaf_vector":"0"}},{"base_weights":[-7.130897E-2,-7.371121E-2,-3.737259E-2,-8.3498605E-2,-6.929487E-2,-4.511293E-2,6.3061945E-2],"categories":[],"categories_nodes":[],"categories_segments":[],"categories_sizes":[],"default_left":[1,1,1,0,0,0,0],"id":3,"left_children":[1,3,5,-1,-1,-1,-1],"loss_changes":[1.08198166E-1,4.9108982E-2,7.436548E-2,0E0,0E0,0E0,0E0],"parents":[2147483647,0,0,1,1,2,2],"right_children":[2,4,6,-1,-1,-1,-1],"split_conditions":[4.362111E0,1.030062E3,7.7283755E3,-3.757437E-2,-3.1182691E-2,-2.0300819E-2,2.8377874E-2],"split_indices":[1,2,2,0,0,0,0],"split_type":[0,0,0,0,0,0,0],"sum_hessian":[1.36E3,1.269E3,9.1E1,3.89E2,8.8E2,8.5E1,6E0],"tree_param":{"num_deleted":"0","num_feature":"4","num_nodes":"7","size_leaf_vector":"0"}},{"base_weights":[-3.926452E-2,-4.3825757E-2,-2.921905E-2,-5.838764E-2,-4.265125E-2,-3.4905642E-2,-9.968602E-3],"categories":[],"categories_nodes":[],"categories_segments":[],"categories_sizes":[],"default_left":[1,1,1,0,0,0,0],"id":4,"left_children":[1,3,5,-1,-1,-1,-1],"loss_changes":[6.1080217E-2,1.3483882E-2,4.6504974E-2,0E0,0E0,0E0,0E0],"parents":[2147483647,0,0,1,1,2,2],"right_children":[2,4,6,-1,-1,-1,-1],"split_conditions":[4.5609642E1,4.5828363E2,4.091695E0,-2.6274437E-2,-1.9193063E-2,-1.570754E-2,-4.4858707E-3],"split_indices":[3,2,1,0,0,0,0],"split_type":[0,0,0,0,0,0,0],"sum_hessian":[1.36E3,9.33E2,4.27E2,6.6E1,8.67E2,3.29E2,9.8E1],"tree_param":{"num_deleted":"0","num_feature":"4","num_nodes":"7","size_leaf_vector":"0"}},{"base_weights":[-2.1643732E-2,-2.3787295E-2,-1.3983369E-2,-2.9711768E-2,-2.2718957E-2,-3.326738E-2,-9.993497E-3],"categories":[],"categories_nodes":[],"categories_segments":[],"categories_sizes":[],"default_left":[1,1,1,0,0,0,0],"id":5,"left_children":[1,3,5,-1,-1,-1,-1],"loss_changes":[2.201569E-2,6.0467124E-3,2.274976E-2,0E0,0E0,0E0,0E0],"parents":[2147483647,0,0,1,1,2,2],"right_children":[2,4,6,-1,-1,-1,-1],"split_conditions":[2.4306736E3,6.52193E2,3.0227404E0,-1.3370295E-2,-1.022353E-2,-1.497032E-2,-4.4970736E-3],"split_indices":[2,2,1,0,0,0,0],"split_type":[0,0,0,0,0,0,0],"sum_hessian":[1.36E3,1.061E3,2.99E2,1.58E2,9.03E2,5E1,2.49E2],"tree_param":{"num_deleted":"0","num_feature":"4","num_nodes":"7","size_leaf_vector":"0"}},{"base_weights":[-1.1935692E-2,-1.2126972E-2,5.5987798E-2,-1.728779E-2,-1.1114083E-2,6.41846E-2,1.5698701E-2],"categories":[],"categories_nodes":[],"categories_segments":[],"categories_sizes":[],"default_left":[1,1,1,0,0,0,0],"id":6,"left_children":[1,3,5,-1,-1,-1,-1],"loss_changes":[1.8361613E-2,6.906584E-3,3.1335186E-4,0E0,0E0,0E0,0E0],"parents":[2147483647,0,0,1,1,2,2],"right_children":[2,4,6,-1,-1,-1,-1],"split_conditions":[3.7563168E1,2.1853266E0,6.2924557E0,-7.7795056E-3,-5.0013373E-3,2.8883068E-2,7.064415E-3],"split_indices":[0,1,1,0,0,0,0],"split_type":[0,0,0,0,0,0,0],"sum_hessian":[1.36E3,1.357E3,3E0,2.2E2,1.137E3,2E0,1E0],"tree_param":{"num_deleted":"0","num_feature":"4","num_nodes":"7","size_leaf_vector":"0"}},{"base_weights":[-6.5476103E-3,-6.7730527E-3,2.1736087E-2,-6.6284533E-3,-6.953691E-2,-7.228136E-3,3.9319664E-2],"categories":[],"categories_nodes":[],"categories_segments":[],"categories_sizes":[],"default_left":[1,1,1,0,0,0,0],"id":7,"left_children":[1,3,5,-1,-1,-1,-1],"loss_changes":[8.8254325E-3,1.1800233E-2,5.886449E-3,0E0,0E0,0E0,0E0],"parents":[2147483647,0,0,1,1,2,2],"right_children":[2,4,6,-1,-1,-1,-1],"split_conditions":[7.7283755E3,7.58583E3,1.895211E1,-2.9828039E-3,-3.1291608E-2,-3.252661E-3,1.769385E-2],"split_indices":[2,2,0,0,0,0,0],"split_type":[0,0,0,0,0,0,0],"sum_hessian":[1.36E3,1.35E3,1E1,1.348E3,2E0,4E0,6E0],"tree_param":{"num_deleted":"0","num_feature":"4","num_nodes":"7","size_leaf_vector":"0"}},{"base_weights":[-3.6157584E-3,-5.427109E-3,-1.5423993E-3,-4.912654E-3,-2.7949015E-2,-1.0366E-2,1.0611871E-3],"categories":[],"categories_nodes":[],"categories_segments":[],"categories_sizes":[],"default_left":[1,1,1,0,0,0,0],"id":8,"left_children":[1,3,5,-1,-1,-1,-1],"loss_changes":[5.1029753E-3,8.274501E-3,1.46218315E-2,0E0,0E0,0E0,0E0],"parents":[2147483647,0,0,1,1,2,2],"right_children":[2,4,6,-1,-1,-1,-1],"split_conditions":[3.0491366E0,3.0940684E3,1.296492E3,-2.2106941E-3,-1.2577056E-2,-4.6647E-3,4.775342E-4],"split_indices":[1,2,2,0,0,0,0],"split_type":[0,0,0,0,0,0,0],"sum_hessian":[1.36E3,7.25E2,6.35E2,7.1E2,1.5E1,1.44E2,4.91E2],"tree_param":{"num_deleted":"0","num_feature":"4","num_nodes":"7","size_leaf_vector":"0"}},{"base_weights":[-2.0026104E-3,-2.3214067E-3,5.331279E-3,-1.9222841E-3,-8.250729E-3,-4.265153E-3,1.2439749E-2],"categories":[],"categories_nodes":[],"categories_segments":[],"categories_sizes":[],"default_left":[1,1,1,0,0,0,0],"id":9,"left_children":[1,3,5,-1,-1,-1,-1],"loss_changes":[3.1944164E-3,3.072456E-3,3.9413664E-3,0E0,0E0,0E0,0E0],"parents":[2147483647,0,0,1,1,2,2],"right_children":[2,4,6,-1,-1,-1,-1],"split_conditions":[6.9202896E1,5.865724E1,4.0742226E0,-8.6502783E-4,-3.712828E-3,-1.9193187E-3,5.597887E-3],"split_indices":[3,3,1,0,0,0,0],"split_type":[0,0,0,0,0,0,0],"sum_hessian":[1.36E3,1.304E3,5.6E1,1.223E3,8.1E1,2.4E1,3.2E1],"tree_param":{"num_deleted":"0","num_feature":"4","num_nodes":"7","size_leaf_vector":"0"}},{"base_weights":[-1.1020969E-3,-1.1535742E-3,3.4453526E-2,-9.797295E-4,-1.2752184E-2],"categories":[],"categories_nodes":[],"categories_segments":[],"categories_sizes":[],"default_left":[1,1,0,0,0],"id":10,"left_children":[1,3,-1,-1,-1],"loss_changes":[2.530794E-3,2.7297516E-3,0E0,0E0,0E0],"parents":[2147483647,0,0,1,1],"right_children":[2,4,-1,-1,-1],"split_conditions":[3.9273643E1,5.0255976E0,1.5504086E-2,-4.4087824E-4,-5.7384823E-3],"split_indices":[0,1,0,0,0],"split_type":[0,0,0,0,0],"sum_hessian":[1.36E3,1.359E3,1E0,1.34E3,1.9E1],"tree_param":{"num_deleted":"0","num_feature":"4","num_nodes":"5","size_leaf_vector":"0"}},{"base_weights":[-5.993012E-4,-1.3234378E-3,2.0678793E-3,-6.050016E-4,-5.6631602E-3,1.28897745E-2,8.7907145E-5],"categories":[],"categories_nodes":[],"categories_segments":[],"categories_sizes":[],"default_left":[1,1,1,0,0,0,0],"id":11,"left_children":[1,3,5,-1,-1,-1,-1],"loss_changes":[2.6313763E-3,3.3357523E-3,6.234139E-3,0E0,0E0,0E0,0E0],"parents":[2147483647,0,0,1,1,2,2],"right_children":[2,4,6,-1,-1,-1,-1],"split_conditions":[2.475642E3,3.6884103E0,5.241667E1,-2.722507E-4,-2.548422E-3,5.8003985E-3,3.9558214E-5],"split_indices":[2,1,3,0,0,0,0],"split_type":[0,0,0,0,0,0,0],"sum_hessian":[1.36E3,1.07E3,2.9E2,9.19E2,1.51E2,4.4E1,2.46E2],"tree_param":{"num_deleted":"0","num_feature":"4","num_nodes":"7","size_leaf_vector":"0"}},{"base_weights":[-3.2739708E-4,-4.5455826E-4,1.4005519E-2,-2.703495E-4,-2.5111498E-2,-1.2447444E-2,2.0540856E-2],"categories":[],"categories_nodes":[],"categories_segments":[],"categories_sizes":[],"default_left":[1,1,1,0,0,0,0],"id":12,"left_children":[1,3,5,-1,-1,-1,-1],"loss_changes":[2.4869123E-3,6.124944E-3,2.3302296E-3,0E0,0E0,0E0,0E0],"parents":[2147483647,0,0,1,1,2,2],"right_children":[2,4,6,-1,-1,-1,-1],"split_conditions":[2.8529007E1,5.0255976E0,2.0558923E3,-1.2165727E-4,-1.1300174E-2,-5.6013498E-3,9.243385E-3],"split_indices":[0,1,2,0,0,0,0],"split_type":[0,0,0,0,0,0,0],"sum_hessian":[1.36E3,1.349E3,1.1E1,1.34E3,9E0,2E0,9E0],"tree_param":{"num_deleted":"0","num_feature":"4","num_nodes":"7","size_leaf_vector":"0"}},{"base_weights":[-1.857839E-4,-1.4122457E-3,1.2145259E-3,1.3524303E-4,-4.413794E-3,-7.6400014E-3,2.3407408E-3],"categories":[],"categories_nodes":[],"categories_segments":[],"categories_sizes":[],"default_left":[1,1,1,0,0,0,0],"id":13,"left_children":[1,3,5,-1,-1,-1,-1],"loss_changes":[2.3391326E-3,3.3727665E-3,6.3601397E-3,0E0,0E0,0E0,0E0],"parents":[2147483647,0,0,1,1,2,2],"right_children":[2,4,6,-1,-1,-1,-1],"split_conditions":[3.0491366E0,3.853776E1,1.0247017E3,6.0859362E-5,-1.9862072E-3,-3.4380006E-3,1.0533333E-3],"split_indices":[1,3,2,0,0,0,0],"split_type":[0,0,0,0,0,0,0],"sum_hessian":[1.36E3,7.25E2,6.35E2,4.79E2,2.46E2,7.1E1,5.64E2],"tree_param":{"num_deleted":"0","num_feature":"4","num_nodes":"7","size_leaf_vector":"0"}},{"base_weights":[-1.0534836E-4,-6.8440335E-3,1.5154158E-4,-5.834427E-3,-1.6995896E-2,2.7904782E-4,-9.577848E-3],"categories":[],"categories_nodes":[],"categories_segments":[],"categories_sizes":[],"default_left":[1,1,1,0,0,0,0],"id":14,"left_children":[1,3,5,-1,-1,-1,-1],"loss_changes":[2.357065E-3,4.1330792E-4,1.6302845E-3,0E0,0E0,0E0,0E0],"parents":[2147483647,0,0,1,1,2,2],"right_children":[2,4,6,-1,-1,-1,-1],"split_conditions":[3.5994296E2,5.179446E0,7.3611836E3,-2.6254922E-3,-7.6481528E-3,1.2557152E-4,-4.3100314E-3],"split_indices":[2,0,2,0,0,0,0],"split_type":[0,0,0,0,0,0,0],"sum_hessian":[1.36E3,4.9E1,1.311E3,4.6E1,3E0,1.295E3,1.6E1],"tree_param":{"num_deleted":"0","num_feature":"4","num_nodes":"7","size_leaf_vector":"0"}},{"base_weights":[-6.856526E-5,-2.5779763E-4,6.352537E-3,-2.1716054E-5,-1.0432189E-2,3.0244464E-2,1.9494753E-3],"categories":[],"categories_nodes":[],"categories_segments":[],"categories_sizes":[],"default_left":[1,1,1,0,0,0,0],"id":15,"left_children":[1,3,5,-1,-1,-1,-1],"loss_changes":[1.6553621E-3,3.1776016E-3,4.0437467E-3,0E0,0E0,0E0,0E0],"parents":[2147483647,0,0,1,1,2,2],"right_children":[2,4,6,-1,-1,-1,-1],"split_conditions":[2.1527727E1,1.9602459E1,2.2786125E1,-9.772224E-6,-4.694485E-3,1.3610008E-2,8.7726384E-4],"split_indices":[0,0,0,0,0,0,0],"split_type":[0,0,0,0,0,0,0],"sum_hessian":[1.36E3,1.322E3,3.8E1,1.293E3,2.9E1,5E0,3.3E1],"tree_param":{"num_deleted":"0","num_feature":"4","num_nodes":"7","size_leaf_vector":"0"}},{"base_weights":[-3.052155E-5,-3.9039247E-4,2.5803633E-3,-1.2069373E-4,-1.1646003E-2,-1.5503146E-2,6.2307827E-3],"categories":[],"categories_nodes":[],"categories_segments":[],"categories_sizes":[],"default_left":[1,1,1,0,0,0,0],"id":16,"left_children":[1,3,5,-1,-1,-1,-1],"loss_changes":[1.2797777E-3,3.6322363E-3,1.09886415E-2,0E0,0E0,0E0,0E0],"parents":[2147483647,0,0,1,1,2,2],"right_children":[2,4,6,-1,-1,-1,-1],"split_conditions":[4.042551E0,1.5394485E1,1.4408586E3,-5.431218E-5,-5.2407016E-3,-6.9764154E-3,2.803852E-3],"split_indices":[1,0,2,0,0,0,0],"split_type":[0,0,0,0,0,0,0],"sum_hessian":[1.36E3,1.196E3,1.64E2,1.169E3,2.7E1,2.7E1,1.37E2],"tree_param":{"num_deleted":"0","num_feature":"4","num_nodes":"7","size_leaf_vector":"0"}},{"base_weights":[-2.3742254E-5,-3.5057145E-3,2.3440375E-4,-2.5437826E-3,-1.5097757E-2,2.1841915E-3,-4.7371938E-4],"categories":[],"categories_nodes":[],"categories_segments":[],"categories_sizes":[],"default_left":[1,1,1,0,0,0,0],"id":17,"left_children":[1,3,5,-1,-1,-1,-1],"loss_changes":[1.2241665E-3,1.0097655E-3,1.7517494E-3,0E0,0E0,0E0,0E0],"parents":[2147483647,0,0,1,1,2,2],"right_children":[2,4,6,-1,-1,-1,-1],"split_conditions":[1.6089456E0,1.2415896E3,2.5876532E0,-1.1447021E-3,-6.7939903E-3,9.828862E-4,-2.1317371E-4],"split_indices":[1,2,1,0,0,0,0],"split_type":[0,0,0,0,0,0,0],"sum_hessian":[1.36E3,9.3E1,1.267E3,8.7E1,6E0,3.37E2,9.3E2],"tree_param":{"num_deleted":"0","num_feature":"4","num_nodes":"7","size_leaf_vector":"0"}},{"base_weights":[-1.8324752E-5,-1.9093236E-3,4.86545E-4,-3.5419248E-4,-1.2090204E-2,5.0972146E-3,-2.3780369E-4],"categories":[],"categories_nodes":[],"categories_segments":[],"categories_sizes":[],"default_left":[1,1,1,0,0,0,0],"id":18,"left_children":[1,3,5,-1,-1,-1,-1],"loss_changes":[1.3002867E-3,4.5396755E-3,3.5914248E-3,0E0,0E0,0E0,0E0],"parents":[2147483647,0,0,1,1,2,2],"right_children":[2,4,6,-1,-1,-1,-1],"split_conditions":[5.2737355E0,4.113742E1,6.419156E0,-1.5938662E-4,-5.440592E-3,2.2937465E-3,-1.07011656E-4],"split_indices":[0,3,0,0,0,0,0],"split_type":[0,0,0,0,0,0,0],"sum_hessian":[1.36E3,2.86E2,1.074E3,2.49E2,3.7E1,1.45E2,9.29E2],"tree_param":{"num_deleted":"0","num_feature":"4","num_nodes":"7","size_leaf_vector":"0"}},{"base_weights":[-1.2586535E-5,-1.0648674E-3,9.284832E-4,1.1862395E-4,-4.550723E-3,1.5811034E-3,-2.6604733E-3],"categories":[],"categories_nodes":[],"categories_segments":[],"categories_sizes":[],"default_left":[1,1,1,0,0,0,0],"id":19,"left_children":[1,3,5,-1,-1,-1,-1],"loss_changes":[1.3487458E-3,2.6532235E-3,1.6882668E-3,0E0,0E0,0E0,0E0],"parents":[2147483647,0,0,1,1,2,2],"right_children":[2,4,6,-1,-1,-1,-1],"split_conditions":[8.149778E0,2.6623049E0,1.7720036E1,5.3380776E-5,-2.0478251E-3,7.114965E-4,-1.197213E-3],"split_indices":[0,1,0,0,0,0,0],"split_type":[0,0,0,0,0,0,0],"sum_hessian":[1.36E3,6.42E2,7.18E2,4.8E2,1.62E2,6.08E2,1.1E2],"tree_param":{"num_deleted":"0","num_feature":"4","num_nodes":"7","size_leaf_vector":"0"}},{"base_weights":[-8.7439075E-6,-4.4565406E-4,2.2840723E-3,1.758363E-4,-8.392367E-3,1.4193971E-2,3.080569E-4],"categories":[],"categories_nodes":[],"categories_segments":[],"categories_sizes":[],"default_left":[1,1,1,0,0,0,0],"id":20,"left_children":[1,3,5,-1,-1,-1,-1],"loss_changes":[1.364406E-3,5.651469E-3,5.1260707E-3,0E0,0E0,0E0,0E0],"parents":[2147483647,0,0,1,1,2,2],"right_children":[2,4,6,-1,-1,-1,-1],"split_conditions":[1.4726678E1,3.6627195E0,1.5394485E1,7.912634E-5,-3.776565E-3,6.387287E-3,1.3862559E-4],"split_indices":[0,1,0,0,0,0,0],"split_type":[0,0,0,0,0,0,0],"sum_hessian":[1.36E3,1.143E3,2.17E2,1.061E3,8.2E1,3E1,1.87E2],"tree_param":{"num_deleted":"0","num_feature":"4","num_nodes":"7","size_leaf_vector":"0"}},{"base_weights":[-2.7302895E-6,-9.80061E-5,8.012518E-3,6.4242704E-5,-3.634428E-2,4.569269E-2,2.454327E-3],"categories":[],"categories_nodes":[],"categories_segments":[],"categories_sizes":[],"default_left":[1,1,1,0,0,0,0],"id":21,"left_children":[1,3,5,-1,-1,-1,-1],"loss_changes":[1.0401256E-3,7.918047E-3,3.2387928E-3,0E0,0E0,0E0,0E0],"parents":[2147483647,0,0,1,1,2,2],"right_children":[2,4,6,-1,-1,-1,-1],"split_conditions":[2.6332905E1,5.0255976E0,2.6826393E1,2.8909217E-5,-1.6354924E-2,2.056171E-2,1.1044471E-3],"split_indices":[0,1,0,0,0,0,0],"split_type":[0,0,0,0,0,0,0],"sum_hessian":[1.36E3,1.345E3,1.5E1,1.34E3,5E0,1E0,1.4E1],"tree_param":{"num_deleted":"0","num_feature":"4","num_nodes":"7","size_leaf_vector":"0"}},{"base_weights":[2.4228277E-6,-6.221396E-4,1.3199874E-3,-1.9133942E-4,-1.0393084E-2,1.773554E-2,4.921247E-4],"categories":[],"categories_nodes":[],"categories_segments":[],"categories_sizes":[],"default_left":[1,1,1,0,0,0,0],"id":22,"left_children":[1,3,5,-1,-1,-1,-1],"loss_changes":[1.1207899E-3,3.8874275E-3,5.9436145E-3,0E0,0E0,0E0,0E0],"parents":[2147483647,0,0,1,1,2,2],"right_children":[2,4,6,-1,-1,-1,-1],"split_conditions":[1.083309E1,3.1213428E3,1.1204483E1,-8.610274E-5,-4.6768878E-3,7.980993E-3,2.2145611E-4],"split_indices":[0,2,0,0,0,0,0],"split_type":[0,0,0,0,0,0,0],"sum_hessian":[1.36E3,9.23E2,4.37E2,8.85E2,3.8E1,2E1,4.17E2],"tree_param":{"num_deleted":"0","num_feature":"4","num_nodes":"7","size_leaf_vector":"0"}},{"base_weights":[3.860267E-6,-2.8304887E-5,2.1874234E-2,8.237479E-5,-9.3305465E-3],"categories":[],"categories_nodes":[],"categories_segments":[],"categories_sizes":[],"default_left":[1,1,0,0,0],"id":23,"left_children":[1,3,-1,-1,-1],"loss_changes":[9.5803355E-4,1.4009825E-3,0E0,0E0,0E0],"parents":[2147483647,0,0,1,1],"right_children":[2,4,-1,-1,-1],"split_conditions":[3.9273643E1,7.3611836E3,9.843405E-3,3.7068654E-5,-4.198746E-3],"split_indices":[0,2,0,0,0],"split_type":[0,0,0,0,0],"sum_hessian":[1.36E3,1.359E3,1E0,1.344E3,1.5E1],"tree_param":{"num_deleted":"0","num_feature":"4","num_nodes":"5","size_leaf_vector":"0"}},{"base_weights":[6.297572E-6,-7.600813E-5,1.0114362E-2,3.771477E-5,-3.0697757E-2,1.3919281E-3,2.0302897E-2],"categories":[],"categories_nodes":[],"categories_segments":[],"categories_sizes":[],"default_left":[1,1,1,0,0,0,0],"id":24,"left_children":[1,3,5,-1,-1,-1,-1],"loss_changes":[1.1330546E-3,4.7058724E-3,9.4929687E-4,0E0,0E0,0E0,0E0],"parents":[2147483647,0,0,1,1,2,2],"right_children":[2,4,6,-1,-1,-1,-1],"split_conditions":[7.7283755E3,7.4690693E3,2.3914158E1,1.6971646E-5,-1.381399E-2,6.2636763E-4,9.136303E-3],"split_indices":[2,2,0,0,0,0,0],"split_type":[0,0,0,0,0,0,0],"sum_hessian":[1.36E3,1.35E3,1E1,1.346E3,4E0,6E0,4E0],"tree_param":{"num_deleted":"0","num_feature":"4","num_nodes":"7","size_leaf_vector":"0"}},{"base_weights":[3.4573087E-3,2.6674827E-3,3.194445E-2,3.284493E-3,-3.8260378E-2,4.7204662E-2,-3.548529E-2,2.0203418E-3,1.6850771E-2,-4.7252093E-2,-1.4423221E-2,7.345802E-2,3.355634E-2,-9.086445E-3,-3.9813392E-2,3.418969E-3,-1.0195105E-2,1.423433E-2,4.95875E-2,2.5997881E-3,-6.1866883E-2,3.964448E-2,-3.7851267E-2,1.481935E-2,8.222189E-2,2.2329858E-3,5.4190464E-2],"categories":[],"categories_nodes":[],"categories_segments":[],"categories_sizes":[],"default_left":[1,1,1,1,1,1,1,1,1,1,1,1,1,0,0,0,0,0,0,0,0,0,0,0,0,0,0],"id":25,"left_children":[1,3,5,7,9,11,13,15,17,19,21,23,25,-1,-1,-1,-1,-1,-1,-1,-1,-1,-1,-1,-1,-1,-1],"loss_changes":[2.0007186E-2,2.2095693E-2,2.6370885E-2,1.4680505E-2,2.1048523E-3,4.701305E-3,2.095215E-4,1.3463555E-2,5.5468753E-3,6.7180153E-3,7.834096E-3,1.8649362E-3,9.573946E-3,0E0,0E0,0E0,0E0,0E0,0E0,0E0,0E0,0E0,0E0,0E0,0E0,0E0,0E0],"parents":[2147483647,0,0,1,1,2,2,3,3,4,4,5,5,6,6,7,7,8,8,9,9,10,10,11,11,12,12],"right_children":[2,4,6,8,10,12,14,16,18,20,22,24,26,-1,-1,-1,-1,-1,-1,-1,-1,-1,-1,-1,-1,-1,-1],"split_conditions":[5.1489263E0,8.634808E3,1.3732301E4,1.5575286E1,1.15224375E4,5.3276634E0,2.6540777E1,3.0804346E3,7.136559E3,1.8716404E1,1.1944914E4,1.9501236E1,2.9921818E1,-9.086445E-5,-3.981339E-4,3.418969E-5,-1.0195105E-4,1.423433E-4,4.9587496E-4,2.599788E-5,-6.186688E-4,3.9644478E-4,-3.7851266E-4,1.481935E-4,8.2221883E-4,2.2329858E-5,5.4190465E-4],"split_indices":[1,2,2,0,2,1,0,2,2,0,2,0,0,0,0,0,0,0,0,0,0,0,0,0,0,0,0],"split_type":[0,0,0,0,0,0,0,0,0,0,0,0,0,0,0,0,0,0,0,0,0,0,0,0,0,0,0],"sum_hessian":[8.92E2,8.69E2,2.3E1,8.57E2,1.2E1,1.9E1,4E0,7.85E2,7.2E1,8E0,4E0,5E0,1.4E1,1E0,3E0,7.05E2,8E1,6.8E1,4E0,2E0,6E0,1E0,3E0,1E0,4E0,6E0,8E0],"tree_param":{"num_deleted":"0","num_feature":"4","num_nodes":"27","size_leaf_vector":"0"}},{"base_weights":[3.423902E-3,2.640803E-3,3.1668574E-2,3.2523128E-3,-3.7921984E-2,4.680935E-2,-3.522824E-2,2.0000518E-3,1.669101E-2,-4.6845425E-2,-1.4275396E-2,7.2885185E-2,3.3258393E-2,-9.041011E-3,-3.9514795E-2,3.0217024E-3,-1.4500889E-2,1.4094055E-2,4.9190797E-2,2.5824532E-3,-6.13366E-2,3.9446265E-2,-3.7567377E-2,1.4745254E-2,8.156411E-2,2.2138474E-3,5.3708773E-2],"categories":[],"categories_nodes":[],"categories_segments":[],"categories_sizes":[],"default_left":[1,1,1,1,1,1,1,1,1,1,1,1,1,0,0,0,0,0,0,0,0,0,0,0,0,0,0],"id":26,"left_children":[1,3,5,7,9,11,13,15,17,19,21,23,25,-1,-1,-1,-1,-1,-1,-1,-1,-1,-1,-1,-1,-1,-1],"loss_changes":[1.9668072E-2,2.1703288E-2,2.5957884E-2,1.4405692E-2,2.0743776E-3,4.6430044E-3,2.0401133E-4,1.3294361E-2,5.4679383E-3,6.604811E-3,7.738312E-3,1.8248744E-3,9.404188E-3,0E0,0E0,0E0,0E0,0E0,0E0,0E0,0E0,0E0,0E0,0E0,0E0,0E0,0E0],"parents":[2147483647,0,0,1,1,2,2,3,3,4,4,5,5,6,6,7,7,8,8,9,9,10,10,11,11,12,12],"right_children":[2,4,6,8,10,12,14,16,18,20,22,24,26,-1,-1,-1,-1,-1,-1,-1,-1,-1,-1,-1,-1,-1,-1],"split_conditions":[5.1489263E0,8.634808E3,1.3732301E4,1.5575286E1,1.15224375E4,5.3276634E0,2.6540777E1,1.3353511E1,7.136559E3,1.8716404E1,1.1944914E4,1.9501236E1,2.9921818E1,-9.041011E-5,-3.9514794E-4,3.0217023E-5,-1.4500889E-4,1.4094054E-4,4.9190794E-4,2.582453E-5,-6.1336596E-4,3.9446264E-4,-3.7567376E-4,1.4745253E-4,8.1564113E-4,2.2138473E-5,5.3708773E-4],"split_indices":[1,2,2,0,2,1,0,0,2,0,2,0,0,0,0,0,0,0,0,0,0,0,0,0,0,0,0],"split_type":[0,0,0,0,0,0,0,0,0,0,0,0,0,0,0,0,0,0,0,0,0,0,0,0,0,0,0],"sum_hessian":[8.92E2,8.69E2,2.3E1,8.57E2,1.2E1,1.9E1,4E0,7.85E2,7.2E1,8E0,4E0,5E0,1.4E1,1E0,3E0,7.4E2,4.5E1,6.8E1,4E0,2E0,6E0,1E0,3E0,1E0,4E0,6E0,8E0],"tree_param":{"num_deleted":"0","num_feature":"4","num_nodes":"27","size_leaf_vector":"0"}},{"base_weights":[3.3907667E-3,2.4903992E-3,2.753846E-2,3.1410863E-3,-4.8134685E-2,4.1513566E-2,-1.9576054E-2,3.376698E-3,-3.744686E-2,-2.3790527E-2,-6.4456396E-2,3.093688E-2,8.930694E-2,-4.1008398E-2,2.9813984E-2,2.2565126E-3,1.6615005E-2,-5.266113E-2,2.2633785E-2,-7.391397E-3,-7.439111E-2,4.4955254E-2,5.6930897E-3,-5.467655E-2,-2.0505182E-2],"categories":[],"categories_nodes":[],"categories_segments":[],"categories_sizes":[],"default_left":[1,1,1,1,1,1,1,1,0,1,1,1,0,1,0,0,0,0,0,0,0,0,0,0,0],"id":27,"left_children":[1,3,5,7,9,11,13,15,-1,17,19,21,-1,23,-1,-1,-1,-1,-1,-1,-1,-1,-1,-1,-1],"loss_changes":[1.9346848E-2,2.8546417E-2,2.188244E-2,8.274116E-3,2.8372686E-3,9.8745115E-3,9.690979E-3,1.2537804E-2,0E0,9.233708E-3,2.8516948E-3,7.5293574E-3,0E0,5.602939E-4,0E0,0E0,0E0,0E0,0E0,0E0,0E0,0E0,0E0,0E0,0E0],"parents":[2147483647,0,0,1,1,2,2,3,3,4,4,5,5,6,6,7,7,9,9,10,10,11,11,13,13],"right_children":[2,4,6,8,10,12,14,16,-1,18,20,22,-1,24,-1,-1,-1,-1,-1,-1,-1,-1,-1,-1,-1],"split_conditions":[4.9177885E0,4.6828938E0,1.204751E4,1.0046005E4,2.133512E1,1.124436E4,4.068059E1,1.5575286E1,-3.744686E-4,1.6389553E1,3.9338657E3,6.624709E3,8.9306943E-4,1.5122283E4,2.9813984E-4,2.2565126E-5,1.6615004E-4,-5.266113E-4,2.2633786E-4,-7.3913965E-5,-7.439111E-4,4.4955252E-4,5.6930894E-5,-5.467655E-4,-2.0505182E-4],"split_indices":[1,1,2,2,0,2,0,0,0,0,2,2,0,2,0,0,0,0,0,0,0,0,0,0,0],"split_type":[0,0,0,0,0,0,0,0,0,0,0,0,0,0,0,0,0,0,0,0,0,0,0,0,0],"sum_hessian":[8.92E2,8.61E2,3.1E1,8.51E2,1E1,2.4E1,7E0,8.47E2,4E0,5E0,5E0,2.1E1,3E0,5E0,2E0,7.82E2,6.5E1,3E0,2E0,1E0,4E0,1.3E1,8E0,2E0,3E0],"tree_param":{"num_deleted":"0","num_feature":"4","num_nodes":"25","size_leaf_vector":"0"}},{"base_weights":[3.356458E-3,2.5855666E-3,3.1161416E-2,3.1887922E-3,-3.7426203E-2,4.6078872E-2,-3.4740694E-2,1.9594638E-3,1.638144E-2,-4.6255432E-2,-1.4048356E-2,7.18683E-2,3.2691177E-2,-8.893281E-3,-3.8979225E-2,3.3378273E-3,-1.0078611E-2,1.3805559E-2,4.8652317E-2,2.6346769E-3,-6.060042E-2,3.8802505E-2,-3.6961697E-2,1.4446752E-2,8.046326E-2,1.9778071E-3,5.2947E-2],"categories":[],"categories_nodes":[],"categories_segments":[],"categories_sizes":[],"default_left":[1,1,1,1,1,1,1,1,1,1,1,1,1,0,0,0,0,0,0,0,0,0,0,0,0,0,0],"id":28,"left_children":[1,3,5,7,9,11,13,15,17,19,21,23,25,-1,-1,-1,-1,-1,-1,-1,-1,-1,-1,-1,-1,-1,-1],"loss_changes":[1.906053E-2,2.1117771E-2,2.5195014E-2,1.3883029E-2,2.0334944E-3,4.555762E-3,2.0112284E-4,1.3075615E-2,5.3965207E-3,6.4716134E-3,7.4891555E-3,1.7987844E-3,9.227149E-3,0E0,0E0,0E0,0E0,0E0,0E0,0E0,0E0,0E0,0E0,0E0,0E0,0E0,0E0],"parents":[2147483647,0,0,1,1,2,2,3,3,4,4,5,5,6,6,7,7,8,8,9,9,10,10,11,11,12,12],"right_children":[2,4,6,8,10,12,14,16,18,20,22,24,26,-1,-1,-1,-1,-1,-1,-1,-1,-1,-1,-1,-1,-1,-1],"split_conditions":[5.1489263E0,8.634808E3,1.3732301E4,1.5575286E1,1.15224375E4,5.3276634E0,2.6540777E1,3.0804346E3,7.136559E3,1.8716404E1,1.1944914E4,1.9501236E1,2.9921818E1,-8.893281E-5,-3.8979223E-4,3.3378274E-5,-1.0078611E-4,1.3805559E-4,4.8652317E-4,2.6346768E-5,-6.0600415E-4,3.8802504E-4,-3.6961696E-4,1.4446751E-4,8.046326E-4,1.9778072E-5,5.2947E-4],"split_indices":[1,2,2,0,2,1,0,2,2,0,2,0,0,0,0,0,0,0,0,0,0,0,0,0,0,0,0],"split_type":[0,0,0,0,0,0,0,0,0,0,0,0,0,0,0,0,0,0,0,0,0,0,0,0,0,0,0],"sum_hessian":[8.92E2,8.69E2,2.3E1,8.57E2,1.2E1,1.9E1,4E0,7.85E2,7.2E1,8E0,4E0,5E0,1.4E1,1E0,3E0,7.05E2,8E1,6.8E1,4E0,2E0,6E0,1E0,3E0,1E0,4E0,6E0,8E0],"tree_param":{"num_deleted":"0","num_feature":"4","num_nodes":"27","size_leaf_vector":"0"}},{"base_weights":[3.3240302E-3,2.5597059E-3,3.0892285E-2,3.157553E-3,-3.709512E-2,4.5693003E-2,-3.4489036E-2,1.9397831E-3,1.6226178E-2,-4.5857288E-2,-1.390419E-2,7.13078E-2,3.240088E-2,-8.848816E-3,-3.8686886E-2,2.9461582E-3,-1.4313777E-2,1.3669501E-2,4.82631E-2,2.6171133E-3,-6.0080986E-2,3.860849E-2,-3.6684483E-2,1.4374519E-2,7.981955E-2,1.9608513E-3,5.247636E-2],"categories":[],"categories_nodes":[],"categories_segments":[],"categories_sizes":[],"default_left":[1,1,1,1,1,1,1,1,1,1,1,1,1,0,0,0,0,0,0,0,0,0,0,0,0,0,0],"id":29,"left_children":[1,3,5,7,9,11,13,15,17,19,21,23,25,-1,-1,-1,-1,-1,-1,-1,-1,-1,-1,-1,-1,-1,-1],"loss_changes":[1.8737407E-2,2.074268E-2,2.4800474E-2,1.3623234E-2,2.0040292E-3,4.4990666E-3,1.9583618E-4,1.2898913E-2,5.319558E-3,6.3626077E-3,7.397604E-3,1.7602444E-3,9.063575E-3,0E0,0E0,0E0,0E0,0E0,0E0,0E0,0E0,0E0,0E0,0E0,0E0,0E0,0E0],"parents":[2147483647,0,0,1,1,2,2,3,3,4,4,5,5,6,6,7,7,8,8,9,9,10,10,11,11,12,12],"right_children":[2,4,6,8,10,12,14,16,18,20,22,24,26,-1,-1,-1,-1,-1,-1,-1,-1,-1,-1,-1,-1,-1,-1],"split_conditions":[5.1489263E0,8.634808E3,1.3732301E4,1.5575286E1,1.15224375E4,5.3276634E0,2.6540777E1,1.3353511E1,7.136559E3,1.8716404E1,1.1944914E4,1.9501236E1,2.9921818E1,-8.848816E-5,-3.8686887E-4,2.946158E-5,-1.4313776E-4,1.36695E-4,4.8263097E-4,2.6171132E-5,-6.008099E-4,3.860849E-4,-3.6684482E-4,1.4374519E-4,7.981955E-4,1.9608513E-5,5.247636E-4],"split_indices":[1,2,2,0,2,1,0,0,2,0,2,0,0,0,0,0,0,0,0,0,0,0,0,0,0,0,0],"split_type":[0,0,0,0,0,0,0,0,0,0,0,0,0,0,0,0,0,0,0,0,0,0,0,0,0,0,0],"sum_hessian":[8.92E2,8.69E2,2.3E1,8.57E2,1.2E1,1.9E1,4E0,7.85E2,7.2E1,8E0,4E0,5E0,1.4E1,1E0,3E0,7.4E2,4.5E1,6.8E1,4E0,2E0,6E0,1E0,3E0,1E0,4E0,6E0,8E0],"tree_param":{"num_deleted":"0","num_feature":"4","num_nodes":"27","size_leaf_vector":"0"}},{"base_weights":[3.2918667E-3,2.412227E-3,2.6884291E-2,3.05583E-3,-4.7657046E-2,4.0586323E-2,-1.9295093E-2,3.286175E-3,-3.662184E-2,-2.368802E-2,-6.3683234E-2,3.0160937E-2,8.777936E-2,-4.0182993E-2,2.8912405E-2,2.1936682E-3,1.6197488E-2,-5.2083224E-2,2.2068262E-2,-7.491816E-3,-7.3423155E-2,4.393622E-2,5.3815097E-3,-5.3807687E-2,-1.9918725E-2],"categories":[],"categories_nodes":[],"categories_segments":[],"categories_sizes":[],"default_left":[1,1,1,1,1,1,1,1,0,1,1,1,0,1,0,0,0,0,0,0,0,0,0,0,0],"id":30,"left_children":[1,3,5,7,9,11,13,15,-1,17,19,21,-1,23,-1,-1,-1,-1,-1,-1,-1,-1,-1,-1,-1],"loss_changes":[1.846743E-2,2.7923357E-2,2.1031158E-2,7.9072425E-3,2.7169231E-3,9.652633E-3,9.217414E-3,1.1926098E-2,0E0,8.94494E-3,2.7337242E-3,7.273115E-3,0E0,5.847858E-4,0E0,0E0,0E0,0E0,0E0,0E0,0E0,0E0,0E0,0E0,0E0],"parents":[2147483647,0,0,1,1,2,2,3,3,4,4,5,5,6,6,7,7,9,9,10,10,11,11,13,13],"right_children":[2,4,6,8,10,12,14,16,-1,18,20,22,-1,24,-1,-1,-1,-1,-1,-1,-1,-1,-1,-1,-1],"split_conditions":[4.9177885E0,4.6828938E0,1.204751E4,1.0046005E4,2.133512E1,1.124436E4,4.068059E1,1.5575286E1,-3.662184E-4,1.6389553E1,3.9338657E3,6.624709E3,8.777936E-4,1.5122283E4,2.8912403E-4,2.1936681E-5,1.6197488E-4,-5.2083225E-4,2.2068262E-4,-7.4918156E-5,-7.3423155E-4,4.393622E-4,5.3815096E-5,-5.3807686E-4,-1.9918724E-4],"split_indices":[1,1,2,2,0,2,0,0,0,0,2,2,0,2,0,0,0,0,0,0,0,0,0,0,0],"split_type":[0,0,0,0,0,0,0,0,0,0,0,0,0,0,0,0,0,0,0,0,0,0,0,0,0],"sum_hessian":[8.92E2,8.61E2,3.1E1,8.51E2,1E1,2.4E1,7E0,8.47E2,4E0,5E0,5E0,2.1E1,3E0,5E0,2E0,7.82E2,6.5E1,3E0,2E0,1E0,4E0,1.3E1,8E0,2E0,3E0],"tree_param":{"num_deleted":"0","num_feature":"4","num_nodes":"25","size_leaf_vector":"0"}},{"base_weights":[3.2585354E-3,2.506133E-3,3.0397348E-2,3.095864E-3,-3.6608897E-2,4.497984E-2,-3.4012087E-2,1.900404E-3,1.592512E-2,-4.5277987E-2,-1.3682756E-2,7.031251E-2,3.1848118E-2,-8.704975E-3,-3.816262E-2,3.2587934E-3,-9.962847E-3,1.338921E-2,4.773567E-2,2.6677474E-3,-5.9357874E-2,3.7976548E-2,-3.609172E-2,1.4082966E-2,7.874182E-2,1.7326804E-3,5.1732555E-2],"categories":[],"categories_nodes":[],"categories_segments":[],"categories_sizes":[],"default_left":[1,1,1,1,1,1,1,1,1,1,1,1,1,0,0,0,0,0,0,0,0,0,0,0,0,0,0],"id":31,"left_children":[1,3,5,7,9,11,13,15,17,19,21,23,25,-1,-1,-1,-1,-1,-1,-1,-1,-1,-1,-1,-1,-1,-1],"loss_changes":[1.815826E-2,2.0181928E-2,2.407186E-2,1.3128766E-2,1.9642059E-3,4.41391E-3,1.929854E-4,1.2698791E-2,5.2496735E-3,6.2339865E-3,7.1587954E-3,1.7349403E-3,8.89279E-3,0E0,0E0,0E0,0E0,0E0,0E0,0E0,0E0,0E0,0E0,0E0,0E0,0E0,0E0],"parents":[2147483647,0,0,1,1,2,2,3,3,4,4,5,5,6,6,7,7,8,8,9,9,10,10,11,11,12,12],"right_children":[2,4,6,8,10,12,14,16,18,20,22,24,26,-1,-1,-1,-1,-1,-1,-1,-1,-1,-1,-1,-1,-1,-1],"split_conditions":[5.1489263E0,8.634808E3,1.3732301E4,1.5575286E1,1.15224375E4,5.3276634E0,2.6540777E1,3.0804346E3,7.136559E3,1.8716404E1,1.1944914E4,1.9501236E1,2.9921818E1,-8.704975E-5,-3.816262E-4,3.2587934E-5,-9.962847E-5,1.338921E-4,4.773567E-4,2.6677473E-5,-5.9357873E-4,3.7976546E-4,-3.6091718E-4,1.4082967E-4,7.8741816E-4,1.7326804E-5,5.1732553E-4],"split_indices":[1,2,2,0,2,1,0,2,2,0,2,0,0,0,0,0,0,0,0,0,0,0,0,0,0,0,0],"split_type":[0,0,0,0,0,0,0,0,0,0,0,0,0,0,0,0,0,0,0,0,0,0,0,0,0,0,0],"sum_hessian":[8.92E2,8.69E2,2.3E1,8.57E2,1.2E1,1.9E1,4E0,7.85E2,7.2E1,8E0,4E0,5E0,1.4E1,1E0,3E0,7.05E2,8E1,6.8E1,4E0,2E0,6E0,1E0,3E0,1E0,4E0,6E0,8E0],"tree_param":{"num_deleted":"0","num_feature":"4","num_nodes":"27","size_leaf_vector":"0"}},{"base_weights":[3.2270586E-3,2.3614175E-3,2.6444416E-2,2.9990182E-3,-4.7238313E-2,3.9957136E-2,-1.9088384E-2,3.2258478E-3,-3.6071118E-2,-2.3553228E-2,-6.3050345E-2,2.964222E-2,8.669988E-2,-3.9638564E-2,2.837477E-2,2.152215E-3,1.5914163E-2,-5.1617883E-2,2.171739E-2,-7.5213052E-3,-7.265189E-2,4.3233577E-2,5.2065304E-3,-5.3201456E-2,-1.9556753E-2],"categories":[],"categories_nodes":[],"categories_segments":[],"categories_sizes":[],"default_left":[1,1,1,1,1,1,1,1,0,1,1,1,0,1,0,0,0,0,0,0,0,0,0,0,0],"id":32,"left_children":[1,3,5,7,9,11,13,15,-1,17,19,21,-1,23,-1,-1,-1,-1,-1,-1,-1,-1,-1,-1,-1],"loss_changes":[1.7884973E-2,2.7402256E-2,2.045142E-2,7.667014E-3,2.6345644E-3,9.48371E-3,8.927748E-3,1.1517708E-2,0E0,8.744032E-3,2.65255E-3,7.0814136E-3,0E0,5.937563E-4,0E0,0E0,0E0,0E0,0E0,0E0,0E0,0E0,0E0,0E0,0E0],"parents":[2147483647,0,0,1,1,2,2,3,3,4,4,5,5,6,6,7,7,9,9,10,10,11,11,13,13],"right_children":[2,4,6,8,10,12,14,16,-1,18,20,22,-1,24,-1,-1,-1,-1,-1,-1,-1,-1,-1,-1,-1],"split_conditions":[4.9177885E0,4.6828938E0,1.204751E4,1.0046005E4,2.133512E1,1.124436E4,4.068059E1,1.5575286E1,-3.6071116E-4,1.6389553E1,3.9338657E3,6.624709E3,8.669988E-4,1.5122283E4,2.837477E-4,2.152215E-5,1.5914162E-4,-5.1617884E-4,2.1717389E-4,-7.521305E-5,-7.265189E-4,4.3233577E-4,5.2065305E-5,-5.320145E-4,-1.9556753E-4],"split_indices":[1,1,2,2,0,2,0,0,0,0,2,2,0,2,0,0,0,0,0,0,0,0,0,0,0],"split_type":[0,0,0,0,0,0,0,0,0,0,0,0,0,0,0,0,0,0,0,0,0,0,0,0,0],"sum_hessian":[8.92E2,8.61E2,3.1E1,8.51E2,1E1,2.4E1,7E0,8.47E2,4E0,5E0,5E0,2.1E1,3E0,5E0,2E0,7.82E2,6.5E1,3E0,2E0,1E0,4E0,1.3E1,8E0,2E0,3E0],"tree_param":{"num_deleted":"0","num_feature":"4","num_nodes":"25","size_leaf_vector":"0"}},{"base_weights":[3.1943694E-3,2.4537046E-3,2.991037E-2,3.0354268E-3,-3.6128707E-2,4.4277936E-2,-3.3541966E-2,1.8618711E-3,1.5629664E-2,-4.4705424E-2,-1.3464877E-2,6.933136E-2,3.1304702E-2,-8.563668E-3,-3.7645623E-2,2.8511402E-3,-1.411444E-2,1.3114365E-2,4.7214862E-2,2.7171548E-3,-5.8642898E-2,3.7353158E-2,-3.5507675E-2,1.37963835E-2,7.767908E-2,1.510231E-3,5.099988E-2],"categories":[],"categories_nodes":[],"categories_segments":[],"categories_sizes":[],"default_left":[1,1,1,1,1,1,1,1,1,1,1,1,1,0,0,0,0,0,0,0,0,0,0,0,0,0,0],"id":33,"left_children":[1,3,5,7,9,11,13,15,17,19,21,23,25,-1,-1,-1,-1,-1,-1,-1,-1,-1,-1,-1,-1,-1,-1],"loss_changes":[1.7596938E-2,1.963616E-2,2.3364907E-2,1.2652174E-2,1.9250028E-3,4.33008E-3,1.9012718E-4,1.2462872E-2,5.1803812E-3,6.1079003E-3,6.9271824E-3,1.7098505E-3,8.725089E-3,0E0,0E0,0E0,0E0,0E0,0E0,0E0,0E0,0E0,0E0,0E0,0E0,0E0,0E0],"parents":[2147483647,0,0,1,1,2,2,3,3,4,4,5,5,6,6,7,7,8,8,9,9,10,10,11,11,12,12],"right_children":[2,4,6,8,10,12,14,16,18,20,22,24,26,-1,-1,-1,-1,-1,-1,-1,-1,-1,-1,-1,-1,-1,-1],"split_conditions":[5.1489263E0,8.634808E3,1.3732301E4,1.5575286E1,1.15224375E4,5.3276634E0,2.6540777E1,1.3353511E1,7.136559E3,1.8716404E1,1.1944914E4,1.9501236E1,2.9921818E1,-8.5636675E-5,-3.764562E-4,2.8511402E-5,-1.411444E-4,1.3114365E-4,4.7214862E-4,2.7171547E-5,-5.8642897E-4,3.7353157E-4,-3.5507674E-4,1.3796383E-4,7.7679084E-4,1.51023105E-5,5.0999876E-4],"split_indices":[1,2,2,0,2,1,0,0,2,0,2,0,0,0,0,0,0,0,0,0,0,0,0,0,0,0,0],"split_type":[0,0,0,0,0,0,0,0,0,0,0,0,0,0,0,0,0,0,0,0,0,0,0,0,0,0,0],"sum_hessian":[8.92E2,8.69E2,2.3E1,8.57E2,1.2E1,1.9E1,4E0,7.85E2,7.2E1,8E0,4E0,5E0,1.4E1,1E0,3E0,7.4E2,4.5E1,6.8E1,4E0,2E0,6E0,1E0,3E0,1E0,4E0,6E0,8E0],"tree_param":{"num_deleted":"0","num_feature":"4","num_nodes":"27","size_leaf_vector":"0"}},{"base_weights":[3.1634644E-3,2.311596E-3,2.6011812E-2,2.9431009E-3,-4.681149E-2,3.933807E-2,-1.8884227E-2,3.1664686E-3,-3.5528667E-2,-2.3397507E-2,-6.242356E-2,2.9132439E-2,8.563454E-2,-3.910177E-2,2.78456E-2,2.1113453E-3,1.563609E-2,-5.1124893E-2,2.1371514E-2,-7.549271E-3,-7.1888566E-2,4.2542245E-2,5.035801E-3,-5.2602947E-2,-1.9200444E-2],"categories":[],"categories_nodes":[],"categories_segments":[],"categories_sizes":[],"default_left":[1,1,1,1,1,1,1,1,0,1,1,1,0,1,0,0,0,0,0,0,0,0,0,0,0],"id":34,"left_children":[1,3,5,7,9,11,13,15,-1,17,19,21,-1,23,-1,-1,-1,-1,-1,-1,-1,-1,-1,-1,-1],"loss_changes":[1.7321032E-2,2.687829E-2,1.9888353E-2,7.434032E-3,2.560392E-3,9.317372E-3,8.646911E-3,1.1124113E-2,0E0,8.540585E-3,2.5736056E-3,6.8946555E-3,0E0,6.021485E-4,0E0,0E0,0E0,0E0,0E0,0E0,0E0,0E0,0E0,0E0,0E0],"parents":[2147483647,0,0,1,1,2,2,3,3,4,4,5,5,6,6,7,7,9,9,10,10,11,11,13,13],"right_children":[2,4,6,8,10,12,14,16,-1,18,20,22,-1,24,-1,-1,-1,-1,-1,-1,-1,-1,-1,-1,-1],"split_conditions":[4.9177885E0,4.6828938E0,1.204751E4,1.0046005E4,2.133512E1,1.124436E4,4.068059E1,1.5575286E1,-3.5528667E-4,1.6389553E1,3.9338657E3,6.624709E3,8.5634534E-4,1.5122283E4,2.78456E-4,2.1113452E-5,1.563609E-4,-5.1124895E-4,2.1371513E-4,-7.549271E-5,-7.188856E-4,4.2542245E-4,5.035801E-5,-5.2602944E-4,-1.9200445E-4],"split_indices":[1,1,2,2,0,2,0,0,0,0,2,2,0,2,0,0,0,0,0,0,0,0,0,0,0],"split_type":[0,0,0,0,0,0,0,0,0,0,0,0,0,0,0,0,0,0,0,0,0,0,0,0,0],"sum_hessian":[8.92E2,8.61E2,3.1E1,8.51E2,1E1,2.4E1,7E0,8.47E2,4E0,5E0,5E0,2.1E1,3E0,5E0,2E0,7.82E2,6.5E1,3E0,2E0,1E0,4E0,1.3E1,8E0,2E0,3E0],"tree_param":{"num_deleted":"0","num_feature":"4","num_nodes":"25","size_leaf_vector":"0"}},{"base_weights":[3.1314064E-3,2.4022947E-3,2.9431235E-2,2.9761123E-3,-3.5654474E-2,4.358712E-2,-3.3078544E-2,1.8240531E-3,1.5339707E-2,-4.4139527E-2,-1.3250485E-2,6.836416E-2,3.0770494E-2,-8.424848E-3,-3.7135758E-2,3.16073E-3,-9.849007E-3,1.2844865E-2,4.670059E-2,2.765355E-3,-5.793597E-2,3.6738217E-2,-3.4932215E-2,1.3514692E-2,7.6631114E-2,-2.5806173E-3,4.770411E-2],"categories":[],"categories_nodes":[],"categories_segments":[],"categories_sizes":[],"default_left":[1,1,1,1,1,1,1,1,1,1,1,1,1,0,0,0,0,0,0,0,0,0,0,0,0,0,0],"id":35,"left_children":[1,3,5,7,9,11,13,15,17,19,21,23,25,-1,-1,-1,-1,-1,-1,-1,-1,-1,-1,-1,-1,-1,-1],"loss_changes":[1.7053034E-2,1.9104868E-2,2.2678947E-2,1.2193024E-2,1.8864181E-3,4.247561E-3,1.8726289E-4,1.22951735E-2,5.1116906E-3,5.984297E-3,6.7025544E-3,1.6849842E-3,8.59443E-3,0E0,0E0,0E0,0E0,0E0,0E0,0E0,0E0,0E0,0E0,0E0,0E0,0E0,0E0],"parents":[2147483647,0,0,1,1,2,2,3,3,4,4,5,5,6,6,7,7,8,8,9,9,10,10,11,11,12,12],"right_children":[2,4,6,8,10,12,14,16,18,20,22,24,26,-1,-1,-1,-1,-1,-1,-1,-1,-1,-1,-1,-1,-1,-1],"split_conditions":[5.1489263E0,8.634808E3,1.3732301E4,1.5575286E1,1.15224375E4,5.3276634E0,2.6540777E1,3.0804346E3,7.136559E3,1.8716404E1,1.1944914E4,1.9501236E1,2.8634205E1,-8.424848E-5,-3.7135757E-4,3.16073E-5,-9.849007E-5,1.2844865E-4,4.6700588E-4,2.7653548E-5,-5.793597E-4,3.6738216E-4,-3.4932213E-4,1.3514691E-4,7.6631113E-4,-2.5806172E-5,4.7704112E-4],"split_indices":[1,2,2,0,2,1,0,2,2,0,2,0,0,0,0,0,0,0,0,0,0,0,0,0,0,0,0],"split_type":[0,0,0,0,0,0,0,0,0,0,0,0,0,0,0,0,0,0,0,0,0,0,0,0,0,0,0],"sum_hessian":[8.92E2,8.69E2,2.3E1,8.57E2,1.2E1,1.9E1,4E0,7.85E2,7.2E1,8E0,4E0,5E0,1.4E1,1E0,3E0,7.05E2,8E1,6.8E1,4E0,2E0,6E0,1E0,3E0,1E0,4E0,5E0,9E0],"tree_param":{"num_deleted":"0","num_feature":"4","num_nodes":"27","size_leaf_vector":"0"}},{"base_weights":[3.1010914E-3,2.2628482E-3,2.5584359E-2,2.8884634E-3,-4.6399605E-2,3.8724337E-2,-1.8676125E-2,3.108423E-3,-3.4994368E-2,-2.3263115E-2,-6.1802823E-2,2.8625002E-2,8.45896E-2,-3.857247E-2,2.7341941E-2,2.0714845E-3,1.53631875E-2,-5.066759E-2,2.1030555E-2,-7.5757504E-3,-7.113309E-2,4.187403E-2,4.834852E-3,-5.2012026E-2,-1.8849686E-2],"categories":[],"categories_nodes":[],"categories_segments":[],"categories_sizes":[],"default_left":[1,1,1,1,1,1,1,1,0,1,1,1,0,1,0,0,0,0,0,0,0,0,0,0,0],"id":36,"left_children":[1,3,5,7,9,11,13,15,-1,17,19,21,-1,23,-1,-1,-1,-1,-1,-1,-1,-1,-1,-1,-1],"loss_changes":[1.6771983E-2,2.6376722E-2,1.9333838E-2,7.2082295E-3,2.4824142E-3,9.158842E-3,8.3793765E-3,1.0744083E-2,0E0,8.348635E-3,2.496833E-3,6.731864E-3,0E0,6.0998276E-4,0E0,0E0,0E0,0E0,0E0,0E0,0E0,0E0,0E0,0E0,0E0],"parents":[2147483647,0,0,1,1,2,2,3,3,4,4,5,5,6,6,7,7,9,9,10,10,11,11,13,13],"right_children":[2,4,6,8,10,12,14,16,-1,18,20,22,-1,24,-1,-1,-1,-1,-1,-1,-1,-1,-1,-1,-1],"split_conditions":[4.9177885E0,4.6828938E0,1.204751E4,1.0046005E4,2.133512E1,1.124436E4,4.068059E1,1.5575286E1,-3.4994367E-4,1.6389553E1,3.9338657E3,6.624709E3,8.4589596E-4,1.5122283E4,2.734194E-4,2.0714844E-5,1.5363187E-4,-5.066759E-4,2.1030554E-4,-7.57575E-5,-7.113309E-4,4.1874027E-4,4.834852E-5,-5.2012026E-4,-1.8849685E-4],"split_indices":[1,1,2,2,0,2,0,0,0,0,2,2,0,2,0,0,0,0,0,0,0,0,0,0,0],"split_type":[0,0,0,0,0,0,0,0,0,0,0,0,0,0,0,0,0,0,0,0,0,0,0,0,0],"sum_hessian":[8.92E2,8.61E2,3.1E1,8.51E2,1E1,2.4E1,7E0,8.47E2,4E0,5E0,5E0,2.1E1,3E0,5E0,2E0,7.82E2,6.5E1,3E0,2E0,1E0,4E0,1.3E1,8E0,2E0,3E0],"tree_param":{"num_deleted":"0","num_feature":"4","num_nodes":"25","size_leaf_vector":"0"}},{"base_weights":[3.0696539E-3,2.3519879E-3,2.8957147E-2,2.9180055E-3,-3.5186104E-2,4.2904016E-2,-3.2621752E-2,1.7870524E-3,1.5055145E-2,-4.358018E-2,-1.303955E-2,6.741062E-2,3.0241104E-2,-8.288473E-3,-3.6632955E-2,2.7595127E-3,-1.3916865E-2,1.2580606E-2,4.619275E-2,2.8123532E-3,-5.723695E-2,3.6131576E-2,-3.4365226E-2,1.3237748E-2,7.5597644E-2,-2.7845956E-3,4.7032412E-2],"categories":[],"categories_nodes":[],"categories_segments":[],"categories_sizes":[],"default_left":[1,1,1,1,1,1,1,1,1,1,1,1,1,0,0,0,0,0,0,0,0,0,0,0,0,0,0],"id":37,"left_children":[1,3,5,7,9,11,13,15,17,19,21,23,25,-1,-1,-1,-1,-1,-1,-1,-1,-1,-1,-1,-1,-1,-1],"loss_changes":[1.652256E-2,1.858776E-2,2.2011591E-2,1.1750465E-2,1.8484294E-3,4.1679293E-3,1.8439721E-4,1.2041754E-2,5.0436035E-3,5.8631226E-3,6.484707E-3,1.6603451E-3,8.449138E-3,0E0,0E0,0E0,0E0,0E0,0E0,0E0,0E0,0E0,0E0,0E0,0E0,0E0,0E0],"parents":[2147483647,0,0,1,1,2,2,3,3,4,4,5,5,6,6,7,7,8,8,9,9,10,10,11,11,12,12],"right_children":[2,4,6,8,10,12,14,16,18,20,22,24,26,-1,-1,-1,-1,-1,-1,-1,-1,-1,-1,-1,-1,-1,-1],"split_conditions":[5.1489263E0,8.634808E3,1.3732301E4,1.5575286E1,1.15224375E4,5.3276634E0,2.6540777E1,1.3353511E1,7.136559E3,1.8716404E1,1.1944914E4,1.9501236E1,2.8634205E1,-8.2884726E-5,-3.6632954E-4,2.7595126E-5,-1.3916865E-4,1.2580607E-4,4.619275E-4,2.8123532E-5,-5.723695E-4,3.6131576E-4,-3.4365224E-4,1.3237748E-4,7.559764E-4,-2.7845956E-5,4.703241E-4],"split_indices":[1,2,2,0,2,1,0,0,2,0,2,0,0,0,0,0,0,0,0,0,0,0,0,0,0,0,0],"split_type":[0,0,0,0,0,0,0,0,0,0,0,0,0,0,0,0,0,0,0,0,0,0,0,0,0,0,0],"sum_hessian":[8.92E2,8.69E2,2.3E1,8.57E2,1.2E1,1.9E1,4E0,7.85E2,7.2E1,8E0,4E0,5E0,1.4E1,1E0,3E0,7.4E2,4.5E1,6.8E1,4E0,2E0,6E0,1E0,3E0,1E0,4E0,5E0,9E0],"tree_param":{"num_deleted":"0","num_feature":"4","num_nodes":"27","size_leaf_vector":"0"}},{"base_weights":[3.0398867E-3,2.2150474E-3,2.5163997E-2,2.834682E-3,-4.5979824E-2,3.8120523E-2,-1.8470649E-2,3.0512847E-3,-3.4468103E-2,-2.3108255E-2,-6.1188087E-2,2.8126365E-2,8.355827E-2,-3.8050596E-2,2.6846131E-2,2.03218E-3,1.5095341E-2,-5.0183214E-2,2.0694444E-2,-7.600773E-3,-7.03854E-2,4.121658E-2,4.638657E-3,-5.1428627E-2,-1.8504426E-2],"categories":[],"categories_nodes":[],"categories_segments":[],"categories_sizes":[],"default_left":[1,1,1,1,1,1,1,1,0,1,1,1,0,1,0,0,0,0,0,0,0,0,0,0,0],"id":38,"left_children":[1,3,5,7,9,11,13,15,-1,17,19,21,-1,23,-1,-1,-1,-1,-1,-1,-1,-1,-1,-1,-1],"loss_changes":[1.624047E-2,2.5872419E-2,1.8795421E-2,6.9892392E-3,2.4122559E-3,9.002611E-3,8.119913E-3,1.0377805E-2,0E0,8.154252E-3,2.4221707E-3,6.5729115E-3,0E0,6.1727874E-4,0E0,0E0,0E0,0E0,0E0,0E0,0E0,0E0,0E0,0E0,0E0],"parents":[2147483647,0,0,1,1,2,2,3,3,4,4,5,5,6,6,7,7,9,9,10,10,11,11,13,13],"right_children":[2,4,6,8,10,12,14,16,-1,18,20,22,-1,24,-1,-1,-1,-1,-1,-1,-1,-1,-1,-1,-1],"split_conditions":[4.9177885E0,4.6828938E0,1.204751E4,1.0046005E4,2.133512E1,1.124436E4,4.068059E1,1.5575286E1,-3.4468103E-4,1.6389553E1,3.9338657E3,6.624709E3,8.355827E-4,1.5122283E4,2.684613E-4,2.03218E-5,1.509534E-4,-5.018321E-4,2.0694443E-4,-7.600773E-5,-7.0385396E-4,4.1216577E-4,4.638657E-5,-5.142863E-4,-1.8504425E-4],"split_indices":[1,1,2,2,0,2,0,0,0,0,2,2,0,2,0,0,0,0,0,0,0,0,0,0,0],"split_type":[0,0,0,0,0,0,0,0,0,0,0,0,0,0,0,0,0,0,0,0,0,0,0,0,0],"sum_hessian":[8.92E2,8.61E2,3.1E1,8.51E2,1E1,2.4E1,7E0,8.47E2,4E0,5E0,5E0,2.1E1,3E0,5E0,2E0,7.82E2,6.5E1,3E0,2E0,1E0,4E0,1.3E1,8E0,2E0,3E0],"tree_param":{"num_deleted":"0","num_feature":"4","num_nodes":"25","size_leaf_vector":"0"}},{"base_weights":[3.0090557E-3,2.302655E-3,2.849071E-2,2.8609738E-3,-3.472352E-2,4.2231724E-2,-3.2171495E-2,1.7507339E-3,1.4775873E-2,-4.3027304E-2,-1.2832013E-2,6.647053E-2,2.9720755E-2,-8.154511E-3,-3.613711E-2,3.0660632E-3,-9.735354E-3,1.2321485E-2,4.569125E-2,2.8581843E-3,-5.6545753E-2,3.5533115E-2,-3.3806574E-2,1.2965476E-2,7.457845E-2,-2.9829356E-3,4.6370894E-2],"categories":[],"categories_nodes":[],"categories_segments":[],"categories_sizes":[],"default_left":[1,1,1,1,1,1,1,1,1,1,1,1,1,0,0,0,0,0,0,0,0,0,0,0,0,0,0],"id":39,"left_children":[1,3,5,7,9,11,13,15,17,19,21,23,25,-1,-1,-1,-1,-1,-1,-1,-1,-1,-1,-1,-1,-1,-1],"loss_changes":[1.600863E-2,1.8084345E-2,2.1364104E-2,1.1324096E-2,1.8110424E-3,4.0894635E-3,1.8153014E-4,1.1904727E-2,4.9761347E-3,5.744323E-3,6.2734396E-3,1.6359445E-3,8.306135E-3,0E0,0E0,0E0,0E0,0E0,0E0,0E0,0E0,0E0,0E0,0E0,0E0,0E0,0E0],"parents":[2147483647,0,0,1,1,2,2,3,3,4,4,5,5,6,6,7,7,8,8,9,9,10,10,11,11,12,12],"right_children":[2,4,6,8,10,12,14,16,18,20,22,24,26,-1,-1,-1,-1,-1,-1,-1,-1,-1,-1,-1,-1,-1,-1],"split_conditions":[5.1489263E0,8.634808E3,1.3732301E4,1.5575286E1,1.15224375E4,5.3276634E0,2.6540777E1,3.0804346E3,7.136559E3,1.8716404E1,1.1944914E4,1.9501236E1,2.8634205E1,-8.154511E-5,-3.6137112E-4,3.066063E-5,-9.735354E-5,1.2321485E-4,4.569125E-4,2.8581842E-5,-5.654575E-4,3.5533114E-4,-3.3806573E-4,1.2965476E-4,7.457845E-4,-2.9829356E-5,4.6370892E-4],"split_indices":[1,2,2,0,2,1,0,2,2,0,2,0,0,0,0,0,0,0,0,0,0,0,0,0,0,0,0],"split_type":[0,0,0,0,0,0,0,0,0,0,0,0,0,0,0,0,0,0,0,0,0,0,0,0,0,0,0],"sum_hessian":[8.92E2,8.69E2,2.3E1,8.57E2,1.2E1,1.9E1,4E0,7.85E2,7.2E1,8E0,4E0,5E0,1.4E1,1E0,3E0,7.05E2,8E1,6.8E1,4E0,2E0,6E0,1E0,3E0,1E0,4E0,5E0,9E0],"tree_param":{"num_deleted":"0","num_feature":"4","num_nodes":"27","size_leaf_vector":"0"}},{"base_weights":[2.9799296E-3,2.2796222E-3,2.8241908E-2,2.8329634E-3,-3.441625E-2,4.1874878E-2,-3.1938355E-2,1.7331429E-3,1.4636058E-2,-4.2656675E-2,-1.2700239E-2,6.5951735E-2,2.9452479E-2,-8.113742E-3,-3.5866074E-2,2.6910598E-3,-1.3735326E-2,1.2200053E-2,4.532572E-2,2.8391306E-3,-5.6061067E-2,3.535545E-2,-3.3553023E-2,1.2900649E-2,7.398182E-2,7.547337E-4,4.850045E-2],"categories":[],"categories_nodes":[],"categories_segments":[],"categories_sizes":[],"default_left":[1,1,1,1,1,1,1,1,1,1,1,1,1,0,0,0,0,0,0,0,0,0,0,0,0,0,0],"id":40,"left_children":[1,3,5,7,9,11,13,15,17,19,21,23,25,-1,-1,-1,-1,-1,-1,-1,-1,-1,-1,-1,-1,-1,-1],"loss_changes":[1.5733816E-2,1.7763145E-2,2.1027872E-2,1.1112579E-2,1.7845891E-3,4.039403E-3,1.7687399E-4,1.1683525E-2,4.904516E-3,5.64776E-3,6.1967564E-3,1.6016178E-3,8.162903E-3,0E0,0E0,0E0,0E0,0E0,0E0,0E0,0E0,0E0,0E0,0E0,0E0,0E0,0E0],"parents":[2147483647,0,0,1,1,2,2,3,3,4,4,5,5,6,6,7,7,8,8,9,9,10,10,11,11,12,12],"right_children":[2,4,6,8,10,12,14,16,18,20,22,24,26,-1,-1,-1,-1,-1,-1,-1,-1,-1,-1,-1,-1,-1,-1],"split_conditions":[5.1489263E0,8.634808E3,1.3732301E4,1.5575286E1,1.15224375E4,5.3276634E0,2.6540777E1,1.3353511E1,7.136559E3,1.8716404E1,1.1944914E4,1.9501236E1,2.9921818E1,-8.113742E-5,-3.5866073E-4,2.6910599E-5,-1.3735326E-4,1.2200053E-4,4.5325718E-4,2.8391305E-5,-5.606107E-4,3.5355447E-4,-3.3553023E-4,1.2900648E-4,7.398182E-4,7.5473367E-6,4.8500448E-4],"split_indices":[1,2,2,0,2,1,0,0,2,0,2,0,0,0,0,0,0,0,0,0,0,0,0,0,0,0,0],"split_type":[0,0,0,0,0,0,0,0,0,0,0,0,0,0,0,0,0,0,0,0,0,0,0,0,0,0,0],"sum_hessian":[8.92E2,8.69E2,2.3E1,8.57E2,1.2E1,1.9E1,4E0,7.85E2,7.2E1,8E0,4E0,5E0,1.4E1,1E0,3E0,7.4E2,4.5E1,6.8E1,4E0,2E0,6E0,1E0,3E0,1E0,4E0,6E0,8E0],"tree_param":{"num_deleted":"0","num_feature":"4","num_nodes":"27","size_leaf_vector":"0"}},{"base_weights":[2.9511068E-3,2.1452927E-3,2.4565496E-2,2.7581833E-3,-4.5520894E-2,3.726861E-2,-1.8202413E-2,2.9699502E-3,-3.3709098E-2,-2.3001535E-2,-6.0453434E-2,2.7415093E-2,8.214578E-2,-3.728723E-2,2.6034692E-2,1.9757855E-3,1.4719359E-2,-4.9630813E-2,2.017135E-2,-7.685378E-3,-6.946997E-2,4.029622E-2,4.3316665E-3,-5.06212E-2,-1.7964944E-2],"categories":[],"categories_nodes":[],"categories_segments":[],"categories_sizes":[],"default_left":[1,1,1,1,1,1,1,1,0,1,1,1,0,1,0,0,0,0,0,0,0,0,0,0,0],"id":41,"left_children":[1,3,5,7,9,11,13,15,-1,17,19,21,-1,23,-1,-1,-1,-1,-1,-1,-1,-1,-1,-1,-1],"loss_changes":[1.5500838E-2,2.5308158E-2,1.8063515E-2,6.679734E-3,2.3084618E-3,8.802913E-3,7.7248174E-3,9.8762745E-3,0E0,7.899097E-3,2.3208093E-3,6.3669384E-3,0E0,6.3645E-4,0E0,0E0,0E0,0E0,0E0,0E0,0E0,0E0,0E0,0E0,0E0],"parents":[2147483647,0,0,1,1,2,2,3,3,4,4,5,5,6,6,7,7,9,9,10,10,11,11,13,13],"right_children":[2,4,6,8,10,12,14,16,-1,18,20,22,-1,24,-1,-1,-1,-1,-1,-1,-1,-1,-1,-1,-1],"split_conditions":[4.9177885E0,4.6828938E0,1.204751E4,1.0046005E4,2.133512E1,1.124436E4,4.068059E1,1.5575286E1,-3.3709098E-4,1.6389553E1,3.9338657E3,6.624709E3,8.2145777E-4,1.5122283E4,2.6034692E-4,1.9757854E-5,1.4719358E-4,-4.9630814E-4,2.017135E-4,-7.685378E-5,-6.946997E-4,4.0296218E-4,4.3316664E-5,-5.06212E-4,-1.7964943E-4],"split_indices":[1,1,2,2,0,2,0,0,0,0,2,2,0,2,0,0,0,0,0,0,0,0,0,0,0],"split_type":[0,0,0,0,0,0,0,0,0,0,0,0,0,0,0,0,0,0,0,0,0,0,0,0,0],"sum_hessian":[8.92E2,8.61E2,3.1E1,8.51E2,1E1,2.4E1,7E0,8.47E2,4E0,5E0,5E0,2.1E1,3E0,5E0,2E0,7.82E2,6.5E1,3E0,2E0,1E0,4E0,1.3E1,8E0,2E0,3E0],"tree_param":{"num_deleted":"0","num_feature":"4","num_nodes":"25","size_leaf_vector":"0"}},{"base_weights":[2.9211536E-3,2.2317767E-3,2.7789352E-2,2.777575E-3,-3.3962592E-2,4.1221693E-2,-3.149789E-2,1.6979063E-3,1.4364453E-2,-1.5071974E-2,-4.388523E-2,6.503147E-2,2.8949672E-2,-7.983342E-3,-3.538069E-2,2.9941944E-3,-9.621566E-3,1.1948301E-2,4.483445E-2,3.9459267E-4,-2.2903906E-2,-5.9322532E-2,1.6177794E-3,1.2634665E-2,7.29839E-2,-3.1802815E-3,4.5332678E-2],"categories":[],"categories_nodes":[],"categories_segments":[],"categories_sizes":[],"default_left":[1,1,1,1,1,1,1,1,1,1,1,1,1,0,0,0,0,0,0,0,0,0,0,0,0,0,0],"id":42,"left_children":[1,3,5,7,9,11,13,15,17,19,21,23,25,-1,-1,-1,-1,-1,-1,-1,-1,-1,-1,-1,-1,-1,-1],"loss_changes":[1.5247181E-2,1.7281035E-2,2.0411195E-2,1.0709182E-2,1.7753448E-3,3.9612427E-3,1.7405534E-4,1.156202E-2,4.8385747E-3,7.358362E-4,5.7155183E-3,1.577964E-3,8.0399485E-3,0E0,0E0,0E0,0E0,0E0,0E0,0E0,0E0,0E0,0E0,0E0,0E0,0E0,0E0],"parents":[2147483647,0,0,1,1,2,2,3,3,4,4,5,5,6,6,7,7,8,8,9,9,10,10,11,11,12,12],"right_children":[2,4,6,8,10,12,14,16,18,20,22,24,26,-1,-1,-1,-1,-1,-1,-1,-1,-1,-1,-1,-1,-1,-1],"split_conditions":[5.1489263E0,8.634808E3,1.3732301E4,1.5575286E1,2.0742382E1,5.3276634E0,2.6540777E1,3.0804346E3,7.136559E3,1.0046005E4,1.15224375E4,1.9501236E1,2.8634205E1,-7.9833415E-5,-3.538069E-4,2.9941943E-5,-9.621566E-5,1.1948301E-4,4.4834448E-4,3.9459264E-6,-2.2903905E-4,-5.932253E-4,1.6177793E-5,1.2634664E-4,7.2983897E-4,-3.1802814E-5,4.5332676E-4],"split_indices":[1,2,2,0,0,1,0,2,2,2,2,0,0,0,0,0,0,0,0,0,0,0,0,0,0,0,0],"split_type":[0,0,0,0,0,0,0,0,0,0,0,0,0,0,0,0,0,0,0,0,0,0,0,0,0,0,0],"sum_hessian":[8.92E2,8.69E2,2.3E1,8.57E2,1.2E1,1.9E1,4E0,7.85E2,7.2E1,5E0,7E0,5E0,1.4E1,1E0,3E0,7.05E2,8E1,6.8E1,4E0,2E0,3E0,5E0,2E0,1E0,4E0,5E0,9E0],"tree_param":{"num_deleted":"0","num_feature":"4","num_nodes":"27","size_leaf_vector":"0"}},{"base_weights":[2.8925512E-3,2.099574E-3,2.416298E-2,2.706658E-3,-4.5112714E-2,3.670342E-2,-1.8046271E-2,2.9150818E-3,-3.318335E-2,-2.2867147E-2,-5.9839495E-2,2.693937E-2,8.122984E-2,-3.684115E-2,2.555891E-2,1.9385548E-3,1.4456077E-2,-4.9186416E-2,1.9847596E-2,-7.7066943E-3,-6.8724714E-2,3.966454E-2,4.1513974E-3,-5.0171178E-2,-1.7633341E-2],"categories":[],"categories_nodes":[],"categories_segments":[],"categories_sizes":[],"default_left":[1,1,1,1,1,1,1,1,0,1,1,1,0,1,0,0,0,0,0,0,0,0,0,0,0],"id":43,"left_children":[1,3,5,7,9,11,13,15,-1,17,19,21,-1,23,-1,-1,-1,-1,-1,-1,-1,-1,-1,-1,-1],"loss_changes":[1.5011465E-2,2.4828598E-2,1.7600687E-2,6.4699757E-3,2.2353046E-3,8.680675E-3,7.498052E-3,9.529015E-3,0E0,7.7215573E-3,2.2496283E-3,6.214913E-3,0E0,6.5155793E-4,0E0,0E0,0E0,0E0,0E0,0E0,0E0,0E0,0E0,0E0,0E0],"parents":[2147483647,0,0,1,1,2,2,3,3,4,4,5,5,6,6,7,7,9,9,10,10,11,11,13,13],"right_children":[2,4,6,8,10,12,14,16,-1,18,20,22,-1,24,-1,-1,-1,-1,-1,-1,-1,-1,-1,-1,-1],"split_conditions":[4.9177885E0,4.6828938E0,1.204751E4,1.0046005E4,2.133512E1,1.124436E4,4.068059E1,1.5575286E1,-3.318335E-4,1.6389553E1,3.9338657E3,6.624709E3,8.122984E-4,1.5122283E4,2.5558908E-4,1.9385549E-5,1.4456076E-4,-4.9186416E-4,1.9847596E-4,-7.706694E-5,-6.8724714E-4,3.966454E-4,4.1513973E-5,-5.017118E-4,-1.7633341E-4],"split_indices":[1,1,2,2,0,2,0,0,0,0,2,2,0,2,0,0,0,0,0,0,0,0,0,0,0],"split_type":[0,0,0,0,0,0,0,0,0,0,0,0,0,0,0,0,0,0,0,0,0,0,0,0,0],"sum_hessian":[8.92E2,8.61E2,3.1E1,8.51E2,1E1,2.4E1,7E0,8.47E2,4E0,5E0,5E0,2.1E1,3E0,5E0,2E0,7.82E2,6.5E1,3E0,2E0,1E0,4E0,1.3E1,8E0,2E0,3E0],"tree_param":{"num_deleted":"0","num_feature":"4","num_nodes":"25","size_leaf_vector":"0"}},{"base_weights":[2.86318E-3,2.1846257E-3,2.7341468E-2,2.7233206E-3,-3.3537284E-2,4.0575635E-2,-3.1063486E-2,1.6634328E-3,1.4097959E-2,-1.4841036E-2,-4.336731E-2,6.412405E-2,2.8451227E-2,-7.855251E-3,-3.490173E-2,2.944936E-3,-9.526749E-3,2.0692851E-2,3.9555193E-3,-2.577702E-2,-2.9287897E-3,-5.8574814E-2,1.5034676E-3,1.2373168E-2,7.199959E-2,-3.3659406E-3,4.4696406E-2],"categories":[],"categories_nodes":[],"categories_segments":[],"categories_sizes":[],"default_left":[1,1,1,1,1,1,1,1,1,1,1,1,1,0,0,0,0,0,0,0,0,0,0,0,0,0,0],"id":44,"left_children":[1,3,5,7,9,11,13,15,17,19,21,23,25,-1,-1,-1,-1,-1,-1,-1,-1,-1,-1,-1,-1,-1,-1],"loss_changes":[1.477286E-2,1.6832927E-2,1.9810999E-2,1.032046E-2,1.7455835E-3,3.8858056E-3,1.712325E-4,1.1299495E-2,4.800995E-3,7.061373E-4,5.547045E-3,1.5545338E-3,7.903579E-3,0E0,0E0,0E0,0E0,0E0,0E0,0E0,0E0,0E0,0E0,0E0,0E0,0E0,0E0],"parents":[2147483647,0,0,1,1,2,2,3,3,4,4,5,5,6,6,7,7,8,8,9,9,10,10,11,11,12,12],"right_children":[2,4,6,8,10,12,14,16,18,20,22,24,26,-1,-1,-1,-1,-1,-1,-1,-1,-1,-1,-1,-1,-1,-1],"split_conditions":[5.1489263E0,8.634808E3,1.3732301E4,1.5575286E1,2.0742382E1,5.3276634E0,2.6540777E1,3.0804346E3,4.422885E0,1.7256918E1,1.15224375E4,1.9501236E1,2.8634205E1,-7.855251E-5,-3.490173E-4,2.944936E-5,-9.526749E-5,2.0692851E-4,3.955519E-5,-2.5777018E-4,-2.9287896E-5,-5.857481E-4,1.5034675E-5,1.2373168E-4,7.199959E-4,-3.3659406E-5,4.4696406E-4],"split_indices":[1,2,2,0,0,1,0,2,1,0,2,0,0,0,0,0,0,0,0,0,0,0,0,0,0,0,0],"split_type":[0,0,0,0,0,0,0,0,0,0,0,0,0,0,0,0,0,0,0,0,0,0,0,0,0,0,0],"sum_hessian":[8.92E2,8.69E2,2.3E1,8.57E2,1.2E1,1.9E1,4E0,7.85E2,7.2E1,5E0,7E0,5E0,1.4E1,1E0,3E0,7.05E2,8E1,4.3E1,2.9E1,2E0,3E0,5E0,2E0,1E0,4E0,5E0,9E0],"tree_param":{"num_deleted":"0","num_feature":"4","num_nodes":"27","size_leaf_vector":"0"}},{"base_weights":[2.8347177E-3,2.0539053E-3,2.377927E-2,2.654392E-3,-4.464325E-2,3.6162756E-2,-1.789153E-2,2.859671E-3,-3.2691777E-2,-2.265293E-2,-5.9193023E-2,2.6489472E-2,8.032513E-2,-3.6400642E-2,2.5090536E-2,1.9020454E-3,1.4177264E-2,-4.874608E-2,1.968891E-2,-7.6879375E-3,-6.7956455E-2,3.9065164E-2,3.984006E-3,-4.9725365E-2,-1.7306939E-2],"categories":[],"categories_nodes":[],"categories_segments":[],"categories_sizes":[],"default_left":[1,1,1,1,1,1,1,1,0,1,1,1,0,1,0,0,0,0,0,0,0,0,0,0,0],"id":45,"left_children":[1,3,5,7,9,11,13,15,-1,17,19,21,-1,23,-1,-1,-1,-1,-1,-1,-1,-1,-1,-1,-1],"loss_changes":[1.4555075E-2,2.4289865E-2,1.7159957E-2,6.275446E-3,2.1786E-3,8.552108E-3,7.2777905E-3,9.163671E-3,0E0,7.588748E-3,2.1857228E-3,6.070843E-3,0E0,6.659152E-4,0E0,0E0,0E0,0E0,0E0,0E0,0E0,0E0,0E0,0E0,0E0],"parents":[2147483647,0,0,1,1,2,2,3,3,4,4,5,5,6,6,7,7,9,9,10,10,11,11,13,13],"right_children":[2,4,6,8,10,12,14,16,-1,18,20,22,-1,24,-1,-1,-1,-1,-1,-1,-1,-1,-1,-1,-1],"split_conditions":[4.9177885E0,4.6828938E0,1.204751E4,1.0046005E4,2.133512E1,1.124436E4,4.068059E1,1.5575286E1,-3.2691777E-4,1.6389553E1,3.9338657E3,6.624709E3,8.032512E-4,1.5122283E4,2.5090534E-4,1.9020454E-5,1.4177263E-4,-4.8746078E-4,1.968891E-4,-7.6879376E-5,-6.7956455E-4,3.9065164E-4,3.984006E-5,-4.972536E-4,-1.7306938E-4],"split_indices":[1,1,2,2,0,2,0,0,0,0,2,2,0,2,0,0,0,0,0,0,0,0,0,0,0],"split_type":[0,0,0,0,0,0,0,0,0,0,0,0,0,0,0,0,0,0,0,0,0,0,0,0,0],"sum_hessian":[8.92E2,8.61E2,3.1E1,8.51E2,1E1,2.4E1,7E0,8.47E2,4E0,5E0,5E0,2.1E1,3E0,5E0,2E0,7.82E2,6.5E1,3E0,2E0,1E0,4E0,1.3E1,8E0,2E0,3E0],"tree_param":{"num_deleted":"0","num_feature":"4","num_nodes":"25","size_leaf_vector":"0"}},{"base_weights":[2.8059236E-3,2.138016E-3,2.6900662E-2,2.6697682E-3,-3.312208E-2,3.9939564E-2,-3.0635078E-2,1.6296504E-3,1.3832271E-2,-1.4624269E-2,-4.285518E-2,6.3229114E-2,2.7961105E-2,-7.729441E-3,-3.4429125E-2,2.566422E-3,-1.3495945E-2,1.143901E-2,4.4092834E-2,-2.5387226E-2,-2.8959848E-3,-5.7835966E-2,1.3914505E-3,1.2115976E-2,7.1028545E-2,-3.5464994E-3,4.406956E-2],"categories":[],"categories_nodes":[],"categories_segments":[],"categories_sizes":[],"default_left":[1,1,1,1,1,1,1,1,1,1,1,1,1,0,0,0,0,0,0,0,0,0,0,0,0,0,0],"id":46,"left_children":[1,3,5,7,9,11,13,15,17,19,21,23,25,-1,-1,-1,-1,-1,-1,-1,-1,-1,-1,-1,-1,-1,-1],"loss_changes":[1.431359E-2,1.6400605E-2,1.922842E-2,9.939112E-3,1.7138077E-3,3.811501E-3,1.684078E-4,1.1171652E-2,4.782389E-3,6.838649E-4,5.38327E-3,1.5313402E-3,7.7693732E-3,0E0,0E0,0E0,0E0,0E0,0E0,0E0,0E0,0E0,0E0,0E0,0E0,0E0,0E0],"parents":[2147483647,0,0,1,1,2,2,3,3,4,4,5,5,6,6,7,7,8,8,9,9,10,10,11,11,12,12],"right_children":[2,4,6,8,10,12,14,16,18,20,22,24,26,-1,-1,-1,-1,-1,-1,-1,-1,-1,-1,-1,-1,-1,-1],"split_conditions":[5.1489263E0,8.634808E3,1.3732301E4,1.5575286E1,2.0742382E1,5.3276634E0,2.6540777E1,1.3353511E1,7.136559E3,1.7256918E1,1.15224375E4,1.9501236E1,2.8634205E1,-7.7294404E-5,-3.4429124E-4,2.566422E-5,-1.3495945E-4,1.14390095E-4,4.4092833E-4,-2.5387225E-4,-2.8959847E-5,-5.7835964E-4,1.3914505E-5,1.21159756E-4,7.1028544E-4,-3.5464993E-5,4.4069558E-4],"split_indices":[1,2,2,0,0,1,0,0,2,0,2,0,0,0,0,0,0,0,0,0,0,0,0,0,0,0,0],"split_type":[0,0,0,0,0,0,0,0,0,0,0,0,0,0,0,0,0,0,0,0,0,0,0,0,0,0,0],"sum_hessian":[8.92E2,8.69E2,2.3E1,8.57E2,1.2E1,1.9E1,4E0,7.85E2,7.2E1,5E0,7E0,5E0,1.4E1,1E0,3E0,7.4E2,4.5E1,6.8E1,4E0,2E0,3E0,5E0,2E0,1E0,4E0,5E0,9E0],"tree_param":{"num_deleted":"0","num_feature":"4","num_nodes":"27","size_leaf_vector":"0"}},{"base_weights":[2.778327E-3,2.0099385E-3,2.3389969E-2,2.604596E-3,-4.4231717E-2,3.561538E-2,-1.773819E-2,2.806783E-3,-3.2207225E-2,-2.2499902E-2,-5.8591574E-2,2.6029943E-2,7.943146E-2,-3.5965655E-2,2.4629474E-2,1.8660324E-3,1.3924979E-2,-4.8279263E-2,1.9372543E-2,-7.7066906E-3,-6.7227215E-2,3.845352E-2,3.8121592E-3,-4.9283743E-2,-1.6985677E-2],"categories":[],"categories_nodes":[],"categories_segments":[],"categories_sizes":[],"default_left":[1,1,1,1,1,1,1,1,0,1,1,1,0,1,0,0,0,0,0,0,0,0,0,0,0],"id":47,"left_children":[1,3,5,7,9,11,13,15,-1,17,19,21,-1,23,-1,-1,-1,-1,-1,-1,-1,-1,-1,-1,-1],"loss_changes":[1.4096098E-2,2.3818437E-2,1.672163E-2,6.087196E-3,2.114419E-3,8.432314E-3,7.0638563E-3,8.843629E-3,0E0,7.4119605E-3,2.1184422E-3,5.925945E-3,0E0,6.7954464E-4,0E0,0E0,0E0,0E0,0E0,0E0,0E0,0E0,0E0,0E0,0E0],"parents":[2147483647,0,0,1,1,2,2,3,3,4,4,5,5,6,6,7,7,9,9,10,10,11,11,13,13],"right_children":[2,4,6,8,10,12,14,16,-1,18,20,22,-1,24,-1,-1,-1,-1,-1,-1,-1,-1,-1,-1,-1],"split_conditions":[4.9177885E0,4.6828938E0,1.204751E4,1.0046005E4,2.133512E1,1.124436E4,4.068059E1,1.5575286E1,-3.2207224E-4,1.6389553E1,3.9338657E3,6.624709E3,7.9431455E-4,1.5122283E4,2.4629475E-4,1.8660323E-5,1.3924978E-4,-4.8279262E-4,1.9372543E-4,-7.706691E-5,-6.722721E-4,3.8453517E-4,3.812159E-5,-4.928374E-4,-1.6985676E-4],"split_indices":[1,1,2,2,0,2,0,0,0,0,2,2,0,2,0,0,0,0,0,0,0,0,0,0,0],"split_type":[0,0,0,0,0,0,0,0,0,0,0,0,0,0,0,0,0,0,0,0,0,0,0,0,0],"sum_hessian":[8.92E2,8.61E2,3.1E1,8.51E2,1E1,2.4E1,7E0,8.47E2,4E0,5E0,5E0,2.1E1,3E0,5E0,2E0,7.82E2,6.5E1,3E0,2E0,1E0,4E0,1.3E1,8E0,2E0,3E0],"tree_param":{"num_deleted":"0","num_feature":"4","num_nodes":"25","size_leaf_vector":"0"}},{"base_weights":[2.7500927E-3,2.092674E-3,2.6466936E-2,2.6175748E-3,-3.2711763E-2,3.9313465E-2,-3.0212576E-2,1.5964905E-3,1.35758575E-2,-1.4410549E-2,-4.23487E-2,6.2346656E-2,2.7479293E-2,-7.6058656E-3,-3.3962786E-2,2.8575025E-3,-9.414263E-3,1.1202154E-2,4.3617796E-2,-2.5003262E-2,-2.8633773E-3,-5.7105776E-2,1.2816787E-3,1.1863127E-2,7.0070736E-2,-3.7219177E-3,4.345209E-2],"categories":[],"categories_nodes":[],"categories_segments":[],"categories_sizes":[],"default_left":[1,1,1,1,1,1,1,1,1,1,1,1,1,0,0,0,0,0,0,0,0,0,0,0,0,0,0],"id":48,"left_children":[1,3,5,7,9,11,13,15,17,19,21,23,25,-1,-1,-1,-1,-1,-1,-1,-1,-1,-1,-1,-1,-1,-1],"loss_changes":[1.3868179E-2,1.597955E-2,1.8663002E-2,9.57877E-3,1.6825125E-3,3.7383307E-3,1.655831E-4,1.09402705E-2,4.717067E-3,6.6230155E-4,5.2240454E-3,1.5083738E-3,7.6372847E-3,0E0,0E0,0E0,0E0,0E0,0E0,0E0,0E0,0E0,0E0,0E0,0E0,0E0,0E0],"parents":[2147483647,0,0,1,1,2,2,3,3,4,4,5,5,6,6,7,7,8,8,9,9,10,10,11,11,12,12],"right_children":[2,4,6,8,10,12,14,16,18,20,22,24,26,-1,-1,-1,-1,-1,-1,-1,-1,-1,-1,-1,-1,-1,-1],"split_conditions":[5.1489263E0,8.634808E3,1.3732301E4,1.5575286E1,2.0742382E1,5.3276634E0,2.6540777E1,3.0804346E3,7.136559E3,1.7256918E1,1.15224375E4,1.9501236E1,2.8634205E1,-7.6058655E-5,-3.3962785E-4,2.8575025E-5,-9.4142626E-5,1.1202154E-4,4.3617794E-4,-2.500326E-4,-2.8633773E-5,-5.710577E-4,1.2816787E-5,1.1863127E-4,7.007074E-4,-3.7219175E-5,4.3452092E-4],"split_indices":[1,2,2,0,0,1,0,2,2,0,2,0,0,0,0,0,0,0,0,0,0,0,0,0,0,0,0],"split_type":[0,0,0,0,0,0,0,0,0,0,0,0,0,0,0,0,0,0,0,0,0,0,0,0,0,0,0],"sum_hessian":[8.92E2,8.69E2,2.3E1,8.57E2,1.2E1,1.9E1,4E0,7.85E2,7.2E1,5E0,7E0,5E0,1.4E1,1E0,3E0,7.05E2,8E1,6.8E1,4E0,2E0,3E0,5E0,2E0,1E0,4E0,5E0,9E0],"tree_param":{"num_deleted":"0","num_feature":"4","num_nodes":"27","size_leaf_vector":"0"}},{"base_weights":[2.723092E-3,1.9669281E-3,2.3007156E-2,2.555955E-3,-4.383468E-2,3.5076752E-2,-1.7586224E-2,2.7550962E-3,-3.1729612E-2,-2.2367375E-2,-5.7996202E-2,2.5578363E-2,7.854871E-2,-3.55361E-2,2.4175605E-2,1.8309247E-3,1.3677388E-2,-4.7846556E-2,1.9060656E-2,-7.724166E-3,-6.6505775E-2,3.7851717E-2,3.644435E-3,-4.8846245E-2,-1.6669467E-2],"categories":[],"categories_nodes":[],"categories_segments":[],"categories_sizes":[],"default_left":[1,1,1,1,1,1,1,1,0,1,1,1,0,1,0,0,0,0,0,0,0,0,0,0,0],"id":49,"left_children":[1,3,5,7,9,11,13,15,-1,17,19,21,-1,23,-1,-1,-1,-1,-1,-1,-1,-1,-1,-1,-1],"loss_changes":[1.3651647E-2,2.3367394E-2,1.629513E-2,5.9045977E-3,2.046883E-3,8.313691E-3,6.8560643E-3,8.534731E-3,0E0,7.2452994E-3,2.0530596E-3,5.784517E-3,0E0,6.9246534E-4,0E0,0E0,0E0,0E0,0E0,0E0,0E0,0E0,0E0,0E0,0E0],"parents":[2147483647,0,0,1,1,2,2,3,3,4,4,5,5,6,6,7,7,9,9,10,10,11,11,13,13],"right_children":[2,4,6,8,10,12,14,16,-1,18,20,22,-1,24,-1,-1,-1,-1,-1,-1,-1,-1,-1,-1,-1],"split_conditions":[4.9177885E0,4.6828938E0,1.204751E4,1.0046005E4,2.133512E1,1.124436E4,4.068059E1,1.5575286E1,-3.1729613E-4,1.6389553E1,3.9338657E3,6.624709E3,7.8548706E-4,1.5122283E4,2.4175605E-4,1.8309245E-5,1.3677389E-4,-4.7846555E-4,1.9060656E-4,-7.724166E-5,-6.6505774E-4,3.7851717E-4,3.6444348E-5,-4.8846245E-4,-1.6669466E-4],"split_indices":[1,1,2,2,0,2,0,0,0,0,2,2,0,2,0,0,0,0,0,0,0,0,0,0,0],"split_type":[0,0,0,0,0,0,0,0,0,0,0,0,0,0,0,0,0,0,0,0,0,0,0,0,0],"sum_hessian":[8.92E2,8.61E2,3.1E1,8.51E2,1E1,2.4E1,7E0,8.47E2,4E0,5E0,5E0,2.1E1,3E0,5E0,2E0,7.82E2,6.5E1,3E0,2E0,1E0,4E0,1.3E1,8E0,2E0,3E0],"tree_param":{"num_deleted":"0","num_feature":"4","num_nodes":"25","size_leaf_vector":"0"}},{"base_weights":[2.6954075E-3,2.048316E-3,2.6040167E-2,2.566453E-3,-3.2306284E-2,3.8697172E-2,-2.9795885E-2,1.5640534E-3,1.3324256E-2,-1.4199834E-2,-4.1847836E-2,6.147648E-2,2.7005635E-2,-7.4844956E-3,-3.350261E-2,2.484941E-3,-1.3304245E-2,1.9816684E-2,3.3578866E-3,-2.462505E-2,-2.8309636E-3,-5.6384176E-2,1.1741221E-3,1.1614554E-2,6.912596E-2,-3.89231E-3,4.284384E-2],"categories":[],"categories_nodes":[],"categories_segments":[],"categories_sizes":[],"default_left":[1,1,1,1,1,1,1,1,1,1,1,1,1,0,0,0,0,0,0,0,0,0,0,0,0,0,0],"id":50,"left_children":[1,3,5,7,9,11,13,15,17,19,21,23,25,-1,-1,-1,-1,-1,-1,-1,-1,-1,-1,-1,-1,-1,-1],"loss_changes":[1.3436494E-2,1.556925E-2,1.8114226E-2,9.231503E-3,1.6516941E-3,3.666291E-3,1.6276026E-4,1.0794995E-2,4.656992E-3,6.41425E-4,5.0692568E-3,1.4856365E-3,7.5072823E-3,0E0,0E0,0E0,0E0,0E0,0E0,0E0,0E0,0E0,0E0,0E0,0E0,0E0,0E0],"parents":[2147483647,0,0,1,1,2,2,3,3,4,4,5,5,6,6,7,7,8,8,9,9,10,10,11,11,12,12],"right_children":[2,4,6,8,10,12,14,16,18,20,22,24,26,-1,-1,-1,-1,-1,-1,-1,-1,-1,-1,-1,-1,-1,-1],"split_conditions":[5.1489263E0,8.634808E3,1.3732301E4,1.5575286E1,2.0742382E1,5.3276634E0,2.6540777E1,1.3353511E1,4.422885E0,1.7256918E1,1.15224375E4,1.9501236E1,2.8634205E1,-7.484495E-5,-3.3502607E-4,2.4849409E-5,-1.3304244E-4,1.9816683E-4,3.3578865E-5,-2.462505E-4,-2.8309636E-5,-5.638417E-4,1.1741221E-5,1.1614554E-4,6.9125957E-4,-3.89231E-5,4.284384E-4],"split_indices":[1,2,2,0,0,1,0,0,1,0,2,0,0,0,0,0,0,0,0,0,0,0,0,0,0,0,0],"split_type":[0,0,0,0,0,0,0,0,0,0,0,0,0,0,0,0,0,0,0,0,0,0,0,0,0,0,0],"sum_hessian":[8.92E2,8.69E2,2.3E1,8.57E2,1.2E1,1.9E1,4E0,7.85E2,7.2E1,5E0,7E0,5E0,1.4E1,1E0,3E0,7.4E2,4.5E1,4.3E1,2.9E1,2E0,3E0,5E0,2E0,1E0,4E0,5E0,9E0],"tree_param":{"num_deleted":"0","num_feature":"4","num_nodes":"27","size_leaf_vector":"0"}},{"base_weights":[2.6685486E-3,1.9239563E-3,2.264261E-2,2.5064333E-3,-4.3366443E-2,3.456194E-2,-1.7435625E-2,2.3764926E-3,5.6542955E-2,-2.213635E-2,-5.73688E-2,2.5151892E-2,7.767672E-2,-3.5111904E-2,2.3728808E-2,2.5722426E-3,-3.1258848E-2,-4.7387928E-2,1.8911207E-2,-7.7023357E-3,-6.5761626E-2,3.7281353E-2,3.4891863E-3,-4.841284E-2,-1.6358227E-2],"categories":[],"categories_nodes":[],"categories_segments":[],"categories_sizes":[],"default_left":[1,1,1,1,1,1,1,1,0,1,1,1,0,1,0,0,0,0,0,0,0,0,0,0,0],"id":51,"left_children":[1,3,5,7,9,11,13,15,-1,17,19,21,-1,23,-1,-1,-1,-1,-1,-1,-1,-1,-1,-1,-1],"loss_changes":[1.3237607E-2,2.284879E-2,1.5889192E-2,5.8479775E-3,2.000047E-3,8.18909E-3,6.6542355E-3,5.683488E-3,0E0,7.115257E-3,1.9945353E-3,5.6505725E-3,0E0,7.047006E-4,0E0,0E0,0E0,0E0,0E0,0E0,0E0,0E0,0E0,0E0,0E0],"parents":[2147483647,0,0,1,1,2,2,3,3,4,4,5,5,6,6,7,7,9,9,10,10,11,11,13,13],"right_children":[2,4,6,8,10,12,14,16,-1,18,20,22,-1,24,-1,-1,-1,-1,-1,-1,-1,-1,-1,-1,-1],"split_conditions":[4.9177885E0,4.6828938E0,1.204751E4,2.160197E1,2.133512E1,1.124436E4,4.068059E1,1.0046005E4,5.6542957E-4,1.6389553E1,3.9338657E3,6.624709E3,7.767672E-4,1.5122283E4,2.3728808E-4,2.5722426E-5,-3.1258847E-4,-4.7387928E-4,1.8911206E-4,-7.702335E-5,-6.5761624E-4,3.7281352E-4,3.4891862E-5,-4.841284E-4,-1.6358226E-4],"split_indices":[1,1,2,0,0,2,0,2,0,0,2,2,0,2,0,0,0,0,0,0,0,0,0,0,0],"split_type":[0,0,0,0,0,0,0,0,0,0,0,0,0,0,0,0,0,0,0,0,0,0,0,0,0],"sum_hessian":[8.92E2,8.61E2,3.1E1,8.51E2,1E1,2.4E1,7E0,8.5E2,1E0,5E0,5E0,2.1E1,3E0,5E0,2E0,8.46E2,4E0,3E0,2E0,1E0,4E0,1.3E1,8E0,2E0,3E0],"tree_param":{"num_deleted":"0","num_feature":"4","num_nodes":"25","size_leaf_vector":"0"}},{"base_weights":[2.6419014E-3,2.004982E-3,2.5620146E-2,2.516063E-3,-3.188059E-2,3.8090404E-2,-2.9384917E-2,1.5244946E-3,1.3157936E-2,-1.3955875E-2,-4.1339055E-2,6.0618278E-2,2.6539894E-2,-7.3652864E-3,-3.3048503E-2,2.7653314E-3,-9.309522E-3,1.080696E-2,4.29698E-2,-2.4252491E-2,-2.7444437E-3,-5.5653114E-2,1.0687461E-3,1.1370074E-2,6.8193905E-2,-5.373572E-4,4.4651102E-2],"categories":[],"categories_nodes":[],"categories_segments":[],"categories_sizes":[],"default_left":[1,1,1,1,1,1,1,1,1,1,1,1,1,0,0,0,0,0,0,0,0,0,0,0,0,0,0],"id":52,"left_children":[1,3,5,7,9,11,13,15,17,19,21,23,25,-1,-1,-1,-1,-1,-1,-1,-1,-1,-1,-1,-1,-1,-1],"loss_changes":[1.3017943E-2,1.5147111E-2,1.758154E-2,9.03368E-3,1.6271006E-3,3.5953652E-3,1.5994254E-4,1.05921365E-2,4.6519767E-3,6.260793E-4,4.915703E-3,1.4631487E-3,7.38002E-3,0E0,0E0,0E0,0E0,0E0,0E0,0E0,0E0,0E0,0E0,0E0,0E0,0E0,0E0],"parents":[2147483647,0,0,1,1,2,2,3,3,4,4,5,5,6,6,7,7,8,8,9,9,10,10,11,11,12,12],"right_children":[2,4,6,8,10,12,14,16,18,20,22,24,26,-1,-1,-1,-1,-1,-1,-1,-1,-1,-1,-1,-1,-1,-1],"split_conditions":[5.1489263E0,8.634808E3,1.3732301E4,1.5575286E1,2.0742382E1,5.3276634E0,2.6540777E1,3.0804346E3,7.136559E3,1.7256918E1,1.15224375E4,1.9501236E1,2.9921818E1,-7.365286E-5,-3.3048503E-4,2.7653314E-5,-9.3095216E-5,1.08069595E-4,4.29698E-4,-2.4252491E-4,-2.7444437E-5,-5.5653113E-4,1.068746E-5,1.13700735E-4,6.81939E-4,-5.3735716E-6,4.4651103E-4],"split_indices":[1,2,2,0,0,1,0,2,2,0,2,0,0,0,0,0,0,0,0,0,0,0,0,0,0,0,0],"split_type":[0,0,0,0,0,0,0,0,0,0,0,0,0,0,0,0,0,0,0,0,0,0,0,0,0,0,0],"sum_hessian":[8.92E2,8.69E2,2.3E1,8.57E2,1.2E1,1.9E1,4E0,7.85E2,7.2E1,5E0,7E0,5E0,1.4E1,1E0,3E0,7.05E2,8E1,6.8E1,4E0,2E0,3E0,5E0,2E0,1E0,4E0,6E0,8E0],"tree_param":{"num_deleted":"0","num_feature":"4","num_nodes":"27","size_leaf_vector":"0"}},{"base_weights":[2.61603E-3,1.8832298E-3,2.227408E-2,2.4602038E-3,-4.2977232E-2,3.404439E-2,-1.7292395E-2,2.3310003E-3,5.620621E-2,-2.2005523E-2,-5.6786075E-2,2.4721466E-2,7.680936E-2,-3.4693003E-2,2.3272952E-2,2.523797E-3,-3.079497E-2,-4.6962693E-2,1.8605879E-2,-7.717859E-3,-6.5056145E-2,3.6687408E-2,3.3609504E-3,-4.7983486E-2,-1.6051888E-2],"categories":[],"categories_nodes":[],"categories_segments":[],"categories_sizes":[],"default_left":[1,1,1,1,1,1,1,1,0,1,1,1,0,1,0,0,0,0,0,0,0,0,0,0,0],"id":53,"left_children":[1,3,5,7,9,11,13,15,-1,17,19,21,-1,23,-1,-1,-1,-1,-1,-1,-1,-1,-1,-1,-1],"loss_changes":[1.2822092E-2,2.2417156E-2,1.5491419E-2,5.78542E-3,1.9359384E-3,8.068522E-3,6.454302E-3,5.5126995E-3,0E0,6.9550555E-3,1.9326918E-3,5.499865E-3,0E0,7.1627134E-4,0E0,0E0,0E0,0E0,0E0,0E0,0E0,0E0,0E0,0E0,0E0],"parents":[2147483647,0,0,1,1,2,2,3,3,4,4,5,5,6,6,7,7,9,9,10,10,11,11,13,13],"right_children":[2,4,6,8,10,12,14,16,-1,18,20,22,-1,24,-1,-1,-1,-1,-1,-1,-1,-1,-1,-1,-1],"split_conditions":[4.9177885E0,4.6828938E0,1.204751E4,2.160197E1,2.133512E1,1.124436E4,4.068059E1,1.0046005E4,5.620621E-4,1.6389553E1,3.9338657E3,6.624709E3,7.680936E-4,1.5122283E4,2.3272952E-4,2.523797E-5,-3.079497E-4,-4.6962692E-4,1.8605878E-4,-7.7178585E-5,-6.505614E-4,3.6687407E-4,3.3609504E-5,-4.7983485E-4,-1.6051889E-4],"split_indices":[1,1,2,0,0,2,0,2,0,0,2,2,0,2,0,0,0,0,0,0,0,0,0,0,0],"split_type":[0,0,0,0,0,0,0,0,0,0,0,0,0,0,0,0,0,0,0,0,0,0,0,0,0],"sum_hessian":[8.92E2,8.61E2,3.1E1,8.51E2,1E1,2.4E1,7E0,8.5E2,1E0,5E0,5E0,2.1E1,3E0,5E0,2E0,8.46E2,4E0,3E0,2E0,1E0,4E0,1.3E1,8E0,2E0,3E0],"tree_param":{"num_deleted":"0","num_feature":"4","num_nodes":"25","size_leaf_vector":"0"}},{"base_weights":[2.5899021E-3,1.9629416E-3,2.5209311E-2,2.4670663E-3,-3.146029E-2,3.749608E-2,-2.8979624E-2,1.4858493E-3,1.2998155E-2,-1.3715748E-2,-4.0836155E-2,5.97721E-2,2.6085934E-2,-7.248208E-3,-3.2600425E-2,2.3910708E-3,-1.3128391E-2,1.9445676E-2,3.1085205E-3,-2.3885505E-2,-2.6594922E-3,-5.4930974E-2,9.655307E-4,1.1129785E-2,6.727461E-2,-4.2480775E-3,4.1677747E-2],"categories":[],"categories_nodes":[],"categories_segments":[],"categories_sizes":[],"default_left":[1,1,1,1,1,1,1,1,1,1,1,1,1,0,0,0,0,0,0,0,0,0,0,0,0,0,0],"id":54,"left_children":[1,3,5,7,9,11,13,15,17,19,21,23,25,-1,-1,-1,-1,-1,-1,-1,-1,-1,-1,-1,-1,-1,-1],"loss_changes":[1.2614577E-2,1.4736661E-2,1.7065987E-2,8.846644E-3,1.6027177E-3,3.52424E-3,1.5713135E-4,1.0429483E-2,4.594297E-3,6.1111327E-4,4.766535E-3,1.4408845E-3,7.2714845E-3,0E0,0E0,0E0,0E0,0E0,0E0,0E0,0E0,0E0,0E0,0E0,0E0,0E0,0E0],"parents":[2147483647,0,0,1,1,2,2,3,3,4,4,5,5,6,6,7,7,8,8,9,9,10,10,11,11,12,12],"right_children":[2,4,6,8,10,12,14,16,18,20,22,24,26,-1,-1,-1,-1,-1,-1,-1,-1,-1,-1,-1,-1,-1,-1],"split_conditions":[5.1489263E0,8.634808E3,1.3732301E4,1.5575286E1,2.0742382E1,5.3276634E0,2.6540777E1,1.3353511E1,4.422885E0,1.7256918E1,1.15224375E4,1.9501236E1,2.8634205E1,-7.248208E-5,-3.2600426E-4,2.3910708E-5,-1.312839E-4,1.9445676E-4,3.1085205E-5,-2.3885505E-4,-2.6594922E-5,-5.493097E-4,9.655307E-6,1.1129785E-4,6.7274604E-4,-4.2480773E-5,4.1677745E-4],"split_indices":[1,2,2,0,0,1,0,0,1,0,2,0,0,0,0,0,0,0,0,0,0,0,0,0,0,0,0],"split_type":[0,0,0,0,0,0,0,0,0,0,0,0,0,0,0,0,0,0,0,0,0,0,0,0,0,0,0],"sum_hessian":[8.92E2,8.69E2,2.3E1,8.57E2,1.2E1,1.9E1,4E0,7.85E2,7.2E1,5E0,7E0,5E0,1.4E1,1E0,3E0,7.4E2,4.5E1,4.3E1,2.9E1,2E0,3E0,5E0,2E0,1E0,4E0,5E0,9E0],"tree_param":{"num_deleted":"0","num_feature":"4","num_nodes":"27","size_leaf_vector":"0"}},{"base_weights":[2.5640859E-3,1.8425067E-3,2.1921497E-2,2.4130717E-3,-4.2517852E-2,3.3545762E-2,-1.7144514E-2,2.2845098E-3,5.590964E-2,-2.177745E-2,-5.6171943E-2,2.4309548E-2,7.595849E-2,-3.4279324E-2,2.2839943E-2,2.4743888E-3,-3.0337889E-2,-4.6512015E-2,1.8461118E-2,-7.6948106E-3,-6.432841E-2,3.613531E-2,3.2128575E-3,-4.7558144E-2,-1.5750378E-2],"categories":[],"categories_nodes":[],"categories_segments":[],"categories_sizes":[],"default_left":[1,1,1,1,1,1,1,1,0,1,1,1,0,1,0,0,0,0,0,0,0,0,0,0,0],"id":55,"left_children":[1,3,5,7,9,11,13,15,-1,17,19,21,-1,23,-1,-1,-1,-1,-1,-1,-1,-1,-1,-1,-1],"loss_changes":[1.2432948E-2,2.1920223E-2,1.5106762E-2,5.732009E-3,1.8918253E-3,7.94681E-3,6.263946E-3,5.346423E-3,0E0,6.8303635E-3,1.8774159E-3,5.3725597E-3,0E0,7.271967E-4,0E0,0E0,0E0,0E0,0E0,0E0,0E0,0E0,0E0,0E0,0E0],"parents":[2147483647,0,0,1,1,2,2,3,3,4,4,5,5,6,6,7,7,9,9,10,10,11,11,13,13],"right_children":[2,4,6,8,10,12,14,16,-1,18,20,22,-1,24,-1,-1,-1,-1,-1,-1,-1,-1,-1,-1,-1],"split_conditions":[4.9177885E0,4.6828938E0,1.204751E4,2.160197E1,2.133512E1,1.124436E4,4.068059E1,1.0046005E4,5.590964E-4,1.6389553E1,3.9338657E3,6.624709E3,7.595849E-4,1.5122283E4,2.2839943E-4,2.4743887E-5,-3.0337888E-4,-4.6512013E-4,1.8461117E-4,-7.6948105E-5,-6.4328406E-4,3.6135307E-4,3.2128573E-5,-4.7558142E-4,-1.5750377E-4],"split_indices":[1,1,2,0,0,2,0,2,0,0,2,2,0,2,0,0,0,0,0,0,0,0,0,0,0],"split_type":[0,0,0,0,0,0,0,0,0,0,0,0,0,0,0,0,0,0,0,0,0,0,0,0,0],"sum_hessian":[8.92E2,8.61E2,3.1E1,8.51E2,1E1,2.4E1,7E0,8.5E2,1E0,5E0,5E0,2.1E1,3E0,5E0,2E0,8.46E2,4E0,3E0,2E0,1E0,4E0,1.3E1,8E0,2E0,3E0],"tree_param":{"num_deleted":"0","num_feature":"4","num_nodes":"25","size_leaf_vector":"0"}},{"base_weights":[2.5384764E-3,1.9213783E-3,2.4802512E-2,2.4186345E-3,-3.1045327E-2,3.690799E-2,-2.8579902E-2,1.448013E-3,1.2836304E-2,-1.3479396E-2,-4.0339112E-2,5.8937557E-2,2.563563E-2,-7.1332157E-3,-3.215827E-2,2.2366836E-3,-1.5044755E-2,1.0508044E-2,4.239902E-2,-2.3524024E-2,-2.5760755E-3,-5.4217696E-2,8.6443126E-4,1.089346E-2,6.6367686E-2,-4.404064E-3,4.1095883E-2],"categories":[],"categories_nodes":[],"categories_segments":[],"categories_sizes":[],"default_left":[1,1,1,1,1,1,1,1,1,1,1,1,1,0,0,0,0,0,0,0,0,0,0,0,0,0,0],"id":56,"left_children":[1,3,5,7,9,11,13,15,17,19,21,23,25,-1,-1,-1,-1,-1,-1,-1,-1,-1,-1,-1,-1,-1,-1],"loss_changes":[1.2221357E-2,1.433691E-2,1.6564094E-2,8.657177E-3,1.5785536E-3,3.4556035E-3,1.54329E-4,1.0257437E-2,4.5790356E-3,5.96519E-4,4.6216436E-3,1.4188681E-3,7.1473075E-3,0E0,0E0,0E0,0E0,0E0,0E0,0E0,0E0,0E0,0E0,0E0,0E0,0E0,0E0],"parents":[2147483647,0,0,1,1,2,2,3,3,4,4,5,5,6,6,7,7,8,8,9,9,10,10,11,11,12,12],"right_children":[2,4,6,8,10,12,14,16,18,20,22,24,26,-1,-1,-1,-1,-1,-1,-1,-1,-1,-1,-1,-1,-1,-1],"split_conditions":[5.1489263E0,8.634808E3,1.3732301E4,1.5575286E1,2.0742382E1,5.3276634E0,2.6540777E1,3.922454E3,7.136559E3,1.7256918E1,1.15224375E4,1.9501236E1,2.8634205E1,-7.133216E-5,-3.215827E-4,2.2366836E-5,-1.5044755E-4,1.05080435E-4,4.239902E-4,-2.3524024E-4,-2.5760753E-5,-5.4217695E-4,8.644312E-6,1.08934604E-4,6.636768E-4,-4.4040637E-5,4.109588E-4],"split_indices":[1,2,2,0,0,1,0,2,2,0,2,0,0,0,0,0,0,0,0,0,0,0,0,0,0,0,0],"split_type":[0,0,0,0,0,0,0,0,0,0,0,0,0,0,0,0,0,0,0,0,0,0,0,0,0,0,0],"sum_hessian":[8.92E2,8.69E2,2.3E1,8.57E2,1.2E1,1.9E1,4E0,7.85E2,7.2E1,5E0,7E0,5E0,1.4E1,1E0,3E0,7.5E2,3.5E1,6.8E1,4E0,2E0,3E0,5E0,2E0,1E0,4E0,5E0,9E0],"tree_param":{"num_deleted":"0","num_feature":"4","num_nodes":"27","size_leaf_vector":"0"}},{"base_weights":[2.513487E-3,1.8033977E-3,2.1562971E-2,2.368783E-3,-4.215222E-2,3.303995E-2,-1.6997954E-2,2.2409495E-3,5.5577554E-2,-2.1676984E-2,-5.5602085E-2,2.3887578E-2,7.5118E-2,-3.3870794E-2,2.241371E-2,2.427964E-3,-2.9887505E-2,-4.6136744E-2,1.816169E-2,-7.7088773E-3,-6.363895E-2,3.5570472E-2,3.0600114E-3,-4.713677E-2,-1.5453614E-2],"categories":[],"categories_nodes":[],"categories_segments":[],"categories_sizes":[],"default_left":[1,1,1,1,1,1,1,1,0,1,1,1,0,1,0,0,0,0,0,0,0,0,0,0,0],"id":57,"left_children":[1,3,5,7,9,11,13,15,-1,17,19,21,-1,23,-1,-1,-1,-1,-1,-1,-1,-1,-1,-1,-1],"loss_changes":[1.2040578E-2,2.1522157E-2,1.4723625E-2,5.6706425E-3,1.8239953E-3,7.833457E-3,6.079064E-3,5.185789E-3,0E0,6.6845864E-3,1.8188823E-3,5.2443314E-3,0E0,7.374971E-4,0E0,0E0,0E0,0E0,0E0,0E0,0E0,0E0,0E0,0E0,0E0],"parents":[2147483647,0,0,1,1,2,2,3,3,4,4,5,5,6,6,7,7,9,9,10,10,11,11,13,13],"right_children":[2,4,6,8,10,12,14,16,-1,18,20,22,-1,24,-1,-1,-1,-1,-1,-1,-1,-1,-1,-1,-1],"split_conditions":[4.9177885E0,4.6828938E0,1.204751E4,2.160197E1,2.133512E1,1.124436E4,4.068059E1,1.0046005E4,5.5577554E-4,1.6389553E1,3.9338657E3,6.624709E3,7.5117993E-4,1.5122283E4,2.241371E-4,2.427964E-5,-2.9887503E-4,-4.6136742E-4,1.816169E-4,-7.708877E-5,-6.363895E-4,3.5570472E-4,3.0600113E-5,-4.7136768E-4,-1.5453614E-4],"split_indices":[1,1,2,0,0,2,0,2,0,0,2,2,0,2,0,0,0,0,0,0,0,0,0,0,0],"split_type":[0,0,0,0,0,0,0,0,0,0,0,0,0,0,0,0,0,0,0,0,0,0,0,0,0],"sum_hessian":[8.92E2,8.61E2,3.1E1,8.51E2,1E1,2.4E1,7E0,8.5E2,1E0,5E0,5E0,2.1E1,3E0,5E0,2E0,8.46E2,4E0,3E0,2E0,1E0,4E0,1.3E1,8E0,2E0,3E0],"tree_param":{"num_deleted":"0","num_feature":"4","num_nodes":"25","size_leaf_vector":"0"}},{"base_weights":[2.4883777E-3,1.8809971E-3,2.440224E-2,2.3714807E-3,-3.0635605E-2,3.632911E-2,-2.818569E-2,1.4109735E-3,1.2680892E-2,-1.3246753E-2,-3.984779E-2,5.8114614E-2,2.5192967E-2,-7.0202798E-3,-3.1721972E-2,2.6224053E-3,-9.165345E-3,1.9083286E-2,2.8680176E-3,-2.3167945E-2,-2.4941713E-3,-5.351309E-2,7.654031E-4,1.066114E-2,6.547308E-2,-4.555416E-3,4.0522702E-2],"categories":[],"categories_nodes":[],"categories_segments":[],"categories_sizes":[],"default_left":[1,1,1,1,1,1,1,1,1,1,1,1,1,0,0,0,0,0,0,0,0,0,0,0,0,0,0],"id":58,"left_children":[1,3,5,7,9,11,13,15,17,19,21,23,25,-1,-1,-1,-1,-1,-1,-1,-1,-1,-1,-1,-1,-1,-1],"loss_changes":[1.18399765E-2,1.3948157E-2,1.6076986E-2,8.4782485E-3,1.5546083E-3,3.388051E-3,1.5153736E-4,1.009465E-2,4.5315577E-3,5.822857E-4,4.480892E-3,1.3970919E-3,7.025118E-3,0E0,0E0,0E0,0E0,0E0,0E0,0E0,0E0,0E0,0E0,0E0,0E0,0E0,0E0],"parents":[2147483647,0,0,1,1,2,2,3,3,4,4,5,5,6,6,7,7,8,8,9,9,10,10,11,11,12,12],"right_children":[2,4,6,8,10,12,14,16,18,20,22,24,26,-1,-1,-1,-1,-1,-1,-1,-1,-1,-1,-1,-1,-1,-1],"split_conditions":[5.1489263E0,8.634808E3,1.3732301E4,1.5575286E1,2.0742382E1,5.3276634E0,2.6540777E1,3.0804346E3,4.422885E0,1.7256918E1,1.15224375E4,1.9501236E1,2.8634205E1,-7.02028E-5,-3.172197E-4,2.6224052E-5,-9.165345E-5,1.9083286E-4,2.8680175E-5,-2.3167946E-4,-2.4941712E-5,-5.351309E-4,7.654031E-6,1.066114E-4,6.547308E-4,-4.5554156E-5,4.05227E-4],"split_indices":[1,2,2,0,0,1,0,2,1,0,2,0,0,0,0,0,0,0,0,0,0,0,0,0,0,0,0],"split_type":[0,0,0,0,0,0,0,0,0,0,0,0,0,0,0,0,0,0,0,0,0,0,0,0,0,0,0],"sum_hessian":[8.92E2,8.69E2,2.3E1,8.57E2,1.2E1,1.9E1,4E0,7.85E2,7.2E1,5E0,7E0,5E0,1.4E1,1E0,3E0,7.05E2,8E1,4.3E1,2.9E1,2E0,3E0,5E0,2E0,1E0,4E0,5E0,9E0],"tree_param":{"num_deleted":"0","num_feature":"4","num_nodes":"27","size_leaf_vector":"0"}}]},"name":"gbtree"},"learner_model_param":{"base_score":"5E-1","boost_from_average":"1","num_class":"0","num_feature":"4","num_target":"1"},"objective":{"name":"reg:squarederror","reg_loss_param":{"scale_pos_weight":"1"}}},"version":[1,7,6]}