{"learner":{"attributes":{"best_iteration":"67","best_ntree_limit":"68","scikit_learn":"{\"n_estimators\": 25, \"objective\": \"reg:squarederror\", \"max_depth\": 2, \"max_leaves\": null, \"max_bin\": null, \"grow_policy\": null, \"learning_rate\": 0.45000000000000007, \"verbosity\": null, \"booster\": null, \"tree_method\": null, \"gamma\": null, \"min_child_weight\": null, \"max_delta_step\": null, \"subsample\": null, \"sampling_method\": null, \"colsample_bytree\": null, \"colsample_bylevel\": null, \"colsample_bynode\": null, \"reg_alpha\": null, \"reg_lambda\": null, \"scale_pos_weight\": null, \"base_score\": null, \"missing\": NaN, \"num_parallel_tree\": null, \"random_state\": null, \"n_jobs\": null, \"monotone_constraints\": null, \"interaction_constraints\": null, \"importance_type\": null, \"gpu_id\": null, \"validate_parameters\": null, \"predictor\": null, \"enable_categorical\": false, \"feature_types\": null, \"max_cat_to_onehot\": null, \"max_cat_threshold\": null, \"eval_metric\": null, \"early_stopping_rounds\": null, \"callbacks\": null, \"_estimator_type\": \"regressor\"}"},"feature_names":[],"feature_types":[],"gradient_booster":{"model":{"gbtree_model_param":{"num_parallel_tree":"1","num_trees":"68","size_leaf_vector":"0"},"tree_info":[0,0,0,0,0,0,0,0,0,0,0,0,0,0,0,0,0,0,0,0,0,0,0,0,0,0,0,0,0,0,0,0,0,0,0,0,0,0,0,0,0,0,0,0,0,0,0,0,0,0,0,0,0,0,0,0,0,0,0,0,0,0,0,0,0,0,0,0],"trees":[{"base_weights":[-4.3046463E-1,-4.4630706E-1,-3.7599444E-1,-4.6649635E-1,-4.32623E-1,-3.7991747E-1,-1.1194683E-1],"categories":[],"categories_nodes":[],"categories_segments":[],"categories_sizes":[],"default_left":[1,1,1,0,0,0,0],"id":0,"left_children":[1,3,5,-1,-1,-1,-1],"loss_changes":[1.0066376E0,8.796692E-2,2.816925E-1,0E0,0E0,0E0,0E0],"parents":[2147483647,0,0,1,1,2,2],"right_children":[2,4,6,-1,-1,-1,-1],"split_conditions":[3.6215043E0,2.5521111E0,3.649731E1,-2.0992336E-1,-1.9468035E-1,-1.7096286E-1,-5.0376073E-2],"split_indices":[1,1,0,0,0,0,0],"split_type":[0,0,0,0,0,0,0],"sum_hessian":[1.36E3,1.048E3,3.12E2,4.1E2,6.38E2,3.07E2,5E0],"tree_param":{"num_deleted":"0","num_feature":"4","num_nodes":"7","size_leaf_vector":"0"}},{"base_weights":[-2.3721547E-1,-2.4589889E-1,-1.8403208E-1,-2.5642622E-1,-2.3018807E-1,-2.0438604E-1,-1.4560564E-1],"categories":[],"categories_nodes":[],"categories_segments":[],"categories_sizes":[],"default_left":[1,1,1,0,0,0,0],"id":1,"left_children":[1,3,5,-1,-1,-1,-1],"loss_changes":[5.832825E-1,1.3398743E-1,1.2275553E-1,0E0,0E0,0E0,0E0],"parents":[2147483647,0,0,1,1,2,2],"right_children":[2,4,6,-1,-1,-1,-1],"split_conditions":[5.480417E1,3.9229885E1,4.0520477E0,-1.1539179E-1,-1.0358463E-1,-9.1973715E-2,-6.552254E-2],"split_indices":[3,3,1,0,0,0,0],"split_type":[0,0,0,0,0,0,0],"sum_hessian":[1.36E3,1.166E3,1.94E2,6.89E2,4.77E2,1.24E2,7E1],"tree_param":{"num_deleted":"0","num_feature":"4","num_nodes":"7","size_leaf_vector":"0"}},{"base_weights":[-1.3074513E-1,-1.3711768E-1,-1.06842205E-1,-1.49391E-1,-1.3185258E-1,-1.1253811E-1,-5.7224184E-2],"categories":[],"categories_nodes":[],"categories_segments":[],"categories_sizes":[],"default_left":[1,1,1,0,0,0,0],"id":2,"left_children":[1,3,5,-1,-1,-1,-1],"loss_changes":[1.9266129E-1,4.950905E-2,7.580209E-2,0E0,0E0,0E0,0E0],"parents":[2147483647,0,0,1,1,2,2],"right_children":[2,4,6,-1,-1,-1,-1],"split_conditions":[2.475642E3,3.0647854E1,4.582507E0,-6.722595E-2,-5.933366E-2,-5.0642148E-2,-2.5750883E-2],"split_indices":[2,3,1,0,0,0,0],"split_type":[0,0,0,0,0,0,0],"sum_hessian":[1.36E3,1.07E3,2.9E2,3.13E2,7.57E2,2.59E2,3.1E1],"tree_param":{"num_deleted":"0","num_feature":"4","num_nodes":"7","size_leaf_vector":"0"}},{"base_weights":[-7.2058946E-2,-7.89964E-2,-6.0580786E-2,-9.226275E-2,-7.6023765E-2,-6.499467E-2,-3.7054505E-2],"categories":[],"categories_nodes":[],"categories_segments":[],"categories_sizes":[],"default_left":[1,1,1,0,0,0,0],"id":3,"left_children":[1,3,5,-1,-1,-1,-1],"loss_changes":[1.0359001E-1,2.6308537E-2,5.1278353E-2,0E0,0E0,0E0,0E0],"parents":[2147483647,0,0,1,1,2,2],"right_children":[2,4,6,-1,-1,-1,-1],"split_conditions":[3.22831E0,3.5516074E0,3.9846235E3,-4.1518237E-2,-3.4210693E-2,-2.92476E-2,-1.6674526E-2],"split_indices":[1,0,2,0,0,0,0],"split_type":[0,0,0,0,0,0,0],"sum_hessian":[1.36E3,8.44E2,5.16E2,1.49E2,6.95E2,4.33E2,8.3E1],"tree_param":{"num_deleted":"0","num_feature":"4","num_nodes":"7","size_leaf_vector":"0"}},{"base_weights":[-3.9721802E-2,-4.1146282E-2,-1.8900638E-2,-4.4555828E-2,-3.6554176E-2,-2.4308657E-2,4.792311E-2],"categories":[],"categories_nodes":[],"categories_segments":[],"categories_sizes":[],"default_left":[1,1,1,0,0,0,0],"id":4,"left_children":[1,3,5,-1,-1,-1,-1],"loss_changes":[3.958869E-2,1.830244E-2,3.3328135E-2,0E0,0E0,0E0,0E0],"parents":[2147483647,0,0,1,1,2,2],"right_children":[2,4,6,-1,-1,-1,-1],"split_conditions":[4.3722305E0,3.0491366E0,7.7283755E3,-2.0050121E-2,-1.6449379E-2,-1.0938896E-2,2.1565398E-2],"split_indices":[1,1,2,0,0,0,0],"split_type":[0,0,0,0,0,0,0],"sum_hessian":[1.36E3,1.272E3,8.8E1,7.25E2,5.47E2,8.2E1,6E0],"tree_param":{"num_deleted":"0","num_feature":"4","num_nodes":"7","size_leaf_vector":"0"}},{"base_weights":[-2.1866003E-2,-2.472261E-2,-1.7241605E-2,-3.6848564E-2,-2.3639606E-2,1.08961225E-1,-1.7692111E-2],"categories":[],"categories_nodes":[],"categories_segments":[],"categories_sizes":[],"default_left":[1,1,1,0,0,0,0],"id":5,"left_children":[1,3,5,-1,-1,-1,-1],"loss_changes":[1.7552674E-2,1.0147035E-2,3.1662986E-2,0E0,0E0,0E0,0E0],"parents":[2147483647,0,0,1,1,2,2],"right_children":[2,4,6,-1,-1,-1,-1],"split_conditions":[4.291522E1,4.5828363E2,4.2949684E1,-1.6581854E-2,-1.0637823E-2,4.903255E-2,-7.96145E-3],"split_indices":[3,2,3,0,0,0,0],"split_type":[0,0,0,0,0,0,0],"sum_hessian":[1.36E3,8.38E2,5.22E2,6.6E1,7.72E2,1E0,5.21E2],"tree_param":{"num_deleted":"0","num_feature":"4","num_nodes":"7","size_leaf_vector":"0"}},{"base_weights":[-1.2016124E-2,-1.2632845E-2,2.3143487E-3,-1.8877162E-2,-1.1866251E-2,-1.26046E-2,8.970017E-3],"categories":[],"categories_nodes":[],"categories_segments":[],"categories_sizes":[],"default_left":[1,1,1,0,0,0,0],"id":6,"left_children":[1,3,5,-1,-1,-1,-1],"loss_changes":[1.2057617E-2,6.0228407E-3,5.7729115E-3,0E0,0E0,0E0,0E0],"parents":[2147483647,0,0,1,1,2,2],"right_children":[2,4,6,-1,-1,-1,-1],"split_conditions":[6.9202896E1,3.395122E0,1.4522839E1,-8.494723E-3,-5.339813E-3,-5.6720697E-3,4.0365076E-3],"split_indices":[3,0,0,0,0,0,0],"split_type":[0,0,0,0,0,0,0],"sum_hessian":[1.36E3,1.304E3,5.6E1,1.4E2,1.164E3,1.7E1,3.9E1],"tree_param":{"num_deleted":"0","num_feature":"4","num_nodes":"7","size_leaf_vector":"0"}},{"base_weights":[-6.620233E-3,-6.807849E-3,1.7024208E-2,-6.6876044E-3,-5.860839E-2,-8.47055E-3,3.280272E-2],"categories":[],"categories_nodes":[],"categories_segments":[],"categories_sizes":[],"default_left":[1,1,1,0,0,0,0],"id":7,"left_children":[1,3,5,-1,-1,-1,-1],"loss_changes":[6.1533824E-3,8.023046E-3,4.7028204E-3,0E0,0E0,0E0,0E0],"parents":[2147483647,0,0,1,1,2,2],"right_children":[2,4,6,-1,-1,-1,-1],"split_conditions":[7.7283755E3,7.58583E3,1.895211E1,-3.009422E-3,-2.6373776E-2,-3.8117475E-3,1.4761223E-2],"split_indices":[2,2,0,0,0,0,0],"split_type":[0,0,0,0,0,0,0],"sum_hessian":[1.36E3,1.35E3,1E1,1.348E3,2E0,4E0,6E0],"tree_param":{"num_deleted":"0","num_feature":"4","num_nodes":"7","size_leaf_vector":"0"}},{"base_weights":[-3.654671E-3,-4.2679994E-3,1.8561478E-3,-4.0777926E-3,-1.7544005E-2,-2.4166577E-2,6.251049E-3],"categories":[],"categories_nodes":[],"categories_segments":[],"categories_sizes":[],"default_left":[1,1,1,0,0,0,0],"id":8,"left_children":[1,3,5,-1,-1,-1,-1],"loss_changes":[4.608024E-3,3.021814E-3,1.5819388E-2,0E0,0E0,0E0,0E0],"parents":[2147483647,0,0,1,1,2,2],"right_children":[2,4,6,-1,-1,-1,-1],"split_conditions":[4.128564E0,1.6366081E1,1.3272456E3,-1.8350066E-3,-7.894802E-3,-1.0874959E-2,2.812972E-3],"split_indices":[1,0,2,0,0,0,0],"split_type":[0,0,0,0,0,0,0],"sum_hessian":[1.36E3,1.224E3,1.36E2,1.208E3,1.6E1,1.9E1,1.17E2],"tree_param":{"num_deleted":"0","num_feature":"4","num_nodes":"7","size_leaf_vector":"0"}},{"base_weights":[-2.0231428E-3,-9.581918E-3,-1.7335376E-3,-8.730508E-3,-1.7190501E-2,-1.8742121E-3,9.7782295E-3],"categories":[],"categories_nodes":[],"categories_segments":[],"categories_sizes":[],"default_left":[1,1,1,0,0,0,0],"id":9,"left_children":[1,3,5,-1,-1,-1,-1],"loss_changes":[2.9627E-3,1.7381925E-4,2.1429942E-3,0E0,0E0,0E0,0E0],"parents":[2147483647,0,0,1,1,2,2],"right_children":[2,4,6,-1,-1,-1,-1],"split_conditions":[3.5994296E2,5.179446E0,2.6332905E1,-3.928729E-3,-7.7357255E-3,-8.433954E-4,4.400203E-3],"split_indices":[2,0,0,0,0,0,0],"split_type":[0,0,0,0,0,0,0],"sum_hessian":[1.36E3,4.9E1,1.311E3,4.6E1,3E0,1.296E3,1.5E1],"tree_param":{"num_deleted":"0","num_feature":"4","num_nodes":"7","size_leaf_vector":"0"}},{"base_weights":[-1.118685E-3,-1.9704155E-3,6.09975E-4,-1.4042914E-3,-1.5707096E-2,-1.5362296E-2,2.2918321E-3],"categories":[],"categories_nodes":[],"categories_segments":[],"categories_sizes":[],"default_left":[1,1,1,0,0,0,0],"id":10,"left_children":[1,3,5,-1,-1,-1,-1],"loss_changes":[2.0050737E-3,7.070262E-3,1.2123593E-2,0E0,0E0,0E0,0E0],"parents":[2147483647,0,0,1,1,2,2],"right_children":[2,4,6,-1,-1,-1,-1],"split_conditions":[3.3166223E0,3.0945034E3,1.0240991E3,-6.319311E-4,-7.068193E-3,-6.9130333E-3,1.0313244E-3],"split_indices":[1,2,2,0,0,0,0],"split_type":[0,0,0,0,0,0,0],"sum_hessian":[1.36E3,9.11E2,4.49E2,8.76E2,3.5E1,4.2E1,4.07E2],"tree_param":{"num_deleted":"0","num_feature":"4","num_nodes":"7","size_leaf_vector":"0"}},{"base_weights":[-6.252563E-4,-4.6993856E-4,-1.0513628E-2,-5.65913E-4,4.25233E-2,-4.9294148E-2,4.6861684E-3],"categories":[],"categories_nodes":[],"categories_segments":[],"categories_sizes":[],"default_left":[1,1,1,0,0,0,0],"id":11,"left_children":[1,3,5,-1,-1,-1,-1],"loss_changes":[2.0853365E-3,5.5573685E-3,1.2609577E-2,0E0,0E0,0E0,0E0],"parents":[2147483647,0,0,1,1,2,2],"right_children":[2,4,6,-1,-1,-1,-1],"split_conditions":[5.0255976E0,2.4891659E1,2.6332905E1,-2.5466084E-4,1.9135484E-2,-2.2182366E-2,2.1087758E-3],"split_indices":[1,0,0,0,0,0,0],"split_type":[0,0,0,0,0,0,0],"sum_hessian":[1.36E3,1.34E3,2E1,1.338E3,2E0,5E0,1.5E1],"tree_param":{"num_deleted":"0","num_feature":"4","num_nodes":"7","size_leaf_vector":"0"}},{"base_weights":[-3.447674E-4,-2.4336064E-3,2.1076483E-4,-7.129956E-4,-1.7657192E-2,4.9750414E-3,-5.6635885E-4],"categories":[],"categories_nodes":[],"categories_segments":[],"categories_sizes":[],"default_left":[1,1,1,0,0,0,0],"id":12,"left_children":[1,3,5,-1,-1,-1,-1],"loss_changes":[1.579841E-3,7.4788556E-3,3.986635E-3,0E0,0E0,0E0,0E0],"parents":[2147483647,0,0,1,1,2,2],"right_children":[2,4,6,-1,-1,-1,-1],"split_conditions":[5.2684402E0,1.7902146E3,2.5903645E0,-3.2084802E-4,-7.945736E-3,2.2387686E-3,-2.548615E-4],"split_indices":[0,2,1,0,0,0,0],"split_type":[0,0,0,0,0,0,0],"sum_hessian":[1.36E3,2.85E2,1.075E3,2.57E2,2.8E1,1.5E2,9.25E2],"tree_param":{"num_deleted":"0","num_feature":"4","num_nodes":"7","size_leaf_vector":"0"}},{"base_weights":[-1.9423843E-4,-9.6314854E-4,1.5130922E-3,-2.106731E-5,-3.0609064E-3,-6.900871E-3,3.5873856E-3],"categories":[],"categories_nodes":[],"categories_segments":[],"categories_sizes":[],"default_left":[1,1,1,0,0,0,0],"id":13,"left_children":[1,3,5,-1,-1,-1,-1],"loss_changes":[1.788156E-3,1.8556421E-3,7.4073877E-3,0E0,0E0,0E0,0E0],"parents":[2147483647,0,0,1,1,2,2],"right_children":[2,4,6,-1,-1,-1,-1],"split_conditions":[4.5807518E1,3.1076908E0,7.950223E0,-9.480289E-6,-1.3774078E-3,-3.105392E-3,1.6143235E-3],"split_indices":[3,1,0,0,0,0,0],"split_type":[0,0,0,0,0,0,0],"sum_hessian":[1.36E3,9.38E2,4.22E2,6.48E2,2.9E2,8.3E1,3.39E2],"tree_param":{"num_deleted":"0","num_feature":"4","num_nodes":"7","size_leaf_vector":"0"}},{"base_weights":[-1.0894497E-4,-2.6952934E-3,2.3298217E-4,-1.296048E-3,-7.998592E-3,2.0282898E-2,9.8674216E-5],"categories":[],"categories_nodes":[],"categories_segments":[],"categories_sizes":[],"default_left":[1,1,1,0,0,0,0],"id":14,"left_children":[1,3,5,-1,-1,-1,-1],"loss_changes":[1.2042185E-3,1.1695117E-3,3.237513E-3,0E0,0E0,0E0,0E0],"parents":[2147483647,0,0,1,1,2,2],"right_children":[2,4,6,-1,-1,-1,-1],"split_conditions":[6.52193E2,2.5453236E0,6.6585223E2,-5.832216E-4,-3.5993664E-3,9.127304E-3,4.4403398E-5],"split_indices":[2,1,2,0,0,0,0],"split_type":[0,0,0,0,0,0,0],"sum_hessian":[1.36E3,1.58E2,1.202E3,1.26E2,3.2E1,7E0,1.195E3],"tree_param":{"num_deleted":"0","num_feature":"4","num_nodes":"7","size_leaf_vector":"0"}},{"base_weights":[-5.6254394E-5,6.2674146E-5,-7.648012E-3,-1.8261072E-6,2.8830394E-2,-3.1480115E-2,1.7670267E-3],"categories":[],"categories_nodes":[],"categories_segments":[],"categories_sizes":[],"default_left":[1,1,1,0,0,0,0],"id":15,"left_children":[1,3,5,-1,-1,-1,-1],"loss_changes":[1.2292943E-3,2.4883118E-3,4.7676098E-3,0E0,0E0,0E0,0E0],"parents":[2147483647,0,0,1,1,2,2],"right_children":[2,4,6,-1,-1,-1,-1],"split_conditions":[5.0255976E0,2.4891659E1,2.6332905E1,-8.2174824E-7,1.2973677E-2,-1.41660515E-2,7.95162E-4],"split_indices":[1,0,0,0,0,0,0],"split_type":[0,0,0,0,0,0,0],"sum_hessian":[1.36E3,1.34E3,2E1,1.338E3,2E0,5E0,1.5E1],"tree_param":{"num_deleted":"0","num_feature":"4","num_nodes":"7","size_leaf_vector":"0"}},{"base_weights":[-3.123279E-5,4.4156148E-4,-1.690606E-3,-3.7193496E-4,5.4178513E-3,-9.445142E-3,1.0517999E-3],"categories":[],"categories_nodes":[],"categories_segments":[],"categories_sizes":[],"default_left":[1,1,1,0,0,0,0],"id":16,"left_children":[1,3,5,-1,-1,-1,-1],"loss_changes":[1.0685085E-3,4.293101E-3,6.432292E-3,0E0,0E0,0E0,0E0],"parents":[2147483647,0,0,1,1,2,2],"right_children":[2,4,6,-1,-1,-1,-1],"split_conditions":[3.657357E0,3.3166223E0,1.4582748E1,-1.6737073E-4,2.438033E-3,-4.2503136E-3,4.7330992E-4],"split_indices":[1,1,0,0,0,0,0],"split_type":[0,0,0,0,0,0,0],"sum_hessian":[1.36E3,1.059E3,3.01E2,9.11E2,1.48E2,7.8E1,2.23E2],"tree_param":{"num_deleted":"0","num_feature":"4","num_nodes":"7","size_leaf_vector":"0"}},{"base_weights":[-1.8285506E-5,1.03840204E-4,-6.826032E-3,-3.6744084E-5,6.2676094E-2,-3.722669E-2,1.1154346E-3],"categories":[],"categories_nodes":[],"categories_segments":[],"categories_sizes":[],"default_left":[1,1,1,0,0,0,0],"id":17,"left_children":[1,3,5,-1,-1,-1,-1],"loss_changes":[1.1322454E-3,1.1772255E-2,5.835744E-3,0E0,0E0,0E0,0E0],"parents":[2147483647,0,0,1,1,2,2],"right_children":[2,4,6,-1,-1,-1,-1],"split_conditions":[6.399089E3,6.1138174E3,6.8983086E3,-1.6534837E-5,2.8204242E-2,-1.675201E-2,5.0194556E-4],"split_indices":[2,2,2,0,0,0,0],"split_type":[0,0,0,0,0,0,0],"sum_hessian":[1.36E3,1.337E3,2.3E1,1.335E3,2E0,4E0,1.9E1],"tree_param":{"num_deleted":"0","num_feature":"4","num_nodes":"7","size_leaf_vector":"0"}},{"base_weights":[-1.2856854E-6,2.5695915E-4,-2.9117633E-3,8.980853E-7,3.5593286E-2,-1.3181904E-2,1.2326901E-3],"categories":[],"categories_nodes":[],"categories_segments":[],"categories_sizes":[],"default_left":[1,1,1,0,0,0,0],"id":18,"left_children":[1,3,5,-1,-1,-1,-1],"loss_changes":[1.0236973E-3,1.1319339E-2,4.740866E-3,0E0,0E0,0E0,0E0],"parents":[2147483647,0,0,1,1,2,2],"right_children":[2,4,6,-1,-1,-1,-1],"split_conditions":[1.7720036E1,4.220952E0,1.9122555E1,4.0413838E-7,1.6016979E-2,-5.9318566E-3,5.547105E-4],"split_indices":[0,1,0,0,0,0,0],"split_type":[0,0,0,0,0,0,0],"sum_hessian":[1.36E3,1.25E3,1.1E2,1.242E3,8E0,3.1E1,7.9E1],"tree_param":{"num_deleted":"0","num_feature":"4","num_nodes":"7","size_leaf_vector":"0"}},{"base_weights":[7.112199E-6,1.2073779E-4,-7.249032E-3,-3.6187303E-5,7.2214934E-3,7.7287136E-3,-1.5289956E-2],"categories":[],"categories_nodes":[],"categories_segments":[],"categories_sizes":[],"default_left":[1,1,1,0,0,0,0],"id":19,"left_children":[1,3,5,-1,-1,-1,-1],"loss_changes":[1.1229976E-3,1.4945198E-3,2.647305E-3,0E0,0E0,0E0,0E0],"parents":[2147483647,0,0,1,1,2,2],"right_children":[2,4,6,-1,-1,-1,-1],"split_conditions":[5.0255976E0,4.582507E0,3.462588E3,-1.6284286E-5,3.249672E-3,3.477921E-3,-6.88048E-3],"split_indices":[1,1,2,0,0,0,0],"split_type":[0,0,0,0,0,0,0],"sum_hessian":[1.36E3,1.34E3,2E1,1.312E3,2.8E1,7E0,1.3E1],"tree_param":{"num_deleted":"0","num_feature":"4","num_nodes":"7","size_leaf_vector":"0"}},{"base_weights":[3.7883524E-6,2.2494596E-4,-4.204767E-3,5.2957816E-6,3.1585522E-2,-1.4104645E-2,2.1402941E-4],"categories":[],"categories_nodes":[],"categories_segments":[],"categories_sizes":[],"default_left":[1,1,1,0,0,0,0],"id":20,"left_children":[1,3,5,-1,-1,-1,-1],"loss_changes":[1.2677021E-3,8.913366E-3,2.9777158E-3,0E0,0E0,0E0,0E0],"parents":[2147483647,0,0,1,1,2,2],"right_children":[2,4,6,-1,-1,-1,-1],"split_conditions":[1.9602459E1,4.435626E0,4.582507E0,2.3831017E-6,1.4213485E-2,-6.34709E-3,9.631323E-5],"split_indices":[0,1,1,0,0,0,0],"split_type":[0,0,0,0,0,0,0],"sum_hessian":[1.36E3,1.293E3,6.7E1,1.285E3,8E0,2E1,4.7E1],"tree_param":{"num_deleted":"0","num_feature":"4","num_nodes":"7","size_leaf_vector":"0"}},{"base_weights":[7.935238E-6,-3.7867927E-3,1.6761551E-4,-3.3397765E-3,-1.0421814E-2,2.8757334E-2,1.2370505E-4],"categories":[],"categories_nodes":[],"categories_segments":[],"categories_sizes":[],"default_left":[1,1,1,0,0,0,0],"id":21,"left_children":[1,3,5,-1,-1,-1,-1],"loss_changes":[8.2532346E-4,1.2832135E-4,1.637234E-3,0E0,0E0,0E0,0E0],"parents":[2147483647,0,0,1,1,2,2],"right_children":[2,4,6,-1,-1,-1,-1],"split_conditions":[1.3309274E0,8.785235E2,1.2331141E0,-1.5028995E-3,-4.6898164E-3,1.29408E-2,5.5667268E-5],"split_indices":[1,2,0,0,0,0,0],"split_type":[0,0,0,0,0,0,0],"sum_hessian":[1.36E3,5.4E1,1.306E3,5.2E1,2E0,1E0,1.305E3],"tree_param":{"num_deleted":"0","num_feature":"4","num_nodes":"7","size_leaf_vector":"0"}},{"base_weights":[9.361818E-6,1.136741E-4,-5.8064377E-3,1.0736913E-5,4.5917142E-2,-1.3803378E-2,9.055504E-3],"categories":[],"categories_nodes":[],"categories_segments":[],"categories_sizes":[],"default_left":[1,1,1,0,0,0,0],"id":22,"left_children":[1,3,5,-1,-1,-1,-1],"loss_changes":[8.2632335E-4,6.3080164E-3,2.9773975E-3,0E0,0E0,0E0,0E0],"parents":[2147483647,0,0,1,1,2,2],"right_children":[2,4,6,-1,-1,-1,-1],"split_conditions":[6.399089E3,6.1138174E3,8.525802E3,4.831611E-6,2.0662714E-2,-6.2115197E-3,4.0749763E-3],"split_indices":[2,2,2,0,0,0,0],"split_type":[0,0,0,0,0,0,0],"sum_hessian":[1.36E3,1.337E3,2.3E1,1.335E3,2E0,1.5E1,8E0],"tree_param":{"num_deleted":"0","num_feature":"4","num_nodes":"7","size_leaf_vector":"0"}},{"base_weights":[1.8766417E-5,9.81345E-5,-7.1097384E-3,3.5890174E-5,4.1939497E-2,-3.2315835E-2,1.8847715E-3],"categories":[],"categories_nodes":[],"categories_segments":[],"categories_sizes":[],"default_left":[1,1,1,0,0,0,0],"id":23,"left_children":[1,3,5,-1,-1,-1,-1],"loss_changes":[7.707185E-4,3.5066046E-3,3.461655E-3,0E0,0E0,0E0,0E0],"parents":[2147483647,0,0,1,1,2,2],"right_children":[2,4,6,-1,-1,-1,-1],"split_conditions":[2.6826393E1,2.6332905E1,2.8529007E1,1.6150578E-5,1.8872773E-2,-1.4542125E-2,8.4814715E-4],"split_indices":[0,0,0,0,0,0,0],"split_type":[0,0,0,0,0,0,0],"sum_hessian":[1.36E3,1.346E3,1.4E1,1.345E3,1E0,3E0,1.1E1],"tree_param":{"num_deleted":"0","num_feature":"4","num_nodes":"7","size_leaf_vector":"0"}},{"base_weights":[1.41379E-5,3.1875912E-4,-1.541816E-3,2.0350098E-4,3.297238E-2,-1.3694344E-2,3.4538837E-4],"categories":[],"categories_nodes":[],"categories_segments":[],"categories_sizes":[],"default_left":[1,1,1,0,0,0,0],"id":24,"left_children":[1,3,5,-1,-1,-1,-1],"loss_changes":[6.4557354E-4,4.280026E-3,5.1190797E-3,0E0,0E0,0E0,0E0],"parents":[2147483647,0,0,1,1,2,2],"right_children":[2,4,6,-1,-1,-1,-1],"split_conditions":[2.8118274E3,5.321855E1,3.0299048E0,9.157544E-5,1.48375705E-2,-6.162455E-3,1.5542476E-4],"split_indices":[2,3,1,0,0,0,0],"split_type":[0,0,0,0,0,0,0],"sum_hessian":[1.36E3,1.138E3,2.22E2,1.135E3,3E0,2.9E1,1.93E2],"tree_param":{"num_deleted":"0","num_feature":"4","num_nodes":"7","size_leaf_vector":"0"}},{"base_weights":[3.1286273E-3,1.7665242E-3,5.457485E-2,2.785278E-3,-1.5758885E-2,3.1996183E-2,7.260562E-2,2.2125188E-3,8.0502704E-2,-2.100294E-2,3.3540584E-2,5.4516397E-2,-1.043539E-2,2.7505173E-3,-1.430223E-2,1.2495142E-2,1.1138269E-1,-1.0077827E-2,-6.8906225E-2,5.9043955E-2,-3.1429778E-3,1.077963E-2,7.860253E-2,1.987212E-2,-3.7264436E-2],"categories":[],"categories_nodes":[],"categories_segments":[],"categories_sizes":[],"default_left":[1,1,1,1,1,1,0,1,1,1,1,1,1,0,0,0,0,0,0,0,0,0,0,0,0],"id":25,"left_children":[1,3,5,7,9,11,-1,13,15,17,19,21,23,-1,-1,-1,-1,-1,-1,-1,-1,-1,-1,-1,-1],"loss_changes":[6.248062E-2,1.5594793E-2,7.040441E-3,3.6500905E-2,1.3113853E-2,1.2035715E-2,0E0,7.316083E-3,1.1208694E-2,2.2332927E-2,4.8633455E-3,7.5802896E-3,4.8061307E-3,0E0,0E0,0E0,0E0,0E0,0E0,0E0,0E0,0E0,0E0,0E0,0E0],"parents":[2147483647,0,0,1,1,2,2,3,3,4,4,5,5,7,7,8,8,9,9,10,10,11,11,12,12],"right_children":[2,4,6,8,10,12,-1,14,16,18,20,22,24,-1,-1,-1,-1,-1,-1,-1,-1,-1,-1,-1,-1],"split_conditions":[2.5413074E1,7.341801E1,2.8523006E1,5.0643228E3,4.9177885E0,2.6540777E1,7.2605617E-4,4.4193163E0,3.6495237E0,2.068463E1,5.0851326E0,5.1378603E0,5.0293794E3,2.7505173E-5,-1.430223E-4,1.2495142E-4,1.1138269E-3,-1.0077826E-4,-6.8906223E-4,5.9043954E-4,-3.1429776E-5,1.077963E-4,7.860253E-4,1.9872119E-4,-3.7264437E-4],"split_indices":[0,3,0,2,1,0,0,1,1,0,1,1,2,0,0,0,0,0,0,0,0,0,0,0,0],"split_type":[0,0,0,0,0,0,0,0,0,0,0,0,0,0,0,0,0,0,0,0,0,0,0,0,0],"sum_hessian":[8.92E2,8.7E2,2.2E1,8.23E2,4.7E1,1.1E1,1.1E1,8.18E2,5E0,4.3E1,4E0,7E0,4E0,7.93E2,2.5E1,2E0,3E0,3.6E1,7E0,2E0,2E0,3E0,4E0,2E0,2E0],"tree_param":{"num_deleted":"0","num_feature":"4","num_nodes":"25","size_leaf_vector":"0"}},{"base_weights":[3.099959E-3,1.7498829E-3,5.4091975E-2,2.7587877E-3,-1.5606107E-2,3.1736214E-2,7.194007E-2,2.190252E-3,7.990413E-2,-2.0810865E-2,3.3316977E-2,5.408296E-2,-1.036582E-2,2.7230463E-3,-1.416471E-2,1.241184E-2,1.1054732E-1,-9.979773E-3,-6.83033E-2,5.8650326E-2,-3.1220268E-3,1.0698784E-2,7.797371E-2,1.9739637E-2,-3.7016004E-2],"categories":[],"categories_nodes":[],"categories_segments":[],"categories_sizes":[],"default_left":[1,1,1,1,1,1,0,1,1,1,1,1,1,0,0,0,0,0,0,0,0,0,0,0,0],"id":26,"left_children":[1,3,5,7,9,11,-1,13,15,17,19,21,23,-1,-1,-1,-1,-1,-1,-1,-1,-1,-1,-1,-1],"loss_changes":[6.1382234E-2,1.5294738E-2,6.8940744E-3,3.596554E-2,1.291573E-2,1.1850734E-2,0E0,7.1751997E-3,1.1036977E-2,2.195172E-2,4.7987173E-3,7.4576195E-3,4.7422624E-3,0E0,0E0,0E0,0E0,0E0,0E0,0E0,0E0,0E0,0E0,0E0,0E0],"parents":[2147483647,0,0,1,1,2,2,3,3,4,4,5,5,7,7,8,8,9,9,10,10,11,11,12,12],"right_children":[2,4,6,8,10,12,-1,14,16,18,20,22,24,-1,-1,-1,-1,-1,-1,-1,-1,-1,-1,-1,-1],"split_conditions":[2.5413074E1,7.341801E1,2.8523006E1,5.0643228E3,4.9177885E0,2.6540777E1,7.194007E-4,4.4193163E0,3.6495237E0,2.068463E1,5.0851326E0,5.1378603E0,5.0293794E3,2.7230462E-5,-1.416471E-4,1.2411839E-4,1.1054731E-3,-9.979773E-5,-6.83033E-4,5.8650324E-4,-3.122027E-5,1.0698784E-4,7.797371E-4,1.9739637E-4,-3.7016004E-4],"split_indices":[0,3,0,2,1,0,0,1,1,0,1,1,2,0,0,0,0,0,0,0,0,0,0,0,0],"split_type":[0,0,0,0,0,0,0,0,0,0,0,0,0,0,0,0,0,0,0,0,0,0,0,0,0],"sum_hessian":[8.92E2,8.7E2,2.2E1,8.23E2,4.7E1,1.1E1,1.1E1,8.18E2,5E0,4.3E1,4E0,7E0,4E0,7.93E2,2.5E1,2E0,3E0,3.6E1,7E0,2E0,2E0,3E0,4E0,2E0,2E0],"tree_param":{"num_deleted":"0","num_feature":"4","num_nodes":"25","size_leaf_vector":"0"}},{"base_weights":[3.0715577E-3,1.4853582E-3,4.570382E-2,2.1500543E-3,-5.0133403E-2,2.8912134E-2,7.128062E-2,2.9641318E-3,-1.53663475E-2,-6.5633953E-3,-5.3834066E-2,3.8743436E-2,-1.0296712E-2,2.3949472E-3,7.931002E-2,-7.4303052E-3,-4.9450204E-2,1.2310328E-2,5.6015577E-2,1.9608041E-2,-3.6769226E-2],"categories":[],"categories_nodes":[],"categories_segments":[],"categories_sizes":[],"default_left":[1,1,1,1,1,1,0,1,1,0,0,1,1,0,0,0,0,0,0,0,0],"id":27,"left_children":[1,3,5,7,9,11,-1,13,15,-1,-1,17,19,-1,-1,-1,-1,-1,-1,-1,-1],"loss_changes":[6.0319703E-2,2.9683687E-2,1.1682406E-2,1.219482E-2,1.4202818E-3,8.493882E-3,0E0,3.5225805E-2,9.911226E-3,0E0,0E0,7.071886E-3,4.6792426E-3,0E0,0E0,0E0,0E0,0E0,0E0,0E0,0E0],"parents":[2147483647,0,0,1,1,2,2,3,3,4,4,5,5,7,7,8,8,11,11,12,12],"right_children":[2,4,6,8,10,12,-1,14,16,-1,-1,18,20,-1,-1,-1,-1,-1,-1,-1,-1],"split_conditions":[4.9177885E0,4.6828938E0,2.8523006E1,7.341801E1,2.2072493E3,2.6540777E1,7.128062E-4,5.0643228E3,1.9492981E1,-6.5633954E-5,-5.3834065E-4,5.33909E3,5.0293794E3,2.3949471E-5,7.931002E-4,-7.4303054E-5,-4.94502E-4,1.2310328E-4,5.601558E-4,1.9608041E-4,-3.6769226E-4],"split_indices":[1,1,0,3,2,0,0,2,0,0,0,2,2,0,0,0,0,0,0,0,0],"split_type":[0,0,0,0,0,0,0,0,0,0,0,0,0,0,0,0,0,0,0,0,0],"sum_hessian":[8.92E2,8.61E2,3.1E1,8.51E2,1E1,2E1,1.1E1,8.14E2,3.7E1,1E0,9E0,1.6E1,4E0,8.09E2,5E0,3.1E1,6E0,7E0,9E0,2E0,2E0],"tree_param":{"num_deleted":"0","num_feature":"4","num_nodes":"21","size_leaf_vector":"0"}},{"base_weights":[3.041816E-3,1.7150156E-3,5.3154916E-2,2.7055203E-3,-1.5324378E-2,3.125304E-2,7.062721E-2,2.1458536E-3,7.86491E-2,-2.0427361E-2,3.264674E-2,5.32721E-2,-1.0228066E-2,2.6719312E-3,-1.4002278E-2,1.1800361E-2,1.09123394E-1,-9.751233E-3,-6.7251034E-2,5.7885885E-2,-3.4746479E-3,1.0307692E-2,7.69892E-2,1.947732E-2,-3.65241E-2],"categories":[],"categories_nodes":[],"categories_segments":[],"categories_sizes":[],"default_left":[1,1,1,1,1,1,0,1,1,1,1,1,1,0,0,0,0,0,0,0,0,0,0,0,0],"id":28,"left_children":[1,3,5,7,9,11,-1,13,15,17,19,21,23,-1,-1,-1,-1,-1,-1,-1,-1,-1,-1,-1,-1],"loss_changes":[5.928447E-2,1.4741849E-2,6.5942407E-3,3.4853786E-2,1.24170855E-2,1.1505369E-2,0E0,6.994958E-3,1.093531E-2,2.1339621E-2,4.759497E-3,7.3583517E-3,4.6170605E-3,0E0,0E0,0E0,0E0,0E0,0E0,0E0,0E0,0E0,0E0,0E0,0E0],"parents":[2147483647,0,0,1,1,2,2,3,3,4,4,5,5,7,7,8,8,9,9,10,10,11,11,12,12],"right_children":[2,4,6,8,10,12,-1,14,16,18,20,22,24,-1,-1,-1,-1,-1,-1,-1,-1,-1,-1,-1,-1],"split_conditions":[2.5413074E1,7.341801E1,2.8523006E1,5.0643228E3,4.9177885E0,2.6540777E1,7.062721E-4,4.4193163E0,3.6495237E0,2.068463E1,5.0851326E0,5.1378603E0,5.0293794E3,2.6719312E-5,-1.4002278E-4,1.18003605E-4,1.0912339E-3,-9.751233E-5,-6.725103E-4,5.7885883E-4,-3.4746477E-5,1.0307692E-4,7.69892E-4,1.9477321E-4,-3.6524097E-4],"split_indices":[0,3,0,2,1,0,0,1,1,0,1,1,2,0,0,0,0,0,0,0,0,0,0,0,0],"split_type":[0,0,0,0,0,0,0,0,0,0,0,0,0,0,0,0,0,0,0,0,0,0,0,0,0],"sum_hessian":[8.92E2,8.7E2,2.2E1,8.23E2,4.7E1,1.1E1,1.1E1,8.18E2,5E0,4.3E1,4E0,7E0,4E0,7.93E2,2.5E1,2E0,3E0,3.6E1,7E0,2E0,2E0,3E0,4E0,2E0,2E0],"tree_param":{"num_deleted":"0","num_feature":"4","num_nodes":"25","size_leaf_vector":"0"}},{"base_weights":[3.0139508E-3,1.4542246E-3,4.493489E-2,2.1087478E-3,-4.9373783E-2,2.8483763E-2,6.997979E-2,2.90794E-3,-1.5087315E-2,-6.460566E-3,-5.3019047E-2,3.6838204E-2,-1.6232163E-2,2.3476372E-3,7.806416E-2,-7.2638625E-3,-4.8696335E-2,5.2645702E-2,-3.5510764E-3,-3.2606006E-2,1.6444683E-2],"categories":[],"categories_nodes":[],"categories_segments":[],"categories_sizes":[],"default_left":[1,1,1,1,1,1,0,1,1,0,0,1,1,0,0,0,0,0,0,0,0],"id":29,"left_children":[1,3,5,7,9,11,-1,13,15,-1,-1,17,19,-1,-1,-1,-1,-1,-1,-1,-1],"loss_changes":[5.832363E-2,2.8781231E-2,1.1191249E-2,1.1752874E-2,1.3781991E-3,8.443074E-3,0E0,3.413658E-2,9.63794E-3,0E0,0E0,1.1679109E-2,2.6763775E-3,0E0,0E0,0E0,0E0,0E0,0E0,0E0,0E0],"parents":[2147483647,0,0,1,1,2,2,3,3,4,4,5,5,7,7,8,8,11,11,12,12],"right_children":[2,4,6,8,10,12,-1,14,16,-1,-1,18,20,-1,-1,-1,-1,-1,-1,-1,-1],"split_conditions":[4.9177885E0,4.6828938E0,2.8523006E1,7.341801E1,2.2072493E3,1.1944914E4,6.997979E-4,5.0643228E3,1.9492981E1,-6.460566E-5,-5.301905E-4,5.3276634E0,1.9562277E4,2.3476372E-5,7.8064157E-4,-7.263862E-5,-4.8696334E-4,5.2645704E-4,-3.5510762E-5,-3.2606005E-4,1.6444683E-4],"split_indices":[1,1,0,3,2,2,0,2,0,0,0,1,2,0,0,0,0,0,0,0,0],"split_type":[0,0,0,0,0,0,0,0,0,0,0,0,0,0,0,0,0,0,0,0,0],"sum_hessian":[8.92E2,8.61E2,3.1E1,8.51E2,1E1,2E1,1.1E1,8.14E2,3.7E1,1E0,9E0,1.7E1,3E0,8.09E2,5E0,3.1E1,6E0,1.2E1,5E0,2E0,1E0],"tree_param":{"num_deleted":"0","num_feature":"4","num_nodes":"21","size_leaf_vector":"0"}},{"base_weights":[2.9845715E-3,1.4392759E-3,4.4517703E-2,2.0879474E-3,-4.893412E-2,2.8214607E-2,6.9338314E-2,2.879847E-3,-1.4951164E-2,-6.428264E-3,-5.254188E-2,3.6497094E-2,-1.6110241E-2,2.3241898E-3,7.7413626E-2,-7.193491E-3,-4.827893E-2,5.215974E-2,-3.5214853E-3,-3.2388628E-2,1.6362458E-2],"categories":[],"categories_nodes":[],"categories_segments":[],"categories_sizes":[],"default_left":[1,1,1,1,1,1,0,1,1,0,0,1,1,0,0,0,0,0,0,0,0],"id":30,"left_children":[1,3,5,7,9,11,-1,13,15,-1,-1,17,19,-1,-1,-1,-1,-1,-1,-1,-1],"loss_changes":[5.7249524E-2,2.8268702E-2,1.0992534E-2,1.1539322E-2,1.3491064E-3,8.297499E-3,0E0,3.35735E-2,9.477451E-3,0E0,0E0,1.1466023E-2,2.64437E-3,0E0,0E0,0E0,0E0,0E0,0E0,0E0,0E0],"parents":[2147483647,0,0,1,1,2,2,3,3,4,4,5,5,7,7,8,8,11,11,12,12],"right_children":[2,4,6,8,10,12,-1,14,16,-1,-1,18,20,-1,-1,-1,-1,-1,-1,-1,-1],"split_conditions":[4.9177885E0,4.6828938E0,2.8523006E1,7.341801E1,2.2072493E3,1.1944914E4,6.933831E-4,5.0643228E3,1.9492981E1,-6.428264E-5,-5.254188E-4,5.3276634E0,1.9562277E4,2.3241897E-5,7.741362E-4,-7.1934905E-5,-4.827893E-4,5.215974E-4,-3.5214853E-5,-3.2388626E-4,1.6362459E-4],"split_indices":[1,1,0,3,2,2,0,2,0,0,0,1,2,0,0,0,0,0,0,0,0],"split_type":[0,0,0,0,0,0,0,0,0,0,0,0,0,0,0,0,0,0,0,0,0],"sum_hessian":[8.92E2,8.61E2,3.1E1,8.51E2,1E1,2E1,1.1E1,8.14E2,3.7E1,1E0,9E0,1.7E1,3E0,8.09E2,5E0,3.1E1,6E0,1.2E1,5E0,2E0,1E0],"tree_param":{"num_deleted":"0","num_feature":"4","num_nodes":"21","size_leaf_vector":"0"}},{"base_weights":[2.9554798E-3,1.4244815E-3,4.4104386E-2,2.0673538E-3,-4.8498392E-2,2.7947988E-2,6.870271E-2,2.8520282E-3,-1.4816255E-2,-6.3961223E-3,-5.206901E-2,3.6159143E-2,-1.59892E-2,2.3009777E-3,7.676852E-2,-7.1238093E-3,-4.7865115E-2,5.1678263E-2,-3.4921418E-3,-3.21727E-2,1.6280651E-2],"categories":[],"categories_nodes":[],"categories_segments":[],"categories_sizes":[],"default_left":[1,1,1,1,1,1,0,1,1,0,0,1,1,0,0,0,0,0,0,0,0],"id":31,"left_children":[1,3,5,7,9,11,-1,13,15,-1,-1,17,19,-1,-1,-1,-1,-1,-1,-1,-1],"loss_changes":[5.6195192E-2,2.7765317E-2,1.0797348E-2,1.1329671E-2,1.3206024E-3,8.154433E-3,0E0,3.301971E-2,9.319627E-3,0E0,0E0,1.1256823E-2,2.6127489E-3,0E0,0E0,0E0,0E0,0E0,0E0,0E0,0E0],"parents":[2147483647,0,0,1,1,2,2,3,3,4,4,5,5,7,7,8,8,11,11,12,12],"right_children":[2,4,6,8,10,12,-1,14,16,-1,-1,18,20,-1,-1,-1,-1,-1,-1,-1,-1],"split_conditions":[4.9177885E0,4.6828938E0,2.8523006E1,7.341801E1,2.2072493E3,1.1944914E4,6.870271E-4,5.0643228E3,1.9492981E1,-6.396122E-5,-5.2069005E-4,5.3276634E0,1.9562277E4,2.3009776E-5,7.676852E-4,-7.123809E-5,-4.7865114E-4,5.1678263E-4,-3.4921417E-5,-3.2172698E-4,1.6280651E-4],"split_indices":[1,1,0,3,2,2,0,2,0,0,0,1,2,0,0,0,0,0,0,0,0],"split_type":[0,0,0,0,0,0,0,0,0,0,0,0,0,0,0,0,0,0,0,0,0],"sum_hessian":[8.92E2,8.61E2,3.1E1,8.51E2,1E1,2E1,1.1E1,8.14E2,3.7E1,1E0,9E0,1.7E1,3E0,8.09E2,5E0,3.1E1,6E0,1.2E1,5E0,2E0,1E0],"tree_param":{"num_deleted":"0","num_feature":"4","num_nodes":"21","size_leaf_vector":"0"}},{"base_weights":[2.9266714E-3,1.4098384E-3,4.36949E-2,2.0469634E-3,-4.8066564E-2,2.7683886E-2,6.807293E-2,2.8244788E-3,-1.468256E-2,-6.3641407E-3,-5.160039E-2,3.582432E-2,-1.586904E-2,2.2779969E-3,7.612878E-2,-7.0547946E-3,-4.7454838E-2,5.120123E-2,-3.4630385E-3,-3.195822E-2,1.6199246E-2],"categories":[],"categories_nodes":[],"categories_segments":[],"categories_sizes":[],"default_left":[1,1,1,1,1,1,0,1,1,0,0,1,1,0,0,0,0,0,0,0,0],"id":32,"left_children":[1,3,5,7,9,11,-1,13,15,-1,-1,17,19,-1,-1,-1,-1,-1,-1,-1,-1],"loss_changes":[5.5160254E-2,2.727092E-2,1.0605622E-2,1.1123827E-2,1.2926664E-3,8.013833E-3,0E0,3.2475047E-2,9.164427E-3,0E0,0E0,1.1051435E-2,2.5815086E-3,0E0,0E0,0E0,0E0,0E0,0E0,0E0,0E0],"parents":[2147483647,0,0,1,1,2,2,3,3,4,4,5,5,7,7,8,8,11,11,12,12],"right_children":[2,4,6,8,10,12,-1,14,16,-1,-1,18,20,-1,-1,-1,-1,-1,-1,-1,-1],"split_conditions":[4.9177885E0,4.6828938E0,2.8523006E1,7.341801E1,2.2072493E3,1.1944914E4,6.807293E-4,5.0643228E3,1.9492981E1,-6.3641404E-5,-5.1600387E-4,5.3276634E0,1.9562277E4,2.2779968E-5,7.612878E-4,-7.054795E-5,-4.7454837E-4,5.120123E-4,-3.4630382E-5,-3.1958218E-4,1.6199246E-4],"split_indices":[1,1,0,3,2,2,0,2,0,0,0,1,2,0,0,0,0,0,0,0,0],"split_type":[0,0,0,0,0,0,0,0,0,0,0,0,0,0,0,0,0,0,0,0,0],"sum_hessian":[8.92E2,8.61E2,3.1E1,8.51E2,1E1,2E1,1.1E1,8.14E2,3.7E1,1E0,9E0,1.7E1,3E0,8.09E2,5E0,3.1E1,6E0,1.2E1,5E0,2E0,1E0],"tree_param":{"num_deleted":"0","num_feature":"4","num_nodes":"21","size_leaf_vector":"0"}},{"base_weights":[2.8981445E-3,1.3953458E-3,4.3289218E-2,2.0267754E-3,-4.7638595E-2,2.7422272E-2,6.7448944E-2,2.7971973E-3,-1.4550084E-2,-6.332319E-3,-5.113599E-2,3.5492595E-2,-1.5749753E-2,2.2552463E-3,7.549438E-2,-6.986455E-3,-4.704809E-2,5.0728597E-2,-3.43418E-3,-3.1745166E-2,1.6118243E-2],"categories":[],"categories_nodes":[],"categories_segments":[],"categories_sizes":[],"default_left":[1,1,1,1,1,1,0,1,1,0,0,1,1,0,0,0,0,0,0,0,0],"id":33,"left_children":[1,3,5,7,9,11,-1,13,15,-1,-1,17,19,-1,-1,-1,-1,-1,-1,-1,-1],"loss_changes":[5.414439E-2,2.6785351E-2,1.0417309E-2,1.0921742E-2,1.2652986E-3,7.875657E-3,0E0,3.1939358E-2,9.011808E-3,0E0,0E0,1.0849804E-2,2.5506434E-3,0E0,0E0,0E0,0E0,0E0,0E0,0E0,0E0],"parents":[2147483647,0,0,1,1,2,2,3,3,4,4,5,5,7,7,8,8,11,11,12,12],"right_children":[2,4,6,8,10,12,-1,14,16,-1,-1,18,20,-1,-1,-1,-1,-1,-1,-1,-1],"split_conditions":[4.9177885E0,4.6828938E0,2.8523006E1,7.341801E1,2.2072493E3,1.1944914E4,6.744894E-4,5.0643228E3,1.9492981E1,-6.332319E-5,-5.113599E-4,5.3276634E0,1.9562277E4,2.2552462E-5,7.5494376E-4,-6.986455E-5,-4.7048088E-4,5.0728593E-4,-3.43418E-5,-3.1745166E-4,1.6118243E-4],"split_indices":[1,1,0,3,2,2,0,2,0,0,0,1,2,0,0,0,0,0,0,0,0],"split_type":[0,0,0,0,0,0,0,0,0,0,0,0,0,0,0,0,0,0,0,0,0],"sum_hessian":[8.92E2,8.61E2,3.1E1,8.51E2,1E1,2E1,1.1E1,8.14E2,3.7E1,1E0,9E0,1.7E1,3E0,8.09E2,5E0,3.1E1,6E0,1.2E1,5E0,2E0,1E0],"tree_param":{"num_deleted":"0","num_feature":"4","num_nodes":"21","size_leaf_vector":"0"}},{"base_weights":[2.8698952E-3,1.3810007E-3,4.2887304E-2,2.006786E-3,-4.7214456E-2,2.7163131E-2,6.6830665E-2,2.7701792E-3,-1.44187985E-2,-6.300658E-3,-5.067577E-2,3.6579493E-2,-1.0285122E-2,2.2327215E-3,7.486526E-2,-6.918769E-3,-4.664482E-2,1.0609575E-2,5.3697478E-2,1.8544294E-2,-3.5686165E-2],"categories":[],"categories_nodes":[],"categories_segments":[],"categories_sizes":[],"default_left":[1,1,1,1,1,1,0,1,1,0,0,1,1,0,0,0,0,0,0,0,0],"id":34,"left_children":[1,3,5,7,9,11,-1,13,15,-1,-1,17,19,-1,-1,-1,-1,-1,-1,-1,-1],"loss_changes":[5.3147227E-2,2.6308442E-2,1.0232333E-2,1.07233245E-2,1.2384839E-3,7.781376E-3,0E0,3.1412505E-2,8.861727E-3,0E0,0E0,6.987687E-3,4.323261E-3,0E0,0E0,0E0,0E0,0E0,0E0,0E0,0E0],"parents":[2147483647,0,0,1,1,2,2,3,3,4,4,5,5,7,7,8,8,11,11,12,12],"right_children":[2,4,6,8,10,12,-1,14,16,-1,-1,18,20,-1,-1,-1,-1,-1,-1,-1,-1],"split_conditions":[4.9177885E0,4.6828938E0,2.8523006E1,7.341801E1,2.2072493E3,2.6540777E1,6.6830666E-4,5.0643228E3,1.9492981E1,-6.300658E-5,-5.067577E-4,5.33909E3,5.0293794E3,2.2327215E-5,7.4865256E-4,-6.9187685E-5,-4.664482E-4,1.06095744E-4,5.3697475E-4,1.8544293E-4,-3.5686165E-4],"split_indices":[1,1,0,3,2,0,0,2,0,0,0,2,2,0,0,0,0,0,0,0,0],"split_type":[0,0,0,0,0,0,0,0,0,0,0,0,0,0,0,0,0,0,0,0,0],"sum_hessian":[8.92E2,8.61E2,3.1E1,8.51E2,1E1,2E1,1.1E1,8.14E2,3.7E1,1E0,9E0,1.6E1,4E0,8.09E2,5E0,3.1E1,6E0,7E0,9E0,2E0,2E0],"tree_param":{"num_deleted":"0","num_feature":"4","num_nodes":"21","size_leaf_vector":"0"}},{"base_weights":[2.842098E-3,1.5968861E-3,4.987416E-2,2.5192373E-3,-1.4270077E-2,2.9374102E-2,6.621804E-2,1.9907244E-3,7.4241385E-2,-1.9126736E-2,3.1322528E-2,5.0446503E-2,-1.02165565E-2,2.5080345E-3,-1.38837015E-2,8.663463E-3,1.0486448E-1,-8.899917E-3,-6.403493E-2,4.6915963E-2,-1.5525609E-2,7.997267E-3,7.431659E-2,1.8420665E-2,-3.5448257E-2],"categories":[],"categories_nodes":[],"categories_segments":[],"categories_sizes":[],"default_left":[1,1,1,1,1,1,0,1,1,1,1,1,1,0,0,0,0,0,0,0,0,0,0,0,0],"id":35,"left_children":[1,3,5,7,9,11,-1,13,15,17,19,21,23,-1,-1,-1,-1,-1,-1,-1,-1,-1,-1,-1,-1],"loss_changes":[5.22188E-2,1.2782959E-2,5.7610646E-3,3.1086817E-2,1.1227626E-2,1.0526632E-2,0E0,6.760452E-3,1.1140704E-2,1.9637885E-2,4.3810154E-3,7.5118057E-3,4.2658094E-3,0E0,0E0,0E0,0E0,0E0,0E0,0E0,0E0,0E0,0E0,0E0,0E0],"parents":[2147483647,0,0,1,1,2,2,3,3,4,4,5,5,7,7,8,8,9,9,10,10,11,11,12,12],"right_children":[2,4,6,8,10,12,-1,14,16,18,20,22,24,-1,-1,-1,-1,-1,-1,-1,-1,-1,-1,-1,-1],"split_conditions":[2.5413074E1,7.341801E1,2.8523006E1,5.0643228E3,4.9177885E0,2.6540777E1,6.621804E-4,4.4193163E0,3.6495237E0,2.068463E1,2.4678852E1,5.1378603E0,5.0293794E3,2.5080344E-5,-1.3883701E-4,8.663463E-5,1.0486448E-3,-8.8999164E-5,-6.403493E-4,4.6915963E-4,-1.5525609E-4,7.997267E-5,7.431659E-4,1.8420664E-4,-3.5448256E-4],"split_indices":[0,3,0,2,1,0,0,1,1,0,0,1,2,0,0,0,0,0,0,0,0,0,0,0,0],"split_type":[0,0,0,0,0,0,0,0,0,0,0,0,0,0,0,0,0,0,0,0,0,0,0,0,0],"sum_hessian":[8.92E2,8.7E2,2.2E1,8.23E2,4.7E1,1.1E1,1.1E1,8.18E2,5E0,4.3E1,4E0,7E0,4E0,7.93E2,2.5E1,2E0,3E0,3.6E1,7E0,3E0,1E0,3E0,4E0,2E0,2E0],"tree_param":{"num_deleted":"0","num_feature":"4","num_nodes":"25","size_leaf_vector":"0"}},{"base_weights":[2.8158296E-3,1.352019E-3,4.2159237E-2,1.9681698E-3,-4.649458E-2,2.6750619E-2,6.561104E-2,2.7176742E-3,-1.4158519E-2,-6.199736E-3,-4.9904093E-2,3.473549E-2,-1.5868958E-2,2.1886115E-3,7.368819E-2,-6.765523E-3,-4.5932427E-2,4.9713165E-2,-3.5053876E-3,-3.142366E-2,1.53975785E-2],"categories":[],"categories_nodes":[],"categories_segments":[],"categories_sizes":[],"default_left":[1,1,1,1,1,1,0,1,1,0,0,1,1,0,0,0,0,0,0,0,0],"id":36,"left_children":[1,3,5,7,9,11,-1,13,15,-1,-1,17,19,-1,-1,-1,-1,-1,-1,-1,-1],"loss_changes":[5.137203E-2,2.5503896E-2,9.80838E-3,1.0336622E-2,1.2018494E-3,7.6977657E-3,0E0,3.044022E-2,8.615609E-3,0E0,0E0,1.04839355E-2,2.4292152E-3,0E0,0E0,0E0,0E0,0E0,0E0,0E0,0E0],"parents":[2147483647,0,0,1,1,2,2,3,3,4,4,5,5,7,7,8,8,11,11,12,12],"right_children":[2,4,6,8,10,12,-1,14,16,-1,-1,18,20,-1,-1,-1,-1,-1,-1,-1,-1],"split_conditions":[4.9177885E0,4.6828938E0,2.8523006E1,7.341801E1,2.2072493E3,1.1944914E4,6.561104E-4,5.0643228E3,1.9492981E1,-6.199736E-5,-4.9904094E-4,5.3276634E0,1.9562277E4,2.1886115E-5,7.3688186E-4,-6.765523E-5,-4.5932425E-4,4.971316E-4,-3.5053876E-5,-3.1423662E-4,1.5397578E-4],"split_indices":[1,1,0,3,2,2,0,2,0,0,0,1,2,0,0,0,0,0,0,0,0],"split_type":[0,0,0,0,0,0,0,0,0,0,0,0,0,0,0,0,0,0,0,0,0],"sum_hessian":[8.92E2,8.61E2,3.1E1,8.51E2,1E1,2E1,1.1E1,8.14E2,3.7E1,1E0,9E0,1.7E1,3E0,8.09E2,5E0,3.1E1,6E0,1.2E1,5E0,2E0,1E0],"tree_param":{"num_deleted":"0","num_feature":"4","num_nodes":"21","size_leaf_vector":"0"}},{"base_weights":[2.788374E-3,1.3381152E-3,4.176758E-2,1.9487586E-3,-4.608064E-2,2.6497483E-2,6.500962E-2,2.6914268E-3,-1.4030804E-2,-6.168738E-3,-4.9454957E-2,3.4413807E-2,-1.5750337E-2,2.1667508E-3,7.307412E-2,-6.6999844E-3,-4.553872E-2,4.9254276E-2,-3.4761776E-3,-3.1214172E-2,1.5320584E-2],"categories":[],"categories_nodes":[],"categories_segments":[],"categories_sizes":[],"default_left":[1,1,1,1,1,1,0,1,1,0,0,1,1,0,0,0,0,0,0,0,0],"id":37,"left_children":[1,3,5,7,9,11,-1,13,15,-1,-1,17,19,-1,-1,-1,-1,-1,-1,-1,-1],"loss_changes":[5.0425336E-2,2.5049828E-2,9.634469E-3,1.0148885E-2,1.1763554E-3,7.565422E-3,0E0,2.9938076E-2,8.472087E-3,0E0,0E0,1.0292709E-2,2.4001217E-3,0E0,0E0,0E0,0E0,0E0,0E0,0E0,0E0],"parents":[2147483647,0,0,1,1,2,2,3,3,4,4,5,5,7,7,8,8,11,11,12,12],"right_children":[2,4,6,8,10,12,-1,14,16,-1,-1,18,20,-1,-1,-1,-1,-1,-1,-1,-1],"split_conditions":[4.9177885E0,4.6828938E0,2.8523006E1,7.341801E1,2.2072493E3,1.1944914E4,6.5009616E-4,5.0643228E3,1.9492981E1,-6.168738E-5,-4.945496E-4,5.3276634E0,1.9562277E4,2.1667507E-5,7.307411E-4,-6.699984E-5,-4.553872E-4,4.9254275E-4,-3.4761775E-5,-3.1214172E-4,1.5320584E-4],"split_indices":[1,1,0,3,2,2,0,2,0,0,0,1,2,0,0,0,0,0,0,0,0],"split_type":[0,0,0,0,0,0,0,0,0,0,0,0,0,0,0,0,0,0,0,0,0],"sum_hessian":[8.92E2,8.61E2,3.1E1,8.51E2,1E1,2E1,1.1E1,8.14E2,3.7E1,1E0,9E0,1.7E1,3E0,8.09E2,5E0,3.1E1,6E0,1.2E1,5E0,2E0,1E0],"tree_param":{"num_deleted":"0","num_feature":"4","num_nodes":"21","size_leaf_vector":"0"}},{"base_weights":[2.7611882E-3,1.3243565E-3,4.1379556E-2,1.9295419E-3,-4.5670398E-2,2.624674E-2,6.441369E-2,2.6654368E-3,-1.3904245E-2,-6.1378926E-3,-4.900986E-2,3.40951E-2,-1.563257E-2,2.145111E-3,7.246517E-2,-5.4524033E-3,-4.0532134E-2,4.879962E-2,-3.4472079E-3,-3.1006077E-2,1.5243977E-2],"categories":[],"categories_nodes":[],"categories_segments":[],"categories_sizes":[],"default_left":[1,1,1,1,1,1,0,1,1,0,0,1,1,0,0,0,0,0,0,0,0],"id":38,"left_children":[1,3,5,7,9,11,-1,13,15,-1,-1,17,19,-1,-1,-1,-1,-1,-1,-1,-1],"loss_changes":[4.949607E-2,2.4603868E-2,9.463627E-3,9.964568E-3,1.1513736E-3,7.4353563E-3,0E0,2.944421E-2,8.331081E-3,0E0,0E0,1.0104973E-2,2.3713794E-3,0E0,0E0,0E0,0E0,0E0,0E0,0E0,0E0],"parents":[2147483647,0,0,1,1,2,2,3,3,4,4,5,5,7,7,8,8,11,11,12,12],"right_children":[2,4,6,8,10,12,-1,14,16,-1,-1,18,20,-1,-1,-1,-1,-1,-1,-1,-1],"split_conditions":[4.9177885E0,4.6828938E0,2.8523006E1,7.341801E1,2.2072493E3,1.1944914E4,6.4413686E-4,5.0643228E3,1.8716404E1,-6.137892E-5,-4.900986E-4,5.3276634E0,1.9562277E4,2.1451111E-5,7.246517E-4,-5.4524033E-5,-4.0532133E-4,4.8799618E-4,-3.447208E-5,-3.1006077E-4,1.5243977E-4],"split_indices":[1,1,0,3,2,2,0,2,0,0,0,1,2,0,0,0,0,0,0,0,0],"split_type":[0,0,0,0,0,0,0,0,0,0,0,0,0,0,0,0,0,0,0,0,0],"sum_hessian":[8.92E2,8.61E2,3.1E1,8.51E2,1E1,2E1,1.1E1,8.14E2,3.7E1,1E0,9E0,1.7E1,3E0,8.09E2,5E0,2.9E1,8E0,1.2E1,5E0,2E0,1E0],"tree_param":{"num_deleted":"0","num_feature":"4","num_nodes":"21","size_leaf_vector":"0"}},{"base_weights":[2.7343323E-3,1.3108058E-3,4.0995132E-2,1.910583E-3,-4.526383E-2,2.5998361E-2,6.382322E-2,2.6396983E-3,-1.37773035E-2,-6.1072037E-3,-4.856877E-2,3.377934E-2,-1.5515648E-2,2.123687E-3,7.186129E-2,-6.560336E-3,-4.4800967E-2,2.1511082E-2,8.795029E-2,-3.0799368E-2,1.5167758E-2],"categories":[],"categories_nodes":[],"categories_segments":[],"categories_sizes":[],"default_left":[1,1,1,1,1,1,0,1,1,0,0,1,1,0,0,0,0,0,0,0,0],"id":39,"left_children":[1,3,5,7,9,11,-1,13,15,-1,-1,17,19,-1,-1,-1,-1,-1,-1,-1,-1],"loss_changes":[4.858375E-2,2.4165936E-2,9.295825E-3,9.781783E-3,1.1268947E-3,7.307523E-3,0E0,2.895848E-2,8.214168E-3,0E0,0E0,1.0070592E-2,2.3429836E-3,0E0,0E0,0E0,0E0,0E0,0E0,0E0,0E0],"parents":[2147483647,0,0,1,1,2,2,3,3,4,4,5,5,7,7,8,8,11,11,12,12],"right_children":[2,4,6,8,10,12,-1,14,16,-1,-1,18,20,-1,-1,-1,-1,-1,-1,-1,-1],"split_conditions":[4.9177885E0,4.6828938E0,2.8523006E1,7.341801E1,2.2072493E3,1.1944914E4,6.382322E-4,5.0643228E3,1.9492981E1,-6.107204E-5,-4.856877E-4,1.0193389E4,1.9562277E4,2.1236869E-5,7.1861286E-4,-6.560336E-5,-4.4800967E-4,2.151108E-4,8.7950286E-4,-3.0799367E-4,1.5167758E-4],"split_indices":[1,1,0,3,2,2,0,2,0,0,0,2,2,0,0,0,0,0,0,0,0],"split_type":[0,0,0,0,0,0,0,0,0,0,0,0,0,0,0,0,0,0,0,0,0],"sum_hessian":[8.92E2,8.61E2,3.1E1,8.51E2,1E1,2E1,1.1E1,8.14E2,3.7E1,1E0,9E0,1.7E1,3E0,8.09E2,5E0,3.1E1,6E0,1.5E1,2E0,2E0,1E0],"tree_param":{"num_deleted":"0","num_feature":"4","num_nodes":"21","size_leaf_vector":"0"}},{"base_weights":[2.7083964E-3,1.2973269E-3,4.0634446E-2,1.8917437E-3,-4.4860896E-2,-3.3864349E-3,4.7044087E-2,2.6142101E-3,-1.3653043E-2,-6.0766675E-3,-4.8131652E-2,8.197952E-3,-8.33202E-3,2.6077481E-2,5.9076745E-2,2.1024772E-3,7.126245E-2,-6.496778E-3,-4.441696E-2,4.1614227E-2,-1.5399564E-2,1.0413088E-2,6.1467405E-2],"categories":[],"categories_nodes":[],"categories_segments":[],"categories_sizes":[],"default_left":[1,1,1,1,1,1,1,1,1,0,0,0,0,1,1,0,0,0,0,0,0,0,0],"id":40,"left_children":[1,3,5,7,9,11,13,15,17,-1,-1,-1,-1,19,21,-1,-1,-1,-1,-1,-1,-1,-1],"loss_changes":[4.7737338E-2,2.3735752E-2,9.188369E-3,9.604152E-3,1.1029094E-3,3.5476335E-4,5.52338E-3,2.8480763E-2,8.077313E-3,0E0,0E0,0E0,0E0,8.373859E-3,1.3376847E-3,0E0,0E0,0E0,0E0,0E0,0E0,0E0,0E0],"parents":[2147483647,0,0,1,1,2,2,3,3,4,4,5,5,6,6,7,7,8,8,13,13,14,14],"right_children":[2,4,6,8,10,12,14,16,18,-1,-1,-1,-1,20,22,-1,-1,-1,-1,-1,-1,-1,-1],"split_conditions":[4.9177885E0,4.6828938E0,1.3397035E3,7.341801E1,2.2072493E3,1.158798E1,5.2109075E0,5.0643228E3,1.9492981E1,-6.0766673E-5,-4.813165E-4,8.197952E-5,-8.332019E-5,1.1944914E4,2.4365486E1,2.1024773E-5,7.1262446E-4,-6.496778E-5,-4.441696E-4,4.1614225E-4,-1.5399564E-4,1.0413088E-4,6.1467406E-4],"split_indices":[1,1,2,3,2,0,1,2,0,0,0,0,0,2,0,0,0,0,0,0,0,0,0],"split_type":[0,0,0,0,0,0,0,0,0,0,0,0,0,0,0,0,0,0,0,0,0,0,0],"sum_hessian":[8.92E2,8.61E2,3.1E1,8.51E2,1E1,4E0,2.7E1,8.14E2,3.7E1,1E0,9E0,1E0,3E0,1.1E1,1.6E1,8.09E2,5E0,3.1E1,6E0,8E0,3E0,1E0,1.5E1],"tree_param":{"num_deleted":"0","num_feature":"4","num_nodes":"23","size_leaf_vector":"0"}},{"base_weights":[2.6820533E-3,1.2839846E-3,4.0258713E-2,1.8730891E-3,-4.4461563E-2,-3.3528388E-3,4.660868E-2,2.5889676E-3,-1.3529909E-2,-6.046284E-3,-4.7698464E-2,8.156963E-3,-8.26953E-3,2.5838548E-2,5.852826E-2,2.0814778E-3,7.066859E-2,-5.273473E-3,-3.954804E-2,4.124432E-2,-1.5284073E-2,1.0361023E-2,6.089115E-2],"categories":[],"categories_nodes":[],"categories_segments":[],"categories_sizes":[],"default_left":[1,1,1,1,1,1,1,1,1,0,0,0,0,1,1,0,0,0,0,0,0,0,0],"id":41,"left_children":[1,3,5,7,9,11,13,15,17,-1,-1,-1,-1,19,21,-1,-1,-1,-1,-1,-1,-1,-1],"loss_changes":[4.6861842E-2,2.3313241E-2,9.01809E-3,9.429755E-3,1.0794122E-3,3.5040494E-4,5.419709E-3,2.8010923E-2,7.954491E-3,0E0,0E0,0E0,0E0,8.232689E-3,1.303941E-3,0E0,0E0,0E0,0E0,0E0,0E0,0E0,0E0],"parents":[2147483647,0,0,1,1,2,2,3,3,4,4,5,5,6,6,7,7,8,8,13,13,14,14],"right_children":[2,4,6,8,10,12,14,16,18,-1,-1,-1,-1,20,22,-1,-1,-1,-1,-1,-1,-1,-1],"split_conditions":[4.9177885E0,4.6828938E0,1.3397035E3,7.341801E1,2.2072493E3,1.158798E1,5.2109075E0,5.0643228E3,1.8716404E1,-6.046284E-5,-4.7698463E-4,8.1569626E-5,-8.26953E-5,1.1944914E4,2.4365486E1,2.0814778E-5,7.0668594E-4,-5.273473E-5,-3.954804E-4,4.124432E-4,-1.5284072E-4,1.0361023E-4,6.089115E-4],"split_indices":[1,1,2,3,2,0,1,2,0,0,0,0,0,2,0,0,0,0,0,0,0,0,0],"split_type":[0,0,0,0,0,0,0,0,0,0,0,0,0,0,0,0,0,0,0,0,0,0,0],"sum_hessian":[8.92E2,8.61E2,3.1E1,8.51E2,1E1,4E0,2.7E1,8.14E2,3.7E1,1E0,9E0,1E0,3E0,1.1E1,1.6E1,8.09E2,5E0,2.9E1,8E0,8E0,3E0,1E0,1.5E1],"tree_param":{"num_deleted":"0","num_feature":"4","num_nodes":"23","size_leaf_vector":"0"}},{"base_weights":[2.6560305E-3,1.270845E-3,3.9886467E-2,1.8546857E-3,-4.4065807E-2,-3.319536E-3,4.617731E-2,2.5639702E-3,-1.3406405E-2,-6.0160533E-3,-4.7269177E-2,8.116178E-3,-8.207509E-3,2.5601791E-2,5.798489E-2,2.0606883E-3,7.007969E-2,-6.361331E-3,-4.369726E-2,4.08777E-2,-1.5169449E-2,1.0309219E-2,6.032029E-2],"categories":[],"categories_nodes":[],"categories_segments":[],"categories_sizes":[],"default_left":[1,1,1,1,1,1,1,1,1,0,0,0,0,1,1,0,0,0,0,0,0,0,0],"id":42,"left_children":[1,3,5,7,9,11,13,15,17,-1,-1,-1,-1,19,21,-1,-1,-1,-1,-1,-1,-1,-1],"loss_changes":[4.600227E-2,2.2898339E-2,8.8509545E-3,9.256808E-3,1.056388E-3,3.4610092E-4,5.318001E-3,2.754883E-2,7.831277E-3,0E0,0E0,0E0,0E0,8.093904E-3,1.2709573E-3,0E0,0E0,0E0,0E0,0E0,0E0,0E0,0E0],"parents":[2147483647,0,0,1,1,2,2,3,3,4,4,5,5,6,6,7,7,8,8,13,13,14,14],"right_children":[2,4,6,8,10,12,14,16,18,-1,-1,-1,-1,20,22,-1,-1,-1,-1,-1,-1,-1,-1],"split_conditions":[4.9177885E0,4.6828938E0,1.3397035E3,7.341801E1,2.2072493E3,1.158798E1,5.2109075E0,5.0643228E3,1.9492981E1,-6.016053E-5,-4.7269175E-4,8.116178E-5,-8.2075094E-5,1.1944914E4,2.4365486E1,2.0606883E-5,7.007969E-4,-6.3613305E-5,-4.369726E-4,4.0877698E-4,-1.5169449E-4,1.0309219E-4,6.032029E-4],"split_indices":[1,1,2,3,2,0,1,2,0,0,0,0,0,2,0,0,0,0,0,0,0,0,0],"split_type":[0,0,0,0,0,0,0,0,0,0,0,0,0,0,0,0,0,0,0,0,0,0,0],"sum_hessian":[8.92E2,8.61E2,3.1E1,8.51E2,1E1,4E0,2.7E1,8.14E2,3.7E1,1E0,9E0,1E0,3E0,1.1E1,1.6E1,8.09E2,5E0,3.1E1,6E0,8E0,3E0,1E0,1.5E1],"tree_param":{"num_deleted":"0","num_feature":"4","num_nodes":"23","size_leaf_vector":"0"}},{"base_weights":[2.6301977E-3,1.2577735E-3,3.951768E-2,1.836397E-3,-4.3673586E-2,-3.2865226E-3,4.574994E-2,2.5392144E-3,-1.3285515E-2,-5.9859715E-3,-4.6843752E-2,8.075599E-3,-8.145953E-3,2.5367193E-2,5.744659E-2,2.0401056E-3,6.949569E-2,-5.1610027E-3,-3.8891055E-2,4.0514335E-2,-1.5055679E-2,1.0257676E-2,5.9754793E-2],"categories":[],"categories_nodes":[],"categories_segments":[],"categories_sizes":[],"default_left":[1,1,1,1,1,1,1,1,1,0,0,0,0,1,1,0,0,0,0,0,0,0,0],"id":43,"left_children":[1,3,5,7,9,11,13,15,17,-1,-1,-1,-1,19,21,-1,-1,-1,-1,-1,-1,-1,-1],"loss_changes":[4.5158666E-2,2.2490771E-2,8.6869E-3,9.0887435E-3,1.0338295E-3,3.4185062E-4,5.218219E-3,2.709435E-2,7.7045187E-3,0E0,0E0,0E0,0E0,7.957464E-3,1.2387224E-3,0E0,0E0,0E0,0E0,0E0,0E0,0E0,0E0],"parents":[2147483647,0,0,1,1,2,2,3,3,4,4,5,5,6,6,7,7,8,8,13,13,14,14],"right_children":[2,4,6,8,10,12,14,16,18,-1,-1,-1,-1,20,22,-1,-1,-1,-1,-1,-1,-1,-1],"split_conditions":[4.9177885E0,4.6828938E0,1.3397035E3,7.341801E1,2.2072493E3,1.158798E1,5.2109075E0,5.0643228E3,1.8716404E1,-5.9859714E-5,-4.684375E-4,8.0755985E-5,-8.1459526E-5,1.1944914E4,2.4365486E1,2.0401056E-5,6.949569E-4,-5.1610026E-5,-3.8891053E-4,4.0514334E-4,-1.5055678E-4,1.0257676E-4,5.975479E-4],"split_indices":[1,1,2,3,2,0,1,2,0,0,0,0,0,2,0,0,0,0,0,0,0,0,0],"split_type":[0,0,0,0,0,0,0,0,0,0,0,0,0,0,0,0,0,0,0,0,0,0,0],"sum_hessian":[8.92E2,8.61E2,3.1E1,8.51E2,1E1,4E0,2.7E1,8.14E2,3.7E1,1E0,9E0,1E0,3E0,1.1E1,1.6E1,8.09E2,5E0,2.9E1,8E0,8E0,3E0,1E0,1.5E1],"tree_param":{"num_deleted":"0","num_feature":"4","num_nodes":"23","size_leaf_vector":"0"}},{"base_weights":[2.604681E-3,1.2449025E-3,3.9152317E-2,1.8183565E-3,-4.328488E-2,2.4794463E-2,6.1015867E-2,2.514701E-3,-1.3164257E-2,-5.9560426E-3,-4.642216E-2,3.3882707E-2,-1.1064455E-2,2.0197309E-3,6.891656E-2,-6.2286323E-3,-4.2989362E-2,8.537641E-3,5.0770488E-2,1.6998395E-2,-3.5439152E-2],"categories":[],"categories_nodes":[],"categories_segments":[],"categories_sizes":[],"default_left":[1,1,1,1,1,1,0,1,1,0,0,1,1,0,0,0,0,0,0,0,0],"id":44,"left_children":[1,3,5,7,9,11,-1,13,15,-1,-1,17,19,-1,-1,-1,-1,-1,-1,-1,-1],"loss_changes":[4.43304E-2,2.209055E-2,8.532383E-3,8.922074E-3,1.0117274E-3,7.2186794E-3,0E0,2.6647361E-2,7.5927535E-3,0E0,0E0,6.842913E-3,4.022526E-3,0E0,0E0,0E0,0E0,0E0,0E0,0E0,0E0],"parents":[2147483647,0,0,1,1,2,2,3,3,4,4,5,5,7,7,8,8,11,11,12,12],"right_children":[2,4,6,8,10,12,-1,14,16,-1,-1,18,20,-1,-1,-1,-1,-1,-1,-1,-1],"split_conditions":[4.9177885E0,4.6828938E0,2.8523006E1,7.341801E1,2.2072493E3,2.6540777E1,6.1015866E-4,5.0643228E3,1.9492981E1,-5.9560425E-5,-4.642216E-4,5.33909E3,5.0293794E3,2.0197309E-5,6.8916555E-4,-6.228632E-5,-4.298936E-4,8.537641E-5,5.0770486E-4,1.6998395E-4,-3.5439152E-4],"split_indices":[1,1,0,3,2,0,0,2,0,0,0,2,2,0,0,0,0,0,0,0,0],"split_type":[0,0,0,0,0,0,0,0,0,0,0,0,0,0,0,0,0,0,0,0,0],"sum_hessian":[8.92E2,8.61E2,3.1E1,8.51E2,1E1,2E1,1.1E1,8.14E2,3.7E1,1E0,9E0,1.6E1,4E0,8.09E2,5E0,3.1E1,6E0,7E0,9E0,2E0,2E0],"tree_param":{"num_deleted":"0","num_feature":"4","num_nodes":"21","size_leaf_vector":"0"}},{"base_weights":[2.579431E-3,1.2320973E-3,3.879263E-2,1.8004272E-3,-4.2899653E-2,-3.3390217E-3,4.493069E-2,2.4904239E-3,-1.3045565E-2,-5.9262626E-3,-4.6004366E-2,7.992532E-3,-8.170043E-3,2.4846762E-2,5.6464594E-2,1.999558E-3,6.834225E-2,-6.168292E-3,-4.262088E-2,3.984369E-2,-1.5108015E-2,9.952538E-3,5.8749564E-2],"categories":[],"categories_nodes":[],"categories_segments":[],"categories_sizes":[],"default_left":[1,1,1,1,1,1,1,1,1,0,0,0,0,1,1,0,0,0,0,0,0,0,0],"id":45,"left_children":[1,3,5,7,9,11,13,15,17,-1,-1,-1,-1,19,21,-1,-1,-1,-1,-1,-1,-1,-1],"loss_changes":[4.352281E-2,2.16974E-2,8.425433E-3,8.76011E-3,9.900741E-4,3.3901425E-4,5.083129E-3,2.6207749E-2,7.466206E-3,0E0,0E0,0E0,0E0,7.7923452E-3,1.2220293E-3,0E0,0E0,0E0,0E0,0E0,0E0,0E0,0E0],"parents":[2147483647,0,0,1,1,2,2,3,3,4,4,5,5,6,6,7,7,8,8,13,13,14,14],"right_children":[2,4,6,8,10,12,14,16,18,-1,-1,-1,-1,20,22,-1,-1,-1,-1,-1,-1,-1,-1],"split_conditions":[4.9177885E0,4.6828938E0,1.3397035E3,7.341801E1,2.2072493E3,1.158798E1,5.2109075E0,5.0643228E3,1.9492981E1,-5.9262624E-5,-4.6004364E-4,7.992532E-5,-8.170043E-5,1.1944914E4,2.4365486E1,1.999558E-5,6.834225E-4,-6.168292E-5,-4.2620878E-4,3.9843688E-4,-1.5108015E-4,9.952537E-5,5.874956E-4],"split_indices":[1,1,2,3,2,0,1,2,0,0,0,0,0,2,0,0,0,0,0,0,0,0,0],"split_type":[0,0,0,0,0,0,0,0,0,0,0,0,0,0,0,0,0,0,0,0,0,0,0],"sum_hessian":[8.92E2,8.61E2,3.1E1,8.51E2,1E1,4E0,2.7E1,8.14E2,3.7E1,1E0,9E0,1E0,3E0,1.1E1,1.6E1,8.09E2,5E0,3.1E1,6E0,8E0,3E0,1E0,1.5E1],"tree_param":{"num_deleted":"0","num_feature":"4","num_nodes":"23","size_leaf_vector":"0"}},{"base_weights":[2.5543394E-3,1.2194222E-3,3.8433846E-2,1.7826742E-3,-4.2517863E-2,-3.3059851E-3,4.451475E-2,2.4663813E-3,-1.2927954E-2,-5.8966316E-3,-4.5590322E-2,7.952571E-3,-8.108767E-3,2.4618903E-2,5.5940364E-2,1.9795855E-3,6.777273E-2,-4.991286E-3,-3.7947077E-2,3.9489523E-2,-1.4994711E-2,9.902775E-3,5.8198787E-2],"categories":[],"categories_nodes":[],"categories_segments":[],"categories_sizes":[],"default_left":[1,1,1,1,1,1,1,1,1,0,0,0,0,1,1,0,0,0,0,0,0,0,0],"id":46,"left_children":[1,3,5,7,9,11,13,15,17,-1,-1,-1,-1,19,21,-1,-1,-1,-1,-1,-1,-1,-1],"loss_changes":[4.2724416E-2,2.131126E-2,8.269273E-3,8.601096E-3,9.6886046E-4,3.348475E-4,4.987832E-3,2.5775382E-2,7.356198E-3,0E0,0E0,0E0,0E0,7.6610814E-3,1.1912026E-3,0E0,0E0,0E0,0E0,0E0,0E0,0E0,0E0],"parents":[2147483647,0,0,1,1,2,2,3,3,4,4,5,5,6,6,7,7,8,8,13,13,14,14],"right_children":[2,4,6,8,10,12,14,16,18,-1,-1,-1,-1,20,22,-1,-1,-1,-1,-1,-1,-1,-1],"split_conditions":[4.9177885E0,4.6828938E0,1.3397035E3,7.341801E1,2.2072493E3,1.158798E1,5.2109075E0,5.0643228E3,1.8716404E1,-5.8966314E-5,-4.559032E-4,7.952571E-5,-8.1087666E-5,1.1944914E4,2.4365486E1,1.9795854E-5,6.777273E-4,-4.991286E-5,-3.7947076E-4,3.948952E-4,-1.499471E-4,9.902775E-5,5.8198784E-4],"split_indices":[1,1,2,3,2,0,1,2,0,0,0,0,0,2,0,0,0,0,0,0,0,0,0],"split_type":[0,0,0,0,0,0,0,0,0,0,0,0,0,0,0,0,0,0,0,0,0,0,0],"sum_hessian":[8.92E2,8.61E2,3.1E1,8.51E2,1E1,4E0,2.7E1,8.14E2,3.7E1,1E0,9E0,1E0,3E0,1.1E1,1.6E1,8.09E2,5E0,2.9E1,8E0,8E0,3E0,1E0,1.5E1],"tree_param":{"num_deleted":"0","num_feature":"4","num_nodes":"23","size_leaf_vector":"0"}},{"base_weights":[2.529555E-3,1.2069419E-3,3.8078394E-2,1.7651623E-3,-4.213949E-2,-3.273239E-3,4.4102672E-2,2.4425732E-3,-1.280997E-2,-5.8671497E-3,-4.5180008E-2,7.912807E-3,-8.047952E-3,2.4393125E-2,5.542102E-2,1.9598142E-3,6.7207955E-2,-6.039588E-3,-4.19303E-2,3.9138503E-2,-1.4882255E-2,9.853259E-3,5.7653178E-2],"categories":[],"categories_nodes":[],"categories_segments":[],"categories_sizes":[],"default_left":[1,1,1,1,1,1,1,1,1,0,0,0,0,1,1,0,0,0,0,0,0,0,0],"id":47,"left_children":[1,3,5,7,9,11,13,15,17,-1,-1,-1,-1,19,21,-1,-1,-1,-1,-1,-1,-1,-1],"loss_changes":[4.1940548E-2,2.0932078E-2,8.115996E-3,8.443387E-3,9.4807707E-4,3.307327E-4,4.894331E-3,2.5350139E-2,7.2386772E-3,0E0,0E0,0E0,0E0,7.5320336E-3,1.1610761E-3,0E0,0E0,0E0,0E0,0E0,0E0,0E0,0E0],"parents":[2147483647,0,0,1,1,2,2,3,3,4,4,5,5,6,6,7,7,8,8,13,13,14,14],"right_children":[2,4,6,8,10,12,14,16,18,-1,-1,-1,-1,20,22,-1,-1,-1,-1,-1,-1,-1,-1],"split_conditions":[4.9177885E0,4.6828938E0,1.3397035E3,7.341801E1,2.2072493E3,1.158798E1,5.2109075E0,5.0643228E3,1.9492981E1,-5.8671496E-5,-4.5180006E-4,7.912807E-5,-8.047952E-5,1.1944914E4,2.4365486E1,1.9598141E-5,6.720795E-4,-6.0395876E-5,-4.19303E-4,3.9138502E-4,-1.4882255E-4,9.853258E-5,5.7653175E-4],"split_indices":[1,1,2,3,2,0,1,2,0,0,0,0,0,2,0,0,0,0,0,0,0,0,0],"split_type":[0,0,0,0,0,0,0,0,0,0,0,0,0,0,0,0,0,0,0,0,0,0,0],"sum_hessian":[8.92E2,8.61E2,3.1E1,8.51E2,1E1,4E0,2.7E1,8.14E2,3.7E1,1E0,9E0,1E0,3E0,1.1E1,1.6E1,8.09E2,5E0,3.1E1,6E0,8E0,3E0,1E0,1.5E1],"tree_param":{"num_deleted":"0","num_feature":"4","num_nodes":"23","size_leaf_vector":"0"}},{"base_weights":[2.5049525E-3,1.1945273E-3,3.772625E-2,1.7477605E-3,-4.1764498E-2,2.3855595E-2,5.8856044E-2,2.4189972E-3,-1.2694497E-2,-5.837813E-3,-4.4773385E-2,3.2865874E-2,-1.1550477E-2,1.9402413E-3,6.6647895E-2,-4.8846514E-3,-3.7316814E-2,-5.7759248E-2,-3.0956695E-2,7.83141E-3,4.960686E-2,1.638416E-2,-3.5634954E-2],"categories":[],"categories_nodes":[],"categories_segments":[],"categories_sizes":[],"default_left":[1,1,1,1,1,1,0,1,1,0,1,1,1,0,0,0,0,0,0,0,0,0,0],"id":48,"left_children":[1,3,5,7,9,11,-1,13,15,-1,17,19,21,-1,-1,-1,-1,-1,-1,-1,-1,-1,-1],"loss_changes":[4.1171238E-2,2.0559598E-2,7.974643E-3,8.290145E-3,9.2771463E-4,7.079006E-3,0E0,2.4931913E-2,7.124987E-3,0E0,6.1821193E-6,6.7362376E-3,3.947804E-3,0E0,0E0,0E0,0E0,0E0,0E0,0E0,0E0,0E0,0E0],"parents":[2147483647,0,0,1,1,2,2,3,3,4,4,5,5,7,7,8,8,10,10,11,11,12,12],"right_children":[2,4,6,8,10,12,-1,14,16,-1,18,20,22,-1,-1,-1,-1,-1,-1,-1,-1,-1,-1],"split_conditions":[4.9177885E0,4.6828938E0,2.8523006E1,7.341801E1,2.2072493E3,2.6540777E1,5.885604E-4,5.0643228E3,1.8716404E1,-5.837813E-5,1.6389553E1,5.33909E3,5.0293794E3,1.9402412E-5,6.6647894E-4,-4.8846512E-5,-3.7316812E-4,-5.7759247E-4,-3.0956694E-4,7.831409E-5,4.9606856E-4,1.638416E-4,-3.5634954E-4],"split_indices":[1,1,0,3,2,0,0,2,0,0,0,2,2,0,0,0,0,0,0,0,0,0,0],"split_type":[0,0,0,0,0,0,0,0,0,0,0,0,0,0,0,0,0,0,0,0,0,0,0],"sum_hessian":[8.92E2,8.61E2,3.1E1,8.51E2,1E1,2E1,1.1E1,8.14E2,3.7E1,1E0,9E0,1.6E1,4E0,8.09E2,5E0,2.9E1,8E0,3E0,6E0,7E0,9E0,2E0,2E0],"tree_param":{"num_deleted":"0","num_feature":"4","num_nodes":"23","size_leaf_vector":"0"}},{"base_weights":[2.4802268E-3,1.1817919E-3,3.737931E-2,1.7305934E-3,-4.143281E-2,-3.3205308E-3,4.3312162E-2,2.3956497E-3,-1.2578658E-2,-5.8086254E-3,-4.4414368E-2,7.834088E-3,-8.0677075E-3,2.3890153E-2,5.4474045E-2,1.9208636E-3,6.609249E-2,-5.9134904E-3,-4.1251045E-2,-5.732605E-2,-3.0691352E-2,3.8488906E-2,-1.4929581E-2,9.555958E-3,5.6684177E-2],"categories":[],"categories_nodes":[],"categories_segments":[],"categories_sizes":[],"default_left":[1,1,1,1,1,1,1,1,1,0,1,0,0,1,1,0,0,0,0,0,0,0,0,0,0],"id":49,"left_children":[1,3,5,7,9,11,13,15,17,-1,19,-1,-1,21,23,-1,-1,-1,-1,-1,-1,-1,-1,-1,-1],"loss_changes":[4.0421396E-2,2.023126E-2,7.870737E-3,8.138157E-3,9.103846E-4,3.279679E-4,4.7686175E-3,2.452058E-2,7.0181005E-3,0E0,1.2457371E-5,0E0,0E0,7.3752603E-3,1.1460036E-3,0E0,0E0,0E0,0E0,0E0,0E0,0E0,0E0,0E0,0E0],"parents":[2147483647,0,0,1,1,2,2,3,3,4,4,5,5,6,6,7,7,8,8,10,10,13,13,14,14],"right_children":[2,4,6,8,10,12,14,16,18,-1,20,-1,-1,22,24,-1,-1,-1,-1,-1,-1,-1,-1,-1,-1],"split_conditions":[4.9177885E0,4.6828938E0,1.3397035E3,7.341801E1,2.2072493E3,1.158798E1,5.2109075E0,5.0643228E3,1.9492981E1,-5.808625E-5,1.6389553E1,7.8340876E-5,-8.067708E-5,1.1944914E4,2.4365486E1,1.9208635E-5,6.609249E-4,-5.91349E-5,-4.1251045E-4,-5.732605E-4,-3.069135E-4,3.8488905E-4,-1.4929581E-4,9.555958E-5,5.6684174E-4],"split_indices":[1,1,2,3,2,0,1,2,0,0,0,0,0,2,0,0,0,0,0,0,0,0,0,0,0],"split_type":[0,0,0,0,0,0,0,0,0,0,0,0,0,0,0,0,0,0,0,0,0,0,0,0,0],"sum_hessian":[8.92E2,8.61E2,3.1E1,8.51E2,1E1,4E0,2.7E1,8.14E2,3.7E1,1E0,9E0,1E0,3E0,1.1E1,1.6E1,8.09E2,5E0,3.1E1,6E0,3E0,6E0,8E0,3E0,1E0,1.5E1],"tree_param":{"num_deleted":"0","num_feature":"4","num_nodes":"25","size_leaf_vector":"0"}},{"base_weights":[2.455611E-3,1.169128E-3,3.703351E-2,1.7135327E-3,-4.1103777E-2,-3.2877936E-3,4.2911116E-2,2.3725284E-3,-1.2465287E-2,-5.779583E-3,-4.4058237E-2,7.7949166E-3,-8.0072E-3,2.367089E-2,5.396827E-2,1.9016796E-3,6.554172E-2,-5.8562085E-3,-4.089746E-2,-3.2222338E-2,-6.0934562E-2,3.8146786E-2,-1.4817603E-2,9.508178E-3,5.6152765E-2],"categories":[],"categories_nodes":[],"categories_segments":[],"categories_sizes":[],"default_left":[1,1,1,1,1,1,1,1,1,0,1,0,0,1,1,0,0,0,0,0,0,0,0,0,0],"id":50,"left_children":[1,3,5,7,9,11,13,15,17,-1,19,-1,-1,21,23,-1,-1,-1,-1,-1,-1,-1,-1,-1,-1],"loss_changes":[3.9680805E-2,1.990813E-2,7.7248514E-3,7.990478E-3,8.933656E-4,3.2393454E-4,4.6793036E-3,2.4116028E-2,6.901093E-3,0E0,3.4010038E-5,0E0,0E0,7.2511104E-3,1.1171773E-3,0E0,0E0,0E0,0E0,0E0,0E0,0E0,0E0,0E0,0E0],"parents":[2147483647,0,0,1,1,2,2,3,3,4,4,5,5,6,6,7,7,8,8,10,10,13,13,14,14],"right_children":[2,4,6,8,10,12,14,16,18,-1,20,-1,-1,22,24,-1,-1,-1,-1,-1,-1,-1,-1,-1,-1],"split_conditions":[4.9177885E0,4.6828938E0,1.3397035E3,7.341801E1,2.2072493E3,1.158798E1,5.2109075E0,5.0643228E3,1.9492981E1,-5.7795827E-5,8.329016E3,7.794917E-5,-8.0072E-5,1.1944914E4,2.4365486E1,1.9016796E-5,6.554172E-4,-5.8562084E-5,-4.089746E-4,-3.2222338E-4,-6.093456E-4,3.8146786E-4,-1.4817603E-4,9.508178E-5,5.615276E-4],"split_indices":[1,1,2,3,2,0,1,2,0,0,2,0,0,2,0,0,0,0,0,0,0,0,0,0,0],"split_type":[0,0,0,0,0,0,0,0,0,0,0,0,0,0,0,0,0,0,0,0,0,0,0,0,0],"sum_hessian":[8.92E2,8.61E2,3.1E1,8.51E2,1E1,4E0,2.7E1,8.14E2,3.7E1,1E0,9E0,1E0,3E0,1.1E1,1.6E1,8.09E2,5E0,3.1E1,6E0,7E0,2E0,8E0,3E0,1E0,1.5E1],"tree_param":{"num_deleted":"0","num_feature":"4","num_nodes":"25","size_leaf_vector":"0"}},{"base_weights":[2.4311736E-3,1.1565298E-3,3.6690917E-2,1.6966411E-3,-4.0782683E-2,-3.2553405E-3,4.2513788E-2,2.3496316E-3,-1.2352938E-2,-5.750686E-3,-4.3710817E-2,7.7559426E-3,-7.947147E-3,2.3453621E-2,5.346721E-2,1.8826871E-3,6.499554E-2,-4.7236653E-3,-3.6411297E-2,-5.665444E-2,-3.0070057E-2,3.7807703E-2,-1.470647E-2,9.4606355E-3,5.5626333E-2],"categories":[],"categories_nodes":[],"categories_segments":[],"categories_sizes":[],"default_left":[1,1,1,1,1,1,1,1,1,0,1,0,0,1,1,0,0,0,0,0,0,0,0,0,0],"id":51,"left_children":[1,3,5,7,9,11,13,15,17,-1,19,-1,-1,21,23,-1,-1,-1,-1,-1,-1,-1,-1,-1,-1],"loss_changes":[3.8953952E-2,1.9595083E-2,7.5816587E-3,7.84548E-3,8.769948E-4,3.1995168E-4,4.59167E-3,2.371815E-2,6.802821E-3,0E0,6.2005594E-5,0E0,0E0,7.1290554E-3,1.0890067E-3,0E0,0E0,0E0,0E0,0E0,0E0,0E0,0E0,0E0,0E0],"parents":[2147483647,0,0,1,1,2,2,3,3,4,4,5,5,6,6,7,7,8,8,10,10,13,13,14,14],"right_children":[2,4,6,8,10,12,14,16,18,-1,20,-1,-1,22,24,-1,-1,-1,-1,-1,-1,-1,-1,-1,-1],"split_conditions":[4.9177885E0,4.6828938E0,1.3397035E3,7.341801E1,2.2072493E3,1.158798E1,5.2109075E0,5.0643228E3,1.8716404E1,-5.750686E-5,1.6389553E1,7.755942E-5,-7.9471465E-5,1.1944914E4,2.4365486E1,1.8826871E-5,6.499554E-4,-4.7236652E-5,-3.6411296E-4,-5.6654436E-4,-3.0070057E-4,3.7807703E-4,-1.470647E-4,9.460635E-5,5.562633E-4],"split_indices":[1,1,2,3,2,0,1,2,0,0,0,0,0,2,0,0,0,0,0,0,0,0,0,0,0],"split_type":[0,0,0,0,0,0,0,0,0,0,0,0,0,0,0,0,0,0,0,0,0,0,0,0,0],"sum_hessian":[8.92E2,8.61E2,3.1E1,8.51E2,1E1,4E0,2.7E1,8.14E2,3.7E1,1E0,9E0,1E0,3E0,1.1E1,1.6E1,8.09E2,5E0,2.9E1,8E0,3E0,6E0,8E0,3E0,1E0,1.5E1],"tree_param":{"num_deleted":"0","num_feature":"4","num_nodes":"25","size_leaf_vector":"0"}},{"base_weights":[2.4070998E-3,1.14419E-3,3.635151E-2,1.6799765E-3,-4.0458925E-2,2.2951473E-2,5.6772277E-2,2.3269556E-3,-1.2240233E-2,-5.721934E-3,-4.336043E-2,3.188428E-2,-1.2010368E-2,1.8638831E-3,6.445391E-2,-5.733912E-3,-4.0234808E-2,-3.1577587E-2,-6.032787E-2,7.153967E-3,4.8480105E-2,1.5793465E-2,-3.5810743E-2],"categories":[],"categories_nodes":[],"categories_segments":[],"categories_sizes":[],"default_left":[1,1,1,1,1,1,0,1,1,0,1,1,1,0,0,0,0,0,0,0,0,0,0],"id":52,"left_children":[1,3,5,7,9,11,-1,13,15,-1,17,19,21,-1,-1,-1,-1,-1,-1,-1,-1,-1,-1],"loss_changes":[3.824018E-2,1.928228E-2,7.4534416E-3,7.701667E-3,8.605812E-4,6.941395E-3,0E0,2.332683E-2,6.6906824E-3,0E0,9.423867E-5,6.6303145E-3,3.8742842E-3,0E0,0E0,0E0,0E0,0E0,0E0,0E0,0E0,0E0,0E0],"parents":[2147483647,0,0,1,1,2,2,3,3,4,4,5,5,7,7,8,8,10,10,11,11,12,12],"right_children":[2,4,6,8,10,12,-1,14,16,-1,18,20,22,-1,-1,-1,-1,-1,-1,-1,-1,-1,-1],"split_conditions":[4.9177885E0,4.6828938E0,2.8523006E1,7.341801E1,2.2072493E3,2.6540777E1,5.677228E-4,5.0643228E3,1.9492981E1,-5.721934E-5,8.329016E3,5.33909E3,5.0293794E3,1.8638832E-5,6.445391E-4,-5.733912E-5,-4.0234806E-4,-3.1577586E-4,-6.032787E-4,7.153967E-5,4.8480104E-4,1.5793464E-4,-3.581074E-4],"split_indices":[1,1,0,3,2,0,0,2,0,0,2,2,2,0,0,0,0,0,0,0,0,0,0],"split_type":[0,0,0,0,0,0,0,0,0,0,0,0,0,0,0,0,0,0,0,0,0,0,0],"sum_hessian":[8.92E2,8.61E2,3.1E1,8.51E2,1E1,2E1,1.1E1,8.14E2,3.7E1,1E0,9E0,1.6E1,4E0,8.09E2,5E0,3.1E1,6E0,7E0,2E0,7E0,9E0,2E0,2E0],"tree_param":{"num_deleted":"0","num_feature":"4","num_nodes":"23","size_leaf_vector":"0"}},{"base_weights":[2.3831972E-3,1.131851E-3,3.6016863E-2,1.6634149E-3,-4.0143088E-2,-3.2976829E-3,4.1751E-2,2.304499E-3,-1.2129927E-2,-5.693324E-3,-4.3018732E-2,7.681392E-3,-7.9628E-3,2.29675E-2,5.2554004E-2,1.8452666E-3,6.3916795E-2,-4.622575E-3,-3.5806663E-2,-5.59927E-2,-2.9459503E-2,3.717846E-2,-1.4749039E-2,9.170935E-3,5.469226E-2],"categories":[],"categories_nodes":[],"categories_segments":[],"categories_sizes":[],"default_left":[1,1,1,1,1,1,1,1,1,0,1,0,0,1,1,0,0,0,0,0,0,0,0,0,0],"id":53,"left_children":[1,3,5,7,9,11,13,15,17,-1,19,-1,-1,21,23,-1,-1,-1,-1,-1,-1,-1,-1,-1,-1],"loss_changes":[3.7543252E-2,1.8979285E-2,7.3516034E-3,7.5619267E-3,8.44799E-4,3.1725873E-4,4.4746734E-3,2.2941966E-2,6.5889657E-3,0E0,1.0965392E-4,0E0,0E0,6.980206E-3,1.0754131E-3,0E0,0E0,0E0,0E0,0E0,0E0,0E0,0E0,0E0,0E0],"parents":[2147483647,0,0,1,1,2,2,3,3,4,4,5,5,6,6,7,7,8,8,10,10,13,13,14,14],"right_children":[2,4,6,8,10,12,14,16,18,-1,20,-1,-1,22,24,-1,-1,-1,-1,-1,-1,-1,-1,-1,-1],"split_conditions":[4.9177885E0,4.6828938E0,1.3397035E3,7.341801E1,2.2072493E3,1.158798E1,5.2109075E0,5.0643228E3,1.8716404E1,-5.6933237E-5,1.6389553E1,7.681392E-5,-7.962799E-5,1.1944914E4,2.4365486E1,1.8452665E-5,6.3916796E-4,-4.622575E-5,-3.5806664E-4,-5.5992696E-4,-2.9459503E-4,3.7178458E-4,-1.4749038E-4,9.170934E-5,5.469226E-4],"split_indices":[1,1,2,3,2,0,1,2,0,0,0,0,0,2,0,0,0,0,0,0,0,0,0,0,0],"split_type":[0,0,0,0,0,0,0,0,0,0,0,0,0,0,0,0,0,0,0,0,0,0,0,0,0],"sum_hessian":[8.92E2,8.61E2,3.1E1,8.51E2,1E1,4E0,2.7E1,8.14E2,3.7E1,1E0,9E0,1E0,3E0,1.1E1,1.6E1,8.09E2,5E0,2.9E1,8E0,3E0,6E0,8E0,3E0,1E0,1.5E1],"tree_param":{"num_deleted":"0","num_feature":"4","num_nodes":"25","size_leaf_vector":"0"}},{"base_weights":[2.359591E-3,1.1197686E-3,3.5683572E-2,1.6470777E-3,-3.9824516E-2,-3.2652705E-3,4.136431E-2,2.2822607E-3,-1.2019269E-2,-5.664859E-3,-4.2673998E-2,7.6429844E-3,-7.90308E-3,2.2756517E-2,5.2066028E-2,1.8268364E-3,6.338415E-2,-5.6140954E-3,-3.9583024E-2,-3.0944016E-2,-5.9729278E-2,3.6847986E-2,-1.463842E-2,9.125076E-3,5.417952E-2],"categories":[],"categories_nodes":[],"categories_segments":[],"categories_sizes":[],"default_left":[1,1,1,1,1,1,1,1,1,0,1,0,0,1,1,0,0,0,0,0,0,0,0,0,0],"id":54,"left_children":[1,3,5,7,9,11,13,15,17,-1,19,-1,-1,21,23,-1,-1,-1,-1,-1,-1,-1,-1,-1,-1],"loss_changes":[3.685507E-2,1.8676428E-2,7.215321E-3,7.4233282E-3,8.289665E-4,3.133552E-4,4.3909512E-3,2.2563443E-2,6.486701E-3,0E0,1.523178E-4,0E0,0E0,6.8627917E-3,1.0484494E-3,0E0,0E0,0E0,0E0,0E0,0E0,0E0,0E0,0E0,0E0],"parents":[2147483647,0,0,1,1,2,2,3,3,4,4,5,5,6,6,7,7,8,8,10,10,13,13,14,14],"right_children":[2,4,6,8,10,12,14,16,18,-1,20,-1,-1,22,24,-1,-1,-1,-1,-1,-1,-1,-1,-1,-1],"split_conditions":[4.9177885E0,4.6828938E0,1.3397035E3,7.341801E1,2.2072493E3,1.158798E1,5.2109075E0,5.0643228E3,1.9492981E1,-5.6648587E-5,8.329016E3,7.6429846E-5,-7.9030804E-5,1.1944914E4,2.4365486E1,1.8268363E-5,6.338415E-4,-5.614095E-5,-3.9583023E-4,-3.0944016E-4,-5.972928E-4,3.6847984E-4,-1.463842E-4,9.125076E-5,5.4179516E-4],"split_indices":[1,1,2,3,2,0,1,2,0,0,2,0,0,2,0,0,0,0,0,0,0,0,0,0,0],"split_type":[0,0,0,0,0,0,0,0,0,0,0,0,0,0,0,0,0,0,0,0,0,0,0,0,0],"sum_hessian":[8.92E2,8.61E2,3.1E1,8.51E2,1E1,4E0,2.7E1,8.14E2,3.7E1,1E0,9E0,1E0,3E0,1.1E1,1.6E1,8.09E2,5E0,3.1E1,6E0,7E0,2E0,8E0,3E0,1E0,1.5E1],"tree_param":{"num_deleted":"0","num_feature":"4","num_nodes":"25","size_leaf_vector":"0"}},{"base_weights":[2.3360949E-3,1.1076853E-3,3.5353377E-2,1.6308416E-3,-3.9513852E-2,2.2298181E-2,5.5253856E-2,2.2602377E-3,-1.1910966E-2,-5.6365356E-3,-4.233793E-2,3.1155188E-2,-1.2275277E-2,1.8085901E-3,6.285596E-2,-4.523618E-3,-3.5212018E-2,-3.0673258E-2,-5.9331078E-2,6.6981907E-3,4.760527E-2,1.5378155E-2,-3.583695E-2],"categories":[],"categories_nodes":[],"categories_segments":[],"categories_sizes":[],"default_left":[1,1,1,1,1,1,0,1,1,0,1,1,1,0,0,0,0,0,0,0,0,0,0],"id":55,"left_children":[1,3,5,7,9,11,-1,13,15,-1,17,19,21,-1,-1,-1,-1,-1,-1,-1,-1,-1,-1],"loss_changes":[3.6179803E-2,1.8383162E-2,7.081691E-3,7.2886553E-3,8.1375614E-4,6.8130028E-3,0E0,2.2191167E-2,6.381767E-3,0E0,1.6231649E-4,6.520562E-3,3.808912E-3,0E0,0E0,0E0,0E0,0E0,0E0,0E0,0E0,0E0,0E0],"parents":[2147483647,0,0,1,1,2,2,3,3,4,4,5,5,7,7,8,8,10,10,11,11,12,12],"right_children":[2,4,6,8,10,12,-1,14,16,-1,18,20,22,-1,-1,-1,-1,-1,-1,-1,-1,-1,-1],"split_conditions":[4.9177885E0,4.6828938E0,2.8523006E1,7.341801E1,2.2072493E3,2.6540777E1,5.5253855E-4,5.0643228E3,1.8716404E1,-5.6365356E-5,8.329016E3,5.33909E3,5.0293794E3,1.80859E-5,6.2855956E-4,-4.5236182E-5,-3.5212017E-4,-3.0673257E-4,-5.9331075E-4,6.6981906E-5,4.7605266E-4,1.5378154E-4,-3.583695E-4],"split_indices":[1,1,0,3,2,0,0,2,0,0,2,2,2,0,0,0,0,0,0,0,0,0,0],"split_type":[0,0,0,0,0,0,0,0,0,0,0,0,0,0,0,0,0,0,0,0,0,0,0],"sum_hessian":[8.92E2,8.61E2,3.1E1,8.51E2,1E1,2E1,1.1E1,8.14E2,3.7E1,1E0,9E0,1.6E1,4E0,8.09E2,5E0,2.9E1,8E0,7E0,2E0,7E0,9E0,2E0,2E0],"tree_param":{"num_deleted":"0","num_feature":"4","num_nodes":"23","size_leaf_vector":"0"}},{"base_weights":[2.3129408E-3,1.0957889E-3,3.502769E-2,1.6148267E-3,-3.9205667E-2,-3.304083E-3,4.062166E-2,2.2384296E-3,-1.1802313E-2,-5.6083538E-3,-4.2004563E-2,7.57128E-3,-7.915744E-3,2.2282887E-2,5.1177166E-2,1.7905275E-3,6.2332157E-2,-2.5388554E-2,4.0505116E-4,-5.5110633E-2,-2.8514726E-2,3.6233656E-2,-1.4677063E-2,8.841425E-3,5.3270563E-2],"categories":[],"categories_nodes":[],"categories_segments":[],"categories_sizes":[],"default_left":[1,1,1,1,1,1,1,1,1,0,1,0,0,1,1,0,0,0,0,0,0,0,0,0,0],"id":56,"left_children":[1,3,5,7,9,11,13,15,17,-1,19,-1,-1,21,23,-1,-1,-1,-1,-1,-1,-1,-1,-1,-1],"loss_changes":[3.551982E-2,1.8094609E-2,6.995879E-3,7.1550766E-3,7.98814E-4,3.1069975E-4,4.279729E-3,2.1825025E-2,6.3126665E-3,0E0,1.965221E-4,0E0,0E0,6.71924E-3,1.0356456E-3,0E0,0E0,0E0,0E0,0E0,0E0,0E0,0E0,0E0,0E0],"parents":[2147483647,0,0,1,1,2,2,3,3,4,4,5,5,6,6,7,7,8,8,10,10,13,13,14,14],"right_children":[2,4,6,8,10,12,14,16,18,-1,20,-1,-1,22,24,-1,-1,-1,-1,-1,-1,-1,-1,-1,-1],"split_conditions":[4.9177885E0,4.6828938E0,1.3397035E3,7.341801E1,2.2072493E3,1.158798E1,5.2109075E0,5.0643228E3,6.4709365E3,-5.6083536E-5,1.6389553E1,7.57128E-5,-7.9157435E-5,1.1944914E4,2.4365486E1,1.7905275E-5,6.2332157E-4,-2.5388552E-4,4.0505115E-6,-5.5110635E-4,-2.8514725E-4,3.6233655E-4,-1.4677062E-4,8.841425E-5,5.327056E-4],"split_indices":[1,1,2,3,2,0,1,2,2,0,0,0,0,2,0,0,0,0,0,0,0,0,0,0,0],"split_type":[0,0,0,0,0,0,0,0,0,0,0,0,0,0,0,0,0,0,0,0,0,0,0,0,0],"sum_hessian":[8.92E2,8.61E2,3.1E1,8.51E2,1E1,4E0,2.7E1,8.14E2,3.7E1,1E0,9E0,1E0,3E0,1.1E1,1.6E1,8.09E2,5E0,1.7E1,2E1,3E0,6E0,8E0,3E0,1E0,1.5E1],"tree_param":{"num_deleted":"0","num_feature":"4","num_nodes":"25","size_leaf_vector":"0"}},{"base_weights":[2.2901841E-3,1.0842506E-3,3.4703452E-2,1.5991386E-3,-3.889473E-2,-3.2717318E-3,4.0245324E-2,2.2168332E-3,-1.1690865E-2,-5.4697305E-2,-2.6131602E-2,7.5334236E-3,-7.8563765E-3,2.2078022E-2,5.070193E-2,1.7726453E-3,6.1812725E-2,-5.3877784E-3,-3.8834855E-2,1.8722942E-2,-4.4203606E-2,3.591158E-2,-1.456698E-2,8.797221E-3,5.2771147E-2],"categories":[],"categories_nodes":[],"categories_segments":[],"categories_sizes":[],"default_left":[1,1,1,1,1,1,1,1,1,0,1,0,0,1,1,0,0,0,0,0,0,0,0,0,0],"id":57,"left_children":[1,3,5,7,9,11,13,15,17,-1,19,-1,-1,21,23,-1,-1,-1,-1,-1,-1,-1,-1,-1,-1],"loss_changes":[3.4868173E-2,1.7806206E-2,6.8661906E-3,7.0201233E-3,7.892661E-4,3.0687443E-4,4.1997135E-3,2.1464922E-2,6.292221E-3,0E0,7.312514E-3,0E0,0E0,6.6062915E-3,1.0098293E-3,0E0,0E0,0E0,0E0,0E0,0E0,0E0,0E0,0E0,0E0],"parents":[2147483647,0,0,1,1,2,2,3,3,4,4,5,5,6,6,7,7,8,8,10,10,13,13,14,14],"right_children":[2,4,6,8,10,12,14,16,18,-1,20,-1,-1,22,24,-1,-1,-1,-1,-1,-1,-1,-1,-1,-1],"split_conditions":[4.9177885E0,4.6828938E0,1.3397035E3,7.341801E1,1.6389553E1,1.158798E1,5.2109075E0,5.0643228E3,1.9492981E1,-5.46973E-4,2.133512E1,7.533423E-5,-7.856376E-5,1.1944914E4,2.4365486E1,1.7726452E-5,6.1812723E-4,-5.3877782E-5,-3.8834853E-4,1.8722942E-4,-4.4203605E-4,3.5911577E-4,-1.456698E-4,8.797221E-5,5.2771147E-4],"split_indices":[1,1,2,3,0,0,1,2,0,0,0,0,0,2,0,0,0,0,0,0,0,0,0,0,0],"split_type":[0,0,0,0,0,0,0,0,0,0,0,0,0,0,0,0,0,0,0,0,0,0,0,0,0],"sum_hessian":[8.92E2,8.61E2,3.1E1,8.51E2,1E1,4E0,2.7E1,8.14E2,3.7E1,3E0,7E0,1E0,3E0,1.1E1,1.6E1,8.09E2,5E0,3.1E1,6E0,2E0,5E0,8E0,3E0,1E0,1.5E1],"tree_param":{"num_deleted":"0","num_feature":"4","num_nodes":"25","size_leaf_vector":"0"}},{"base_weights":[2.2675272E-3,1.0727036E-3,3.4382228E-2,1.5833755E-3,-3.8578674E-2,-3.2396591E-3,3.9872482E-2,2.1954458E-3,-1.1585591E-2,-5.3592958E-3,-4.136468E-2,7.495757E-3,-7.7974526E-3,2.187503E-2,5.023113E-2,1.7549415E-3,6.1297618E-2,-2.5042139E-2,5.002877E-4,-2.9786818E-2,-5.845076E-2,5.4930724E-2,4.753051E-3,8.753233E-3,5.2276418E-2],"categories":[],"categories_nodes":[],"categories_segments":[],"categories_sizes":[],"default_left":[1,1,1,1,1,1,1,1,1,0,1,0,0,1,1,0,0,0,0,0,0,0,0,0,0],"id":58,"left_children":[1,3,5,7,9,11,13,15,17,-1,19,-1,-1,21,23,-1,-1,-1,-1,-1,-1,-1,-1,-1,-1],"loss_changes":[3.4228776E-2,1.7515587E-2,6.7388937E-3,6.8928404E-3,7.9635903E-4,3.0309684E-4,4.121214E-3,2.1110754E-2,6.1926288E-3,0E0,2.371408E-4,0E0,0E0,6.530659E-3,9.84598E-4,0E0,0E0,0E0,0E0,0E0,0E0,0E0,0E0,0E0,0E0],"parents":[2147483647,0,0,1,1,2,2,3,3,4,4,5,5,6,6,7,7,8,8,10,10,13,13,14,14],"right_children":[2,4,6,8,10,12,14,16,18,-1,20,-1,-1,22,24,-1,-1,-1,-1,-1,-1,-1,-1,-1,-1],"split_conditions":[4.9177885E0,4.6828938E0,1.3397035E3,7.341801E1,2.2072493E3,1.158798E1,5.2109075E0,5.0643228E3,6.4709365E3,-5.3592958E-5,8.329016E3,7.495757E-5,-7.7974524E-5,5.086487E0,2.4365486E1,1.7549415E-5,6.1297615E-4,-2.5042138E-4,5.0028766E-6,-2.9786816E-4,-5.845076E-4,5.493072E-4,4.7530506E-5,8.7532324E-5,5.2276417E-4],"split_indices":[1,1,2,3,2,0,1,2,2,0,2,0,0,1,0,0,0,0,0,0,0,0,0,0,0],"split_type":[0,0,0,0,0,0,0,0,0,0,0,0,0,0,0,0,0,0,0,0,0,0,0,0,0],"sum_hessian":[8.92E2,8.61E2,3.1E1,8.51E2,1E1,4E0,2.7E1,8.14E2,3.7E1,1E0,9E0,1E0,3E0,1.1E1,1.6E1,8.09E2,5E0,1.7E1,2E1,7E0,2E0,3E0,8E0,1E0,1.5E1],"tree_param":{"num_deleted":"0","num_feature":"4","num_nodes":"25","size_leaf_vector":"0"}},{"base_weights":[2.245584E-3,1.0613382E-3,3.4076035E-2,1.9811322E-3,-2.0728685E-2,-3.2078654E-3,3.951687E-2,1.701707E-3,3.0409506E-2,-9.005189E-3,-3.5759665E-2,7.458277E-3,-7.73897E-3,2.1706015E-2,4.976472E-2,1.8098456E-3,-2.8387351E-2,3.9923787E-2,1.2444407E-3,-2.7075063E-2,4.068201E-2,-1.1794325E-2,-5.5255048E-2,3.5382852E-2,-1.4493376E-2,8.709468E-3,5.178633E-2],"categories":[],"categories_nodes":[],"categories_segments":[],"categories_sizes":[],"default_left":[1,1,1,1,1,1,1,1,1,1,1,0,0,1,1,0,0,0,0,0,0,0,0,0,0,0,0],"id":59,"left_children":[1,3,5,7,9,11,13,15,17,19,21,-1,-1,23,25,-1,-1,-1,-1,-1,-1,-1,-1,-1,-1,-1,-1],"loss_changes":[3.3625536E-2,1.7317558E-2,6.6181496E-3,6.525556E-3,5.8455253E-3,2.9936645E-4,4.0304475E-3,2.722736E-3,2.170194E-3,1.9956138E-2,6.3565057E-3,0E0,0E0,6.4539355E-3,9.599291E-4,0E0,0E0,0E0,0E0,0E0,0E0,0E0,0E0,0E0,0E0,0E0,0E0],"parents":[2147483647,0,0,1,1,2,2,3,3,4,4,5,5,6,6,7,7,8,8,9,9,10,10,13,13,14,14],"right_children":[2,4,6,8,10,12,14,16,18,20,22,-1,-1,24,26,-1,-1,-1,-1,-1,-1,-1,-1,-1,-1,-1,-1],"split_conditions":[4.9177885E0,4.4377813E0,1.3397035E3,1.8781448E1,7.368094E1,1.158798E1,5.2109075E0,1.0046005E4,1.9335789E1,3.9606792E3,2.068463E1,7.458277E-5,-7.73897E-5,1.1944914E4,2.4365486E1,1.8098455E-5,-2.838735E-4,3.9923785E-4,1.2444407E-5,-2.7075064E-4,4.068201E-4,-1.17943244E-4,-5.525505E-4,3.538285E-4,-1.4493376E-4,8.7094675E-5,5.1786326E-4],"split_indices":[1,1,2,0,3,0,1,2,0,2,0,0,0,2,0,0,0,0,0,0,0,0,0,0,0,0,0],"split_type":[0,0,0,0,0,0,0,0,0,0,0,0,0,0,0,0,0,0,0,0,0,0,0,0,0,0,0],"sum_hessian":[8.92E2,8.61E2,3.1E1,8.27E2,3.4E1,4E0,2.7E1,8.2E2,7E0,2E1,1.4E1,1E0,3E0,1.1E1,1.6E1,8.18E2,2E0,5E0,2E0,1.5E1,5E0,7E0,7E0,8E0,3E0,1E0,1.5E1],"tree_param":{"num_deleted":"0","num_feature":"4","num_nodes":"27","size_leaf_vector":"0"}},{"base_weights":[2.2236018E-3,1.0502746E-3,3.3760615E-2,1.553454E-3,-3.801874E-2,2.1261092E-2,5.2821398E-2,2.156204E-3,-1.1414829E-2,-5.3898804E-2,-2.5326364E-2,3.0055838E-2,-1.2893267E-2,1.7203129E-3,6.064215E-2,-4.2024017E-3,-3.4187935E-2,1.8700412E-2,-4.311869E-2,5.996596E-3,4.6297647E-2,1.4679653E-2,-3.616843E-2],"categories":[],"categories_nodes":[],"categories_segments":[],"categories_sizes":[],"default_left":[1,1,1,1,1,1,0,1,1,0,1,1,1,0,0,0,0,0,0,0,0,0,0],"id":60,"left_children":[1,3,5,7,9,11,-1,13,15,-1,17,19,21,-1,-1,-1,-1,-1,-1,-1,-1,-1,-1],"loss_changes":[3.300843E-2,1.7004881E-2,6.5009817E-3,6.6843843E-3,8.5205026E-4,6.6954764E-3,0E0,2.0672884E-2,6.097805E-3,0E0,7.0730476E-3,6.365386E-3,3.7397612E-3,0E0,0E0,0E0,0E0,0E0,0E0,0E0,0E0,0E0,0E0],"parents":[2147483647,0,0,1,1,2,2,3,3,4,4,5,5,7,7,8,8,10,10,11,11,12,12],"right_children":[2,4,6,8,10,12,-1,14,16,-1,18,20,22,-1,-1,-1,-1,-1,-1,-1,-1,-1,-1],"split_conditions":[4.9177885E0,4.6828938E0,2.8523006E1,7.341801E1,1.6389553E1,2.6540777E1,5.28214E-4,5.0643228E3,1.8716404E1,-5.3898804E-4,2.133512E1,5.33909E3,5.0293794E3,1.7203129E-5,6.064215E-4,-4.2024018E-5,-3.4187935E-4,1.8700412E-4,-4.3118687E-4,5.9965958E-5,4.6297646E-4,1.4679652E-4,-3.616843E-4],"split_indices":[1,1,0,3,0,0,0,2,0,0,0,2,2,0,0,0,0,0,0,0,0,0,0],"split_type":[0,0,0,0,0,0,0,0,0,0,0,0,0,0,0,0,0,0,0,0,0,0,0],"sum_hessian":[8.92E2,8.61E2,3.1E1,8.51E2,1E1,2E1,1.1E1,8.14E2,3.7E1,3E0,7E0,1.6E1,4E0,8.09E2,5E0,2.9E1,8E0,2E0,5E0,7E0,9E0,2E0,2E0],"tree_param":{"num_deleted":"0","num_feature":"4","num_nodes":"23","size_leaf_vector":"0"}},{"base_weights":[2.2016936E-3,1.0391413E-3,3.3449143E-2,1.9449788E-3,-2.0420076E-2,-3.2416857E-3,3.8806465E-2,1.6674164E-3,3.0186707E-2,-8.914914E-3,-3.5165966E-2,7.3910058E-3,-7.74761E-3,2.125144E-2,4.891551E-2,1.8336602E-3,-1.7926317E-2,3.9576758E-2,1.3443729E-3,-2.673981E-2,4.0103957E-2,-1.1508418E-2,-5.4427765E-2,5.3906143E-2,4.376968E-3,8.43443E-3,5.0918426E-2],"categories":[],"categories_nodes":[],"categories_segments":[],"categories_sizes":[],"default_left":[1,1,1,1,1,1,1,1,1,1,1,0,0,1,1,0,0,0,0,0,0,0,0,0,0,0,0],"id":61,"left_children":[1,3,5,7,9,11,13,15,17,19,21,-1,-1,23,25,-1,-1,-1,-1,-1,-1,-1,-1,-1,-1,-1,-1],"loss_changes":[3.2405067E-2,1.6795758E-2,6.4158626E-3,6.4402292E-3,5.6243846E-3,2.9681314E-4,3.9294846E-3,2.7071447E-3,2.1134415E-3,1.9421253E-2,6.2089264E-3,0E0,0E0,6.3764243E-3,9.4889477E-4,0E0,0E0,0E0,0E0,0E0,0E0,0E0,0E0,0E0,0E0,0E0,0E0],"parents":[2147483647,0,0,1,1,2,2,3,3,4,4,5,5,6,6,7,7,8,8,9,9,10,10,13,13,14,14],"right_children":[2,4,6,8,10,12,14,16,18,20,22,-1,-1,24,26,-1,-1,-1,-1,-1,-1,-1,-1,-1,-1,-1,-1],"split_conditions":[4.9177885E0,4.4377813E0,1.3397035E3,1.8781448E1,7.368094E1,1.158798E1,5.2109075E0,4.338605E0,1.9335789E1,3.9606792E3,2.068463E1,7.391006E-5,-7.74761E-5,5.086487E0,2.4365486E1,1.8336601E-5,-1.7926317E-4,3.9576757E-4,1.3443729E-5,-2.6739808E-4,4.0103955E-4,-1.1508418E-4,-5.4427766E-4,5.3906144E-4,4.3769676E-5,8.43443E-5,5.0918426E-4],"split_indices":[1,1,2,0,3,0,1,1,0,2,0,0,0,1,0,0,0,0,0,0,0,0,0,0,0,0,0],"split_type":[0,0,0,0,0,0,0,0,0,0,0,0,0,0,0,0,0,0,0,0,0,0,0,0,0,0,0],"sum_hessian":[8.92E2,8.61E2,3.1E1,8.27E2,3.4E1,4E0,2.7E1,8.2E2,7E0,2E1,1.4E1,1E0,3E0,1.1E1,1.6E1,8.14E2,6E0,5E0,2E0,1.5E1,5E0,7E0,7E0,3E0,8E0,1E0,1.5E1],"tree_param":{"num_deleted":"0","num_feature":"4","num_nodes":"27","size_leaf_vector":"0"}},{"base_weights":[2.1806797E-3,1.0284284E-3,3.3151302E-2,1.5240659E-3,-3.7454437E-2,-3.2099814E-3,3.8460415E-2,2.1183253E-3,-1.1261341E-2,-5.333209E-2,-2.4833806E-2,7.354051E-3,-7.689502E-3,2.1087494E-2,4.8461273E-2,1.6870017E-3,5.999395E-2,-2.4625277E-2,7.297148E-4,1.848042E-2,-4.2351954E-2,5.3501844E-2,4.3380614E-3,8.3922595E-3,5.044107E-2],"categories":[],"categories_nodes":[],"categories_segments":[],"categories_sizes":[],"default_left":[1,1,1,1,1,1,1,1,1,0,1,0,0,1,1,0,0,0,0,0,0,0,0,0,0],"id":62,"left_children":[1,3,5,7,9,11,13,15,17,-1,19,-1,-1,21,23,-1,-1,-1,-1,-1,-1,-1,-1,-1,-1],"loss_changes":[3.183345E-2,1.6498484E-2,6.3009337E-3,6.497222E-3,8.798074E-4,2.93158E-4,3.8429052E-3,2.0243732E-2,6.1073815E-3,0E0,6.852962E-3,0E0,0E0,6.28297E-3,9.252727E-4,0E0,0E0,0E0,0E0,0E0,0E0,0E0,0E0,0E0,0E0],"parents":[2147483647,0,0,1,1,2,2,3,3,4,4,5,5,6,6,7,7,8,8,10,10,13,13,14,14],"right_children":[2,4,6,8,10,12,14,16,18,-1,20,-1,-1,22,24,-1,-1,-1,-1,-1,-1,-1,-1,-1,-1],"split_conditions":[4.9177885E0,4.6828938E0,1.3397035E3,7.341801E1,1.6389553E1,1.158798E1,5.2109075E0,5.0643228E3,6.4709365E3,-5.333209E-4,2.133512E1,7.3540505E-5,-7.689502E-5,5.086487E0,2.4365486E1,1.6870017E-5,5.999395E-4,-2.4625278E-4,7.297148E-6,1.848042E-4,-4.2351952E-4,5.3501845E-4,4.3380613E-5,8.392259E-5,5.044107E-4],"split_indices":[1,1,2,3,0,0,1,2,2,0,0,0,0,1,0,0,0,0,0,0,0,0,0,0,0],"split_type":[0,0,0,0,0,0,0,0,0,0,0,0,0,0,0,0,0,0,0,0,0,0,0,0,0],"sum_hessian":[8.92E2,8.61E2,3.1E1,8.51E2,1E1,4E0,2.7E1,8.14E2,3.7E1,3E0,7E0,1E0,3E0,1.1E1,1.6E1,8.09E2,5E0,1.7E1,2E1,2E0,5E0,3E0,8E0,1E0,1.5E1],"tree_param":{"num_deleted":"0","num_feature":"4","num_nodes":"25","size_leaf_vector":"0"}},{"base_weights":[2.1597345E-3,1.017687E-3,3.2856148E-2,1.9111832E-3,-2.0148957E-2,-3.178551E-3,3.8117483E-2,1.635599E-3,2.995412E-2,-8.82562E-3,-3.465837E-2,7.3172823E-3,-7.63183E-3,2.0924821E-2,4.8011273E-2,1.7428428E-3,-2.8187187E-2,3.923289E-2,1.4118751E-3,-2.6408635E-2,3.9533358E-2,-1.1273636E-2,-5.3710803E-2,3.4384705E-2,-1.459112E-2,8.350298E-3,4.996819E-2],"categories":[],"categories_nodes":[],"categories_segments":[],"categories_sizes":[],"default_left":[1,1,1,1,1,1,1,1,1,1,1,0,0,1,1,0,0,0,0,0,0,0,0,0,0,0,0],"id":63,"left_children":[1,3,5,7,9,11,13,15,17,19,21,-1,-1,23,25,-1,-1,-1,-1,-1,-1,-1,-1,-1,-1,-1,-1],"loss_changes":[3.1272255E-2,1.6340926E-2,6.1880536E-3,6.34995E-3,5.444443E-3,2.8954863E-4,3.7581883E-3,2.6749405E-3,2.0633037E-3,1.8900253E-2,6.077526E-3,0E0,0E0,6.238196E-3,9.021796E-4,0E0,0E0,0E0,0E0,0E0,0E0,0E0,0E0,0E0,0E0,0E0,0E0],"parents":[2147483647,0,0,1,1,2,2,3,3,4,4,5,5,6,6,7,7,8,8,9,9,10,10,13,13,14,14],"right_children":[2,4,6,8,10,12,14,16,18,20,22,-1,-1,24,26,-1,-1,-1,-1,-1,-1,-1,-1,-1,-1,-1,-1],"split_conditions":[4.9177885E0,4.4377813E0,1.3397035E3,1.8781448E1,7.368094E1,1.158798E1,5.2109075E0,1.0046005E4,1.9335789E1,3.9606792E3,2.068463E1,7.317282E-5,-7.63183E-5,1.1944914E4,2.4365486E1,1.7428429E-5,-2.8187188E-4,3.923289E-4,1.4118751E-5,-2.6408635E-4,3.9533357E-4,-1.1273635E-4,-5.3710805E-4,3.4384703E-4,-1.459112E-4,8.350298E-5,4.996819E-4],"split_indices":[1,1,2,0,3,0,1,2,0,2,0,0,0,2,0,0,0,0,0,0,0,0,0,0,0,0,0],"split_type":[0,0,0,0,0,0,0,0,0,0,0,0,0,0,0,0,0,0,0,0,0,0,0,0,0,0,0],"sum_hessian":[8.92E2,8.61E2,3.1E1,8.27E2,3.4E1,4E0,2.7E1,8.2E2,7E0,2E1,1.4E1,1E0,3E0,1.1E1,1.6E1,8.18E2,2E0,5E0,2E0,1.5E1,5E0,7E0,7E0,8E0,3E0,1E0,1.5E1],"tree_param":{"num_deleted":"0","num_feature":"4","num_nodes":"27","size_leaf_vector":"0"}},{"base_weights":[2.1385874E-3,1.0070741E-3,3.2551896E-2,1.8922437E-3,-1.9962281E-2,-3.1473949E-3,3.7764203E-2,1.6189216E-3,2.9705388E-2,-8.731109E-3,-3.4355104E-2,7.280696E-3,-7.574592E-3,1.6711134E-2,4.5349874E-2,2.1706047E-3,-4.239287E-3,3.8905952E-2,1.4024675E-3,-2.616105E-2,3.920392E-2,-1.1174986E-2,-5.3240836E-2,4.040549E-2,-2.3008183E-2,5.3089112E-2,1.1514324E-2],"categories":[],"categories_nodes":[],"categories_segments":[],"categories_sizes":[],"default_left":[1,1,1,1,1,1,1,1,1,1,1,0,0,1,1,0,0,0,0,0,0,0,0,0,0,0,0],"id":64,"left_children":[1,3,5,7,9,11,13,15,17,19,21,-1,-1,23,25,-1,-1,-1,-1,-1,-1,-1,-1,-1,-1,-1,-1],"loss_changes":[3.0698087E-2,1.6037729E-2,6.0732774E-3,6.24632E-3,5.357732E-3,2.8598437E-4,3.7137978E-3,2.6625702E-3,2.028658E-3,1.8571215E-2,5.9716366E-3,0E0,0E0,9.39977E-3,4.6259426E-3,0E0,0E0,0E0,0E0,0E0,0E0,0E0,0E0,0E0,0E0,0E0,0E0],"parents":[2147483647,0,0,1,1,2,2,3,3,4,4,5,5,6,6,7,7,8,8,9,9,10,10,13,13,14,14],"right_children":[2,4,6,8,10,12,14,16,18,20,22,-1,-1,24,26,-1,-1,-1,-1,-1,-1,-1,-1,-1,-1,-1,-1],"split_conditions":[4.9177885E0,4.4377813E0,1.3397035E3,1.8781448E1,7.368094E1,1.158798E1,5.1489263E0,3.6147285E3,1.9335789E1,3.9606792E3,2.068463E1,7.280696E-5,-7.574591E-5,5.1179733E0,1.3732301E4,2.1706046E-5,-4.2392872E-5,3.890595E-4,1.4024675E-5,-2.616105E-4,3.920392E-4,-1.1174986E-4,-5.3240836E-4,4.0405488E-4,-2.3008182E-4,5.308911E-4,1.1514324E-4],"split_indices":[1,1,2,0,3,0,1,2,0,2,0,0,0,1,2,0,0,0,0,0,0,0,0,0,0,0,0],"split_type":[0,0,0,0,0,0,0,0,0,0,0,0,0,0,0,0,0,0,0,0,0,0,0,0,0,0,0],"sum_hessian":[8.92E2,8.61E2,3.1E1,8.27E2,3.4E1,4E0,2.7E1,8.2E2,7E0,2E1,1.4E1,1E0,3E0,8E0,1.9E1,7.5E2,7E1,5E0,2E0,1.5E1,5E0,7E0,7E0,5E0,3E0,1.5E1,4E0],"tree_param":{"num_deleted":"0","num_feature":"4","num_nodes":"27","size_leaf_vector":"0"}},{"base_weights":[2.1179698E-3,9.968515E-4,3.2251906E-2,1.4817136E-3,-3.6648553E-2,2.0269953E-2,5.0532665E-2,2.0622213E-3,-1.1007639E-2,-5.2613124E-2,-2.4085198E-2,2.9031994E-2,-1.3574975E-2,1.6361063E-3,5.924403E-2,-2.4280792E-2,8.935233E-4,1.8169591E-2,-4.119839E-2,5.494664E-3,4.495866E-2,1.4002544E-2,-3.66275E-2],"categories":[],"categories_nodes":[],"categories_segments":[],"categories_sizes":[],"default_left":[1,1,1,1,1,1,0,1,1,0,1,1,1,0,0,0,0,0,0,0,0,0,0],"id":65,"left_children":[1,3,5,7,9,11,-1,13,15,-1,17,19,21,-1,-1,-1,-1,-1,-1,-1,-1,-1,-1],"loss_changes":[3.01367E-2,1.5788246E-2,5.984962E-3,6.19984E-3,9.390572E-4,6.62167E-3,0E0,1.9761378E-2,6.0244007E-3,0E0,6.5334733E-3,6.125778E-3,3.6915357E-3,0E0,0E0,0E0,0E0,0E0,0E0,0E0,0E0,0E0,0E0],"parents":[2147483647,0,0,1,1,2,2,3,3,4,4,5,5,7,7,8,8,10,10,11,11,12,12],"right_children":[2,4,6,8,10,12,-1,14,16,-1,18,20,22,-1,-1,-1,-1,-1,-1,-1,-1,-1,-1],"split_conditions":[4.9177885E0,4.6828938E0,2.8523006E1,7.341801E1,1.6389553E1,2.6540777E1,5.0532667E-4,5.0643228E3,6.4709365E3,-5.2613125E-4,2.133512E1,5.33909E3,5.0293794E3,1.6361062E-5,5.9244025E-4,-2.4280792E-4,8.9352325E-6,1.8169591E-4,-4.119839E-4,5.494664E-5,4.4958657E-4,1.4002544E-4,-3.66275E-4],"split_indices":[1,1,0,3,0,0,0,2,2,0,0,2,2,0,0,0,0,0,0,0,0,0,0],"split_type":[0,0,0,0,0,0,0,0,0,0,0,0,0,0,0,0,0,0,0,0,0,0,0],"sum_hessian":[8.92E2,8.61E2,3.1E1,8.51E2,1E1,2E1,1.1E1,8.14E2,3.7E1,3E0,7E0,1.6E1,4E0,8.09E2,5E0,1.7E1,2E1,2E0,5E0,7E0,9E0,2E0,2E0],"tree_param":{"num_deleted":"0","num_feature":"4","num_nodes":"23","size_leaf_vector":"0"}},{"base_weights":[2.09724E-3,9.8644E-4,3.1953875E-2,1.8595672E-3,-1.9697439E-2,-3.177484E-3,3.708612E-2,1.588194E-3,2.9476803E-2,-8.643844E-3,-3.385931E-2,7.2168186E-3,-7.5802645E-3,1.6295271E-2,4.4587698E-2,1.7529681E-3,-1.7823106E-2,3.85681E-2,1.4686038E-3,-2.583655E-2,3.864401E-2,-1.0945335E-2,-5.2540872E-2,3.982567E-2,-2.3074143E-2,5.2233562E-2,1.1203403E-2],"categories":[],"categories_nodes":[],"categories_segments":[],"categories_sizes":[],"default_left":[1,1,1,1,1,1,1,1,1,1,1,0,0,1,1,0,0,0,0,0,0,0,0,0,0,0,0],"id":66,"left_children":[1,3,5,7,9,11,13,15,17,19,21,-1,-1,23,25,-1,-1,-1,-1,-1,-1,-1,-1,-1,-1,-1,-1],"loss_changes":[2.9584602E-2,1.5604055E-2,5.8875307E-3,6.1586956E-3,5.1862104E-3,2.8352457E-4,3.6404245E-3,2.657195E-3,1.9804062E-3,1.8071556E-2,5.8459565E-3,0E0,0E0,9.256345E-3,4.5198426E-3,0E0,0E0,0E0,0E0,0E0,0E0,0E0,0E0,0E0,0E0,0E0,0E0],"parents":[2147483647,0,0,1,1,2,2,3,3,4,4,5,5,6,6,7,7,8,8,9,9,10,10,13,13,14,14],"right_children":[2,4,6,8,10,12,14,16,18,20,22,-1,-1,24,26,-1,-1,-1,-1,-1,-1,-1,-1,-1,-1,-1,-1],"split_conditions":[4.9177885E0,4.4377813E0,1.3397035E3,1.8781448E1,7.368094E1,1.158798E1,5.1489263E0,4.338605E0,1.9335789E1,3.9606792E3,2.068463E1,7.2168186E-5,-7.580264E-5,5.1179733E0,1.3732301E4,1.7529681E-5,-1.7823106E-4,3.8568102E-4,1.4686038E-5,-2.583655E-4,3.8644008E-4,-1.0945335E-4,-5.254087E-4,3.982567E-4,-2.3074143E-4,5.223356E-4,1.12034024E-4],"split_indices":[1,1,2,0,3,0,1,1,0,2,0,0,0,1,2,0,0,0,0,0,0,0,0,0,0,0,0],"split_type":[0,0,0,0,0,0,0,0,0,0,0,0,0,0,0,0,0,0,0,0,0,0,0,0,0,0,0],"sum_hessian":[8.92E2,8.61E2,3.1E1,8.27E2,3.4E1,4E0,2.7E1,8.2E2,7E0,2E1,1.4E1,1E0,3E0,8E0,1.9E1,8.14E2,6E0,5E0,2E0,1.5E1,5E0,7E0,7E0,5E0,3E0,1.5E1,4E0],"tree_param":{"num_deleted":"0","num_feature":"4","num_nodes":"27","size_leaf_vector":"0"}},{"base_weights":[2.0768617E-3,9.76265E-4,3.1659283E-2,1.4538618E-3,-3.6104538E-2,1.9866131E-2,4.965902E-2,2.026034E-3,-1.0855984E-2,-5.2061982E-2,-2.3612749E-2,2.857012E-2,-1.3700654E-2,1.6043718E-3,5.861275E-2,-2.4016537E-2,9.4144186E-4,1.7956132E-2,-4.046173E-2,5.320504E-3,4.4312797E-2,1.3760351E-2,-3.6594775E-2],"categories":[],"categories_nodes":[],"categories_segments":[],"categories_sizes":[],"default_left":[1,1,1,1,1,1,0,1,1,0,1,1,1,0,0,0,0,0,0,0,0,0,0],"id":67,"left_children":[1,3,5,7,9,11,-1,13,15,-1,17,19,21,-1,-1,-1,-1,-1,-1,-1,-1,-1,-1],"loss_changes":[2.9043665E-2,1.5318232E-2,5.8062263E-3,6.02293E-3,9.633815E-4,6.526892E-3,0E0,1.935225E-2,5.922514E-3,0E0,6.329682E-3,5.986425E-3,3.6470343E-3,0E0,0E0,0E0,0E0,0E0,0E0,0E0,0E0,0E0,0E0],"parents":[2147483647,0,0,1,1,2,2,3,3,4,4,5,5,7,7,8,8,10,10,11,11,12,12],"right_children":[2,4,6,8,10,12,-1,14,16,-1,18,20,22,-1,-1,-1,-1,-1,-1,-1,-1,-1,-1],"split_conditions":[4.9177885E0,4.6828938E0,2.8523006E1,7.341801E1,1.6389553E1,2.6540777E1,4.965902E-4,5.0643228E3,6.4709365E3,-5.206198E-4,2.133512E1,5.33909E3,5.0293794E3,1.6043718E-5,5.8612745E-4,-2.4016536E-4,9.414418E-6,1.7956132E-4,-4.0461728E-4,5.3205036E-5,4.4312797E-4,1.376035E-4,-3.6594775E-4],"split_indices":[1,1,0,3,0,0,0,2,2,0,0,2,2,0,0,0,0,0,0,0,0,0,0],"split_type":[0,0,0,0,0,0,0,0,0,0,0,0,0,0,0,0,0,0,0,0,0,0,0],"sum_hessian":[8.92E2,8.61E2,3.1E1,8.51E2,1E1,2E1,1.1E1,8.14E2,3.7E1,3E0,7E0,1.6E1,4E0,8.09E2,5E0,1.7E1,2E1,2E0,5E0,7E0,9E0,2E0,2E0],"tree_param":{"num_deleted":"0","num_feature":"4","num_nodes":"23","size_leaf_vector":"0"}}]},"name":"gbtree"},"learner_model_param":{"base_score":"5E-1","boost_from_average":"1","num_class":"0","num_feature":"4","num_target":"1"},"objective":{"name":"reg:squarederror","reg_loss_param":{"scale_pos_weight":"1"}}},"version":[1,7,6]}