{"learner":{"attributes":{"best_iteration":"352","best_ntree_limit":"353","scikit_learn":"{\"n_estimators\": 25, \"objective\": \"reg:squarederror\", \"max_depth\": 2, \"max_leaves\": null, \"max_bin\": null, \"grow_policy\": null, \"learning_rate\": 0.45000000000000007, \"verbosity\": null, \"booster\": null, \"tree_method\": null, \"gamma\": null, \"min_child_weight\": null, \"max_delta_step\": null, \"subsample\": null, \"sampling_method\": null, \"colsample_bytree\": null, \"colsample_bylevel\": null, \"colsample_bynode\": null, \"reg_alpha\": null, \"reg_lambda\": null, \"scale_pos_weight\": null, \"base_score\": null, \"missing\": NaN, \"num_parallel_tree\": null, \"random_state\": null, \"n_jobs\": null, \"monotone_constraints\": null, \"interaction_constraints\": null, \"importance_type\": null, \"gpu_id\": null, \"validate_parameters\": null, \"predictor\": null, \"enable_categorical\": false, \"feature_types\": null, \"max_cat_to_onehot\": null, \"max_cat_threshold\": null, \"eval_metric\": null, \"early_stopping_rounds\": null, \"callbacks\": null, \"_estimator_type\": \"regressor\"}"},"feature_names":[],"feature_types":[],"gradient_booster":{"model":{"gbtree_model_param":{"num_parallel_tree":"1","num_trees":"353","size_leaf_vector":"0"},"tree_info":[0,0,0,0,0,0,0,0,0,0,0,0,0,0,0,0,0,0,0,0,0,0,0,0,0,0,0,0,0,0,0,0,0,0,0,0,0,0,0,0,0,0,0,0,0,0,0,0,0,0,0,0,0,0,0,0,0,0,0,0,0,0,0,0,0,0,0,0,0,0,0,0,0,0,0,0,0,0,0,0,0,0,0,0,0,0,0,0,0,0,0,0,0,0,0,0,0,0,0,0,0,0,0,0,0,0,0,0,0,0,0,0,0,0,0,0,0,0,0,0,0,0,0,0,0,0,0,0,0,0,0,0,0,0,0,0,0,0,0,0,0,0,0,0,0,0,0,0,0,0,0,0,0,0,0,0,0,0,0,0,0,0,0,0,0,0,0,0,0,0,0,0,0,0,0,0,0,0,0,0,0,0,0,0,0,0,0,0,0,0,0,0,0,0,0,0,0,0,0,0,0,0,0,0,0,0,0,0,0,0,0,0,0,0,0,0,0,0,0,0,0,0,0,0,0,0,0,0,0,0,0,0,0,0,0,0,0,0,0,0,0,0,0,0,0,0,0,0,0,0,0,0,0,0,0,0,0,0,0,0,0,0,0,0,0,0,0,0,0,0,0,0,0,0,0,0,0,0,0,0,0,0,0,0,0,0,0,0,0,0,0,0,0,0,0,0,0,0,0,0,0,0,0,0,0,0,0,0,0,0,0,0,0,0,0,0,0,0,0,0,0,0,0,0,0,0,0,0,0,0,0,0,0,0,0,0,0,0,0,0,0,0,0,0,0,0,0,0,0,0,0,0,0],"trees":[{"base_weights":[-4.1419235E-1,-4.340049E-1,-3.464685E-1,-4.5923135E-1,-4.1670093E-1,-3.7434185E-1,-2.952228E-1],"categories":[],"categories_nodes":[],"categories_segments":[],"categories_sizes":[],"default_left":[1,1,1,0,0,0,0],"id":0,"left_children":[1,3,5,-1,-1,-1,-1],"loss_changes":[1.6757965E0,2.6654053E-1,3.3657074E-1,0E0,0E0,0E0,0E0],"parents":[2147483647,0,0,1,1,2,2],"right_children":[2,4,6,-1,-1,-1,-1],"split_conditions":[3.6215043E0,2.5583396E0,3.011739E3,-2.066541E-1,-1.8751541E-1,-1.6845383E-1,-1.3285024E-1],"split_indices":[1,1,2,0,0,0,0],"split_type":[0,0,0,0,0,0,0],"sum_hessian":[1.36E3,1.048E3,3.12E2,4.16E2,6.32E2,1.98E2,1.14E2],"tree_param":{"num_deleted":"0","num_feature":"4","num_nodes":"7","size_leaf_vector":"0"}},{"base_weights":[-2.283168E-1,-2.502655E-1,-2.0544045E-1,-2.7203557E-1,-2.4427988E-1,-2.1435748E-1,-1.3579284E-1],"categories":[],"categories_nodes":[],"categories_segments":[],"categories_sizes":[],"default_left":[1,1,1,0,0,0,0],"id":1,"left_children":[1,3,5,-1,-1,-1,-1],"loss_changes":[6.31958E-1,2.3456573E-2,3.88237E-1,0E0,0E0,0E0,0E0],"parents":[2147483647,0,0,1,1,2,2],"right_children":[2,4,6,-1,-1,-1,-1],"split_conditions":[3.9229885E1,3.5516074E0,4.3722305E0,-1.22416005E-1,-1.0992594E-1,-9.6460864E-2,-6.1106775E-2],"split_indices":[3,0,1,0,0,0,0],"split_type":[0,0,0,0,0,0,0],"sum_hessian":[1.36E3,6.89E2,6.71E2,1.39E2,5.5E2,5.93E2,7.8E1],"tree_param":{"num_deleted":"0","num_feature":"4","num_nodes":"7","size_leaf_vector":"0"}},{"base_weights":[-1.2586074E-1,-1.3810956E-1,-1.05597444E-1,-1.5263955E-1,-1.3467643E-1,-1.0739161E-1,6.51045E-2],"categories":[],"categories_nodes":[],"categories_segments":[],"categories_sizes":[],"default_left":[1,1,1,0,0,0,0],"id":2,"left_children":[1,3,5,-1,-1,-1,-1],"loss_changes":[3.232193E-1,2.1595001E-2,1.6533232E-1,0E0,0E0,0E0,0E0],"parents":[2147483647,0,0,1,1,2,2],"right_children":[2,4,6,-1,-1,-1,-1],"split_conditions":[3.22831E0,6.52193E2,3.649731E1,-6.86878E-2,-6.060439E-2,-4.8326224E-2,2.9297024E-2],"split_indices":[1,2,0,0,0,0,0],"split_type":[0,0,0,0,0,0,0],"sum_hessian":[1.36E3,8.44E2,5.16E2,1.53E2,6.91E2,5.11E2,5E0],"tree_param":{"num_deleted":"0","num_feature":"4","num_nodes":"7","size_leaf_vector":"0"}},{"base_weights":[-6.933238E-2,-7.555707E-2,-4.706591E-2,-8.250717E-2,-7.126693E-2,-5.209711E-2,-3.3015711E-3],"categories":[],"categories_nodes":[],"categories_segments":[],"categories_sizes":[],"default_left":[1,1,1,0,0,0,0],"id":3,"left_children":[1,3,5,-1,-1,-1,-1],"loss_changes":[1.8508053E-1,2.5785446E-2,6.588411E-2,0E0,0E0,0E0,0E0],"parents":[2147483647,0,0,1,1,2,2],"right_children":[2,4,6,-1,-1,-1,-1],"split_conditions":[2.4306736E3,3.267021E1,4.582507E0,-3.7128225E-2,-3.2070115E-2,-2.3443699E-2,-1.485707E-3],"split_indices":[2,3,1,0,0,0,0],"split_type":[0,0,0,0,0,0,0],"sum_hessian":[1.36E3,1.061E3,2.99E2,3.98E2,6.63E2,2.68E2,3.1E1],"tree_param":{"num_deleted":"0","num_feature":"4","num_nodes":"7","size_leaf_vector":"0"}},{"base_weights":[-3.8201973E-2,-4.0275313E-2,-1.2755248E-2,-4.446539E-2,-3.4585122E-2,-1.9833537E-2,1.9954655E-2],"categories":[],"categories_nodes":[],"categories_segments":[],"categories_sizes":[],"default_left":[1,1,1,0,0,0,0],"id":4,"left_children":[1,3,5,-1,-1,-1,-1],"loss_changes":[7.129216E-2,2.8455734E-2,2.4474908E-2,0E0,0E0,0E0,0E0],"parents":[2147483647,0,0,1,1,2,2],"right_children":[2,4,6,-1,-1,-1,-1],"split_conditions":[6.1689865E1,3.0491366E0,4.62592E0,-2.0009425E-2,-1.5563305E-2,-8.9250915E-3,8.979594E-3],"split_indices":[3,1,1,0,0,0,0],"split_type":[0,0,0,0,0,0,0],"sum_hessian":[1.36E3,1.257E3,1.03E2,7.2E2,5.37E2,8.5E1,1.8E1],"tree_param":{"num_deleted":"0","num_feature":"4","num_nodes":"7","size_leaf_vector":"0"}},{"base_weights":[-2.1037182E-2,-2.420073E-2,-1.40844E-2,-3.5504367E-2,-2.3300333E-2,-2.8469088E-2,-9.4963405E-3],"categories":[],"categories_nodes":[],"categories_segments":[],"categories_sizes":[],"default_left":[1,1,1,0,0,0,0],"id":5,"left_children":[1,3,5,-1,-1,-1,-1],"loss_changes":[2.9594958E-2,8.678794E-3,2.7976714E-2,0E0,0E0,0E0,0E0],"parents":[2147483647,0,0,1,1,2,2],"right_children":[2,4,6,-1,-1,-1,-1],"split_conditions":[4.5609642E1,4.5828363E2,3.0189004E0,-1.5976965E-2,-1.048515E-2,-1.2811089E-2,-4.273353E-3],"split_indices":[3,2,1,0,0,0,0],"split_type":[0,0,0,0,0,0,0],"sum_hessian":[1.36E3,9.33E2,4.27E2,6.6E1,8.67E2,1.02E2,3.25E2],"tree_param":{"num_deleted":"0","num_feature":"4","num_nodes":"7","size_leaf_vector":"0"}},{"base_weights":[-1.16024455E-2,-1.1943429E-2,3.133123E-2,-1.1683215E-2,-4.2579986E-2,-1.4143519E-2,4.3008234E-2],"categories":[],"categories_nodes":[],"categories_segments":[],"categories_sizes":[],"default_left":[1,1,1,0,0,0,0],"id":6,"left_children":[1,3,5,-1,-1,-1,-1],"loss_changes":[2.0298779E-2,1.0272741E-2,6.4493865E-3,0E0,0E0,0E0,0E0],"parents":[2147483647,0,0,1,1,2,2],"right_children":[2,4,6,-1,-1,-1,-1],"split_conditions":[2.9536203E1,5.0255976E0,2.0558923E3,-5.257447E-3,-1.9160993E-2,-6.3645835E-3,1.9353705E-2],"split_indices":[0,1,2,0,0,0,0],"split_type":[0,0,0,0,0,0,0],"sum_hessian":[1.36E3,1.35E3,1E1,1.34E3,1E1,2E0,8E0],"tree_param":{"num_deleted":"0","num_feature":"4","num_nodes":"7","size_leaf_vector":"0"}},{"base_weights":[-6.3897423E-3,-7.703023E-3,2.1061501E-3,-1.28719285E-2,-6.807369E-3,-2.3463856E-2,6.113345E-3],"categories":[],"categories_nodes":[],"categories_segments":[],"categories_sizes":[],"default_left":[1,1,1,0,0,0,0],"id":7,"left_children":[1,3,5,-1,-1,-1,-1],"loss_changes":[1.5201576E-2,5.370617E-3,1.8894354E-2,0E0,0E0,0E0,0E0],"parents":[2147483647,0,0,1,1,2,2],"right_children":[2,4,6,-1,-1,-1,-1],"split_conditions":[3.9705129E0,3.7903252E0,1.3272456E3,-5.7923677E-3,-3.063316E-3,-1.0558735E-2,2.751005E-3],"split_indices":[1,0,2,0,0,0,0],"split_type":[0,0,0,0,0,0,0],"sum_hessian":[1.36E3,1.178E3,1.82E2,1.72E2,1.006E3,2.4E1,1.58E2],"tree_param":{"num_deleted":"0","num_feature":"4","num_nodes":"7","size_leaf_vector":"0"}},{"base_weights":[-3.5266024E-3,-3.7682795E-3,2.6476331E-2,-3.644327E-3,-5.8249522E-2,3.1984188E-2,1.1273226E-3],"categories":[],"categories_nodes":[],"categories_segments":[],"categories_sizes":[],"default_left":[1,1,1,0,0,0,0],"id":8,"left_children":[1,3,5,-1,-1,-1,-1],"loss_changes":[9.968409E-3,8.911146E-3,1.4997493E-3,0E0,0E0,0E0,0E0],"parents":[2147483647,0,0,1,1,2,2],"right_children":[2,4,6,-1,-1,-1,-1],"split_conditions":[7.7283755E3,7.58583E3,1.2590031E4,-1.6399471E-3,-2.6212284E-2,1.4392884E-2,5.0729513E-4],"split_indices":[2,2,2,0,0,0,0],"split_type":[0,0,0,0,0,0,0],"sum_hessian":[1.36E3,1.35E3,1E1,1.348E3,2E0,8E0,2E0],"tree_param":{"num_deleted":"0","num_feature":"4","num_nodes":"7","size_leaf_vector":"0"}},{"base_weights":[-1.9491479E-3,-2.4136992E-3,6.280384E-3,-1.9155447E-3,-1.1764862E-2,-6.086893E-3,1.2462049E-2],"categories":[],"categories_nodes":[],"categories_segments":[],"categories_sizes":[],"default_left":[1,1,1,0,0,0,0],"id":9,"left_children":[1,3,5,-1,-1,-1,-1],"loss_changes":[5.2183177E-3,5.9820423E-3,5.656731E-3,0E0,0E0,0E0,0E0],"parents":[2147483647,0,0,1,1,2,2],"right_children":[2,4,6,-1,-1,-1,-1],"split_conditions":[4.2820576E3,3.388234E3,1.44396E1,-8.619951E-4,-5.2941875E-3,-2.7391016E-3,5.6079216E-3],"split_indices":[2,2,0,0,0,0,0],"split_type":[0,0,0,0,0,0,0],"sum_hessian":[1.36E3,1.288E3,7.2E1,1.224E3,6.4E1,2.4E1,4.8E1],"tree_param":{"num_deleted":"0","num_feature":"4","num_nodes":"7","size_leaf_vector":"0"}},{"base_weights":[-1.0744464E-3,-2.0979054E-3,1.1539024E-3,5.6349847E-5,-3.6936062E-3,-2.3138274E-2,1.9084453E-3],"categories":[],"categories_nodes":[],"categories_segments":[],"categories_sizes":[],"default_left":[1,1,1,0,0,0,0],"id":10,"left_children":[1,3,5,-1,-1,-1,-1],"loss_changes":[3.1063494E-3,3.207439E-3,7.90751E-3,0E0,0E0,0E0,0E0],"parents":[2147483647,0,0,1,1,2,2],"right_children":[2,4,6,-1,-1,-1,-1],"split_conditions":[4.558011E1,6.419156E0,2.1875443E0,2.535743E-5,-1.6621228E-3,-1.0412223E-2,8.5880037E-4],"split_indices":[3,0,1,0,0,0,0],"split_type":[0,0,0,0,0,0,0],"sum_hessian":[1.36E3,9.32E2,4.28E2,3.97E2,5.35E2,1.2E1,4.16E2],"tree_param":{"num_deleted":"0","num_feature":"4","num_nodes":"7","size_leaf_vector":"0"}},{"base_weights":[-5.9916795E-4,-8.583852E-3,-2.9441688E-4,-7.4700657E-3,-1.9524878E-2,-4.3019134E-4,1.4450333E-2],"categories":[],"categories_nodes":[],"categories_segments":[],"categories_sizes":[],"default_left":[1,1,1,0,0,0,0],"id":11,"left_children":[1,3,5,-1,-1,-1,-1],"loss_changes":[3.3092499E-3,4.6344614E-4,2.6327886E-3,0E0,0E0,0E0,0E0],"parents":[2147483647,0,0,1,1,2,2],"right_children":[2,4,6,-1,-1,-1,-1],"split_conditions":[3.5994296E2,5.179446E0,2.8529007E1,-3.3615294E-3,-8.786195E-3,-1.935861E-4,6.5026497E-3],"split_indices":[2,0,0,0,0,0,0],"split_type":[0,0,0,0,0,0,0],"sum_hessian":[1.36E3,4.9E1,1.311E3,4.6E1,3E0,1.3E3,1.1E1],"tree_param":{"num_deleted":"0","num_feature":"4","num_nodes":"7","size_leaf_vector":"0"}},{"base_weights":[-3.3383208E-4,-2.7399464E-3,3.0885503E-4,-1.1588772E-3,-1.276421E-2,5.8414936E-3,-5.669326E-4],"categories":[],"categories_nodes":[],"categories_segments":[],"categories_sizes":[],"default_left":[1,1,1,0,0,0,0],"id":12,"left_children":[1,3,5,-1,-1,-1,-1],"loss_changes":[2.1054675E-3,4.533887E-3,5.212134E-3,0E0,0E0,0E0,0E0],"parents":[2147483647,0,0,1,1,2,2],"right_children":[2,4,6,-1,-1,-1,-1],"split_conditions":[5.2737355E0,1.633698E3,2.5876532E0,-5.214947E-4,-5.7438943E-3,2.6286722E-3,-2.5511967E-4],"split_indices":[0,2,1,0,0,0,0],"split_type":[0,0,0,0,0,0,0],"sum_hessian":[1.36E3,2.86E2,1.074E3,2.48E2,3.8E1,1.46E2,9.28E2],"tree_param":{"num_deleted":"0","num_feature":"4","num_nodes":"7","size_leaf_vector":"0"}},{"base_weights":[-1.8646539E-4,-2.4489441E-3,4.915926E-4,-5.1227584E-4,-1.6091803E-2,1.63604E-2,2.453269E-4],"categories":[],"categories_nodes":[],"categories_segments":[],"categories_sizes":[],"default_left":[1,1,1,0,0,0,0],"id":13,"left_children":[1,3,5,-1,-1,-1,-1],"loss_changes":[2.0891032E-3,8.288167E-3,4.0915115E-3,0E0,0E0,0E0,0E0],"parents":[2147483647,0,0,1,1,2,2],"right_children":[2,4,6,-1,-1,-1,-1],"split_conditions":[3.0647854E1,9.471445E0,3.1085318E1,-2.3052412E-4,-7.241311E-3,7.36218E-3,1.103971E-4],"split_indices":[3,0,3,0,0,0,0],"split_type":[0,0,0,0,0,0,0],"sum_hessian":[1.36E3,3.13E2,1.047E3,2.75E2,3.8E1,1.5E1,1.032E3],"tree_param":{"num_deleted":"0","num_feature":"4","num_nodes":"7","size_leaf_vector":"0"}},{"base_weights":[-1.0255489E-4,-1.4526388E-4,2.8990835E-2,2.101458E-5,-1.1286972E-2],"categories":[],"categories_nodes":[],"categories_segments":[],"categories_sizes":[],"default_left":[1,1,0,0,0],"id":14,"left_children":[1,3,-1,-1,-1],"loss_changes":[1.6953208E-3,2.5198085E-3,0E0,0E0,0E0],"parents":[2147483647,0,0,1,1],"right_children":[2,4,-1,-1,-1],"split_conditions":[3.9273643E1,5.0255976E0,1.3045875E-2,9.456561E-6,-5.079137E-3],"split_indices":[0,1,0,0,0],"split_type":[0,0,0,0,0],"sum_hessian":[1.36E3,1.359E3,1E0,1.34E3,1.9E1],"tree_param":{"num_deleted":"0","num_feature":"4","num_nodes":"5","size_leaf_vector":"0"}},{"base_weights":[-5.0543866E-5,-2.6852882E-4,7.3454725E-3,1.058535E-4,-1.4906682E-2,4.344781E-2,7.584286E-4],"categories":[],"categories_nodes":[],"categories_segments":[],"categories_sizes":[],"default_left":[1,1,1,0,0,0,0],"id":15,"left_children":[1,3,5,-1,-1,-1,-1],"loss_changes":[2.1962046E-3,7.2519695E-3,9.241547E-3,0E0,0E0,0E0,0E0],"parents":[2147483647,0,0,1,1,2,2],"right_children":[2,4,6,-1,-1,-1,-1],"split_conditions":[2.1527727E1,4.44901E0,2.2786125E1,4.7634072E-5,-6.708007E-3,1.9551514E-2,3.4129285E-4],"split_indices":[0,1,0,0,0,0,0],"split_type":[0,0,0,0,0,0,0],"sum_hessian":[1.36E3,1.322E3,3.8E1,1.29E3,3.2E1,5E0,3.3E1],"tree_param":{"num_deleted":"0","num_feature":"4","num_nodes":"7","size_leaf_vector":"0"}},{"base_weights":[-1.8076047E-5,-5.5090373E-4,3.847456E-3,2.1606658E-4,-6.5359888E-3,4.137361E-2,1.4172703E-3],"categories":[],"categories_nodes":[],"categories_segments":[],"categories_sizes":[],"default_left":[1,1,1,0,0,0,0],"id":16,"left_children":[1,3,5,-1,-1,-1,-1],"loss_changes":[2.80532E-3,5.4961E-3,1.4988625E-2,0E0,0E0,0E0,0E0],"parents":[2147483647,0,0,1,1,2,2],"right_children":[2,4,6,-1,-1,-1,-1],"split_conditions":[4.042551E0,3.6627195E0,1.6245611E1,9.722995E-5,-2.941195E-3,1.8618124E-2,6.377716E-4],"split_indices":[1,1,0,0,0,0,0],"split_type":[0,0,0,0,0,0,0],"sum_hessian":[1.36E3,1.196E3,1.64E2,1.061E3,1.35E2,9E0,1.55E2],"tree_param":{"num_deleted":"0","num_feature":"4","num_nodes":"7","size_leaf_vector":"0"}},{"base_weights":[2.116909E-6,-1.3323877E-3,1.1540598E-3,-5.524442E-5,-4.06431E-3,-4.973552E-3,2.3897614E-3],"categories":[],"categories_nodes":[],"categories_segments":[],"categories_sizes":[],"default_left":[1,1,1,0,0,0,0],"id":17,"left_children":[1,3,5,-1,-1,-1,-1],"loss_changes":[2.0937664E-3,2.20137E-3,5.546944E-3,0E0,0E0,0E0,0E0],"parents":[2147483647,0,0,1,1,2,2],"right_children":[2,4,6,-1,-1,-1,-1],"split_conditions":[8.068216E0,2.5876532E0,1.0957471E3,-2.485999E-5,-1.8289394E-3,-2.2380985E-3,1.0753926E-3],"split_indices":[0,1,2,0,0,0,0],"split_type":[0,0,0,0,0,0,0],"sum_hessian":[1.36E3,6.3E2,7.3E2,4.3E2,2E2,1.22E2,6.08E2],"tree_param":{"num_deleted":"0","num_feature":"4","num_nodes":"7","size_leaf_vector":"0"}},{"base_weights":[-1.0521E-6,-1.1463628E-4,9.554282E-3,8.470866E-5,-4.4649124E-2,3.0436076E-2,2.39417E-3],"categories":[],"categories_nodes":[],"categories_segments":[],"categories_sizes":[],"default_left":[1,1,1,0,0,0,0],"id":18,"left_children":[1,3,5,-1,-1,-1,-1],"loss_changes":[1.4782358E-3,1.1953199E-2,2.3193867E-3,0E0,0E0,0E0,0E0],"parents":[2147483647,0,0,1,1,2,2],"right_children":[2,4,6,-1,-1,-1,-1],"split_conditions":[2.6332905E1,5.0255976E0,2.784159E1,3.81189E-5,-2.0092105E-2,1.3696234E-2,1.0773765E-3],"split_indices":[0,1,0,0,0,0,0],"split_type":[0,0,0,0,0,0,0],"sum_hessian":[1.36E3,1.345E3,1.5E1,1.34E3,5E0,3E0,1.2E1],"tree_param":{"num_deleted":"0","num_feature":"4","num_nodes":"7","size_leaf_vector":"0"}},{"base_weights":[-4.4569742E-6,-3.8203956E-3,2.7843157E-4,-2.4491658E-3,-1.29863685E-2,8.1741186E-5,4.533914E-3],"categories":[],"categories_nodes":[],"categories_segments":[],"categories_sizes":[],"default_left":[1,1,1,0,0,0,0],"id":19,"left_children":[1,3,5,-1,-1,-1,-1],"loss_changes":[1.4702433E-3,1.1496479E-3,1.0609612E-3,0E0,0E0,0E0,0E0],"parents":[2147483647,0,0,1,1,2,2],"right_children":[2,4,6,-1,-1,-1,-1],"split_conditions":[1.6089456E0,8.134212E2,4.5543327E0,-1.1021246E-3,-5.8438657E-3,3.678353E-5,2.0402612E-3],"split_indices":[1,2,1,0,0,0,0],"split_type":[0,0,0,0,0,0,0],"sum_hessian":[1.36E3,9.3E1,1.267E3,8.2E1,1.1E1,1.212E3,5.5E1],"tree_param":{"num_deleted":"0","num_feature":"4","num_nodes":"7","size_leaf_vector":"0"}},{"base_weights":[-6.0297643E-6,2.9399985E-4,-2.6887322E-3,9.476591E-5,2.4491446E-2,-1.6040914E-2,2.8908424E-4],"categories":[],"categories_nodes":[],"categories_segments":[],"categories_sizes":[],"default_left":[1,1,1,0,0,0,0],"id":20,"left_children":[1,3,5,-1,-1,-1,-1],"loss_changes":[1.0962461E-3,5.9033455E-3,5.451805E-3,0E0,0E0,0E0,0E0],"parents":[2147483647,0,0,1,1,2,2],"right_children":[2,4,6,-1,-1,-1,-1],"split_conditions":[3.388234E3,2.4700537E1,3.606754E3,4.2644657E-5,1.102115E-2,-7.218411E-3,1.3008791E-4],"split_indices":[2,0,2,0,0,0,0],"split_type":[0,0,0,0,0,0,0],"sum_hessian":[1.36E3,1.224E3,1.36E2,1.215E3,9E0,2.4E1,1.12E2],"tree_param":{"num_deleted":"0","num_feature":"4","num_nodes":"7","size_leaf_vector":"0"}},{"base_weights":[-3.9642146E-7,2.509719E-4,-4.571046E-3,4.0710423E-5,4.527519E-2,-2.541996E-2,1.4674121E-3],"categories":[],"categories_nodes":[],"categories_segments":[],"categories_sizes":[],"default_left":[1,1,1,0,0,0,0],"id":21,"left_children":[1,3,5,-1,-1,-1,-1],"loss_changes":[1.5648227E-3,1.2219873E-2,8.975868E-3,0E0,0E0,0E0,0E0],"parents":[2147483647,0,0,1,1,2,2],"right_children":[2,4,6,-1,-1,-1,-1],"split_conditions":[4.44901E0,4.435626E0,4.5543327E0,1.831969E-5,2.0373834E-2,-1.1438982E-2,6.603354E-4],"split_indices":[1,1,1,0,0,0,0],"split_type":[0,0,0,0,0,0,0],"sum_hessian":[1.36E3,1.29E3,7E1,1.285E3,5E0,1.5E1,5.5E1],"tree_param":{"num_deleted":"0","num_feature":"4","num_nodes":"7","size_leaf_vector":"0"}},{"base_weights":[6.8453423E-6,1.8165942E-4,-7.259079E-3,-2.5112804E-6,1.2889571E-2,-3.9823916E-2,-3.7606258E-3],"categories":[],"categories_nodes":[],"categories_segments":[],"categories_sizes":[],"default_left":[1,1,1,0,0,0,0],"id":22,"left_children":[1,3,5,-1,-1,-1,-1],"loss_changes":[1.7300416E-3,3.1127974E-3,3.4958862E-3,0E0,0E0,0E0,0E0],"parents":[2147483647,0,0,1,1,2,2],"right_children":[2,4,6,-1,-1,-1,-1],"split_conditions":[4.871505E0,2.0673656E1,2.3615871E1,-1.1300762E-6,5.800307E-3,-1.7920762E-2,-1.6922816E-3],"split_indices":[1,0,0,0,0,0,0],"split_type":[0,0,0,0,0,0,0],"sum_hessian":[1.36E3,1.329E3,3.1E1,1.311E3,1.8E1,2E0,2.9E1],"tree_param":{"num_deleted":"0","num_feature":"4","num_nodes":"7","size_leaf_vector":"0"}},{"base_weights":[-6.3836046E-6,9.54324E-5,-6.5077585E-3,1.5529414E-6,4.1965153E-2,-2.6740057E-2,1.4860881E-3],"categories":[],"categories_nodes":[],"categories_segments":[],"categories_sizes":[],"default_left":[1,1,1,0,0,0,0],"id":23,"left_children":[1,3,5,-1,-1,-1,-1],"loss_changes":[9.0152683E-4,5.271012E-3,3.4361496E-3,0E0,0E0,0E0,0E0],"parents":[2147483647,0,0,1,1,2,2],"right_children":[2,4,6,-1,-1,-1,-1],"split_conditions":[5.0255976E0,2.4891659E1,2.6332905E1,6.988236E-7,1.8884318E-2,-1.2033026E-2,6.6873967E-4],"split_indices":[1,0,0,0,0,0,0],"split_type":[0,0,0,0,0,0,0],"sum_hessian":[1.36E3,1.34E3,2E1,1.338E3,2E0,5E0,1.5E1],"tree_param":{"num_deleted":"0","num_feature":"4","num_nodes":"7","size_leaf_vector":"0"}},{"base_weights":[2.0137702E-6,-2.7394184E-5,1.9998416E-2,2.888124E-5,-1.9111983E-2],"categories":[],"categories_nodes":[],"categories_segments":[],"categories_sizes":[],"default_left":[1,1,0,0,0],"id":24,"left_children":[1,3,-1,-1,-1],"loss_changes":[8.008884E-4,1.461183E-3,0E0,0E0,0E0],"parents":[2147483647,0,0,1,1],"right_children":[2,4,-1,-1,-1],"split_conditions":[3.9273643E1,3.70939E1,8.999287E-3,1.2996558E-5,-8.600392E-3],"split_indices":[0,0,0,0,0],"split_type":[0,0,0,0,0],"sum_hessian":[1.36E3,1.359E3,1E0,1.356E3,3E0],"tree_param":{"num_deleted":"0","num_feature":"4","num_nodes":"5","size_leaf_vector":"0"}},{"base_weights":[8.837848E-3,5.857663E-3,9.151724E-2,4.7142943E-3,2.0301804E-2,5.5483386E-2,1.3714232E-1,5.035013E-3,-4.735106E-2,2.3903621E-2,-1.1927538E-2,7.307707E-2,1.4883205E-2,6.207126E-3,-2.3417973E-3,-6.29594E-2,7.5411648E-3,2.103954E-2,6.8443894E-2,-1.5334056E-2,4.2557865E-3,-3.8715187E-2,4.4065602E-2],"categories":[],"categories_nodes":[],"categories_segments":[],"categories_sizes":[],"default_left":[1,1,1,1,1,1,0,1,1,1,1,0,1,0,0,0,0,0,0,0,0,0,0],"id":25,"left_children":[1,3,5,7,9,11,-1,13,15,17,19,-1,21,-1,-1,-1,-1,-1,-1,-1,-1,-1,-1],"loss_changes":[2.1949896E-1,1.41567215E-2,4.335636E-2,1.3613762E-2,7.598415E-3,1.2484208E-2,0E0,6.9057606E-3,4.758671E-3,5.8312863E-3,4.5116E-4,0E0,1.2654915E-2,0E0,0E0,0E0,0E0,0E0,0E0,0E0,0E0,0E0,0E0],"parents":[2147483647,0,0,1,1,2,2,3,3,4,4,5,5,7,7,8,8,9,9,10,10,12,12],"right_children":[2,4,6,8,10,12,-1,14,16,18,20,-1,22,-1,-1,-1,-1,-1,-1,-1,-1,-1,-1],"split_conditions":[4.9825277E0,1.6257729E1,9.185846E3,4.5850873E0,2.182795E1,2.6923998E1,1.3714231E-3,3.6321132E0,1.5105872E1,2.1500282E1,2.4011982E1,7.3077064E-4,2.8634205E1,6.207126E-5,-2.3417973E-5,-6.29594E-4,7.541165E-5,2.1039539E-4,6.844389E-4,-1.5334056E-4,4.2557866E-5,-3.8715187E-4,4.40656E-4],"split_indices":[1,0,2,1,0,0,0,1,0,0,0,0,0,0,0,0,0,0,0,0,0,0,0],"split_type":[0,0,0,0,0,0,0,0,0,0,0,0,0,0,0,0,0,0,0,0,0,0,0],"sum_hessian":[8.92E2,8.62E2,3E1,8E2,6.2E1,1.8E1,1.2E1,7.96E2,4E0,5.6E1,6E0,1.2E1,6E0,6.87E2,1.09E2,3E0,1E0,5.4E1,2E0,5E0,1E0,2E0,4E0],"tree_param":{"num_deleted":"0","num_feature":"4","num_nodes":"23","size_leaf_vector":"0"}},{"base_weights":[8.752185E-3,5.7993988E-3,9.0671614E-2,4.6665086E-3,2.0111233E-2,5.496983E-2,1.358764E-1,4.9847118E-3,-4.6988387E-2,2.3680286E-2,-1.1824093E-2,7.2402515E-2,1.4742018E-2,6.1451457E-3,-2.3185897E-3,-6.2487215E-2,7.503465E-3,2.0832974E-2,6.79876E-2,-1.5206277E-2,4.2345077E-3,-3.8457084E-2,4.3713074E-2],"categories":[],"categories_nodes":[],"categories_segments":[],"categories_sizes":[],"default_left":[1,1,1,1,1,1,0,1,1,1,1,0,1,0,0,0,0,0,0,0,0,0,0],"id":26,"left_children":[1,3,5,7,9,11,-1,13,15,17,19,-1,21,-1,-1,-1,-1,-1,-1,-1,-1,-1,-1],"loss_changes":[2.1548238E-1,1.3898604E-2,4.256153E-2,1.3400063E-2,7.460667E-3,1.2256939E-2,0E0,6.7688227E-3,4.6916697E-3,5.774554E-3,4.4458313E-4,0E0,1.2469716E-2,0E0,0E0,0E0,0E0,0E0,0E0,0E0,0E0,0E0,0E0],"parents":[2147483647,0,0,1,1,2,2,3,3,4,4,5,5,7,7,8,8,9,9,10,10,12,12],"right_children":[2,4,6,8,10,12,-1,14,16,18,20,-1,22,-1,-1,-1,-1,-1,-1,-1,-1,-1,-1],"split_conditions":[4.9825277E0,1.6257729E1,9.185846E3,4.5850873E0,2.182795E1,2.6923998E1,1.358764E-3,3.6321132E0,1.5105872E1,2.1500282E1,2.4011982E1,7.240251E-4,2.8634205E1,6.145146E-5,-2.3185896E-5,-6.2487216E-4,7.5034644E-5,2.0832974E-4,6.7987596E-4,-1.5206277E-4,4.2345077E-5,-3.8457083E-4,4.3713074E-4],"split_indices":[1,0,2,1,0,0,0,1,0,0,0,0,0,0,0,0,0,0,0,0,0,0,0],"split_type":[0,0,0,0,0,0,0,0,0,0,0,0,0,0,0,0,0,0,0,0,0,0,0],"sum_hessian":[8.92E2,8.62E2,3E1,8E2,6.2E1,1.8E1,1.2E1,7.96E2,4E0,5.6E1,6E0,1.2E1,6E0,6.87E2,1.09E2,3E0,1E0,5.4E1,2E0,5E0,1E0,2E0,4E0],"tree_param":{"num_deleted":"0","num_feature":"4","num_nodes":"23","size_leaf_vector":"0"}},{"base_weights":[8.667352E-3,5.741713E-3,8.9833766E-2,4.6192044E-3,1.9922474E-2,5.4461E-2,1.3462214E-1,4.934912E-3,-4.6628475E-2,2.3459064E-2,-1.1721532E-2,7.1734175E-2,1.46021005E-2,6.0837828E-3,-2.2956145E-3,-6.2018566E-2,7.4659437E-3,2.062843E-2,6.753435E-2,-1.5079565E-2,4.213333E-3,-3.8200703E-2,4.3363363E-2],"categories":[],"categories_nodes":[],"categories_segments":[],"categories_sizes":[],"default_left":[1,1,1,1,1,1,0,1,1,1,1,0,1,0,0,0,0,0,0,0,0,0,0],"id":27,"left_children":[1,3,5,7,9,11,-1,13,15,17,19,-1,21,-1,-1,-1,-1,-1,-1,-1,-1,-1,-1],"loss_changes":[2.1153922E-1,1.3645234E-2,4.1781276E-2,1.3189726E-2,7.325424E-3,1.2033835E-2,0E0,6.6345967E-3,4.6256166E-3,5.7182536E-3,4.3810386E-4,0E0,1.2287238E-2,0E0,0E0,0E0,0E0,0E0,0E0,0E0,0E0,0E0,0E0],"parents":[2147483647,0,0,1,1,2,2,3,3,4,4,5,5,7,7,8,8,9,9,10,10,12,12],"right_children":[2,4,6,8,10,12,-1,14,16,18,20,-1,22,-1,-1,-1,-1,-1,-1,-1,-1,-1,-1],"split_conditions":[4.9825277E0,1.6257729E1,9.185846E3,4.5850873E0,2.182795E1,2.6923998E1,1.3462214E-3,3.6321132E0,1.5105872E1,2.1500282E1,2.4011982E1,7.173417E-4,2.8634205E1,6.0837825E-5,-2.2956145E-5,-6.2018563E-4,7.465944E-5,2.062843E-4,6.753435E-4,-1.5079565E-4,4.213333E-5,-3.82007E-4,4.3363363E-4],"split_indices":[1,0,2,1,0,0,0,1,0,0,0,0,0,0,0,0,0,0,0,0,0,0,0],"split_type":[0,0,0,0,0,0,0,0,0,0,0,0,0,0,0,0,0,0,0,0,0,0,0],"sum_hessian":[8.92E2,8.62E2,3E1,8E2,6.2E1,1.8E1,1.2E1,7.96E2,4E0,5.6E1,6E0,1.2E1,6E0,6.87E2,1.09E2,3E0,1E0,5.4E1,2E0,5E0,1E0,2E0,4E0],"tree_param":{"num_deleted":"0","num_feature":"4","num_nodes":"23","size_leaf_vector":"0"}},{"base_weights":[8.583343E-3,5.684602E-3,8.900366E-2,4.572377E-3,1.9735513E-2,5.3956863E-2,1.3337947E-1,4.8856093E-3,-4.6271294E-2,2.3239935E-2,-1.1619839E-2,7.107201E-2,1.446346E-2,6.023031E-3,-2.2728646E-3,-6.1553426E-2,7.4286163E-3,2.042589E-2,6.708411E-2,-1.49539E-2,4.192263E-3,-3.7946034E-2,4.3016464E-2],"categories":[],"categories_nodes":[],"categories_segments":[],"categories_sizes":[],"default_left":[1,1,1,1,1,1,0,1,1,1,1,0,1,0,0,0,0,0,0,0,0,0,0],"id":28,"left_children":[1,3,5,7,9,11,-1,13,15,17,19,-1,21,-1,-1,-1,-1,-1,-1,-1,-1,-1,-1],"loss_changes":[2.0766813E-1,1.33965295E-2,4.10154E-2,1.2982685E-2,7.1926303E-3,1.1814829E-2,0E0,6.503027E-3,4.5605013E-3,5.662378E-3,4.3172028E-4,0E0,1.2107443E-2,0E0,0E0,0E0,0E0,0E0,0E0,0E0,0E0,0E0,0E0],"parents":[2147483647,0,0,1,1,2,2,3,3,4,4,5,5,7,7,8,8,9,9,10,10,12,12],"right_children":[2,4,6,8,10,12,-1,14,16,18,20,-1,22,-1,-1,-1,-1,-1,-1,-1,-1,-1,-1],"split_conditions":[4.9825277E0,1.6257729E1,9.185846E3,4.5850873E0,2.182795E1,2.6923998E1,1.3337947E-3,3.6321132E0,1.5105872E1,2.1500282E1,2.4011982E1,7.107201E-4,2.8634205E1,6.023031E-5,-2.2728645E-5,-6.1553426E-4,7.428616E-5,2.0425889E-4,6.708411E-4,-1.49539E-4,4.1922627E-5,-3.7946034E-4,4.3016463E-4],"split_indices":[1,0,2,1,0,0,0,1,0,0,0,0,0,0,0,0,0,0,0,0,0,0,0],"split_type":[0,0,0,0,0,0,0,0,0,0,0,0,0,0,0,0,0,0,0,0,0,0,0],"sum_hessian":[8.92E2,8.62E2,3E1,8E2,6.2E1,1.8E1,1.2E1,7.96E2,4E0,5.6E1,6E0,1.2E1,6E0,6.87E2,1.09E2,3E0,1E0,5.4E1,2E0,5E0,1E0,2E0,4E0],"tree_param":{"num_deleted":"0","num_feature":"4","num_nodes":"23","size_leaf_vector":"0"}},{"base_weights":[8.50015E-3,5.628061E-3,8.818121E-2,4.526024E-3,1.9550337E-2,5.345737E-2,1.3214828E-1,4.8368E-3,-4.5916833E-2,2.3022883E-2,-1.151901E-2,7.041596E-2,1.4326069E-2,5.9628882E-3,-2.2503429E-3,-6.1091773E-2,7.3914677E-3,2.0225339E-2,6.663688E-2,-1.4829278E-2,4.171297E-3,-3.7693057E-2,4.267233E-2],"categories":[],"categories_nodes":[],"categories_segments":[],"categories_sizes":[],"default_left":[1,1,1,1,1,1,0,1,1,1,1,0,1,0,0,0,0,0,0,0,0,0,0],"id":29,"left_children":[1,3,5,7,9,11,-1,13,15,17,19,-1,21,-1,-1,-1,-1,-1,-1,-1,-1,-1,-1],"loss_changes":[2.0386776E-1,1.3152404E-2,4.0263563E-2,1.2778899E-2,7.0622545E-3,1.1599842E-2,0E0,6.374078E-3,4.496309E-3,5.6069344E-3,4.2543106E-4,0E0,1.1930284E-2,0E0,0E0,0E0,0E0,0E0,0E0,0E0,0E0,0E0,0E0],"parents":[2147483647,0,0,1,1,2,2,3,3,4,4,5,5,7,7,8,8,9,9,10,10,12,12],"right_children":[2,4,6,8,10,12,-1,14,16,18,20,-1,22,-1,-1,-1,-1,-1,-1,-1,-1,-1,-1],"split_conditions":[4.9825277E0,1.6257729E1,9.185846E3,4.5850873E0,2.182795E1,2.6923998E1,1.3214828E-3,3.6321132E0,1.5105872E1,2.1500282E1,2.4011982E1,7.0415955E-4,2.8634205E1,5.962888E-5,-2.2503427E-5,-6.109177E-4,7.391468E-5,2.0225339E-4,6.663688E-4,-1.4829278E-4,4.171297E-5,-3.7693058E-4,4.2672327E-4],"split_indices":[1,0,2,1,0,0,0,1,0,0,0,0,0,0,0,0,0,0,0,0,0,0,0],"split_type":[0,0,0,0,0,0,0,0,0,0,0,0,0,0,0,0,0,0,0,0,0,0,0],"sum_hessian":[8.92E2,8.62E2,3E1,8E2,6.2E1,1.8E1,1.2E1,7.96E2,4E0,5.6E1,6E0,1.2E1,6E0,6.87E2,1.09E2,3E0,1E0,5.4E1,2E0,5E0,1E0,2E0,4E0],"tree_param":{"num_deleted":"0","num_feature":"4","num_nodes":"23","size_leaf_vector":"0"}},{"base_weights":[8.417767E-3,5.5720843E-3,8.736635E-2,4.48014E-3,1.936693E-2,5.2962482E-2,1.3092844E-1,4.7884784E-3,-4.556506E-2,2.2807892E-2,-1.1419045E-2,6.976597E-2,1.4189931E-2,5.9033465E-3,-2.2280465E-3,-6.0633585E-2,7.354513E-3,2.0026764E-2,6.619263E-2,-1.4705698E-2,4.1504353E-3,-3.7441764E-2,4.233096E-2],"categories":[],"categories_nodes":[],"categories_segments":[],"categories_sizes":[],"default_left":[1,1,1,1,1,1,0,1,1,1,1,0,1,0,0,0,0,0,0,0,0,0,0],"id":30,"left_children":[1,3,5,7,9,11,-1,13,15,17,19,-1,21,-1,-1,-1,-1,-1,-1,-1,-1,-1,-1],"loss_changes":[2.0013689E-1,1.2912778E-2,3.9525554E-2,1.2578314E-2,6.934248E-3,1.1388794E-2,0E0,6.2476844E-3,4.4330303E-3,5.551912E-3,4.1923532E-4,0E0,1.175573E-2,0E0,0E0,0E0,0E0,0E0,0E0,0E0,0E0,0E0,0E0],"parents":[2147483647,0,0,1,1,2,2,3,3,4,4,5,5,7,7,8,8,9,9,10,10,12,12],"right_children":[2,4,6,8,10,12,-1,14,16,18,20,-1,22,-1,-1,-1,-1,-1,-1,-1,-1,-1,-1],"split_conditions":[4.9825277E0,1.6257729E1,9.185846E3,4.5850873E0,2.182795E1,2.6923998E1,1.3092844E-3,3.6321132E0,1.5105872E1,2.1500282E1,2.4011982E1,6.976597E-4,2.8634205E1,5.9033464E-5,-2.2280465E-5,-6.063358E-4,7.3545125E-5,2.0026763E-4,6.619262E-4,-1.4705697E-4,4.1504354E-5,-3.7441764E-4,4.233096E-4],"split_indices":[1,0,2,1,0,0,0,1,0,0,0,0,0,0,0,0,0,0,0,0,0,0,0],"split_type":[0,0,0,0,0,0,0,0,0,0,0,0,0,0,0,0,0,0,0,0,0,0,0],"sum_hessian":[8.92E2,8.62E2,3E1,8E2,6.2E1,1.8E1,1.2E1,7.96E2,4E0,5.6E1,6E0,1.2E1,6E0,6.87E2,1.09E2,3E0,1E0,5.4E1,2E0,5E0,1E0,2E0,4E0],"tree_param":{"num_deleted":"0","num_feature":"4","num_nodes":"23","size_leaf_vector":"0"}},{"base_weights":[8.336183E-3,5.5166655E-3,8.6559005E-2,4.4347197E-3,1.9185267E-2,5.2472148E-2,1.2971987E-1,4.74064E-3,-4.5215968E-2,2.2594936E-2,-1.1319942E-2,6.912198E-2,1.4055013E-2,5.8444E-3,-2.2059719E-3,-6.0178827E-2,7.3177367E-3,1.9830136E-2,6.575134E-2,-1.4583158E-2,4.129678E-3,-3.719216E-2,4.1992314E-2],"categories":[],"categories_nodes":[],"categories_segments":[],"categories_sizes":[],"default_left":[1,1,1,1,1,1,0,1,1,1,1,0,1,0,0,0,0,0,0,0,0,0,0],"id":31,"left_children":[1,3,5,7,9,11,-1,13,15,17,19,-1,21,-1,-1,-1,-1,-1,-1,-1,-1,-1,-1],"loss_changes":[1.964742E-1,1.2677554E-2,3.8801074E-2,1.2380874E-2,6.8085752E-3,1.1181634E-2,0E0,6.1238036E-3,4.3706456E-3,5.4973196E-3,4.1313196E-4,0E0,1.1583738E-2,0E0,0E0,0E0,0E0,0E0,0E0,0E0,0E0,0E0,0E0],"parents":[2147483647,0,0,1,1,2,2,3,3,4,4,5,5,7,7,8,8,9,9,10,10,12,12],"right_children":[2,4,6,8,10,12,-1,14,16,18,20,-1,22,-1,-1,-1,-1,-1,-1,-1,-1,-1,-1],"split_conditions":[4.9825277E0,1.6257729E1,9.185846E3,4.5850873E0,2.182795E1,2.6923998E1,1.2971987E-3,3.6321132E0,1.5105872E1,2.1500282E1,2.4011982E1,6.9121976E-4,2.8634205E1,5.8443995E-5,-2.2059718E-5,-6.017883E-4,7.317737E-5,1.9830135E-4,6.5751333E-4,-1.4583158E-4,4.129678E-5,-3.7192157E-4,4.1992313E-4],"split_indices":[1,0,2,1,0,0,0,1,0,0,0,0,0,0,0,0,0,0,0,0,0,0,0],"split_type":[0,0,0,0,0,0,0,0,0,0,0,0,0,0,0,0,0,0,0,0,0,0,0],"sum_hessian":[8.92E2,8.62E2,3E1,8E2,6.2E1,1.8E1,1.2E1,7.96E2,4E0,5.6E1,6E0,1.2E1,6E0,6.87E2,1.09E2,3E0,1E0,5.4E1,2E0,5E0,1E0,2E0,4E0],"tree_param":{"num_deleted":"0","num_feature":"4","num_nodes":"23","size_leaf_vector":"0"}},{"base_weights":[8.255392E-3,5.4618E-3,8.57591E-2,4.389759E-3,1.9005336E-2,5.1986333E-2,1.2852246E-1,4.6932804E-3,-4.486953E-2,2.2384E-2,-1.1221683E-2,6.848393E-2,1.3921326E-2,5.786042E-3,-2.1841144E-3,-5.972749E-2,7.2811544E-3,1.9635435E-2,6.5313004E-2,-1.44616375E-2,4.109025E-3,-3.6944207E-2,4.1656382E-2],"categories":[],"categories_nodes":[],"categories_segments":[],"categories_sizes":[],"default_left":[1,1,1,1,1,1,0,1,1,1,1,0,1,0,0,0,0,0,0,0,0,0,0],"id":32,"left_children":[1,3,5,7,9,11,-1,13,15,17,19,-1,21,-1,-1,-1,-1,-1,-1,-1,-1,-1,-1],"loss_changes":[1.9287843E-1,1.2446662E-2,3.80899E-2,1.2186541E-2,6.6851825E-3,1.0978255E-2,0E0,6.002376E-3,4.3091495E-3,5.4431558E-3,4.0711876E-4,0E0,1.141427E-2,0E0,0E0,0E0,0E0,0E0,0E0,0E0,0E0,0E0,0E0],"parents":[2147483647,0,0,1,1,2,2,3,3,4,4,5,5,7,7,8,8,9,9,10,10,12,12],"right_children":[2,4,6,8,10,12,-1,14,16,18,20,-1,22,-1,-1,-1,-1,-1,-1,-1,-1,-1,-1],"split_conditions":[4.9825277E0,1.6257729E1,9.185846E3,4.5850873E0,2.182795E1,2.6923998E1,1.2852246E-3,3.6321132E0,1.5105872E1,2.1500282E1,2.4011982E1,6.8483927E-4,2.8634205E1,5.786042E-5,-2.1841144E-5,-5.9727486E-4,7.281154E-5,1.9635435E-4,6.5313E-4,-1.4461637E-4,4.109025E-5,-3.6944207E-4,4.1656382E-4],"split_indices":[1,0,2,1,0,0,0,1,0,0,0,0,0,0,0,0,0,0,0,0,0,0,0],"split_type":[0,0,0,0,0,0,0,0,0,0,0,0,0,0,0,0,0,0,0,0,0,0,0],"sum_hessian":[8.92E2,8.62E2,3E1,8E2,6.2E1,1.8E1,1.2E1,7.96E2,4E0,5.6E1,6E0,1.2E1,6E0,6.87E2,1.09E2,3E0,1E0,5.4E1,2E0,5E0,1E0,2E0,4E0],"tree_param":{"num_deleted":"0","num_feature":"4","num_nodes":"23","size_leaf_vector":"0"}},{"base_weights":[8.175385E-3,5.4074796E-3,8.496658E-2,4.345251E-3,1.8827125E-2,5.1504992E-2,1.2733608E-1,4.646392E-3,-4.452573E-2,2.2175064E-2,-1.1124248E-2,6.785177E-2,1.3788835E-2,2.3410004E-3,7.884977E-3,-5.927954E-2,7.244751E-3,1.9442651E-2,6.487759E-2,-1.4341115E-2,4.0884763E-3,-3.6697917E-2,4.1323118E-2],"categories":[],"categories_nodes":[],"categories_segments":[],"categories_sizes":[],"default_left":[1,1,1,1,1,1,0,1,1,1,1,0,1,0,0,0,0,0,0,0,0,0,0],"id":33,"left_children":[1,3,5,7,9,11,-1,13,15,17,19,-1,21,-1,-1,-1,-1,-1,-1,-1,-1,-1,-1],"loss_changes":[1.8934838E-1,1.2220025E-2,3.739184E-2,1.1995258E-2,6.5640286E-3,1.0778617E-2,0E0,5.9321094E-3,4.248525E-3,5.3894147E-3,4.0119444E-4,0E0,1.12472875E-2,0E0,0E0,0E0,0E0,0E0,0E0,0E0,0E0,0E0,0E0],"parents":[2147483647,0,0,1,1,2,2,3,3,4,4,5,5,7,7,8,8,9,9,10,10,12,12],"right_children":[2,4,6,8,10,12,-1,14,16,18,20,-1,22,-1,-1,-1,-1,-1,-1,-1,-1,-1,-1],"split_conditions":[4.9825277E0,1.6257729E1,9.185846E3,4.5850873E0,2.182795E1,2.6923998E1,1.2733608E-3,7.6480007E0,1.5105872E1,2.1500282E1,2.4011982E1,6.785177E-4,2.8634205E1,2.3410003E-5,7.884977E-5,-5.927954E-4,7.244751E-5,1.9442651E-4,6.487759E-4,-1.4341115E-4,4.0884763E-5,-3.6697916E-4,4.1323117E-4],"split_indices":[1,0,2,1,0,0,0,0,0,0,0,0,0,0,0,0,0,0,0,0,0,0,0],"split_type":[0,0,0,0,0,0,0,0,0,0,0,0,0,0,0,0,0,0,0,0,0,0,0],"sum_hessian":[8.92E2,8.62E2,3E1,8E2,6.2E1,1.8E1,1.2E1,7.96E2,4E0,5.6E1,6E0,1.2E1,6E0,4.66E2,3.3E2,3E0,1E0,5.4E1,2E0,5E0,1E0,2E0,4E0],"tree_param":{"num_deleted":"0","num_feature":"4","num_nodes":"23","size_leaf_vector":"0"}},{"base_weights":[8.096229E-3,5.353778E-3,8.418137E-2,4.301276E-3,1.8650608E-2,5.1028084E-2,1.2616068E-1,4.6000564E-3,-4.4184543E-2,2.1968104E-2,-1.1027655E-2,6.722544E-2,1.365755E-2,5.4686096E-2,1.3418458E-1,5.685953E-3,-2.233552E-3,-5.883494E-2,7.208526E-3,1.9251758E-2,6.444508E-2,-1.4221608E-2,4.068032E-3,-3.6453262E-2,4.099253E-2,7.445314E-2,7.5760037E-3],"categories":[],"categories_nodes":[],"categories_segments":[],"categories_sizes":[],"default_left":[1,1,1,1,1,1,1,1,1,1,1,0,1,1,0,0,0,0,0,0,0,0,0,0,0,0,0],"id":34,"left_children":[1,3,5,7,9,11,13,15,17,19,21,-1,23,25,-1,-1,-1,-1,-1,-1,-1,-1,-1,-1,-1,-1,-1],"loss_changes":[1.8588251E-1,1.1997411E-2,3.6706552E-2,1.1807019E-2,6.445078E-3,1.0582637E-2,1.1757016E-4,5.9269127E-3,4.1887574E-3,5.336102E-3,3.9535837E-4,0E0,1.1082757E-2,2.2296244E-3,0E0,0E0,0E0,0E0,0E0,0E0,0E0,0E0,0E0,0E0,0E0,0E0,0E0],"parents":[2147483647,0,0,1,1,2,2,3,3,4,4,5,5,6,6,7,7,8,8,9,9,10,10,12,12,13,13],"right_children":[2,4,6,8,10,12,14,16,18,20,22,-1,24,26,-1,-1,-1,-1,-1,-1,-1,-1,-1,-1,-1,-1,-1],"split_conditions":[4.9825277E0,1.6257729E1,9.185846E3,4.5850873E0,2.182795E1,2.6923998E1,2.5746239E1,3.6321132E0,1.5105872E1,2.1500282E1,2.4011982E1,6.722544E-4,2.8634205E1,2.3908855E1,1.3418458E-3,5.6859528E-5,-2.233552E-5,-5.883494E-4,7.208526E-5,1.9251757E-4,6.444508E-4,-1.4221607E-4,4.068032E-5,-3.645326E-4,4.0992527E-4,7.4453134E-4,7.5760036E-5],"split_indices":[1,0,2,1,0,0,0,1,0,0,0,0,0,0,0,0,0,0,0,0,0,0,0,0,0,0,0],"split_type":[0,0,0,0,0,0,0,0,0,0,0,0,0,0,0,0,0,0,0,0,0,0,0,0,0,0,0],"sum_hessian":[8.92E2,8.62E2,3E1,8E2,6.2E1,1.8E1,1.2E1,7.96E2,4E0,5.6E1,6E0,1.2E1,6E0,2E0,1E1,6.87E2,1.09E2,3E0,1E0,5.4E1,2E0,5E0,1E0,2E0,4E0,1E0,1E0],"tree_param":{"num_deleted":"0","num_feature":"4","num_nodes":"27","size_leaf_vector":"0"}},{"base_weights":[8.018775E-3,5.300533E-3,8.343245E-2,4.257661E-3,1.8475773E-2,5.0555576E-2,1.2506539E-1,4.554098E-3,-4.3845955E-2,2.1763103E-2,-1.0931882E-2,6.66049E-2,1.35274585E-2,5.4412663E-2,1.3296473E-1,2.2632761E-3,7.772405E-3,-5.8393683E-2,7.17248E-3,1.9062737E-2,6.401545E-2,-1.4103093E-2,4.047692E-3,-3.6210235E-2,4.0664583E-2,7.408087E-2,7.538125E-3],"categories":[],"categories_nodes":[],"categories_segments":[],"categories_sizes":[],"default_left":[1,1,1,1,1,1,1,1,1,1,1,0,1,1,0,0,0,0,0,0,0,0,0,0,0,0,0],"id":35,"left_children":[1,3,5,7,9,11,13,15,17,19,21,-1,23,25,-1,-1,-1,-1,-1,-1,-1,-1,-1,-1,-1,-1,-1],"loss_changes":[1.8261616E-1,1.17790345E-2,3.610885E-2,1.1621698E-2,6.3282885E-3,1.0390256E-2,2.0444393E-5,5.858345E-3,4.129839E-3,5.2832067E-3,3.8960873E-4,0E0,1.092064E-2,2.2073835E-3,0E0,0E0,0E0,0E0,0E0,0E0,0E0,0E0,0E0,0E0,0E0,0E0,0E0],"parents":[2147483647,0,0,1,1,2,2,3,3,4,4,5,5,6,6,7,7,8,8,9,9,10,10,12,12,13,13],"right_children":[2,4,6,8,10,12,14,16,18,20,22,-1,24,26,-1,-1,-1,-1,-1,-1,-1,-1,-1,-1,-1,-1,-1],"split_conditions":[4.9825277E0,1.6257729E1,9.185846E3,4.5850873E0,2.182795E1,2.6923998E1,2.5746239E1,7.6480007E0,1.5105872E1,2.1500282E1,2.4011982E1,6.6604896E-4,2.8634205E1,2.3908855E1,1.3296473E-3,2.2632761E-5,7.772405E-5,-5.839368E-4,7.1724804E-5,1.9062737E-4,6.4015447E-4,-1.4103093E-4,4.0476916E-5,-3.6210235E-4,4.0664582E-4,7.4080867E-4,7.538125E-5],"split_indices":[1,0,2,1,0,0,0,0,0,0,0,0,0,0,0,0,0,0,0,0,0,0,0,0,0,0,0],"split_type":[0,0,0,0,0,0,0,0,0,0,0,0,0,0,0,0,0,0,0,0,0,0,0,0,0,0,0],"sum_hessian":[8.92E2,8.62E2,3E1,8E2,6.2E1,1.8E1,1.2E1,7.96E2,4E0,5.6E1,6E0,1.2E1,6E0,2E0,1E1,4.66E2,3.3E2,3E0,1E0,5.4E1,2E0,5E0,1E0,2E0,4E0,1E0,1E0],"tree_param":{"num_deleted":"0","num_feature":"4","num_nodes":"27","size_leaf_vector":"0"}},{"base_weights":[7.942142E-3,5.247896E-3,8.269026E-2,4.21457E-3,1.8302603E-2,5.0087415E-2,1.23979785E-1,4.5086825E-3,-4.350994E-2,2.1560045E-2,-1.0836931E-2,6.599008E-2,1.3398543E-2,5.587757E-3,-2.2814248E-3,-5.7955734E-2,7.136613E-3,1.8875573E-2,6.358868E-2,-1.7311778E-2,-1.6528517E-3,-3.5968836E-2,4.033926E-2],"categories":[],"categories_nodes":[],"categories_segments":[],"categories_sizes":[],"default_left":[1,1,1,1,1,1,0,1,1,1,1,0,1,0,0,0,0,0,0,0,0,0,0],"id":36,"left_children":[1,3,5,7,9,11,-1,13,15,17,19,-1,21,-1,-1,-1,-1,-1,-1,-1,-1,-1,-1],"loss_changes":[1.7940712E-1,1.156454E-2,3.5521016E-2,1.1439325E-2,6.213622E-3,1.0201398E-2,0E0,5.85239E-3,4.0717563E-3,5.2307323E-3,3.876448E-4,0E0,1.0760904E-2,0E0,0E0,0E0,0E0,0E0,0E0,0E0,0E0,0E0,0E0],"parents":[2147483647,0,0,1,1,2,2,3,3,4,4,5,5,7,7,8,8,9,9,10,10,12,12],"right_children":[2,4,6,8,10,12,-1,14,16,18,20,-1,22,-1,-1,-1,-1,-1,-1,-1,-1,-1,-1],"split_conditions":[4.9825277E0,1.6257729E1,9.185846E3,4.5850873E0,2.182795E1,2.6923998E1,1.2397978E-3,3.6321132E0,1.5105872E1,2.1500282E1,2.3095842E1,6.5990083E-4,2.8634205E1,5.587757E-5,-2.2814247E-5,-5.795573E-4,7.136613E-5,1.8875573E-4,6.358868E-4,-1.7311778E-4,-1.6528516E-5,-3.5968836E-4,4.033926E-4],"split_indices":[1,0,2,1,0,0,0,1,0,0,0,0,0,0,0,0,0,0,0,0,0,0,0],"split_type":[0,0,0,0,0,0,0,0,0,0,0,0,0,0,0,0,0,0,0,0,0,0,0],"sum_hessian":[8.92E2,8.62E2,3E1,8E2,6.2E1,1.8E1,1.2E1,7.96E2,4E0,5.6E1,6E0,1.2E1,6E0,6.87E2,1.09E2,3E0,1E0,5.4E1,2E0,3E0,3E0,2E0,4E0],"tree_param":{"num_deleted":"0","num_feature":"4","num_nodes":"23","size_leaf_vector":"0"}},{"base_weights":[7.865074E-3,5.1956014E-3,8.192605E-2,4.171829E-3,1.8129658E-2,4.962357E-2,1.2283535E-1,4.463636E-3,-4.3176487E-2,2.1358913E-2,-1.0755649E-2,6.5380946E-2,1.3270794E-2,5.331407E-2,1.3062885E-1,2.1872914E-3,7.6617906E-3,-5.752107E-2,7.100925E-3,1.869025E-2,6.316475E-2,-1.7181939E-2,-1.6404465E-3,-3.5729043E-2,4.001654E-2,7.309057E-2,6.8805367E-3],"categories":[],"categories_nodes":[],"categories_segments":[],"categories_sizes":[],"default_left":[1,1,1,1,1,1,1,1,1,1,1,0,1,1,0,0,0,0,0,0,0,0,0,0,0,0,0],"id":37,"left_children":[1,3,5,7,9,11,13,15,17,19,21,-1,23,25,-1,-1,-1,-1,-1,-1,-1,-1,-1,-1,-1,-1,-1],"loss_changes":[1.7612381E-1,1.1351803E-2,3.4870088E-2,1.1259776E-2,6.1062444E-3,1.00160055E-2,7.9244375E-5,5.785484E-3,4.0144958E-3,5.178677E-3,3.8185244E-4,0E0,1.0603512E-2,2.2519762E-3,0E0,0E0,0E0,0E0,0E0,0E0,0E0,0E0,0E0,0E0,0E0,0E0,0E0],"parents":[2147483647,0,0,1,1,2,2,3,3,4,4,5,5,6,6,7,7,8,8,9,9,10,10,12,12,13,13],"right_children":[2,4,6,8,10,12,14,16,18,20,22,-1,24,26,-1,-1,-1,-1,-1,-1,-1,-1,-1,-1,-1,-1,-1],"split_conditions":[4.9825277E0,1.6257729E1,9.185846E3,4.5850873E0,2.182795E1,2.6923998E1,2.5746239E1,7.6480007E0,1.5105872E1,2.1500282E1,2.3095842E1,6.5380946E-4,2.8634205E1,2.3908855E1,1.3062885E-3,2.1872913E-5,7.661791E-5,-5.752107E-4,7.100925E-5,1.869025E-4,6.316475E-4,-1.7181938E-4,-1.6404465E-5,-3.572904E-4,4.001654E-4,7.309057E-4,6.880536E-5],"split_indices":[1,0,2,1,0,0,0,0,0,0,0,0,0,0,0,0,0,0,0,0,0,0,0,0,0,0,0],"split_type":[0,0,0,0,0,0,0,0,0,0,0,0,0,0,0,0,0,0,0,0,0,0,0,0,0,0,0],"sum_hessian":[8.92E2,8.62E2,3E1,8E2,6.2E1,1.8E1,1.2E1,7.96E2,4E0,5.6E1,6E0,1.2E1,6E0,2E0,1E1,4.66E2,3.3E2,3E0,1E0,5.4E1,2E0,3E0,3E0,2E0,4E0,1E0,1E0],"tree_param":{"num_deleted":"0","num_feature":"4","num_nodes":"27","size_leaf_vector":"0"}},{"base_weights":[7.7898144E-3,5.143906E-3,8.1197195E-2,4.1296054E-3,1.7958365E-2,4.916401E-2,1.21768996E-1,4.419124E-3,-4.2845562E-2,2.1159682E-2,-1.067499E-2,6.4777434E-2,1.3144218E-2,5.4914197E-3,-2.3277726E-3,-5.708966E-2,7.0654154E-3,1.8506745E-2,6.274364E-2,-1.3802129E-2,4.043922E-3,-3.5490844E-2,3.9696414E-2],"categories":[],"categories_nodes":[],"categories_segments":[],"categories_sizes":[],"default_left":[1,1,1,1,1,1,0,1,1,1,1,0,1,0,0,0,0,0,0,0,0,0,0],"id":38,"left_children":[1,3,5,7,9,11,-1,13,15,17,19,-1,21,-1,-1,-1,-1,-1,-1,-1,-1,-1,-1],"loss_changes":[1.7302898E-1,1.1142865E-2,3.4302294E-2,1.1083082E-2,6.0007405E-3,9.83401E-3,0E0,5.7788137E-3,3.9580464E-3,5.1270407E-3,3.7801132E-4,0E0,1.0448433E-2,0E0,0E0,0E0,0E0,0E0,0E0,0E0,0E0,0E0,0E0],"parents":[2147483647,0,0,1,1,2,2,3,3,4,4,5,5,7,7,8,8,9,9,10,10,12,12],"right_children":[2,4,6,8,10,12,-1,14,16,18,20,-1,22,-1,-1,-1,-1,-1,-1,-1,-1,-1,-1],"split_conditions":[4.9825277E0,1.6257729E1,9.185846E3,4.5850873E0,2.182795E1,2.6923998E1,1.21769E-3,3.6321132E0,1.5105872E1,2.1500282E1,2.4011982E1,6.477743E-4,2.8634205E1,5.4914195E-5,-2.3277726E-5,-5.708966E-4,7.0654154E-5,1.8506745E-4,6.274364E-4,-1.3802129E-4,4.0439216E-5,-3.5490844E-4,3.9696414E-4],"split_indices":[1,0,2,1,0,0,0,1,0,0,0,0,0,0,0,0,0,0,0,0,0,0,0],"split_type":[0,0,0,0,0,0,0,0,0,0,0,0,0,0,0,0,0,0,0,0,0,0,0],"sum_hessian":[8.92E2,8.62E2,3E1,8E2,6.2E1,1.8E1,1.2E1,7.96E2,4E0,5.6E1,6E0,1.2E1,6E0,6.87E2,1.09E2,3E0,1E0,5.4E1,2E0,5E0,1E0,2E0,4E0],"tree_param":{"num_deleted":"0","num_feature":"4","num_nodes":"23","size_leaf_vector":"0"}},{"base_weights":[7.714329E-3,5.0927536E-3,8.044676E-2,4.0877257E-3,1.7790126E-2,4.8708677E-2,1.2064497E-1,4.3749735E-3,-4.251716E-2,2.0962337E-2,-1.0582184E-2,6.417949E-2,1.3018784E-2,5.2235708E-2,1.2833431E-1,2.1130138E-3,7.5531015E-3,-5.666149E-2,7.0300847E-3,1.8325038E-2,6.232536E-2,-1.6949566E-2,-1.5692562E-3,-3.5254236E-2,3.937884E-2,7.211627E-2,6.237291E-3],"categories":[],"categories_nodes":[],"categories_segments":[],"categories_sizes":[],"default_left":[1,1,1,1,1,1,1,1,1,1,1,0,1,1,0,0,0,0,0,0,0,0,0,0,0,0,0],"id":39,"left_children":[1,3,5,7,9,11,13,15,17,19,21,-1,23,25,-1,-1,-1,-1,-1,-1,-1,-1,-1,-1,-1,-1,-1],"loss_changes":[1.6986178E-1,1.0940203E-2,3.3673793E-2,1.0909127E-2,5.892014E-3,9.655338E-3,1.346618E-4,5.713513E-3,3.902399E-3,5.0758235E-3,3.75123E-4,0E0,1.0295628E-2,2.2936128E-3,0E0,0E0,0E0,0E0,0E0,0E0,0E0,0E0,0E0,0E0,0E0,0E0,0E0],"parents":[2147483647,0,0,1,1,2,2,3,3,4,4,5,5,6,6,7,7,8,8,9,9,10,10,12,12,13,13],"right_children":[2,4,6,8,10,12,14,16,18,20,22,-1,24,26,-1,-1,-1,-1,-1,-1,-1,-1,-1,-1,-1,-1,-1],"split_conditions":[4.9825277E0,1.6257729E1,9.185846E3,4.5850873E0,2.182795E1,2.6923998E1,2.5746239E1,7.6480007E0,1.5105872E1,2.1500282E1,2.3095842E1,6.417949E-4,2.8634205E1,2.3908855E1,1.2833431E-3,2.1130138E-5,7.553101E-5,-5.666149E-4,7.030085E-5,1.8325038E-4,6.232536E-4,-1.6949566E-4,-1.5692562E-5,-3.5254235E-4,3.937884E-4,7.211627E-4,6.237291E-5],"split_indices":[1,0,2,1,0,0,0,0,0,0,0,0,0,0,0,0,0,0,0,0,0,0,0,0,0,0,0],"split_type":[0,0,0,0,0,0,0,0,0,0,0,0,0,0,0,0,0,0,0,0,0,0,0,0,0,0,0],"sum_hessian":[8.92E2,8.62E2,3E1,8E2,6.2E1,1.8E1,1.2E1,7.96E2,4E0,5.6E1,6E0,1.2E1,6E0,2E0,1E1,4.66E2,3.3E2,3E0,1E0,5.4E1,2E0,3E0,3E0,2E0,4E0,1E0,1E0],"tree_param":{"num_deleted":"0","num_feature":"4","num_nodes":"27","size_leaf_vector":"0"}},{"base_weights":[7.640512E-3,5.0420817E-3,7.9730995E-2,4.0463484E-3,1.7622083E-2,4.825754E-2,1.1959751E-1,4.3313443E-3,-4.219125E-2,2.076686E-2,-1.0502815E-2,6.358706E-2,1.2894492E-2,5.197453E-2,1.2716764E-1,5.3969054E-3,-2.3726318E-3,-5.6236528E-2,6.994933E-3,1.8145116E-2,6.1909854E-2,-1.3597135E-2,4.031554E-3,6.574399E-2,1.8851973E-2,-3.5019215E-2,3.906382E-2,7.175569E-2,6.2061027E-3],"categories":[],"categories_nodes":[],"categories_segments":[],"categories_sizes":[],"default_left":[1,1,1,1,1,1,1,1,1,1,1,1,1,1,0,0,0,0,0,0,0,0,0,0,0,0,0,0,0],"id":40,"left_children":[1,3,5,7,9,11,13,15,17,19,21,23,25,27,-1,-1,-1,-1,-1,-1,-1,-1,-1,-1,-1,-1,-1,-1,-1],"loss_changes":[1.6687664E-1,1.0738913E-2,3.3125356E-2,1.0737939E-2,5.790239E-3,9.479947E-3,4.541874E-5,5.7061715E-3,3.8475385E-3,5.02502E-3,3.6963564E-4,1.4968216E-5,1.014507E-2,2.2707349E-3,0E0,0E0,0E0,0E0,0E0,0E0,0E0,0E0,0E0,0E0,0E0,0E0,0E0,0E0,0E0],"parents":[2147483647,0,0,1,1,2,2,3,3,4,4,5,5,6,6,7,7,8,8,9,9,10,10,11,11,12,12,13,13],"right_children":[2,4,6,8,10,12,14,16,18,20,22,24,26,28,-1,-1,-1,-1,-1,-1,-1,-1,-1,-1,-1,-1,-1,-1,-1],"split_conditions":[4.9825277E0,1.6257729E1,9.185846E3,4.5850873E0,2.182795E1,2.6923998E1,2.5746239E1,3.6321132E0,1.5105872E1,2.1500282E1,2.4011982E1,8.660139E3,2.8634205E1,2.3908855E1,1.2716764E-3,5.396905E-5,-2.3726318E-5,-5.623653E-4,6.9949325E-5,1.8145116E-4,6.1909854E-4,-1.3597135E-4,4.031554E-5,6.574399E-4,1.8851973E-4,-3.5019213E-4,3.906382E-4,7.175569E-4,6.206102E-5],"split_indices":[1,0,2,1,0,0,0,1,0,0,0,2,0,0,0,0,0,0,0,0,0,0,0,0,0,0,0,0,0],"split_type":[0,0,0,0,0,0,0,0,0,0,0,0,0,0,0,0,0,0,0,0,0,0,0,0,0,0,0,0,0],"sum_hessian":[8.92E2,8.62E2,3E1,8E2,6.2E1,1.8E1,1.2E1,7.96E2,4E0,5.6E1,6E0,1.2E1,6E0,2E0,1E1,6.87E2,1.09E2,3E0,1E0,5.4E1,2E0,5E0,1E0,1.1E1,1E0,2E0,4E0,1E0,1E0],"tree_param":{"num_deleted":"0","num_feature":"4","num_nodes":"29","size_leaf_vector":"0"}},{"base_weights":[7.567667E-3,4.9919407E-3,7.902845E-2,4.0053064E-3,1.7457051E-2,4.7821615E-2,1.1855933E-1,4.288067E-3,-4.1867815E-2,2.0573236E-2,-1.0411461E-2,6.3016266E-2,1.2771317E-2,2.0404044E-3,7.4462863E-3,-5.581475E-2,6.95996E-3,1.7966965E-2,6.1497133E-2,-1.6720477E-2,-1.4995784E-3,-3.478576E-2,3.8751297E-2],"categories":[],"categories_nodes":[],"categories_segments":[],"categories_sizes":[],"default_left":[1,1,1,1,1,1,0,1,1,1,1,0,1,0,0,0,0,0,0,0,0,0,0],"id":41,"left_children":[1,3,5,7,9,11,-1,13,15,17,19,-1,21,-1,-1,-1,-1,-1,-1,-1,-1,-1,-1],"loss_changes":[1.6397415E-1,1.0543687E-2,3.2572955E-2,1.0569399E-2,5.685335E-3,9.314161E-3,0E0,5.6424E-3,3.7934566E-3,4.9746335E-3,3.6850286E-4,7.8231096E-7,9.996717E-3,0E0,0E0,0E0,0E0,0E0,0E0,0E0,0E0,0E0,0E0],"parents":[2147483647,0,0,1,1,2,2,3,3,4,4,5,5,7,7,8,8,9,9,10,10,12,12],"right_children":[2,4,6,8,10,12,-1,14,16,18,20,-1,22,-1,-1,-1,-1,-1,-1,-1,-1,-1,-1],"split_conditions":[4.9825277E0,1.6257729E1,9.185846E3,4.5850873E0,2.182795E1,2.6923998E1,1.1855933E-3,7.6480007E0,1.5105872E1,2.1500282E1,2.3095842E1,6.3016266E-4,2.8634205E1,2.0404043E-5,7.446286E-5,-5.581475E-4,6.95996E-5,1.7966965E-4,6.1497133E-4,-1.6720477E-4,-1.4995783E-5,-3.4785757E-4,3.8751296E-4],"split_indices":[1,0,2,1,0,0,0,0,0,0,0,0,0,0,0,0,0,0,0,0,0,0,0],"split_type":[0,0,0,0,0,0,0,0,0,0,0,0,0,0,0,0,0,0,0,0,0,0,0],"sum_hessian":[8.92E2,8.62E2,3E1,8E2,6.2E1,1.8E1,1.2E1,7.96E2,4E0,5.6E1,6E0,1.2E1,6E0,4.66E2,3.3E2,3E0,1E0,5.4E1,2E0,3E0,3E0,2E0,4E0],"tree_param":{"num_deleted":"0","num_feature":"4","num_nodes":"23","size_leaf_vector":"0"}},{"base_weights":[7.4943136E-3,4.942275E-3,7.829802E-2,3.964762E-3,1.7292205E-2,4.737865E-2,1.1746494E-1,4.719671E-3,-1.3203905E-2,2.0381449E-2,-1.0333381E-2,6.243458E-2,1.2649265E-2,5.092426E-2,1.24933764E-1,2.1513132E-3,8.632719E-3,-8.039951E-3,-4.1546844E-2,1.7790567E-2,6.108715E-2,-1.659508E-2,-1.4883354E-3,6.456369E-2,1.844263E-2,-3.4553852E-2,3.844128E-2,7.080412E-2,5.582273E-3],"categories":[],"categories_nodes":[],"categories_segments":[],"categories_sizes":[],"default_left":[1,1,1,1,1,1,1,1,1,1,1,1,1,1,0,0,0,0,0,0,0,0,0,0,0,0,0,0,0],"id":42,"left_children":[1,3,5,7,9,11,13,15,17,19,21,23,25,27,-1,-1,-1,-1,-1,-1,-1,-1,-1,-1,-1,-1,-1,-1,-1],"loss_changes":[1.6097257E-1,1.0349767E-2,3.197618E-2,1.04439E-2,5.587166E-3,9.145029E-3,9.858608E-5,7.6999106E-3,4.6422603E-3,4.924657E-3,3.6299607E-4,2.6907772E-5,9.85054E-3,2.3089289E-3,0E0,0E0,0E0,0E0,0E0,0E0,0E0,0E0,0E0,0E0,0E0,0E0,0E0,0E0,0E0],"parents":[2147483647,0,0,1,1,2,2,3,3,4,4,5,5,6,6,7,7,8,8,9,9,10,10,11,11,12,12,13,13],"right_children":[2,4,6,8,10,12,14,16,18,20,22,24,26,28,-1,-1,-1,-1,-1,-1,-1,-1,-1,-1,-1,-1,-1,-1,-1],"split_conditions":[4.9825277E0,1.6257729E1,9.185846E3,3.9990988E0,2.182795E1,2.6923998E1,2.5746239E1,7.6480007E0,4.5850873E0,2.1500282E1,2.3095842E1,8.660139E3,2.8634205E1,2.3908855E1,1.2493376E-3,2.1513131E-5,8.6327185E-5,-8.039951E-5,-4.1546844E-4,1.7790566E-4,6.108715E-4,-1.659508E-4,-1.4883354E-5,6.4563693E-4,1.844263E-4,-3.4553852E-4,3.8441282E-4,7.080412E-4,5.582273E-5],"split_indices":[1,0,2,1,0,0,0,0,1,0,0,2,0,0,0,0,0,0,0,0,0,0,0,0,0,0,0,0,0],"split_type":[0,0,0,0,0,0,0,0,0,0,0,0,0,0,0,0,0,0,0,0,0,0,0,0,0,0,0,0,0],"sum_hessian":[8.92E2,8.62E2,3E1,8E2,6.2E1,1.8E1,1.2E1,7.67E2,3.3E1,5.6E1,6E0,1.2E1,6E0,2E0,1E1,4.64E2,3.03E2,2.9E1,4E0,5.4E1,2E0,3E0,3E0,1.1E1,1E0,2E0,4E0,1E0,1E0],"tree_param":{"num_deleted":"0","num_feature":"4","num_nodes":"29","size_leaf_vector":"0"}},{"base_weights":[7.422844E-3,4.8931073E-3,7.7608004E-2,3.92463E-3,1.7128933E-2,4.6950597E-2,1.1644515E-1,4.6726144E-3,-1.3086446E-2,2.0191474E-2,-1.0255888E-2,6.1874084E-2,1.252832E-2,5.066964E-2,1.23798E-1,2.1298474E-3,8.546674E-3,-7.962228E-3,-4.1214462E-2,1.7615896E-2,6.0679913E-2,-1.3307311E-2,4.0263236E-3,6.3971855E-2,1.8350415E-2,-3.43235E-2,3.8133748E-2,7.04501E-2,5.554363E-3],"categories":[],"categories_nodes":[],"categories_segments":[],"categories_sizes":[],"default_left":[1,1,1,1,1,1,1,1,1,1,1,1,1,1,0,0,0,0,0,0,0,0,0,0,0,0,0,0,0],"id":43,"left_children":[1,3,5,7,9,11,13,15,17,19,21,23,25,27,-1,-1,-1,-1,-1,-1,-1,-1,-1,-1,-1,-1,-1,-1,-1],"loss_changes":[1.581724E-1,1.0159427E-2,3.144285E-2,1.0253086E-2,5.490709E-3,8.985128E-3,1.449883E-5,7.547235E-3,4.5724004E-3,4.8750937E-3,3.5864708E-4,1.30310655E-5,9.706508E-3,2.2858973E-3,0E0,0E0,0E0,0E0,0E0,0E0,0E0,0E0,0E0,0E0,0E0,0E0,0E0,0E0,0E0],"parents":[2147483647,0,0,1,1,2,2,3,3,4,4,5,5,6,6,7,7,8,8,9,9,10,10,11,11,12,12,13,13],"right_children":[2,4,6,8,10,12,14,16,18,20,22,24,26,28,-1,-1,-1,-1,-1,-1,-1,-1,-1,-1,-1,-1,-1,-1,-1],"split_conditions":[4.9825277E0,1.6257729E1,9.185846E3,3.9990988E0,2.182795E1,2.6923998E1,2.5746239E1,7.6480007E0,4.5850873E0,2.1500282E1,2.4011982E1,8.660139E3,2.8634205E1,2.3908855E1,1.23798E-3,2.1298474E-5,8.546674E-5,-7.9622274E-5,-4.121446E-4,1.7615895E-4,6.067991E-4,-1.330731E-4,4.0263236E-5,6.3971855E-4,1.8350415E-4,-3.4323498E-4,3.8133748E-4,7.0450094E-4,5.554363E-5],"split_indices":[1,0,2,1,0,0,0,0,1,0,0,2,0,0,0,0,0,0,0,0,0,0,0,0,0,0,0,0,0],"split_type":[0,0,0,0,0,0,0,0,0,0,0,0,0,0,0,0,0,0,0,0,0,0,0,0,0,0,0,0,0],"sum_hessian":[8.92E2,8.62E2,3E1,8E2,6.2E1,1.8E1,1.2E1,7.67E2,3.3E1,5.6E1,6E0,1.2E1,6E0,2E0,1E1,4.64E2,3.03E2,2.9E1,4E0,5.4E1,2E0,5E0,1E0,1.1E1,1E0,2E0,4E0,1E0,1E0],"tree_param":{"num_deleted":"0","num_feature":"4","num_nodes":"29","size_leaf_vector":"0"}},{"base_weights":[7.3521584E-3,4.844529E-3,7.692416E-2,3.884903E-3,1.6968595E-2,4.652642E-2,1.1543438E-1,4.160892E-3,-4.0884744E-2,2.0003293E-2,-1.0166591E-2,6.131867E-2,1.2408472E-2,5.2173682E-3,-2.4847125E-3,-5.4775417E-2,7.338971E-3,1.7442936E-2,6.0275376E-2,-1.637082E-2,-1.420714E-3,-3.4094676E-2,3.7828665E-2],"categories":[],"categories_nodes":[],"categories_segments":[],"categories_sizes":[],"default_left":[1,1,1,1,1,1,0,1,1,1,1,0,1,0,0,0,0,0,0,0,0,0,0],"id":44,"left_children":[1,3,5,7,9,11,-1,13,15,17,19,-1,21,-1,-1,-1,-1,-1,-1,-1,-1,-1,-1],"loss_changes":[1.5542084E-1,9.974716E-3,3.0918583E-2,1.0067223E-2,5.391229E-3,8.82807E-3,0E0,5.608637E-3,3.7512947E-3,4.8259366E-3,3.565718E-4,0E0,9.56459E-3,0E0,0E0,0E0,0E0,0E0,0E0,0E0,0E0,0E0,0E0],"parents":[2147483647,0,0,1,1,2,2,3,3,4,4,5,5,7,7,8,8,9,9,10,10,12,12],"right_children":[2,4,6,8,10,12,-1,14,16,18,20,-1,22,-1,-1,-1,-1,-1,-1,-1,-1,-1,-1],"split_conditions":[4.9825277E0,1.6257729E1,9.185846E3,4.5850873E0,2.182795E1,2.6923998E1,1.1543437E-3,3.6321132E0,1.5105872E1,2.1500282E1,2.3095842E1,6.131867E-4,2.8634205E1,5.217368E-5,-2.4847124E-5,-5.4775417E-4,7.338971E-5,1.7442935E-4,6.027537E-4,-1.637082E-4,-1.4207139E-5,-3.4094675E-4,3.7828664E-4],"split_indices":[1,0,2,1,0,0,0,1,0,0,0,0,0,0,0,0,0,0,0,0,0,0,0],"split_type":[0,0,0,0,0,0,0,0,0,0,0,0,0,0,0,0,0,0,0,0,0,0,0],"sum_hessian":[8.92E2,8.62E2,3E1,8E2,6.2E1,1.8E1,1.2E1,7.96E2,4E0,5.6E1,6E0,1.2E1,6E0,6.87E2,1.09E2,3E0,1E0,5.4E1,2E0,3E0,3E0,2E0,4E0],"tree_param":{"num_deleted":"0","num_feature":"4","num_nodes":"23","size_leaf_vector":"0"}},{"base_weights":[7.2808275E-3,4.7962586E-3,7.6213144E-2,3.8454942E-3,1.6808419E-2,4.6095397E-2,1.1436884E-1,4.581943E-3,-1.29026845E-2,1.981689E-2,-1.0090338E-2,6.0752653E-2,1.2289723E-2,4.9646735E-2,1.2162316E-1,2.0585195E-3,8.426713E-3,-7.861247E-3,-4.0570773E-2,1.7271675E-2,5.987354E-2,-1.624804E-2,-1.4100522E-3,6.282336E-2,1.795207E-2,-3.386738E-2,3.752604E-2,6.952068E-2,4.9494207E-3,1.4012387E-1,7.139753E-2],"categories":[],"categories_nodes":[],"categories_segments":[],"categories_sizes":[],"default_left":[1,1,1,1,1,1,1,1,1,1,1,1,1,1,1,0,0,0,0,0,0,0,0,0,0,0,0,0,0,0,0],"id":45,"left_children":[1,3,5,7,9,11,13,15,17,19,21,23,25,27,29,-1,-1,-1,-1,-1,-1,-1,-1,-1,-1,-1,-1,-1,-1,-1,-1],"loss_changes":[1.5257594E-1,9.791456E-3,3.035219E-2,9.938792E-3,5.2981805E-3,8.667834E-3,6.5505505E-5,7.433776E-3,4.42362E-3,4.777191E-3,3.5124377E-4,2.4348497E-5,9.424757E-3,2.320848E-3,2.168119E-4,0E0,0E0,0E0,0E0,0E0,0E0,0E0,0E0,0E0,0E0,0E0,0E0,0E0,0E0,0E0,0E0],"parents":[2147483647,0,0,1,1,2,2,3,3,4,4,5,5,6,6,7,7,8,8,9,9,10,10,11,11,12,12,13,13,14,14],"right_children":[2,4,6,8,10,12,14,16,18,20,22,24,26,28,30,-1,-1,-1,-1,-1,-1,-1,-1,-1,-1,-1,-1,-1,-1,-1,-1],"split_conditions":[4.9825277E0,1.6257729E1,9.185846E3,3.9990988E0,2.182795E1,2.6923998E1,2.5746239E1,7.6480007E0,4.5850873E0,2.1500282E1,2.3095842E1,8.660139E3,2.8634205E1,2.3908855E1,1.3732301E4,2.0585194E-5,8.426713E-5,-7.861247E-5,-4.0570772E-4,1.7271675E-4,5.987354E-4,-1.624804E-4,-1.4100521E-5,6.282336E-4,1.7952069E-4,-3.386738E-4,3.752604E-4,6.952068E-4,4.9494207E-5,1.4012387E-3,7.139753E-4],"split_indices":[1,0,2,1,0,0,0,0,1,0,0,2,0,0,2,0,0,0,0,0,0,0,0,0,0,0,0,0,0,0,0],"split_type":[0,0,0,0,0,0,0,0,0,0,0,0,0,0,0,0,0,0,0,0,0,0,0,0,0,0,0,0,0,0,0],"sum_hessian":[8.92E2,8.62E2,3E1,8E2,6.2E1,1.8E1,1.2E1,7.67E2,3.3E1,5.6E1,6E0,1.2E1,6E0,2E0,1E1,4.64E2,3.03E2,2.9E1,4E0,5.4E1,2E0,3E0,3E0,1.1E1,1E0,2E0,4E0,1E0,1E0,6E0,4E0],"tree_param":{"num_deleted":"0","num_feature":"4","num_nodes":"31","size_leaf_vector":"0"}},{"base_weights":[7.2124084E-3,4.7485456E-3,7.55705E-2,3.8065657E-3,1.6649775E-2,4.567888E-2,1.1344515E-1,4.53626E-3,-1.27879E-2,1.9632254E-2,-1.0014662E-2,6.0207263E-2,1.2172046E-2,2.0379778E-3,8.342723E-3,-7.7852523E-3,-4.0246207E-2,1.7102098E-2,5.947439E-2,-1.3023888E-2,4.020348E-3,6.224748E-2,1.7862312E-2,-3.36416E-2,3.7225824E-2],"categories":[],"categories_nodes":[],"categories_segments":[],"categories_sizes":[],"default_left":[1,1,1,1,1,1,0,1,1,1,1,1,1,0,0,0,0,0,0,0,0,0,0,0,0],"id":46,"left_children":[1,3,5,7,9,11,-1,13,15,17,19,21,23,-1,-1,-1,-1,-1,-1,-1,-1,-1,-1,-1,-1],"loss_changes":[1.5004462E-1,9.6114725E-3,2.9914126E-2,9.757228E-3,5.2067563E-3,8.516356E-3,0E0,7.2863866E-3,4.3570576E-3,4.7288537E-3,3.4800224E-4,1.12243E-5,9.28697E-3,0E0,0E0,0E0,0E0,0E0,0E0,0E0,0E0,0E0,0E0,0E0,0E0],"parents":[2147483647,0,0,1,1,2,2,3,3,4,4,5,5,7,7,8,8,9,9,10,10,11,11,12,12],"right_children":[2,4,6,8,10,12,-1,14,16,18,20,22,24,-1,-1,-1,-1,-1,-1,-1,-1,-1,-1,-1,-1],"split_conditions":[4.9825277E0,1.6257729E1,9.185846E3,3.9990988E0,2.182795E1,2.6923998E1,1.1344515E-3,7.6480007E0,4.5850873E0,2.1500282E1,2.4011982E1,8.660139E3,2.8634205E1,2.0379777E-5,8.342723E-5,-7.785252E-5,-4.0246206E-4,1.7102098E-4,5.947439E-4,-1.3023887E-4,4.0203482E-5,6.224748E-4,1.7862312E-4,-3.3641598E-4,3.7225822E-4],"split_indices":[1,0,2,1,0,0,0,0,1,0,0,2,0,0,0,0,0,0,0,0,0,0,0,0,0],"split_type":[0,0,0,0,0,0,0,0,0,0,0,0,0,0,0,0,0,0,0,0,0,0,0,0,0],"sum_hessian":[8.92E2,8.62E2,3E1,8E2,6.2E1,1.8E1,1.2E1,7.67E2,3.3E1,5.6E1,6E0,1.2E1,6E0,4.64E2,3.03E2,2.9E1,4E0,5.4E1,2E0,5E0,1E0,1.1E1,1E0,2E0,4E0],"tree_param":{"num_deleted":"0","num_feature":"4","num_nodes":"25","size_leaf_vector":"0"}},{"base_weights":[7.142828E-3,4.701408E-3,7.487839E-2,3.7680313E-3,1.6494004E-2,4.5266137E-2,1.12397954E-1,4.037408E-3,-3.9924238E-2,1.9449366E-2,-9.927379E-3,5.966681E-2,1.2055444E-2,4.86422E-2,1.1956789E-1,5.0810776E-3,-2.5269762E-3,-5.375847E-2,7.706344E-3,1.6934184E-2,5.90779E-2,-1.6028501E-2,-1.3444126E-3,-3.3417325E-2,3.6928017E-2,6.8605855E-2,4.3574423E-3,1.379504E-1,6.991879E-2],"categories":[],"categories_nodes":[],"categories_segments":[],"categories_sizes":[],"default_left":[1,1,1,1,1,1,1,1,1,1,1,0,1,1,1,0,0,0,0,0,0,0,0,0,0,0,0,0,0],"id":47,"left_children":[1,3,5,7,9,11,13,15,17,19,21,-1,23,25,27,-1,-1,-1,-1,-1,-1,-1,-1,-1,-1,-1,-1,-1,-1],"loss_changes":[1.473242E-1,9.436835E-3,2.9354379E-2,9.588707E-3,5.1124226E-3,8.367557E-3,1.2658536E-4,5.4731267E-3,3.7089428E-3,4.6809204E-3,3.4501107E-4,0E0,9.151209E-3,2.3533106E-3,3.94091E-4,0E0,0E0,0E0,0E0,0E0,0E0,0E0,0E0,0E0,0E0,0E0,0E0,0E0,0E0],"parents":[2147483647,0,0,1,1,2,2,3,3,4,4,5,5,6,6,7,7,8,8,9,9,10,10,12,12,13,13,14,14],"right_children":[2,4,6,8,10,12,14,16,18,20,22,-1,24,26,28,-1,-1,-1,-1,-1,-1,-1,-1,-1,-1,-1,-1,-1,-1],"split_conditions":[4.9825277E0,1.6257729E1,9.185846E3,4.5850873E0,2.182795E1,2.6923998E1,2.5746239E1,3.6321132E0,1.5105872E1,2.1500282E1,2.3095842E1,5.9666805E-4,2.8634205E1,2.3908855E1,1.3732301E4,5.0810773E-5,-2.5269761E-5,-5.3758465E-4,7.7063436E-5,1.6934185E-4,5.90779E-4,-1.6028501E-4,-1.3444125E-5,-3.3417324E-4,3.6928017E-4,6.8605854E-4,4.3574422E-5,1.379504E-3,6.9918786E-4],"split_indices":[1,0,2,1,0,0,0,1,0,0,0,0,0,0,2,0,0,0,0,0,0,0,0,0,0,0,0,0,0],"split_type":[0,0,0,0,0,0,0,0,0,0,0,0,0,0,0,0,0,0,0,0,0,0,0,0,0,0,0,0,0],"sum_hessian":[8.92E2,8.62E2,3E1,8E2,6.2E1,1.8E1,1.2E1,7.96E2,4E0,5.6E1,6E0,1.2E1,6E0,2E0,1E1,6.87E2,1.09E2,3E0,1E0,5.4E1,2E0,3E0,3E0,2E0,4E0,1E0,1E0,6E0,4E0],"tree_param":{"num_deleted":"0","num_feature":"4","num_nodes":"29","size_leaf_vector":"0"}},{"base_weights":[7.0754215E-3,4.6545696E-3,7.424058E-2,3.7534432E-3,1.6652085E-2,4.4846725E-2,1.11490004E-1,4.0198173E-3,-3.96171E-2,1.9779548E-2,-9.852928E-3,5.9116036E-2,1.1939905E-2,4.839899E-2,1.1856119E-1,4.409604E-3,-1.3159215E-2,-5.3355277E-2,7.6678097E-3,1.715468E-2,5.868405E-2,-1.2830738E-2,4.006967E-3,6.1129928E-2,1.7474666E-2,-3.3194542E-2,3.663259E-2,6.826283E-2,4.3356568E-3,1.36768E-1,6.935944E-2],"categories":[],"categories_nodes":[],"categories_segments":[],"categories_sizes":[],"default_left":[1,1,1,1,1,1,1,1,1,1,1,1,1,1,1,0,0,0,0,0,0,0,0,0,0,0,0,0,0,0,0],"id":48,"left_children":[1,3,5,7,9,11,13,15,17,19,21,23,25,27,29,-1,-1,-1,-1,-1,-1,-1,-1,-1,-1,-1,-1,-1,-1,-1,-1],"loss_changes":[1.4485347E-1,9.267628E-3,2.8942049E-2,9.447694E-3,5.168494E-3,8.215759E-3,6.143749E-5,5.4149497E-3,3.6571613E-3,4.507726E-3,3.4031726E-4,2.1971762E-5,9.017438E-3,2.3298361E-3,3.6771595E-4,0E0,0E0,0E0,0E0,0E0,0E0,0E0,0E0,0E0,0E0,0E0,0E0,0E0,0E0,0E0,0E0],"parents":[2147483647,0,0,1,1,2,2,3,3,4,4,5,5,6,6,7,7,8,8,9,9,10,10,11,11,12,12,13,13,14,14],"right_children":[2,4,6,8,10,12,14,16,18,20,22,24,26,28,30,-1,-1,-1,-1,-1,-1,-1,-1,-1,-1,-1,-1,-1,-1,-1,-1],"split_conditions":[4.9825277E0,1.6379238E1,9.185846E3,4.5850873E0,2.182795E1,2.6923998E1,2.5746239E1,5.715044E3,1.5105872E1,2.1500282E1,2.4011982E1,8.660139E3,2.8634205E1,2.3908855E1,1.3732301E4,4.4096036E-5,-1.3159215E-4,-5.335528E-4,7.6678094E-5,1.715468E-4,5.868405E-4,-1.2830738E-4,4.006967E-5,6.1129924E-4,1.7474666E-4,-3.3194543E-4,3.663259E-4,6.826283E-4,4.3356566E-5,1.3676799E-3,6.9359434E-4],"split_indices":[1,0,2,1,0,0,0,2,0,0,0,2,0,0,2,0,0,0,0,0,0,0,0,0,0,0,0,0,0,0,0],"split_type":[0,0,0,0,0,0,0,0,0,0,0,0,0,0,0,0,0,0,0,0,0,0,0,0,0,0,0,0,0,0,0],"sum_hessian":[8.92E2,8.62E2,3E1,8.03E2,5.9E1,1.8E1,1.2E1,7.99E2,4E0,5.3E1,6E0,1.2E1,6E0,2E0,1E1,7.82E2,1.7E1,3E0,1E0,5.1E1,2E0,5E0,1E0,1.1E1,1E0,2E0,4E0,1E0,1E0,6E0,4E0],"tree_param":{"num_deleted":"0","num_feature":"4","num_nodes":"31","size_leaf_vector":"0"}},{"base_weights":[7.0088496E-3,4.6081715E-3,7.3614545E-2,3.7152336E-3,1.6496735E-2,4.4441435E-2,1.1058951E-1,3.9795116E-3,-3.9312303E-2,1.95958E-2,-9.767011E-3,5.858534E-2,1.1825413E-2,4.365566E-3,-1.3034934E-2,-5.2955113E-2,7.629469E-3,1.6986437E-2,5.8292825E-2,-1.5812065E-2,-1.2802035E-3,6.0569566E-2,1.7387293E-2,-3.297325E-2,3.633953E-2],"categories":[],"categories_nodes":[],"categories_segments":[],"categories_sizes":[],"default_left":[1,1,1,1,1,1,0,1,1,1,1,1,1,0,0,0,0,0,0,0,0,0,0,0,0],"id":49,"left_children":[1,3,5,7,9,11,-1,13,15,17,19,21,23,-1,-1,-1,-1,-1,-1,-1,-1,-1,-1,-1,-1],"loss_changes":[1.4245045E-1,9.1001E-3,2.852416E-2,9.298917E-3,5.074976E-3,8.072242E-3,0E0,5.311705E-3,3.6061066E-3,4.4624414E-3,3.3887982E-4,9.56282E-6,8.8856295E-3,0E0,0E0,0E0,0E0,0E0,0E0,0E0,0E0,0E0,0E0,0E0,0E0],"parents":[2147483647,0,0,1,1,2,2,3,3,4,4,5,5,7,7,8,8,9,9,10,10,11,11,12,12],"right_children":[2,4,6,8,10,12,-1,14,16,18,20,22,24,-1,-1,-1,-1,-1,-1,-1,-1,-1,-1,-1,-1],"split_conditions":[4.9825277E0,1.6379238E1,9.185846E3,4.5850873E0,2.182795E1,2.6923998E1,1.1058951E-3,5.715044E3,1.5105872E1,2.1500282E1,2.3095842E1,8.660139E3,2.8634205E1,4.3655662E-5,-1.3034933E-4,-5.295511E-4,7.629469E-5,1.6986436E-4,5.8292825E-4,-1.5812065E-4,-1.2802035E-5,6.0569565E-4,1.7387293E-4,-3.297325E-4,3.633953E-4],"split_indices":[1,0,2,1,0,0,0,2,0,0,0,2,0,0,0,0,0,0,0,0,0,0,0,0,0],"split_type":[0,0,0,0,0,0,0,0,0,0,0,0,0,0,0,0,0,0,0,0,0,0,0,0,0],"sum_hessian":[8.92E2,8.62E2,3E1,8.03E2,5.9E1,1.8E1,1.2E1,7.99E2,4E0,5.3E1,6E0,1.2E1,6E0,7.82E2,1.7E1,3E0,1E0,5.1E1,2E0,3E0,3E0,1.1E1,1E0,2E0,4E0],"tree_param":{"num_deleted":"0","num_feature":"4","num_nodes":"25","size_leaf_vector":"0"}},{"base_weights":[6.9409586E-3,4.5621395E-3,7.29403E-2,3.6538192E-3,1.6038373E-2,4.403982E-2,1.0956867E-1,4.365588E-3,-1.2531251E-2,1.8917082E-2,-9.693749E-3,5.8059447E-2,1.1711961E-2,4.7419727E-2,1.165576E-1,1.8813431E-3,8.151142E-3,-7.7004465E-3,-3.9009828E-2,1.6446566E-2,5.7904202E-2,-1.5693469E-2,-1.2705922E-3,-3.2753427E-2,3.60488E-2,6.736857E-2,3.7610233E-3,1.3464777E-1,6.7919835E-2],"categories":[],"categories_nodes":[],"categories_segments":[],"categories_sizes":[],"default_left":[1,1,1,1,1,1,1,1,1,1,1,0,1,1,1,0,0,0,0,0,0,0,0,0,0,0,0,0,0],"id":50,"left_children":[1,3,5,7,9,11,13,15,17,19,21,-1,23,25,27,-1,-1,-1,-1,-1,-1,-1,-1,-1,-1,-1,-1,-1,-1],"loss_changes":[1.3986866E-1,8.937394E-3,2.7990505E-2,9.28225E-3,4.850125E-3,7.931277E-3,1.1949241E-4,7.2071245E-3,4.048643E-3,4.537821E-3,3.338161E-4,0E0,8.75575E-3,2.359447E-3,5.3325295E-4,0E0,0E0,0E0,0E0,0E0,0E0,0E0,0E0,0E0,0E0,0E0,0E0,0E0,0E0],"parents":[2147483647,0,0,1,1,2,2,3,3,4,4,5,5,6,6,7,7,8,8,9,9,10,10,12,12,13,13,14,14],"right_children":[2,4,6,8,10,12,14,16,18,20,22,-1,24,26,28,-1,-1,-1,-1,-1,-1,-1,-1,-1,-1,-1,-1,-1,-1],"split_conditions":[4.9825277E0,1.6257729E1,9.185846E3,3.9990988E0,2.182795E1,2.6923998E1,2.5746239E1,7.6480007E0,4.5850873E0,2.1500282E1,2.3095842E1,5.8059447E-4,2.8634205E1,2.3908855E1,1.3732301E4,1.881343E-5,8.151142E-5,-7.7004464E-5,-3.9009828E-4,1.6446566E-4,5.79042E-4,-1.569347E-4,-1.2705922E-5,-3.2753425E-4,3.60488E-4,6.7368563E-4,3.7610233E-5,1.3464777E-3,6.7919836E-4],"split_indices":[1,0,2,1,0,0,0,0,1,0,0,0,0,0,2,0,0,0,0,0,0,0,0,0,0,0,0,0,0],"split_type":[0,0,0,0,0,0,0,0,0,0,0,0,0,0,0,0,0,0,0,0,0,0,0,0,0,0,0,0,0],"sum_hessian":[8.92E2,8.62E2,3E1,8E2,6.2E1,1.8E1,1.2E1,7.67E2,3.3E1,5.6E1,6E0,1.2E1,6E0,2E0,1E1,4.64E2,3.03E2,2.9E1,4E0,5.4E1,2E0,3E0,3E0,2E0,4E0,1E0,1E0,6E0,4E0],"tree_param":{"num_deleted":"0","num_feature":"4","num_nodes":"29","size_leaf_vector":"0"}},{"base_weights":[6.875534E-3,4.5167594E-3,7.231898E-2,3.6399404E-3,1.6190855E-2,4.363171E-2,1.0868353E-1,3.900001E-3,-3.8697746E-2,1.9237012E-2,-9.621049E-3,5.7523515E-2,1.1599547E-2,4.718263E-2,1.1557618E-1,1.7340612E-3,6.9167493E-3,-5.2265372E-2,7.7863783E-3,1.665854E-2,5.7518184E-2,-1.2557785E-2,3.9996803E-3,5.948213E-2,1.7010063E-2,-3.2535072E-2,3.576041E-2,6.7031726E-2,3.742218E-3,1.3349365E-1,6.737648E-2],"categories":[],"categories_nodes":[],"categories_segments":[],"categories_sizes":[],"default_left":[1,1,1,1,1,1,1,1,1,1,1,1,1,1,1,0,0,0,0,0,0,0,0,0,0,0,0,0,0,0,0],"id":51,"left_children":[1,3,5,7,9,11,13,15,17,19,21,23,25,27,29,-1,-1,-1,-1,-1,-1,-1,-1,-1,-1,-1,-1,-1,-1,-1,-1],"loss_changes":[1.3752249E-1,8.774793E-3,2.759713E-2,9.0032555E-3,4.9027093E-3,7.7874586E-3,5.7563186E-5,5.2152816E-3,3.5603545E-3,4.3720026E-3,3.3023034E-4,1.975894E-5,8.62778E-3,2.3359116E-3,5.054474E-4,0E0,0E0,0E0,0E0,0E0,0E0,0E0,0E0,0E0,0E0,0E0,0E0,0E0,0E0,0E0,0E0],"parents":[2147483647,0,0,1,1,2,2,3,3,4,4,5,5,6,6,7,7,8,8,9,9,10,10,11,11,12,12,13,13,14,14],"right_children":[2,4,6,8,10,12,14,16,18,20,22,24,26,28,30,-1,-1,-1,-1,-1,-1,-1,-1,-1,-1,-1,-1,-1,-1,-1,-1],"split_conditions":[4.9825277E0,1.6379238E1,9.185846E3,4.5850873E0,2.182795E1,2.6923998E1,2.5746239E1,7.6480007E0,1.5105872E1,2.1500282E1,2.4011982E1,8.660139E3,2.8634205E1,2.3908855E1,1.3732301E4,1.7340612E-5,6.9167494E-5,-5.226537E-4,7.7863784E-5,1.665854E-4,5.7518185E-4,-1.2557785E-4,3.99968E-5,5.948213E-4,1.7010063E-4,-3.2535073E-4,3.576041E-4,6.7031727E-4,3.7422178E-5,1.3349365E-3,6.737648E-4],"split_indices":[1,0,2,1,0,0,0,0,0,0,0,2,0,0,2,0,0,0,0,0,0,0,0,0,0,0,0,0,0,0,0],"split_type":[0,0,0,0,0,0,0,0,0,0,0,0,0,0,0,0,0,0,0,0,0,0,0,0,0,0,0,0,0,0,0],"sum_hessian":[8.92E2,8.62E2,3E1,8.03E2,5.9E1,1.8E1,1.2E1,7.99E2,4E0,5.3E1,6E0,1.2E1,6E0,2E0,1E1,4.66E2,3.33E2,3E0,1E0,5.1E1,2E0,5E0,1E0,1.1E1,1E0,2E0,4E0,1E0,1E0,6E0,4E0],"tree_param":{"num_deleted":"0","num_feature":"4","num_nodes":"31","size_leaf_vector":"0"}},{"base_weights":[6.811046E-3,4.4719363E-3,7.170913E-2,3.5800992E-3,1.5740024E-2,4.323735E-2,1.0780565E-1,4.2842976E-3,-1.24317985E-2,1.8568086E-2,-9.537059E-3,5.700712E-2,1.1488163E-2,1.8452683E-3,8.000957E-3,-7.6894173E-3,-3.8399726E-2,1.612685E-2,5.713473E-2,-1.5481578E-2,-1.2082756E-3,5.8936875E-2,1.6925015E-2,-3.231817E-2,3.547433E-2],"categories":[],"categories_nodes":[],"categories_segments":[],"categories_sizes":[],"default_left":[1,1,1,1,1,1,0,1,1,1,1,1,1,0,0,0,0,0,0,0,0,0,0,0,0],"id":52,"left_children":[1,3,5,7,9,11,-1,13,15,17,19,21,23,-1,-1,-1,-1,-1,-1,-1,-1,-1,-1,-1,-1],"loss_changes":[1.3524006E-1,8.616192E-3,2.7198464E-2,9.08498E-3,4.680653E-3,7.651493E-3,0E0,6.9471886E-3,3.891822E-3,4.4451617E-3,3.2786833E-4,8.024275E-6,8.501688E-3,0E0,0E0,0E0,0E0,0E0,0E0,0E0,0E0,0E0,0E0,0E0,0E0],"parents":[2147483647,0,0,1,1,2,2,3,3,4,4,5,5,7,7,8,8,9,9,10,10,11,11,12,12],"right_children":[2,4,6,8,10,12,-1,14,16,18,20,22,24,-1,-1,-1,-1,-1,-1,-1,-1,-1,-1,-1,-1],"split_conditions":[4.9825277E0,1.6257729E1,9.185846E3,3.9990988E0,2.182795E1,2.6923998E1,1.0780564E-3,7.6480007E0,4.5850873E0,2.1500282E1,2.3095842E1,8.660139E3,2.8634205E1,1.8452683E-5,8.0009566E-5,-7.689417E-5,-3.8399725E-4,1.612685E-4,5.7134725E-4,-1.5481577E-4,-1.2082755E-5,5.8936875E-4,1.6925014E-4,-3.231817E-4,3.547433E-4],"split_indices":[1,0,2,1,0,0,0,0,1,0,0,2,0,0,0,0,0,0,0,0,0,0,0,0,0],"split_type":[0,0,0,0,0,0,0,0,0,0,0,0,0,0,0,0,0,0,0,0,0,0,0,0,0],"sum_hessian":[8.92E2,8.62E2,3E1,8E2,6.2E1,1.8E1,1.2E1,7.67E2,3.3E1,5.6E1,6E0,1.2E1,6E0,4.64E2,3.03E2,2.9E1,4E0,5.4E1,2E0,3E0,3E0,1.1E1,1E0,2E0,4E0],"tree_param":{"num_deleted":"0","num_feature":"4","num_nodes":"25","size_leaf_vector":"0"}},{"base_weights":[6.745254E-3,4.4274516E-3,7.1052305E-2,3.5663738E-3,1.5892103E-2,4.2846568E-2,1.0681051E-1,3.8222838E-3,-3.8092524E-2,1.8884907E-2,-9.465535E-3,5.6495402E-2,1.1377794E-2,4.6228003E-2,1.1362296E-1,4.204686E-3,-1.3024555E-2,-5.1585376E-2,7.939443E-3,1.6336989E-2,5.6753833E-2,-1.5365463E-2,-1.1992231E-3,-3.2102715E-2,3.519054E-2,6.6157535E-2,3.1844676E-3,1.3142537E-1,6.597501E-2],"categories":[],"categories_nodes":[],"categories_segments":[],"categories_sizes":[],"default_left":[1,1,1,1,1,1,1,1,1,1,1,0,1,1,1,0,0,0,0,0,0,0,0,0,0,0,0,0,0],"id":53,"left_children":[1,3,5,7,9,11,13,15,17,19,21,-1,23,25,27,-1,-1,-1,-1,-1,-1,-1,-1,-1,-1,-1,-1,-1,-1],"loss_changes":[1.32788E-1,8.462822E-3,2.6689708E-2,8.716991E-3,4.7321813E-3,7.5179413E-3,1.12742186E-4,5.208577E-3,3.5150717E-3,4.283106E-3,3.2296788E-4,0E0,8.377444E-3,2.3628357E-3,6.599277E-4,0E0,0E0,0E0,0E0,0E0,0E0,0E0,0E0,0E0,0E0,0E0,0E0,0E0,0E0],"parents":[2147483647,0,0,1,1,2,2,3,3,4,4,5,5,6,6,7,7,8,8,9,9,10,10,12,12,13,13,14,14],"right_children":[2,4,6,8,10,12,14,16,18,20,22,-1,24,26,28,-1,-1,-1,-1,-1,-1,-1,-1,-1,-1,-1,-1,-1,-1],"split_conditions":[4.9825277E0,1.6379238E1,9.185846E3,4.5850873E0,2.182795E1,2.6923998E1,2.5746239E1,5.715044E3,1.5105872E1,2.1500282E1,2.3095842E1,5.64954E-4,2.8634205E1,2.3908855E1,1.3732301E4,4.2046857E-5,-1.3024555E-4,-5.1585375E-4,7.939443E-5,1.6336988E-4,5.675383E-4,-1.5365462E-4,-1.1992231E-5,-3.2102715E-4,3.5190542E-4,6.6157535E-4,3.1844676E-5,1.3142537E-3,6.597501E-4],"split_indices":[1,0,2,1,0,0,0,2,0,0,0,0,0,0,2,0,0,0,0,0,0,0,0,0,0,0,0,0,0],"split_type":[0,0,0,0,0,0,0,0,0,0,0,0,0,0,0,0,0,0,0,0,0,0,0,0,0,0,0,0,0],"sum_hessian":[8.92E2,8.62E2,3E1,8.03E2,5.9E1,1.8E1,1.2E1,7.99E2,4E0,5.3E1,6E0,1.2E1,6E0,2E0,1E1,7.82E2,1.7E1,3E0,1E0,5.1E1,2E0,3E0,3E0,2E0,4E0,1E0,1E0,6E0,4E0],"tree_param":{"num_deleted":"0","num_feature":"4","num_nodes":"29","size_leaf_vector":"0"}},{"base_weights":[6.6815023E-3,4.383225E-3,7.044704E-2,3.530059E-3,1.5742598E-2,4.2449463E-2,1.05947584E-1,3.7839524E-3,-3.7798893E-2,1.8709589E-2,-9.394547E-3,5.5973906E-2,1.1268428E-2,4.5996856E-2,1.1266618E-1,4.1626943E-3,-1.2901541E-2,-5.119849E-2,7.899746E-3,1.6176756E-2,5.6375485E-2,-1.2290874E-2,3.991708E-3,5.7878748E-2,1.6557917E-2,-3.1888697E-2,3.4909017E-2,6.5826744E-2,3.1685382E-3,1.3029887E-1,6.54472E-2],"categories":[],"categories_nodes":[],"categories_segments":[],"categories_sizes":[],"default_left":[1,1,1,1,1,1,1,1,1,1,1,1,1,1,1,0,0,0,0,0,0,0,0,0,0,0,0,0,0,0,0],"id":54,"left_children":[1,3,5,7,9,11,13,15,17,19,21,23,25,27,29,-1,-1,-1,-1,-1,-1,-1,-1,-1,-1,-1,-1,-1,-1,-1,-1],"loss_changes":[1.3056117E-1,8.308135E-3,2.6314393E-2,8.5795205E-3,4.6506645E-3,7.3816814E-3,5.39124E-5,5.109301E-3,3.4661717E-3,4.2397026E-3,3.2045838E-4,1.770258E-5,8.255022E-3,2.3392676E-3,6.3087046E-4,0E0,0E0,0E0,0E0,0E0,0E0,0E0,0E0,0E0,0E0,0E0,0E0,0E0,0E0,0E0,0E0],"parents":[2147483647,0,0,1,1,2,2,3,3,4,4,5,5,6,6,7,7,8,8,9,9,10,10,11,11,12,12,13,13,14,14],"right_children":[2,4,6,8,10,12,14,16,18,20,22,24,26,28,30,-1,-1,-1,-1,-1,-1,-1,-1,-1,-1,-1,-1,-1,-1,-1,-1],"split_conditions":[4.9825277E0,1.6379238E1,9.185846E3,4.5850873E0,2.182795E1,2.6923998E1,2.5746239E1,5.715044E3,1.5105872E1,2.1500282E1,2.4011982E1,8.660139E3,2.8634205E1,2.3908855E1,1.3732301E4,4.1626943E-5,-1.290154E-4,-5.1198486E-4,7.899746E-5,1.6176756E-4,5.637548E-4,-1.2290874E-4,3.9917082E-5,5.7878747E-4,1.6557917E-4,-3.1888697E-4,3.4909017E-4,6.582674E-4,3.168538E-5,1.3029886E-3,6.544719E-4],"split_indices":[1,0,2,1,0,0,0,2,0,0,0,2,0,0,2,0,0,0,0,0,0,0,0,0,0,0,0,0,0,0,0],"split_type":[0,0,0,0,0,0,0,0,0,0,0,0,0,0,0,0,0,0,0,0,0,0,0,0,0,0,0,0,0,0,0],"sum_hessian":[8.92E2,8.62E2,3E1,8.03E2,5.9E1,1.8E1,1.2E1,7.99E2,4E0,5.3E1,6E0,1.2E1,6E0,2E0,1E1,7.82E2,1.7E1,3E0,1E0,5.1E1,2E0,5E0,1E0,1.1E1,1E0,2E0,4E0,1E0,1E0,6E0,4E0],"tree_param":{"num_deleted":"0","num_feature":"4","num_nodes":"31","size_leaf_vector":"0"}},{"base_weights":[6.618656E-3,4.339535E-3,6.9852956E-2,3.4716255E-3,1.53055E-2,4.206573E-2,1.0509176E-1,4.162931E-3,-1.2245856E-2,1.8060239E-2,-9.312457E-3,5.5471424E-2,1.1160049E-2,1.7433625E-3,7.850222E-3,-7.6273866E-3,-3.75075E-2,1.5662448E-2,5.5999655E-2,-1.5158039E-2,-1.1387616E-3,5.7348188E-2,1.6475126E-2,-3.1676106E-2,3.4629732E-2],"categories":[],"categories_nodes":[],"categories_segments":[],"categories_sizes":[],"default_left":[1,1,1,1,1,1,0,1,1,1,1,1,1,0,0,0,0,0,0,0,0,0,0,0,0],"id":55,"left_children":[1,3,5,7,9,11,-1,13,15,17,19,21,23,-1,-1,-1,-1,-1,-1,-1,-1,-1,-1,-1,-1],"loss_changes":[1.2839484E-1,8.1604365E-3,2.5934085E-2,8.754312E-3,4.4405963E-3,7.2528683E-3,0E0,6.838144E-3,3.6807E-3,4.3082424E-3,3.1719863E-4,6.6123903E-6,8.134392E-3,0E0,0E0,0E0,0E0,0E0,0E0,0E0,0E0,0E0,0E0,0E0,0E0],"parents":[2147483647,0,0,1,1,2,2,3,3,4,4,5,5,7,7,8,8,9,9,10,10,11,11,12,12],"right_children":[2,4,6,8,10,12,-1,14,16,18,20,22,24,-1,-1,-1,-1,-1,-1,-1,-1,-1,-1,-1,-1],"split_conditions":[4.9825277E0,1.6257729E1,9.185846E3,3.9990988E0,2.182795E1,2.6923998E1,1.0509175E-3,7.6480007E0,4.5850873E0,2.1500282E1,2.3095842E1,8.660139E3,2.8634205E1,1.7433626E-5,7.850222E-5,-7.6273864E-5,-3.75075E-4,1.5662448E-4,5.599965E-4,-1.5158039E-4,-1.1387616E-5,5.7348184E-4,1.6475125E-4,-3.1676106E-4,3.462973E-4],"split_indices":[1,0,2,1,0,0,0,0,1,0,0,2,0,0,0,0,0,0,0,0,0,0,0,0,0],"split_type":[0,0,0,0,0,0,0,0,0,0,0,0,0,0,0,0,0,0,0,0,0,0,0,0,0],"sum_hessian":[8.92E2,8.62E2,3E1,8E2,6.2E1,1.8E1,1.2E1,7.67E2,3.3E1,5.6E1,6E0,1.2E1,6E0,4.64E2,3.03E2,2.9E1,4E0,5.4E1,2E0,3E0,3E0,1.1E1,1E0,2E0,4E0],"tree_param":{"num_deleted":"0","num_feature":"4","num_nodes":"25","size_leaf_vector":"0"}},{"base_weights":[6.554729E-3,4.29637E-3,6.921309E-2,3.4584987E-3,1.5452233E-2,4.168548E-2,1.0412168E-1,3.708338E-3,-3.7207443E-2,1.8367266E-2,-9.242617E-3,5.4973494E-2,1.1052666E-2,4.5066256E-2,1.107621E-1,-4.0149223E-3,4.5246123E-3,-5.053319E-2,8.047774E-3,1.5864488E-2,5.5626333E-2,-1.2108869E-2,3.9774477E-3,-3.146493E-2,3.435269E-2,6.497215E-2,2.6272386E-3,1.2828122E-1,6.40829E-2],"categories":[],"categories_nodes":[],"categories_segments":[],"categories_sizes":[],"default_left":[1,1,1,1,1,1,1,1,1,1,1,0,1,1,1,0,0,0,0,0,0,0,0,0,0,0,0,0,0],"id":56,"left_children":[1,3,5,7,9,11,13,15,17,19,21,-1,23,25,27,-1,-1,-1,-1,-1,-1,-1,-1,-1,-1,-1,-1,-1,-1],"loss_changes":[1.260667E-1,8.01317E-3,2.5449097E-2,8.306569E-3,4.4889394E-3,7.126335E-3,1.0634959E-4,5.061606E-3,3.421978E-3,4.1530784E-3,3.1340664E-4,0E0,8.015532E-3,2.3636618E-3,7.749349E-4,0E0,0E0,0E0,0E0,0E0,0E0,0E0,0E0,0E0,0E0,0E0,0E0,0E0,0E0],"parents":[2147483647,0,0,1,1,2,2,3,3,4,4,5,5,6,6,7,7,8,8,9,9,10,10,12,12,13,13,14,14],"right_children":[2,4,6,8,10,12,14,16,18,20,22,-1,24,26,28,-1,-1,-1,-1,-1,-1,-1,-1,-1,-1,-1,-1,-1,-1],"split_conditions":[4.9825277E0,1.6379238E1,9.185846E3,4.5850873E0,2.182795E1,2.6923998E1,2.5746239E1,5.42995E2,1.5105872E1,2.1500282E1,2.4011982E1,5.497349E-4,2.8634205E1,2.3908855E1,1.3732301E4,-4.014922E-5,4.524612E-5,-5.053319E-4,8.0477745E-5,1.5864488E-4,5.562633E-4,-1.21088684E-4,3.9774477E-5,-3.146493E-4,3.435269E-4,6.497215E-4,2.6272386E-5,1.2828122E-3,6.40829E-4],"split_indices":[1,0,2,1,0,0,0,2,0,0,0,0,0,0,2,0,0,0,0,0,0,0,0,0,0,0,0,0,0],"split_type":[0,0,0,0,0,0,0,0,0,0,0,0,0,0,0,0,0,0,0,0,0,0,0,0,0,0,0,0,0],"sum_hessian":[8.92E2,8.62E2,3E1,8.03E2,5.9E1,1.8E1,1.2E1,7.99E2,4E0,5.3E1,6E0,1.2E1,6E0,2E0,1E1,7.6E1,7.23E2,3E0,1E0,5.1E1,2E0,5E0,1E0,2E0,4E0,1E0,1E0,6E0,4E0],"tree_param":{"num_deleted":"0","num_feature":"4","num_nodes":"29","size_leaf_vector":"0"}},{"base_weights":[6.49298E-3,4.253654E-3,6.862349E-2,3.4013966E-3,1.5021976E-2,4.129908E-2,1.0328043E-1,4.0842453E-3,-1.2122992E-2,1.7728372E-2,-9.161809E-3,5.446605E-2,1.0946264E-2,4.484092E-2,1.0982935E-1,1.6927529E-3,7.7288495E-3,-2.3724638E-2,-2.8156084E-3,1.5359103E-2,5.525549E-2,-1.4953541E-2,-1.0796264E-3,5.6318574E-2,1.6117886E-2,-3.125516E-2,3.4077864E-2,6.464729E-2,2.6140958E-3,1.2718168E-1,6.3570224E-2],"categories":[],"categories_nodes":[],"categories_segments":[],"categories_sizes":[],"default_left":[1,1,1,1,1,1,1,1,1,1,1,1,1,1,1,0,0,0,0,0,0,0,0,0,0,0,0,0,0,0,0],"id":57,"left_children":[1,3,5,7,9,11,13,15,17,19,21,23,25,27,29,-1,-1,-1,-1,-1,-1,-1,-1,-1,-1,-1,-1,-1,-1,-1,-1],"loss_changes":[1.23951614E-1,7.868982E-3,2.5091022E-2,8.5407635E-3,4.285829E-3,6.9972426E-3,5.044043E-5,6.680837E-3,3.6045536E-3,4.219299E-3,3.115246E-4,1.579523E-5,7.898415E-3,2.3400863E-3,7.4477494E-4,0E0,0E0,0E0,0E0,0E0,0E0,0E0,0E0,0E0,0E0,0E0,0E0,0E0,0E0,0E0,0E0],"parents":[2147483647,0,0,1,1,2,2,3,3,4,4,5,5,6,6,7,7,8,8,9,9,10,10,11,11,12,12,13,13,14,14],"right_children":[2,4,6,8,10,12,14,16,18,20,22,24,26,28,30,-1,-1,-1,-1,-1,-1,-1,-1,-1,-1,-1,-1,-1,-1,-1,-1],"split_conditions":[4.9825277E0,1.6257729E1,9.185846E3,3.9990988E0,2.182795E1,2.6923998E1,2.5746239E1,7.6480007E0,1.3817717E1,2.1500282E1,2.3095842E1,8.660139E3,2.8634205E1,2.3908855E1,1.3732301E4,1.6927528E-5,7.7288496E-5,-2.3724638E-4,-2.8156084E-5,1.5359103E-4,5.525549E-4,-1.4953541E-4,-1.0796263E-5,5.631857E-4,1.6117885E-4,-3.125516E-4,3.4077864E-4,6.4647285E-4,2.6140957E-5,1.2718168E-3,6.357022E-4],"split_indices":[1,0,2,1,0,0,0,0,0,0,0,2,0,0,2,0,0,0,0,0,0,0,0,0,0,0,0,0,0,0,0],"split_type":[0,0,0,0,0,0,0,0,0,0,0,0,0,0,0,0,0,0,0,0,0,0,0,0,0,0,0,0,0,0,0],"sum_hessian":[8.92E2,8.62E2,3E1,8E2,6.2E1,1.8E1,1.2E1,7.67E2,3.3E1,5.6E1,6E0,1.2E1,6E0,2E0,1E1,4.64E2,3.03E2,1.4E1,1.9E1,5.4E1,2E0,3E0,3E0,1.1E1,1E0,2E0,4E0,1E0,1E0,6E0,4E0],"tree_param":{"num_deleted":"0","num_feature":"4","num_nodes":"31","size_leaf_vector":"0"}},{"base_weights":[6.4322026E-3,4.211552E-3,6.804476E-2,3.3887192E-3,1.5167324E-2,4.0925693E-2,1.02446094E-1,3.6360126E-3,-3.6855992E-2,1.8031316E-2,-9.0930965E-3,5.3977106E-2,1.0840825E-2,4.010578E-3,-1.2859582E-2,-5.0080802E-2,8.021623E-3,1.5558264E-2,5.4887116E-2,-1.4841383E-2,-1.071535E-3,5.5802315E-2,1.6037293E-2,-3.1046798E-2,3.3805232E-2],"categories":[],"categories_nodes":[],"categories_segments":[],"categories_sizes":[],"default_left":[1,1,1,1,1,1,0,1,1,1,1,1,1,0,0,0,0,0,0,0,0,0,0,0,0],"id":58,"left_children":[1,3,5,7,9,11,-1,13,15,17,19,21,23,-1,-1,-1,-1,-1,-1,-1,-1,-1,-1,-1,-1],"loss_changes":[1.2189363E-1,7.7283513E-3,2.4728224E-2,8.135623E-3,4.332861E-3,6.8751946E-3,0E0,4.994518E-3,3.3692191E-3,4.0679537E-3,3.0686863E-4,5.3048134E-6,7.7830153E-3,0E0,0E0,0E0,0E0,0E0,0E0,0E0,0E0,0E0,0E0,0E0,0E0],"parents":[2147483647,0,0,1,1,2,2,3,3,4,4,5,5,7,7,8,8,9,9,10,10,11,11,12,12],"right_children":[2,4,6,8,10,12,-1,14,16,18,20,22,24,-1,-1,-1,-1,-1,-1,-1,-1,-1,-1,-1,-1],"split_conditions":[4.9825277E0,1.6379238E1,9.185846E3,4.5850873E0,2.182795E1,2.6923998E1,1.0244609E-3,5.715044E3,1.5105872E1,2.1500282E1,2.3095842E1,8.660139E3,2.8634205E1,4.010578E-5,-1.2859581E-4,-5.00808E-4,8.0216225E-5,1.5558265E-4,5.488712E-4,-1.4841383E-4,-1.071535E-5,5.5802317E-4,1.6037292E-4,-3.1046796E-4,3.380523E-4],"split_indices":[1,0,2,1,0,0,0,2,0,0,0,2,0,0,0,0,0,0,0,0,0,0,0,0,0],"split_type":[0,0,0,0,0,0,0,0,0,0,0,0,0,0,0,0,0,0,0,0,0,0,0,0,0],"sum_hessian":[8.92E2,8.62E2,3E1,8.03E2,5.9E1,1.8E1,1.2E1,7.99E2,4E0,5.3E1,6E0,1.2E1,6E0,7.82E2,1.7E1,3E0,1E0,5.1E1,2E0,3E0,3E0,1.1E1,1E0,2E0,4E0],"tree_param":{"num_deleted":"0","num_feature":"4","num_nodes":"25","size_leaf_vector":"0"}},{"base_weights":[6.3699037E-3,4.1694785E-3,6.742142E-2,3.3541983E-3,1.5024741E-2,4.05557E-2,1.01500444E-1,3.5995415E-3,-3.657155E-2,1.786405E-2,-9.024891E-3,5.34926E-2,1.0736359E-2,4.393375E-2,1.0797314E-1,-4.0238714E-3,4.405347E-3,-4.9705192E-2,7.981509E-3,1.5405674E-2,5.4521203E-2,-1.1851811E-2,3.9683133E-3,-3.0839821E-2,3.3534795E-2,6.3811824E-2,2.0888E-3,1.2521344E-1,6.224209E-2],"categories":[],"categories_nodes":[],"categories_segments":[],"categories_sizes":[],"default_left":[1,1,1,1,1,1,1,1,1,1,1,0,1,1,1,0,0,0,0,0,0,0,0,0,0,0,0,0,0],"id":59,"left_children":[1,3,5,7,9,11,13,15,17,19,21,-1,23,25,27,-1,-1,-1,-1,-1,-1,-1,-1,-1,-1,-1,-1,-1,-1],"loss_changes":[1.19683884E-1,7.5872224E-3,2.426587E-2,8.007231E-3,4.2582806E-3,6.755311E-3,1.00284815E-4,4.9321176E-3,3.322442E-3,4.026385E-3,3.0414696E-4,0E0,7.66931E-3,2.3621018E-3,8.790344E-4,0E0,0E0,0E0,0E0,0E0,0E0,0E0,0E0,0E0,0E0,0E0,0E0,0E0,0E0],"parents":[2147483647,0,0,1,1,2,2,3,3,4,4,5,5,6,6,7,7,8,8,9,9,10,10,12,12,13,13,14,14],"right_children":[2,4,6,8,10,12,14,16,18,20,22,-1,24,26,28,-1,-1,-1,-1,-1,-1,-1,-1,-1,-1,-1,-1,-1,-1],"split_conditions":[4.9825277E0,1.6379238E1,9.185846E3,4.5850873E0,2.182795E1,2.6923998E1,2.5746239E1,5.42995E2,1.5105872E1,2.1500282E1,2.4011982E1,5.3492596E-4,2.8634205E1,2.3908855E1,1.3732301E4,-4.0238712E-5,4.405347E-5,-4.970519E-4,7.981509E-5,1.5405675E-4,5.45212E-4,-1.185181E-4,3.968313E-5,-3.0839822E-4,3.3534796E-4,6.3811825E-4,2.0888001E-5,1.2521344E-3,6.224209E-4],"split_indices":[1,0,2,1,0,0,0,2,0,0,0,0,0,0,2,0,0,0,0,0,0,0,0,0,0,0,0,0,0],"split_type":[0,0,0,0,0,0,0,0,0,0,0,0,0,0,0,0,0,0,0,0,0,0,0,0,0,0,0,0,0],"sum_hessian":[8.92E2,8.62E2,3E1,8.03E2,5.9E1,1.8E1,1.2E1,7.99E2,4E0,5.3E1,6E0,1.2E1,6E0,2E0,1E1,7.6E1,7.23E2,3E0,1E0,5.1E1,2E0,5E0,1E0,2E0,4E0,1E0,1E0,6E0,4E0],"tree_param":{"num_deleted":"0","num_feature":"4","num_nodes":"29","size_leaf_vector":"0"}},{"base_weights":[6.309902E-3,4.1280226E-3,6.684706E-2,3.2986503E-3,1.4607374E-2,4.017972E-2,1.0068033E-1,3.9697937E-3,-1.1958316E-2,1.7243613E-2,-8.945904E-3,5.2998826E-2,1.0632852E-2,4.3714076E-2,1.0706382E-1,1.603664E-3,7.5759795E-3,-2.3464648E-2,-2.7306508E-3,1.4916594E-2,5.4157734E-2,-1.4641181E-2,-1.0141507E-3,5.480045E-2,1.5689649E-2,-3.0634223E-2,3.3266526E-2,6.349276E-2,2.0783544E-3,1.2414018E-1,6.1744153E-2],"categories":[],"categories_nodes":[],"categories_segments":[],"categories_sizes":[],"default_left":[1,1,1,1,1,1,1,1,1,1,1,1,1,1,1,0,0,0,0,0,0,0,0,0,0,0,0,0,0,0,0],"id":60,"left_children":[1,3,5,7,9,11,13,15,17,19,21,23,25,27,29,-1,-1,-1,-1,-1,-1,-1,-1,-1,-1,-1,-1,-1,-1,-1,-1],"loss_changes":[1.17675774E-1,7.452391E-3,2.3924232E-2,8.249402E-3,4.0660584E-3,6.6329967E-3,4.7162175E-5,6.540966E-3,3.5459301E-3,4.088439E-3,3.0136632E-4,1.4021993E-5,7.5572724E-3,2.3385389E-3,8.479059E-4,0E0,0E0,0E0,0E0,0E0,0E0,0E0,0E0,0E0,0E0,0E0,0E0,0E0,0E0,0E0,0E0],"parents":[2147483647,0,0,1,1,2,2,3,3,4,4,5,5,6,6,7,7,8,8,9,9,10,10,11,11,12,12,13,13,14,14],"right_children":[2,4,6,8,10,12,14,16,18,20,22,24,26,28,30,-1,-1,-1,-1,-1,-1,-1,-1,-1,-1,-1,-1,-1,-1,-1,-1],"split_conditions":[4.9825277E0,1.6257729E1,9.185846E3,3.9990988E0,2.182795E1,2.6923998E1,2.5746239E1,7.6480007E0,1.3817717E1,2.1500282E1,2.3095842E1,8.660139E3,2.8634205E1,2.3908855E1,1.3732301E4,1.603664E-5,7.5759795E-5,-2.3464648E-4,-2.7306507E-5,1.4916593E-4,5.4157735E-4,-1.464118E-4,-1.0141506E-5,5.480045E-4,1.5689648E-4,-3.063422E-4,3.3266525E-4,6.349276E-4,2.0783544E-5,1.2414018E-3,6.1744155E-4],"split_indices":[1,0,2,1,0,0,0,0,0,0,0,2,0,0,2,0,0,0,0,0,0,0,0,0,0,0,0,0,0,0,0],"split_type":[0,0,0,0,0,0,0,0,0,0,0,0,0,0,0,0,0,0,0,0,0,0,0,0,0,0,0,0,0,0,0],"sum_hessian":[8.92E2,8.62E2,3E1,8E2,6.2E1,1.8E1,1.2E1,7.67E2,3.3E1,5.6E1,6E0,1.2E1,6E0,2E0,1E1,4.64E2,3.03E2,1.4E1,1.9E1,5.4E1,2E0,3E0,3E0,1.1E1,1E0,2E0,4E0,1E0,1E0,6E0,4E0],"tree_param":{"num_deleted":"0","num_feature":"4","num_nodes":"31","size_leaf_vector":"0"}},{"base_weights":[6.2508467E-3,4.0871655E-3,6.628329E-2,3.286511E-3,1.4747819E-2,3.981641E-2,9.986694E-2,3.5293556E-3,-3.6225963E-2,1.7537422E-2,-8.878811E-3,5.2523058E-2,1.0530291E-2,3.9000951E-3,-1.2793886E-2,-4.926008E-2,7.955253E-3,1.5108284E-2,5.379669E-2,-1.1676457E-2,3.9535314E-3,5.4298114E-2,1.56112015E-2,-3.0429995E-2,3.3000402E-2],"categories":[],"categories_nodes":[],"categories_segments":[],"categories_sizes":[],"default_left":[1,1,1,1,1,1,0,1,1,1,1,1,1,0,0,0,0,0,0,0,0,0,0,0,0],"id":61,"left_children":[1,3,5,7,9,11,-1,13,15,17,19,21,23,-1,-1,-1,-1,-1,-1,-1,-1,-1,-1,-1,-1],"loss_changes":[1.1572181E-1,7.3176706E-3,2.3578137E-2,7.842555E-3,4.1102488E-3,6.517358E-3,0E0,4.8912335E-3,3.2711918E-3,3.9434787E-3,2.974657E-4,4.108995E-6,7.446877E-3,0E0,0E0,0E0,0E0,0E0,0E0,0E0,0E0,0E0,0E0,0E0,0E0],"parents":[2147483647,0,0,1,1,2,2,3,3,4,4,5,5,7,7,8,8,9,9,10,10,11,11,12,12],"right_children":[2,4,6,8,10,12,-1,14,16,18,20,22,24,-1,-1,-1,-1,-1,-1,-1,-1,-1,-1,-1,-1],"split_conditions":[4.9825277E0,1.6379238E1,9.185846E3,4.5850873E0,2.182795E1,2.6923998E1,9.986694E-4,5.715044E3,1.5105872E1,2.1500282E1,2.4011982E1,8.660139E3,2.8634205E1,3.900095E-5,-1.2793885E-4,-4.926008E-4,7.955253E-5,1.5108283E-4,5.379669E-4,-1.1676457E-4,3.9535313E-5,5.4298114E-4,1.5611202E-4,-3.0429993E-4,3.3000403E-4],"split_indices":[1,0,2,1,0,0,0,2,0,0,0,2,0,0,0,0,0,0,0,0,0,0,0,0,0],"split_type":[0,0,0,0,0,0,0,0,0,0,0,0,0,0,0,0,0,0,0,0,0,0,0,0,0],"sum_hessian":[8.92E2,8.62E2,3E1,8.03E2,5.9E1,1.8E1,1.2E1,7.99E2,4E0,5.3E1,6E0,1.2E1,6E0,7.82E2,1.7E1,3E0,1E0,5.1E1,2E0,5E0,1E0,1.1E1,1E0,2E0,4E0],"tree_param":{"num_deleted":"0","num_feature":"4","num_nodes":"25","size_leaf_vector":"0"}},{"base_weights":[6.1903903E-3,4.0464206E-3,6.5676056E-2,3.2319827E-3,1.4337183E-2,3.9456394E-2,9.894509E-2,3.8936564E-3,-1.18091125E-2,1.6927192E-2,-8.801057E-3,5.2051604E-2,1.0428661E-2,4.2829722E-2,1.0525427E-1,1.5487449E-3,7.4676373E-3,-2.3224344E-2,-2.6572328E-3,1.4627923E-2,5.343805E-2,-1.4443794E-2,-9.5805526E-4,-3.022713E-2,3.2736402E-2,6.267595E-2,1.5686303E-3,1.222201E-1,6.0451258E-2],"categories":[],"categories_nodes":[],"categories_segments":[],"categories_sizes":[],"default_left":[1,1,1,1,1,1,1,1,1,1,1,0,1,1,1,0,0,0,0,0,0,0,0,0,0,0,0,0,0],"id":62,"left_children":[1,3,5,7,9,11,13,15,17,19,21,-1,23,25,27,-1,-1,-1,-1,-1,-1,-1,-1,-1,-1,-1,-1,-1,-1],"loss_changes":[1.1362341E-1,7.186624E-3,2.3137376E-2,8.017768E-3,3.9244564E-3,6.4037684E-3,9.453297E-5,6.4247875E-3,3.4902953E-3,4.0033627E-3,2.9595406E-4,0E0,7.3380996E-3,2.3583155E-3,9.7296387E-4,0E0,0E0,0E0,0E0,0E0,0E0,0E0,0E0,0E0,0E0,0E0,0E0,0E0,0E0],"parents":[2147483647,0,0,1,1,2,2,3,3,4,4,5,5,6,6,7,7,8,8,9,9,10,10,12,12,13,13,14,14],"right_children":[2,4,6,8,10,12,14,16,18,20,22,-1,24,26,28,-1,-1,-1,-1,-1,-1,-1,-1,-1,-1,-1,-1,-1,-1],"split_conditions":[4.9825277E0,1.6257729E1,9.185846E3,3.9990988E0,2.182795E1,2.6923998E1,2.5746239E1,7.6480007E0,1.3817717E1,2.1500282E1,2.3095842E1,5.20516E-4,2.8634205E1,2.3908855E1,1.3732301E4,1.5487449E-5,7.467637E-5,-2.3224344E-4,-2.6572328E-5,1.4627923E-4,5.343805E-4,-1.4443794E-4,-9.580553E-6,-3.022713E-4,3.2736402E-4,6.267595E-4,1.5686303E-5,1.2222009E-3,6.045126E-4],"split_indices":[1,0,2,1,0,0,0,0,0,0,0,0,0,0,2,0,0,0,0,0,0,0,0,0,0,0,0,0,0],"split_type":[0,0,0,0,0,0,0,0,0,0,0,0,0,0,0,0,0,0,0,0,0,0,0,0,0,0,0,0,0],"sum_hessian":[8.92E2,8.62E2,3E1,8E2,6.2E1,1.8E1,1.2E1,7.67E2,3.3E1,5.6E1,6E0,1.2E1,6E0,2E0,1E1,4.64E2,3.03E2,1.4E1,1.9E1,5.4E1,2E0,3E0,3E0,2E0,4E0,1E0,1E0,6E0,4E0],"tree_param":{"num_deleted":"0","num_feature":"4","num_nodes":"29","size_leaf_vector":"0"}},{"base_weights":[6.1322628E-3,4.0063704E-3,6.511654E-2,3.2200653E-3,1.4476087E-2,3.9090544E-2,9.8145574E-2,3.46044E-3,-3.5883915E-2,1.7681044E-2,-5.6499E-3,5.157113E-2,1.032795E-2,4.2615574E-2,1.043678E-1,4.4507068E-3,-2.599416E-3,-4.881928E-2,7.928774E-3,1.5203379E-2,5.308179E-2,-1.4357565E-2,1.0968596E-3,5.3323243E-2,1.5272893E-2,-3.0025616E-2,3.24745E-2,6.2362567E-2,1.5607923E-3,1.211725E-1,5.996765E-2],"categories":[],"categories_nodes":[],"categories_segments":[],"categories_sizes":[],"default_left":[1,1,1,1,1,1,1,1,1,1,1,1,1,1,1,0,0,0,0,0,0,0,0,0,0,0,0,0,0,0,0],"id":63,"left_children":[1,3,5,7,9,11,13,15,17,19,21,23,25,27,29,-1,-1,-1,-1,-1,-1,-1,-1,-1,-1,-1,-1,-1,-1,-1,-1],"loss_changes":[1.1171615E-1,7.0579406E-3,2.2811472E-2,7.681462E-3,3.9700735E-3,6.287884E-3,4.4077635E-5,4.8122657E-3,3.2207435E-3,3.7539601E-3,5.4448494E-4,1.237914E-5,7.230913E-3,2.3347903E-3,9.4100833E-4,0E0,0E0,0E0,0E0,0E0,0E0,0E0,0E0,0E0,0E0,0E0,0E0,0E0,0E0,0E0,0E0],"parents":[2147483647,0,0,1,1,2,2,3,3,4,4,5,5,6,6,7,7,8,8,9,9,10,10,11,11,12,12,13,13,14,14],"right_children":[2,4,6,8,10,12,14,16,18,20,22,24,26,28,30,-1,-1,-1,-1,-1,-1,-1,-1,-1,-1,-1,-1,-1,-1,-1,-1],"split_conditions":[4.9825277E0,1.6379238E1,9.185846E3,4.5850873E0,4.695407E0,2.6923998E1,2.5746239E1,3.6321132E0,1.5105872E1,2.1500282E1,6.6638604E3,8.660139E3,2.8634205E1,2.3908855E1,1.3732301E4,4.4507065E-5,-2.599416E-5,-4.881928E-4,7.928773E-5,1.5203378E-4,5.308179E-4,-1.4357564E-4,1.0968595E-5,5.332324E-4,1.5272893E-4,-3.0025616E-4,3.24745E-4,6.2362564E-4,1.5607922E-5,1.211725E-3,5.9967645E-4],"split_indices":[1,0,2,1,1,0,0,1,0,0,2,2,0,0,2,0,0,0,0,0,0,0,0,0,0,0,0,0,0,0,0],"split_type":[0,0,0,0,0,0,0,0,0,0,0,0,0,0,0,0,0,0,0,0,0,0,0,0,0,0,0,0,0,0,0],"sum_hessian":[8.92E2,8.62E2,3E1,8.03E2,5.9E1,1.8E1,1.2E1,7.99E2,4E0,5.1E1,8E0,1.2E1,6E0,2E0,1E1,6.87E2,1.12E2,3E0,1E0,4.9E1,2E0,3E0,5E0,1.1E1,1E0,2E0,4E0,1E0,1E0,6E0,4E0],"tree_param":{"num_deleted":"0","num_feature":"4","num_nodes":"31","size_leaf_vector":"0"}},{"base_weights":[6.0746577E-3,3.9664907E-3,6.456734E-2,3.1665447E-3,1.4074271E-2,3.873703E-2,9.7352624E-2,3.8177304E-3,-1.1635722E-2,1.662423E-2,-8.700295E-3,5.1108185E-2,1.0228164E-2,1.4906977E-3,7.3646135E-3,-2.295251E-2,-2.5663446E-3,1.435268E-2,5.272792E-2,-1.1461363E-2,3.933057E-3,5.2834444E-2,1.5196532E-2,-2.9825443E-2,3.2214694E-2],"categories":[],"categories_nodes":[],"categories_segments":[],"categories_sizes":[],"default_left":[1,1,1,1,1,1,0,1,1,1,1,1,1,0,0,0,0,0,0,0,0,0,0,0,0],"id":64,"left_children":[1,3,5,7,9,11,-1,13,15,17,19,21,23,-1,-1,-1,-1,-1,-1,-1,-1,-1,-1,-1,-1],"loss_changes":[1.0986182E-1,6.9333734E-3,2.2481322E-2,7.765279E-3,3.8033118E-3,6.178323E-3,0E0,6.327872E-3,3.4307279E-3,3.9178617E-3,2.8924906E-4,3.0063093E-6,7.1252966E-3,0E0,0E0,0E0,0E0,0E0,0E0,0E0,0E0,0E0,0E0,0E0,0E0],"parents":[2147483647,0,0,1,1,2,2,3,3,4,4,5,5,7,7,8,8,9,9,10,10,11,11,12,12],"right_children":[2,4,6,8,10,12,-1,14,16,18,20,22,24,-1,-1,-1,-1,-1,-1,-1,-1,-1,-1,-1,-1],"split_conditions":[4.9825277E0,1.6257729E1,9.185846E3,3.9990988E0,2.182795E1,2.6923998E1,9.735262E-4,7.6480007E0,1.3817717E1,2.1500282E1,2.4011982E1,8.660139E3,2.8634205E1,1.4906977E-5,7.364613E-5,-2.2952509E-4,-2.5663445E-5,1.4352679E-4,5.2727916E-4,-1.1461363E-4,3.933057E-5,5.283444E-4,1.5196532E-4,-2.9825442E-4,3.2214692E-4],"split_indices":[1,0,2,1,0,0,0,0,0,0,0,2,0,0,0,0,0,0,0,0,0,0,0,0,0],"split_type":[0,0,0,0,0,0,0,0,0,0,0,0,0,0,0,0,0,0,0,0,0,0,0,0,0],"sum_hessian":[8.92E2,8.62E2,3E1,8E2,6.2E1,1.8E1,1.2E1,7.67E2,3.3E1,5.6E1,6E0,1.2E1,6E0,4.64E2,3.03E2,1.4E1,1.9E1,5.4E1,2E0,5E0,1E0,1.1E1,1E0,2E0,4E0],"tree_param":{"num_deleted":"0","num_feature":"4","num_nodes":"25","size_leaf_vector":"0"}},{"base_weights":[6.0162684E-3,3.927321E-3,6.3975796E-2,3.155086E-3,1.4209816E-2,3.8386725E-2,9.645399E-2,3.3930212E-3,-3.5545554E-2,1.6906617E-2,-8.624045E-3,5.0649434E-2,1.0129304E-2,4.1753482E-2,1.0260376E-1,3.758456E-3,-1.2691896E-2,-4.8382927E-2,7.901967E-3,1.4535157E-2,5.237639E-2,-1.4180448E-2,-9.116307E-4,-2.9626606E-2,3.195699E-2,6.1564E-2,1.0662228E-3,1.1929943E-1,5.8709085E-2],"categories":[],"categories_nodes":[],"categories_segments":[],"categories_sizes":[],"default_left":[1,1,1,1,1,1,1,1,1,1,1,0,1,1,1,0,0,0,0,0,0,0,0,0,0,0,0,0,0],"id":65,"left_children":[1,3,5,7,9,11,13,15,17,19,21,-1,23,25,27,-1,-1,-1,-1,-1,-1,-1,-1,-1,-1,-1,-1,-1,-1],"loss_changes":[1.07868195E-1,6.807822E-3,2.2061124E-2,7.524034E-3,3.8405051E-3,6.070696E-3,8.908659E-5,4.7500934E-3,3.1710807E-3,3.7809191E-3,2.8704567E-4,0E0,7.021233E-3,2.3524663E-3,1.0573938E-3,0E0,0E0,0E0,0E0,0E0,0E0,0E0,0E0,0E0,0E0,0E0,0E0,0E0,0E0],"parents":[2147483647,0,0,1,1,2,2,3,3,4,4,5,5,6,6,7,7,8,8,9,9,10,10,12,12,13,13,14,14],"right_children":[2,4,6,8,10,12,14,16,18,20,22,-1,24,26,28,-1,-1,-1,-1,-1,-1,-1,-1,-1,-1,-1,-1,-1,-1],"split_conditions":[4.9825277E0,1.6379238E1,9.185846E3,4.5850873E0,2.182795E1,2.6923998E1,2.5746239E1,5.715044E3,1.5105872E1,2.1500282E1,2.3095842E1,5.064943E-4,2.8634205E1,2.3908855E1,1.3732301E4,3.758456E-5,-1.2691897E-4,-4.8382927E-4,7.9019665E-5,1.4535157E-4,5.237639E-4,-1.4180447E-4,-9.1163065E-6,-2.9626605E-4,3.195699E-4,6.1563996E-4,1.0662227E-5,1.1929942E-3,5.8709085E-4],"split_indices":[1,0,2,1,0,0,0,2,0,0,0,0,0,0,2,0,0,0,0,0,0,0,0,0,0,0,0,0,0],"split_type":[0,0,0,0,0,0,0,0,0,0,0,0,0,0,0,0,0,0,0,0,0,0,0,0,0,0,0,0,0],"sum_hessian":[8.92E2,8.62E2,3E1,8.03E2,5.9E1,1.8E1,1.2E1,7.99E2,4E0,5.3E1,6E0,1.2E1,6E0,2E0,1E1,7.82E2,1.7E1,3E0,1E0,5.1E1,2E0,3E0,3E0,2E0,4E0,1E0,1E0,6E0,4E0],"tree_param":{"num_deleted":"0","num_feature":"4","num_nodes":"29","size_leaf_vector":"0"}},{"base_weights":[5.9594195E-3,3.8880743E-3,6.343076E-2,3.1025226E-3,1.3814087E-2,3.803074E-2,9.567457E-2,3.7444853E-3,-1.1489535E-2,1.6319351E-2,-8.559364E-3,5.01819E-2,1.003134E-2,4.1544717E-2,1.0173956E-1,1.4383164E-3,7.2596963E-3,-2.2716675E-2,-2.4947028E-3,1.4074935E-2,5.2027207E-2,-1.1291907E-2,3.9179474E-3,5.1885843E-2,1.4867306E-2,-2.9429095E-2,3.1701334E-2,6.1256185E-2,1.0608882E-3,1.1827687E-1,5.8239423E-2],"categories":[],"categories_nodes":[],"categories_segments":[],"categories_sizes":[],"default_left":[1,1,1,1,1,1,1,1,1,1,1,1,1,1,1,0,0,0,0,0,0,0,0,0,0,0,0,0,0,0,0],"id":66,"left_children":[1,3,5,7,9,11,13,15,17,19,21,23,25,27,29,-1,-1,-1,-1,-1,-1,-1,-1,-1,-1,-1,-1,-1,-1,-1,-1],"loss_changes":[1.06058754E-1,6.6862954E-3,2.1750204E-2,7.5464374E-3,3.6709206E-3,5.9608854E-3,4.1127205E-5,6.21548E-3,3.376861E-3,3.8358886E-3,2.8290472E-4,1.0859221E-5,6.9186934E-3,2.3290012E-3,1.0247529E-3,0E0,0E0,0E0,0E0,0E0,0E0,0E0,0E0,0E0,0E0,0E0,0E0,0E0,0E0,0E0,0E0],"parents":[2147483647,0,0,1,1,2,2,3,3,4,4,5,5,6,6,7,7,8,8,9,9,10,10,11,11,12,12,13,13,14,14],"right_children":[2,4,6,8,10,12,14,16,18,20,22,24,26,28,30,-1,-1,-1,-1,-1,-1,-1,-1,-1,-1,-1,-1,-1,-1,-1,-1],"split_conditions":[4.9825277E0,1.6257729E1,9.185846E3,3.9990988E0,2.182795E1,2.6923998E1,2.5746239E1,7.6480007E0,1.3817717E1,2.1500282E1,2.4011982E1,8.660139E3,2.8634205E1,2.3908855E1,1.3732301E4,1.4383164E-5,7.259696E-5,-2.2716675E-4,-2.4947027E-5,1.4074934E-4,5.2027206E-4,-1.1291907E-4,3.9179475E-5,5.1885843E-4,1.4867305E-4,-2.9429095E-4,3.1701333E-4,6.125618E-4,1.0608882E-5,1.1827687E-3,5.823942E-4],"split_indices":[1,0,2,1,0,0,0,0,0,0,0,2,0,0,2,0,0,0,0,0,0,0,0,0,0,0,0,0,0,0,0],"split_type":[0,0,0,0,0,0,0,0,0,0,0,0,0,0,0,0,0,0,0,0,0,0,0,0,0,0,0,0,0,0,0],"sum_hessian":[8.92E2,8.62E2,3E1,8E2,6.2E1,1.8E1,1.2E1,7.67E2,3.3E1,5.6E1,6E0,1.2E1,6E0,2E0,1E1,4.64E2,3.03E2,1.4E1,1.9E1,5.4E1,2E0,5E0,1E0,1.1E1,1E0,2E0,4E0,1E0,1E0,6E0,4E0],"tree_param":{"num_deleted":"0","num_feature":"4","num_nodes":"31","size_leaf_vector":"0"}},{"base_weights":[5.903745E-3,3.8496824E-3,6.289576E-2,3.0912787E-3,1.3948131E-2,3.7686765E-2,9.490154E-2,3.3268018E-3,-3.521066E-2,1.7052084E-2,-5.5356133E-3,4.973143E-2,9.934276E-3,-4.12485E-3,4.114717E-3,-4.7950793E-2,7.874936E-3,1.4633346E-2,5.1680367E-2,-1.41726155E-2,1.1449903E-3,5.141022E-2,1.4792971E-2,-2.9232899E-2,3.1447727E-2],"categories":[],"categories_nodes":[],"categories_segments":[],"categories_sizes":[],"default_left":[1,1,1,1,1,1,0,1,1,1,1,1,1,0,0,0,0,0,0,0,0,0,0,0,0],"id":67,"left_children":[1,3,5,7,9,11,-1,13,15,17,19,21,23,-1,-1,-1,-1,-1,-1,-1,-1,-1,-1,-1,-1],"loss_changes":[1.0429708E-1,6.566342E-3,2.1435305E-2,7.3700137E-3,3.7229918E-3,5.857071E-3,0E0,4.713987E-3,3.12219E-3,3.5990942E-3,5.3553097E-4,2.000481E-6,6.8176556E-3,0E0,0E0,0E0,0E0,0E0,0E0,0E0,0E0,0E0,0E0,0E0,0E0],"parents":[2147483647,0,0,1,1,2,2,3,3,4,4,5,5,7,7,8,8,9,9,10,10,11,11,12,12],"right_children":[2,4,6,8,10,12,-1,14,16,18,20,22,24,-1,-1,-1,-1,-1,-1,-1,-1,-1,-1,-1,-1],"split_conditions":[4.9825277E0,1.6379238E1,9.185846E3,4.5850873E0,4.695407E0,2.6923998E1,9.490154E-4,5.42995E2,1.5105872E1,2.1500282E1,6.6638604E3,8.660139E3,2.8634205E1,-4.12485E-5,4.1147166E-5,-4.7950793E-4,7.8749355E-5,1.4633346E-4,5.1680364E-4,-1.4172615E-4,1.1449903E-5,5.1410217E-4,1.479297E-4,-2.9232897E-4,3.1447728E-4],"split_indices":[1,0,2,1,1,0,0,2,0,0,2,2,0,0,0,0,0,0,0,0,0,0,0,0,0],"split_type":[0,0,0,0,0,0,0,0,0,0,0,0,0,0,0,0,0,0,0,0,0,0,0,0,0],"sum_hessian":[8.92E2,8.62E2,3E1,8.03E2,5.9E1,1.8E1,1.2E1,7.99E2,4E0,5.1E1,8E0,1.2E1,6E0,7.6E1,7.23E2,3E0,1E0,4.9E1,2E0,3E0,5E0,1.1E1,1E0,2E0,4E0],"tree_param":{"num_deleted":"0","num_feature":"4","num_nodes":"25","size_leaf_vector":"0"}},{"base_weights":[5.846684E-3,3.8113382E-3,6.2319484E-2,1.2732467E-3,6.787352E-3,3.734591E-2,9.4025515E-2,2.4919722E-3,-1.5371677E-2,-6.8222824E-3,8.678712E-3,4.9285043E-2,9.8381E-3,4.070431E-2,1.0001989E-1,4.788753E-3,-2.297058E-3,-2.2468528E-2,2.4882494E-3,1.5321632E-3,-1.7145108E-2,9.549714E-3,-1.6577724E-2,3.102347E-2,5.682059E-2,-2.9038012E-2,3.1196147E-2,6.0475394E-2,5.810708E-4,1.1644962E-1,5.7014287E-2],"categories":[],"categories_nodes":[],"categories_segments":[],"categories_sizes":[],"default_left":[1,1,1,1,1,1,1,1,1,1,1,1,1,1,1,0,0,0,0,0,0,0,0,0,0,0,0,0,0,0,0],"id":68,"left_children":[1,3,5,7,9,11,13,15,17,19,21,23,25,27,29,-1,-1,-1,-1,-1,-1,-1,-1,-1,-1,-1,-1,-1,-1,-1,-1],"loss_changes":[1.02405384E-1,6.5099373E-3,2.103474E-2,9.511677E-3,1.0278277E-2,5.7550985E-3,8.390844E-5,4.806717E-3,4.111883E-3,4.252103E-3,7.835751E-3,2.6170164E-5,6.718099E-3,2.344699E-3,1.13298E-3,0E0,0E0,0E0,0E0,0E0,0E0,0E0,0E0,0E0,0E0,0E0,0E0,0E0,0E0,0E0,0E0],"parents":[2147483647,0,0,1,1,2,2,3,3,4,4,5,5,6,6,7,7,8,8,9,9,10,10,11,11,12,12,13,13,14,14],"right_children":[2,4,6,8,10,12,14,16,18,20,22,24,26,28,30,-1,-1,-1,-1,-1,-1,-1,-1,-1,-1,-1,-1,-1,-1,-1,-1],"split_conditions":[4.9825277E0,7.6480007E0,9.185846E3,3.2722087E0,3.1159794E1,2.6923998E1,2.5746239E1,3.9210922E1,1.2474521E3,3.5499463E0,4.6828938E0,5.1594687E0,2.8634205E1,2.3908855E1,1.3732301E4,4.788753E-5,-2.297058E-5,-2.2468527E-4,2.4882494E-5,1.5321632E-5,-1.7145109E-4,9.549713E-5,-1.6577724E-4,3.102347E-4,5.682059E-4,-2.9038012E-4,3.1196146E-4,6.047539E-4,5.8107075E-6,1.1644962E-3,5.701429E-4],"split_indices":[1,0,2,1,3,0,0,3,2,1,1,1,0,0,2,0,0,0,0,0,0,0,0,0,0,0,0,0,0,0,0],"split_type":[0,0,0,0,0,0,0,0,0,0,0,0,0,0,0,0,0,0,0,0,0,0,0,0,0,0,0,0,0,0,0],"sum_hessian":[8.92E2,8.62E2,3E1,4.66E2,3.96E2,1.8E1,1.2E1,4.35E2,3.1E1,4.8E1,3.48E2,1.2E1,6E0,2E0,1E1,2.94E2,1.41E2,2.2E1,9E0,2.7E1,2.1E1,3.37E2,1.1E1,5E0,7E0,2E0,4E0,1E0,1E0,6E0,4E0],"tree_param":{"num_deleted":"0","num_feature":"4","num_nodes":"31","size_leaf_vector":"0"}},{"base_weights":[5.7914024E-3,3.7727605E-3,6.180097E-2,3.0021344E-3,1.3510834E-2,3.7019815E-2,9.326566E-2,3.6348905E-3,-1.1379007E-2,1.5953338E-2,-8.308246E-3,4.8859764E-2,9.742796E-3,4.050079E-2,9.917738E-2,1.3802942E-3,7.071576E-3,-2.2461627E-2,-2.4980926E-3,1.3736796E-2,5.1272172E-2,-1.37970615E-2,-7.423684E-4,3.0764947E-2,5.6323405E-2,-2.8844425E-2,3.0946571E-2,6.017302E-2,5.7816505E-4,1.1545148E-1,5.655817E-2],"categories":[],"categories_nodes":[],"categories_segments":[],"categories_sizes":[],"default_left":[1,1,1,1,1,1,1,1,1,1,1,1,1,1,1,0,0,0,0,0,0,0,0,0,0,0,0,0,0,0,0],"id":69,"left_children":[1,3,5,7,9,11,13,15,17,19,21,23,25,27,29,-1,-1,-1,-1,-1,-1,-1,-1,-1,-1,-1,-1,-1,-1,-1,-1],"loss_changes":[1.0073233E-1,6.4357473E-3,2.0718992E-2,7.330266E-3,3.4900159E-3,5.66018E-3,3.835559E-5,5.9409635E-3,3.2902984E-3,3.7579695E-3,2.8045144E-4,2.2904947E-5,6.6199997E-3,2.3213113E-3,1.0997579E-3,0E0,0E0,0E0,0E0,0E0,0E0,0E0,0E0,0E0,0E0,0E0,0E0,0E0,0E0,0E0,0E0],"parents":[2147483647,0,0,1,1,2,2,3,3,4,4,5,5,6,6,7,7,8,8,9,9,10,10,11,11,12,12,13,13,14,14],"right_children":[2,4,6,8,10,12,14,16,18,20,22,24,26,28,30,-1,-1,-1,-1,-1,-1,-1,-1,-1,-1,-1,-1,-1,-1,-1,-1],"split_conditions":[4.9825277E0,1.6257729E1,9.185846E3,3.9990988E0,2.182795E1,2.6923998E1,2.5746239E1,7.6480007E0,1.3817717E1,2.1500282E1,2.3095842E1,5.1594687E0,2.8634205E1,2.3908855E1,1.3732301E4,1.3802942E-5,7.071576E-5,-2.2461626E-4,-2.4980925E-5,1.3736796E-4,5.127217E-4,-1.3797061E-4,-7.4236837E-6,3.0764946E-4,5.6323403E-4,-2.8844425E-4,3.0946571E-4,6.017302E-4,5.7816505E-6,1.1545147E-3,5.6558166E-4],"split_indices":[1,0,2,1,0,0,0,0,0,0,0,1,0,0,2,0,0,0,0,0,0,0,0,0,0,0,0,0,0,0,0],"split_type":[0,0,0,0,0,0,0,0,0,0,0,0,0,0,0,0,0,0,0,0,0,0,0,0,0,0,0,0,0,0,0],"sum_hessian":[8.92E2,8.62E2,3E1,8E2,6.2E1,1.8E1,1.2E1,7.67E2,3.3E1,5.6E1,6E0,1.2E1,6E0,2E0,1E1,4.64E2,3.03E2,1.4E1,1.9E1,5.4E1,2E0,3E0,3E0,5E0,7E0,2E0,4E0,1E0,1E0,6E0,4E0],"tree_param":{"num_deleted":"0","num_feature":"4","num_nodes":"31","size_leaf_vector":"0"}},{"base_weights":[5.7374737E-3,3.735426E-3,6.1286815E-2,2.9915748E-3,1.3640777E-2,3.669656E-2,9.251205E-2,3.2240227E-3,-3.479843E-2,1.6225336E-2,