{"learner":{"attributes":{"best_iteration":"385","best_ntree_limit":"386","scikit_learn":"{\"n_estimators\": 25, \"objective\": \"reg:squarederror\", \"max_depth\": 2, \"max_leaves\": null, \"max_bin\": null, \"grow_policy\": null, \"learning_rate\": 0.45000000000000007, \"verbosity\": null, \"booster\": null, \"tree_method\": null, \"gamma\": null, \"min_child_weight\": null, \"max_delta_step\": null, \"subsample\": null, \"sampling_method\": null, \"colsample_bytree\": null, \"colsample_bylevel\": null, \"colsample_bynode\": null, \"reg_alpha\": null, \"reg_lambda\": null, \"scale_pos_weight\": null, \"base_score\": null, \"missing\": NaN, \"num_parallel_tree\": null, \"random_state\": null, \"n_jobs\": null, \"monotone_constraints\": null, \"interaction_constraints\": null, \"importance_type\": null, \"gpu_id\": null, \"validate_parameters\": null, \"predictor\": null, \"enable_categorical\": false, \"feature_types\": null, \"max_cat_to_onehot\": null, \"max_cat_threshold\": null, \"eval_metric\": null, \"early_stopping_rounds\": null, \"callbacks\": null, \"_estimator_type\": \"regressor\"}"},"feature_names":[],"feature_types":[],"gradient_booster":{"model":{"gbtree_model_param":{"num_parallel_tree":"1","num_trees":"386","size_leaf_vector":"0"},"tree_info":[0,0,0,0,0,0,0,0,0,0,0,0,0,0,0,0,0,0,0,0,0,0,0,0,0,0,0,0,0,0,0,0,0,0,0,0,0,0,0,0,0,0,0,0,0,0,0,0,0,0,0,0,0,0,0,0,0,0,0,0,0,0,0,0,0,0,0,0,0,0,0,0,0,0,0,0,0,0,0,0,0,0,0,0,0,0,0,0,0,0,0,0,0,0,0,0,0,0,0,0,0,0,0,0,0,0,0,0,0,0,0,0,0,0,0,0,0,0,0,0,0,0,0,0,0,0,0,0,0,0,0,0,0,0,0,0,0,0,0,0,0,0,0,0,0,0,0,0,0,0,0,0,0,0,0,0,0,0,0,0,0,0,0,0,0,0,0,0,0,0,0,0,0,0,0,0,0,0,0,0,0,0,0,0,0,0,0,0,0,0,0,0,0,0,0,0,0,0,0,0,0,0,0,0,0,0,0,0,0,0,0,0,0,0,0,0,0,0,0,0,0,0,0,0,0,0,0,0,0,0,0,0,0,0,0,0,0,0,0,0,0,0,0,0,0,0,0,0,0,0,0,0,0,0,0,0,0,0,0,0,0,0,0,0,0,0,0,0,0,0,0,0,0,0,0,0,0,0,0,0,0,0,0,0,0,0,0,0,0,0,0,0,0,0,0,0,0,0,0,0,0,0,0,0,0,0,0,0,0,0,0,0,0,0,0,0,0,0,0,0,0,0,0,0,0,0,0,0,0,0,0,0,0,0,0,0,0,0,0,0,0,0,0,0,0,0,0,0,0,0,0,0,0,0,0,0,0,0,0,0,0,0,0,0,0,0,0,0,0,0,0,0,0,0,0,0,0,0,0,0,0,0,0,0,0,0],"trees":[{"base_weights":[-4.2069152E-1,-4.3790987E-1,-3.6164123E-1,-4.6064487E-1,-4.2224097E-1,-3.867164E-1,-3.1510553E-1],"categories":[],"categories_nodes":[],"categories_segments":[],"categories_sizes":[],"default_left":[1,1,1,0,0,0,0],"id":0,"left_children":[1,3,5,-1,-1,-1,-1],"loss_changes":[1.2254486E0,1.7918396E-1,2.433815E-1,0E0,0E0,0E0,0E0],"parents":[2147483647,0,0,1,1,2,2],"right_children":[2,4,6,-1,-1,-1,-1],"split_conditions":[3.6215043E0,2.5583396E0,3.011739E1,-2.0729019E-1,-1.9000843E-1,-1.7402238E-1,-1.4179748E-1],"split_indices":[1,1,2,0,0,0,0],"split_type":[0,0,0,0,0,0,0],"sum_hessian":[1.36E3,1.048E3,3.12E2,4.16E2,6.32E2,1.98E2,1.14E2],"tree_param":{"num_deleted":"0","num_feature":"4","num_nodes":"7","size_leaf_vector":"0"}},{"base_weights":[-2.319043E-1,-2.5188303E-1,-2.1104535E-1,-2.7186236E-1,-2.4639568E-1,-2.1832025E-1,-1.53674E-1],"categories":[],"categories_nodes":[],"categories_segments":[],"categories_sizes":[],"default_left":[1,1,1,0,0,0,0],"id":1,"left_children":[1,3,5,-1,-1,-1,-1],"loss_changes":[5.140152E-1,8.659363E-3,2.4692154E-1,0E0,0E0,0E0,0E0],"parents":[2147483647,0,0,1,1,2,2],"right_children":[2,4,6,-1,-1,-1,-1],"split_conditions":[3.9229885E1,3.5442443E0,4.3722305E0,-1.2233806E-1,-1.1087805E-1,-9.824411E-2,-6.91533E-2],"split_indices":[3,0,1,0,0,0,0],"split_type":[0,0,0,0,0,0,0],"sum_hessian":[1.36E3,6.89E2,6.71E2,1.38E2,5.51E2,5.93E2,7.8E1],"tree_param":{"num_deleted":"0","num_feature":"4","num_nodes":"7","size_leaf_vector":"0"}},{"base_weights":[-1.2784173E-1,-1.3513531E-1,-1.0159631E-1,-1.4009275E-1,-1.214552E-1,-1.045203E-1,5.909889E-2],"categories":[],"categories_nodes":[],"categories_segments":[],"categories_sizes":[],"default_left":[1,1,1,0,0,0,0],"id":2,"left_children":[1,3,5,-1,-1,-1,-1],"loss_changes":[2.4679756E-1,5.5007935E-2,1.4713812E-1,0E0,0E0,0E0,0E0],"parents":[2147483647,0,0,1,1,2,2],"right_children":[2,4,6,-1,-1,-1,-1],"split_conditions":[2.4306736E1,1.0384868E1,3.649731E1,-6.304173E-2,-5.465484E-2,-4.7034133E-2,2.65945E-2],"split_indices":[2,0,0,0,0,0,0],"split_type":[0,0,0,0,0,0,0],"sum_hessian":[1.36E3,1.061E3,2.99E2,7.72E2,2.89E2,2.94E2,5E0],"tree_param":{"num_deleted":"0","num_feature":"4","num_nodes":"7","size_leaf_vector":"0"}},{"base_weights":[-7.041445E-2,-7.293891E-2,-3.920112E-2,-8.4995486E-2,-6.885563E-2,-4.848183E-2,4.869509E-3],"categories":[],"categories_nodes":[],"categories_segments":[],"categories_sizes":[],"default_left":[1,1,1,0,0,0,0],"id":3,"left_children":[1,3,5,-1,-1,-1,-1],"loss_changes":[1.0438299E-1,5.6079865E-2,4.2772785E-2,0E0,0E0,0E0,0E0],"parents":[2147483647,0,0,1,1,2,2],"right_children":[2,4,6,-1,-1,-1,-1],"split_conditions":[6.1689865E1,3.0647854E1,4.62592E0,-3.824797E-2,-3.0985031E-2,-2.1816822E-2,2.191279E-3],"split_indices":[3,3,1,0,0,0,0],"split_type":[0,0,0,0,0,0,0],"sum_hessian":[1.36E3,1.257E3,1.03E2,3.13E2,9.44E2,8.5E1,1.8E1],"tree_param":{"num_deleted":"0","num_feature":"4","num_nodes":"7","size_leaf_vector":"0"}},{"base_weights":[-3.8793236E-2,-4.5199774E-2,-3.1419117E-2,-5.879743E-2,-4.3682218E-2,-3.2343503E-2,2.4043065E-2],"categories":[],"categories_nodes":[],"categories_segments":[],"categories_sizes":[],"default_left":[1,1,1,0,0,0,0],"id":4,"left_children":[1,3,5,-1,-1,-1,-1],"loss_changes":[6.287694E-2,1.24127865E-2,3.3384323E-2,0E0,0E0,0E0,0E0],"parents":[2147483647,0,0,1,1,2,2],"right_children":[2,4,6,-1,-1,-1,-1],"split_conditions":[3.0491366E0,2.1783703E1,7.728375E1,-2.6458843E-2,-1.9656997E-2,-1.4554576E-2,1.0819378E-2],"split_indices":[1,3,2,0,0,0,0],"split_type":[0,0,0,0,0,0,0],"sum_hessian":[1.36E3,7.25E2,6.35E2,6.9E1,6.56E2,6.25E2,1E1],"tree_param":{"num_deleted":"0","num_feature":"4","num_nodes":"7","size_leaf_vector":"0"}},{"base_weights":[-2.1372909E-2,-2.2987265E-2,-1.0986583E-2,-3.0019326E-2,-2.1753898E-2,-3.5565246E-2,-7.101781E-3],"categories":[],"categories_nodes":[],"categories_segments":[],"categories_sizes":[],"default_left":[1,1,1,0,0,0,0],"id":5,"left_children":[1,3,5,-1,-1,-1,-1],"loss_changes":[2.256763E-2,9.555221E-3,1.7411824E-2,0E0,0E0,0E0,0E0],"parents":[2147483647,0,0,1,1,2,2],"right_children":[2,4,6,-1,-1,-1,-1],"split_conditions":[3.9639046E0,3.7903252E0,1.3272457E1,-1.3508696E-2,-9.789254E-3,-1.600436E-2,-3.1958015E-3],"split_indices":[1,0,2,0,0,0,0],"split_type":[0,0,0,0,0,0,0],"sum_hessian":[1.36E3,1.176E3,1.84E2,1.72E2,1.004E3,2.4E1,1.6E2],"tree_param":{"num_deleted":"0","num_feature":"4","num_nodes":"7","size_leaf_vector":"0"}},{"base_weights":[-1.1786327E-2,-1.2097538E-2,2.7507652E-2,-1.375892E-2,-8.394821E-3,-1.2453683E-2,3.777169E-2],"categories":[],"categories_nodes":[],"categories_segments":[],"categories_sizes":[],"default_left":[1,1,1,0,0,0,0],"id":6,"left_children":[1,3,5,-1,-1,-1,-1],"loss_changes":[1.6976118E-2,8.195341E-3,4.982207E-3,0E0,0E0,0E0,0E0],"parents":[2147483647,0,0,1,1,2,2],"right_children":[2,4,6,-1,-1,-1,-1],"split_conditions":[2.9536203E1,4.558011E1,2.0558922E1,-6.191514E-3,-3.7776693E-3,-5.604157E-3,1.6997261E-2],"split_indices":[0,3,2,0,0,0,0],"split_type":[0,0,0,0,0,0,0],"sum_hessian":[1.36E3,1.35E3,1E1,9.3E2,4.2E2,2E0,8E0],"tree_param":{"num_deleted":"0","num_feature":"4","num_nodes":"7","size_leaf_vector":"0"}},{"base_weights":[-6.4814338E-3,-6.6115647E-3,3.9318472E-2,-8.1608035E-3,-4.0518013E-3],"categories":[],"categories_nodes":[],"categories_segments":[],"categories_sizes":[],"default_left":[1,1,0,0,0],"id":7,"left_children":[1,3,-1,-1,-1],"loss_changes":[8.371506E-3,5.352333E-3,0E0,0E0,0E0],"parents":[2147483647,0,0,1,1],"right_children":[2,4,-1,-1,-1],"split_conditions":[3.7563168E1,3.22831E0,1.7693313E-2,-3.6723614E-3,-1.8233105E-3],"split_indices":[0,1,0,0,0],"split_type":[0,0,0,0,0],"sum_hessian":[1.36E3,1.357E3,3E0,8.44E2,5.13E2],"tree_param":{"num_deleted":"0","num_feature":"4","num_nodes":"5","size_leaf_vector":"0"}},{"base_weights":[-3.5558261E-3,-3.986988E-3,4.1061407E-3,-1.2289908E-2,-3.6489775E-3,2.7936331E-3,2.6048489E-2],"categories":[],"categories_nodes":[],"categories_segments":[],"categories_sizes":[],"default_left":[1,1,1,0,0,0,0],"id":8,"left_children":[1,3,5,-1,-1,-1,-1],"loss_changes":[4.5125E-3,3.5726987E-3,2.0295936E-3,0E0,0E0,0E0,0E0],"parents":[2147483647,0,0,1,1,2,2],"right_children":[2,4,6,-1,-1,-1,-1],"split_conditions":[4.282057E1,3.5994296E0,3.7563168E1,-5.5304584E-3,-1.6420399E-3,1.2571348E-3,1.172182E-2],"split_indices":[2,2,0,0,0,0,0],"split_type":[0,0,0,0,0,0,0],"sum_hessian":[1.36E3,1.288E3,7.2E1,4.9E1,1.239E3,6.9E1,3E0],"tree_param":{"num_deleted":"0","num_feature":"4","num_nodes":"7","size_leaf_vector":"0"}},{"base_weights":[-1.9514378E-3,-2.1836543E-3,5.976098E-3,-1.8460606E-3,-1.532456E-2,3.70902E-2,3.096067E-4],"categories":[],"categories_nodes":[],"categories_segments":[],"categories_sizes":[],"default_left":[1,1,1,0,0,0,0],"id":9,"left_children":[1,3,5,-1,-1,-1,-1],"loss_changes":[2.5185207E-3,5.8409185E-3,6.8645203E-3,0E0,0E0,0E0,0E0],"parents":[2147483647,0,0,1,1,2,2],"right_children":[2,4,6,-1,-1,-1,-1],"split_conditions":[2.1527727E1,4.44901E0,2.2786125E1,-8.307273E-4,-6.896052E-3,1.669059E-2,1.39323E-4],"split_indices":[0,1,0,0,0,0,0],"split_type":[0,0,0,0,0,0,0],"sum_hessian":[1.36E3,1.322E3,3.8E1,1.29E3,3.2E1,5E0,3.3E1],"tree_param":{"num_deleted":"0","num_feature":"4","num_nodes":"7","size_leaf_vector":"0"}},{"base_weights":[-1.0666036E-3,-4.1742106E-3,-6.52058E-4,-1.9761713E-3,-1.2261762E-2,2.866295E-2,-7.493124E-4],"categories":[],"categories_nodes":[],"categories_segments":[],"categories_sizes":[],"default_left":[1,1,1,0,0,0,0],"id":10,"left_children":[1,3,5,-1,-1,-1,-1],"loss_changes":[1.750579E-3,2.8200494E-3,3.4483941E-3,0E0,0E0,0E0,0E0],"parents":[2147483647,0,0,1,1,2,2],"right_children":[2,4,6,-1,-1,-1,-1],"split_conditions":[6.568636E0,2.5453236E0,6.6327553E0,-8.89277E-4,-5.517793E-3,1.2898327E-2,-3.3719058E-4],"split_indices":[2,1,2,0,0,0,0],"split_type":[0,0,0,0,0,0,0],"sum_hessian":[1.36E3,1.59E2,1.201E3,1.26E2,3.3E1,3E0,1.198E3],"tree_param":{"num_deleted":"0","num_feature":"4","num_nodes":"7","size_leaf_vector":"0"}},{"base_weights":[-5.821108E-4,-2.6560246E-3,-2.7882485E-5,-5.617636E-4,-1.6791254E-2,5.89712E-3,-9.580142E-4],"categories":[],"categories_nodes":[],"categories_segments":[],"categories_sizes":[],"default_left":[1,1,1,0,0,0,0],"id":11,"left_children":[1,3,5,-1,-1,-1,-1],"loss_changes":[1.564289E-3,8.4865885E-3,5.9300098E-3,0E0,0E0,0E0,0E0],"parents":[2147483647,0,0,1,1,2,2],"right_children":[2,4,6,-1,-1,-1,-1],"split_conditions":[5.2737355E0,1.6859581E1,2.5864801E0,-2.527936E-4,-7.556064E-3,2.653704E-3,-4.311064E-4],"split_indices":[0,2,1,0,0,0,0],"split_type":[0,0,0,0,0,0,0],"sum_hessian":[1.36E3,2.86E2,1.074E3,2.5E2,3.6E1,1.45E2,9.29E2],"tree_param":{"num_deleted":"0","num_feature":"4","num_nodes":"7","size_leaf_vector":"0"}},{"base_weights":[-3.2426583E-4,-1.4335491E-3,9.425013E-4,-4.990541E-4,-1.2825314E-2,-8.454109E-3,2.5068768E-3],"categories":[],"categories_nodes":[],"categories_segments":[],"categories_sizes":[],"default_left":[1,1,1,0,0,0,0],"id":12,"left_children":[1,3,5,-1,-1,-1,-1],"loss_changes":[1.9138331E-3,7.722267E-3,9.370283E-3,0E0,0E0,0E0,0E0],"parents":[2147483647,0,0,1,1,2,2],"right_children":[2,4,6,-1,-1,-1,-1],"split_conditions":[3.0491366E0,2.4937706E1,1.0947866E1,-2.2457434E-4,-5.771391E-3,-3.8043489E-3,1.1280945E-3],"split_indices":[1,2,2,0,0,0,0],"split_type":[0,0,0,0,0,0,0],"sum_hessian":[1.36E3,7.25E2,6.35E2,6.71E2,5.4E1,9E1,5.45E2],"tree_param":{"num_deleted":"0","num_feature":"4","num_nodes":"7","size_leaf_vector":"0"}},{"base_weights":[-1.8471702E-4,-2.23304E-4,2.6146784E-2,-7.268069E-5,-1.0311431E-2],"categories":[],"categories_nodes":[],"categories_segments":[],"categories_sizes":[],"default_left":[1,1,0,0,0],"id":13,"left_children":[1,3,-1,-1,-1],"loss_changes":[1.3886868E-3,2.0657803E-3,0E0,0E0,0E0],"parents":[2147483647,0,0,1,1],"right_children":[2,4,-1,-1,-1],"split_conditions":[3.9273643E1,5.0255976E0,1.1766053E-2,-3.270631E-5,-4.640144E-3],"split_indices":[0,1,0,0,0],"split_type":[0,0,0,0,0],"sum_hessian":[1.36E3,1.359E3,1E0,1.34E3,1.9E1],"tree_param":{"num_deleted":"0","num_feature":"4","num_nodes":"5","size_leaf_vector":"0"}},{"base_weights":[-9.638108E-5,-2.3400213E-4,1.1487013E-2,-3.999723E-5,-4.3555096E-2,3.3963613E-2,7.7243317E-3],"categories":[],"categories_nodes":[],"categories_segments":[],"categories_sizes":[],"default_left":[1,1,1,0,0,0,0],"id":14,"left_children":[1,3,5,-1,-1,-1,-1],"loss_changes":[2.1722836E-3,1.1310721E-2,1.0908104E-3,0E0,0E0,0E0,0E0],"parents":[2147483647,0,0,1,1,2,2],"right_children":[2,4,6,-1,-1,-1,-1],"split_conditions":[2.6332905E1,5.0255976E0,2.6826393E1,-1.7998753E-5,-1.9599793E-2,1.5283626E-2,3.4759492E-3],"split_indices":[0,1,0,0,0,0,0],"split_type":[0,0,0,0,0,0,0],"sum_hessian":[1.36E3,1.345E3,1.5E1,1.34E3,5E0,1E0,1.4E1],"tree_param":{"num_deleted":"0","num_feature":"4","num_nodes":"7","size_leaf_vector":"0"}},{"base_weights":[-5.363853E-5,-2.893606E-4,5.4446952E-3,-5.6531E-5,-2.5391443E-2,3.188323E-2,3.8750598E-3],"categories":[],"categories_nodes":[],"categories_segments":[],"categories_sizes":[],"default_left":[1,1,1,0,0,0,0],"id":15,"left_children":[1,3,5,-1,-1,-1,-1],"loss_changes":[1.7655384E-3,7.6314923E-3,2.2003865E-3,0E0,0E0,0E0,0E0],"parents":[2147483647,0,0,1,1,2,2],"right_children":[2,4,6,-1,-1,-1,-1],"split_conditions":[4.5543327E0,4.464712E0,4.558963E0,-2.5438949E-5,-1.1426149E-2,1.4347453E-2,1.7437768E-3],"split_indices":[1,1,1,0,0,0,0],"split_type":[0,0,0,0,0,0,0],"sum_hessian":[1.36E3,1.305E3,5.5E1,1.294E3,1.1E1,2E0,5.3E1],"tree_param":{"num_deleted":"0","num_feature":"4","num_nodes":"7","size_leaf_vector":"0"}},{"base_weights":[-2.6093316E-5,-7.601008E-4,1.5276435E-3,1.1582412E-3,-2.1919939E-3,-4.932651E-3,3.3852353E-3],"categories":[],"categories_nodes":[],"categories_segments":[],"categories_sizes":[],"default_left":[1,1,1,0,0,0,0],"id":16,"left_children":[1,3,5,-1,-1,-1,-1],"loss_changes":[1.5533196E-3,2.543385E-3,5.260956E-3,0E0,0E0,0E0,0E0],"parents":[2147483647,0,0,1,1,2,2],"right_children":[2,4,6,-1,-1,-1,-1],"split_conditions":[2.0220943E1,6.419156E0,8.137215E0,5.212085E-4,-9.863973E-4,-2.2196928E-3,1.5233558E-3],"split_indices":[2,0,0,0,0,0,0],"split_type":[0,0,0,0,0,0,0],"sum_hessian":[1.36E3,9.24E2,4.36E2,3.95E2,5.29E2,9.7E1,3.39E2],"tree_param":{"num_deleted":"0","num_feature":"4","num_nodes":"7","size_leaf_vector":"0"}},{"base_weights":[-1.52049715E-5,-4.881255E-3,2.0514205E-4,-4.504463E-3,-1.0413219E-2,2.9128032E-2,1.6055608E-4],"categories":[],"categories_nodes":[],"categories_segments":[],"categories_sizes":[],"default_left":[1,1,1,0,0,0,0],"id":17,"left_children":[1,3,5,-1,-1,-1,-1],"loss_changes":[1.4602923E-3,7.607369E-5,1.6756132E-3,0E0,0E0,0E0,0E0],"parents":[2147483647,0,0,1,1,2,2],"right_children":[2,4,6,-1,-1,-1,-1],"split_conditions":[1.3621168E0,8.785234E0,1.2331141E0,-2.0270084E-3,-4.6859486E-3,1.3107614E-2,7.225024E-5],"split_indices":[1,2,0,0,0,0,0],"split_type":[0,0,0,0,0,0,0],"sum_hessian":[1.36E3,5.8E1,1.302E3,5.6E1,2E0,1E0,1.301E3],"tree_param":{"num_deleted":"0","num_feature":"4","num_nodes":"7","size_leaf_vector":"0"}},{"base_weights":[-3.6113522E-6,3.1542053E-4,-2.8562425E-3,1.890691E-4,2.5954312E-2,-1.5095007E-2,-1.232749E-4],"categories":[],"categories_nodes":[],"categories_segments":[],"categories_sizes":[],"default_left":[1,1,1,0,0,0,0],"id":18,"left_children":[1,3,5,-1,-1,-1,-1],"loss_changes":[1.2395203E-3,3.9634937E-3,4.580535E-3,0E0,0E0,0E0,0E0],"parents":[2147483647,0,0,1,1,2,2],"right_children":[2,4,6,-1,-1,-1,-1],"split_conditions":[3.388234E1,3.3443077E1,3.606754E1,8.50811E-5,1.167944E-2,-6.792753E-3,-5.5473705E-5],"split_indices":[2,2,2,0,0,0,0],"split_type":[0,0,0,0,0,0,0],"sum_hessian":[1.36E3,1.224E3,1.36E2,1.219E3,5E0,2.4E1,1.12E2],"tree_param":{"num_deleted":"0","num_feature":"4","num_nodes":"7","size_leaf_vector":"0"}},{"base_weights":[1.6269815E-6,-2.548841E-4,2.295236E-3,-3.35119E-5,-1.5097259E-2,1.5090607E-2,-8.378293E-4],"categories":[],"categories_nodes":[],"categories_segments":[],"categories_sizes":[],"default_left":[1,1,1,0,0,0,0],"id":19,"left_children":[1,3,5,-1,-1,-1,-1],"loss_changes":[8.013105E-4,4.0244632E-3,5.5048E-3,0E0,0E0,0E0,0E0],"parents":[2147483647,0,0,1,1,2,2],"right_children":[2,4,6,-1,-1,-1,-1],"split_conditions":[4.128564E0,1.631335E1,1.7720036E1,-1.5080354E-5,-6.7937663E-3,6.790773E-3,-3.7702319E-4],"split_indices":[1,0,0,0,0,0,0],"split_type":[0,0,0,0,0,0,0],"sum_hessian":[1.36E3,1.224E3,1.36E2,1.207E3,1.7E1,2.6E1,1.1E2],"tree_param":{"num_deleted":"0","num_feature":"4","num_nodes":"7","size_leaf_vector":"0"}},{"base_weights":[6.045495E-7,-1.6711255E-3,3.24401E-4,-4.910794E-4,-1.4191032E-2,2.7563027E-3,-2.2710885E-4],"categories":[],"categories_nodes":[],"categories_segments":[],"categories_sizes":[],"default_left":[1,1,1,0,0,0,0],"id":20,"left_children":[1,3,5,-1,-1,-1,-1],"loss_changes":[7.372518E-4,3.2581002E-3,1.5309553E-3,0E0,0E0,0E0,0E0],"parents":[2147483647,0,0,1,1,2,2],"right_children":[2,4,6,-1,-1,-1,-1],"split_conditions":[2.1853266E0,1.6091858E1,2.5876532E0,-2.2098573E-4,-6.3859643E-3,1.2403362E-3,-1.0219898E-4],"split_indices":[1,2,1,0,0,0,0],"split_type":[0,0,0,0,0,0,0],"sum_hessian":[1.36E3,2.2E2,1.14E3,2.02E2,1.8E1,2.1E2,9.3E2],"tree_param":{"num_deleted":"0","num_feature":"4","num_nodes":"7","size_leaf_vector":"0"}},{"base_weights":[-3.6861309E-6,-1.5030277E-4,3.843608E-3,1.2960197E-5,-9.724039E-3,3.51381E-2,1.8076272E-3],"categories":[],"categories_nodes":[],"categories_segments":[],"categories_sizes":[],"default_left":[1,1,1,0,0,0,0],"id":21,"left_children":[1,3,5,-1,-1,-1,-1],"loss_changes":[7.68287E-4,2.0508296E-3,3.1222329E-3,0E0,0E0,0E0,0E0],"parents":[2147483647,0,0,1,1,2,2],"right_children":[2,4,6,-1,-1,-1,-1],"split_conditions":[2.0673656E1,4.44901E0,2.0805859E1,5.8320884E-6,-4.3758173E-3,1.5812146E-2,8.134322E-4],"split_indices":[0,1,0,0,0,0,0],"split_type":[0,0,0,0,0,0,0],"sum_hessian":[1.36E3,1.311E3,4.9E1,1.29E3,2.1E1,2E0,4.7E1],"tree_param":{"num_deleted":"0","num_feature":"4","num_nodes":"7","size_leaf_vector":"0"}},{"base_weights":[6.9763846E-6,-5.279968E-4,1.1393408E-3,1.2940378E-6,-3.219728E-3,1.0696575E-2,5.825462E-4],"categories":[],"categories_nodes":[],"categories_segments":[],"categories_sizes":[],"default_left":[1,1,1,0,0,0,0],"id":22,"left_children":[1,3,5,-1,-1,-1,-1],"loss_changes":[8.2507444E-4,1.3178596E-3,2.3192274E-3,0E0,0E0,0E0,0E0],"parents":[2147483647,0,0,1,1,2,2],"right_children":[2,4,6,-1,-1,-1,-1],"split_conditions":[2.0220943E1,1.6558704E1,2.0801197E1,5.82317E-7,-1.4488775E-3,4.813459E-3,2.621458E-4],"split_indices":[2,2,2,0,0,0,0],"split_type":[0,0,0,0,0,0,0],"sum_hessian":[1.36E3,9.24E2,4.36E2,7.73E2,1.51E2,2.3E1,4.13E2],"tree_param":{"num_deleted":"0","num_feature":"4","num_nodes":"7","size_leaf_vector":"0"}},{"base_weights":[6.5026125E-6,-7.400326E-3,7.787568E-5,-4.9427804E-3,-1.3944551E-2,4.8008343E-4,-1.3301111E-3],"categories":[],"categories_nodes":[],"categories_segments":[],"categories_sizes":[],"default_left":[1,1,1,0,0,0,0],"id":23,"left_children":[1,3,5,-1,-1,-1,-1],"loss_changes":[7.2006637E-4,1.4015066E-4,7.645815E-4,0E0,0E0,0E0,0E0],"parents":[2147483647,0,0,1,1,2,2],"right_children":[2,4,6,-1,-1,-1,-1],"split_conditions":[1.3583542E1,3.9263813E0,3.6627195E0,-2.2242512E-3,-6.275048E-3,2.1603754E-4,-5.9854996E-4],"split_indices":[3,0,1,0,0,0,0],"split_type":[0,0,0,0,0,0,0],"sum_hessian":[1.36E3,1.2E1,1.348E3,1E1,2E0,1.049E3,2.99E2],"tree_param":{"num_deleted":"0","num_feature":"4","num_nodes":"7","size_leaf_vector":"0"}},{"base_weights":[-2.9491734E-6,-3.3771218E-4,2.4256222E-3,2.0343982E-4,-4.5609893E-3,2.8797686E-2,7.1955635E-4],"categories":[],"categories_nodes":[],"categories_segments":[],"categories_sizes":[],"default_left":[1,1,1,0,0,0,0],"id":24,"left_children":[1,3,5,-1,-1,-1,-1],"loss_changes":[1.1073063E-3,2.7365934E-3,7.403037E-3,0E0,0E0,0E0,0E0],"parents":[2147483647,0,0,1,1,2,2],"right_children":[2,4,6,-1,-1,-1,-1],"split_conditions":[4.042551E0,3.6627195E0,1.6245611E1,9.154792E-5,-2.0524452E-3,1.2958959E-2,3.2380034E-4],"split_indices":[1,1,0,0,0,0,0],"split_type":[0,0,0,0,0,0,0],"sum_hessian":[1.36E3,1.196E3,1.64E2,1.061E3,1.35E2,9E0,1.55E2],"tree_param":{"num_deleted":"0","num_feature":"4","num_nodes":"7","size_leaf_vector":"0"}},{"base_weights":[-1.4042605E-2,-1.6664201E-2,7.0659906E-2,-2.5163153E-3,-3.487437E-2,2.5829226E-2,1.2454582E-1,7.2652604E-3,-5.9315874E-3,-5.184445E-2,-1.4149648E-2,-2.469537E-2,3.9388392E-2,3.475079E-2,1.2954985E-1,7.4635015E-4,9.36255E-3,-7.5808736E-3,1.7463833E-3,-3.7104525E-2,-7.35961E-2,-2.3177085E-2,6.5568066E-3,-6.5427646E-3,-2.8565317E-2,6.31207E-2,2.5956627E-2,1.4991497E-1,7.5128704E-2],"categories":[],"categories_nodes":[],"categories_segments":[],"categories_sizes":[],"default_left":[1,1,1,1,1,1,1,1,1,1,1,1,1,0,1,0,0,0,0,0,0,0,0,0,0,0,0,0,0],"id":25,"left_children":[1,3,5,7,9,11,13,15,17,19,21,23,25,-1,27,-1,-1,-1,-1,-1,-1,-1,-1,-1,-1,-1,-1,-1,-1],"loss_changes":[1.9947343E-1,2.232821E-1,6.2008128E-2,1.6378993E-2,1.3256079E-1,1.1933852E-2,8.9006126E-4,1.7293622E-3,4.6099694E-3,6.395775E-2,3.230327E-2,9.410223E-5,2.505567E-3,0E0,9.2831254E-4,0E0,0E0,0E0,0E0,0E0,0E0,0E0,0E0,0E0,0E0,0E0,0E0,0E0,0E0],"parents":[2147483647,0,0,1,1,2,2,3,3,4,4,5,5,6,6,7,7,8,8,9,9,10,10,11,11,12,12,14,14],"right_children":[2,4,6,8,10,12,14,16,18,20,22,24,26,-1,28,-1,-1,-1,-1,-1,-1,-1,-1,-1,-1,-1,-1,-1,-1],"split_conditions":[8.225492E3,3.0487514E0,2.6248703E1,3.7926922E0,2.2741135E3,1.6434044E1,9.049109E3,2.0665336E0,2.9173832E0,3.624301E0,1.6379238E1,3.9142287E0,8.840578E3,3.4750788E-4,1.3732301E4,7.4635013E-6,9.36255E-5,-7.580873E-5,1.7463832E-5,-3.7104523E-4,-7.3596096E-4,-2.3177084E-4,6.556806E-5,-6.5427645E-5,-2.8565316E-4,6.31207E-4,2.5956627E-4,1.4991496E-3,7.5128704E-4],"split_indices":[2,1,0,0,2,0,2,0,1,1,0,1,2,0,2,0,0,0,0,0,0,0,0,0,0,0,0,0,0],"split_type":[0,0,0,0,0,0,0,0,0,0,0,0,0,0,0,0,0,0,0,0,0,0,0,0,0,0,0,0,0],"sum_hessian":[8.92E2,8.66E2,2.6E1,4.88E2,3.78E2,1.5E1,1.1E1,1.26E2,3.62E2,2.07E2,1.71E2,3E0,1.2E1,1E0,1E1,3.1E1,9.5E1,2.98E2,6.4E1,1.25E2,8.2E1,1.19E2,5.2E1,1E0,2E0,3E0,9E0,6E0,4E0],"tree_param":{"num_deleted":"0","num_feature":"4","num_nodes":"29","size_leaf_vector":"0"}},{"base_weights":[-1.3900042E-2,-1.6498977E-2,7.0069514E-2,-2.4910641E-3,-3.4528982E-2,2.5604662E-2,1.2351686E-1,7.1934042E-3,-5.8724317E-3,-5.1331326E-2,-1.4009115E-2,-2.4536185E-2,3.9063025E-2,3.4577042E-2,1.2845893E-1,7.391201E-4,9.269901E-3,-7.505317E-3,1.7291878E-3,-3.6736425E-2,-7.2868995E-2,-2.2947244E-2,6.492479E-3,-6.510049E-3,-2.837488E-2,6.264729E-2,2.5723018E-2,1.4862998E-1,7.452767E-2],"categories":[],"categories_nodes":[],"categories_segments":[],"categories_sizes":[],"default_left":[1,1,1,1,1,1,1,1,1,1,1,1,1,0,1,0,0,0,0,0,0,0,0,0,0,0,0,0,0],"id":26,"left_children":[1,3,5,7,9,11,13,15,17,19,21,23,25,-1,27,-1,-1,-1,-1,-1,-1,-1,-1,-1,-1,-1,-1,-1,-1],"loss_changes":[1.9603686E-1,2.188859E-1,6.1003655E-2,1.6055401E-2,1.2995318E-1,1.1755477E-2,8.328259E-4,1.6952404E-3,4.5187417E-3,6.2705815E-2,3.1667277E-2,9.206566E-5,2.4785083E-3,0E0,8.893162E-4,0E0,0E0,0E0,0E0,0E0,0E0,0E0,0E0,0E0,0E0,0E0,0E0,0E0,0E0],"parents":[2147483647,0,0,1,1,2,2,3,3,4,4,5,5,6,6,7,7,8,8,9,9,10,10,11,11,12,12,14,14],"right_children":[2,4,6,8,10,12,14,16,18,20,22,24,26,-1,28,-1,-1,-1,-1,-1,-1,-1,-1,-1,-1,-1,-1,-1,-1],"split_conditions":[8.225492E3,3.0487514E0,2.6248703E1,3.7926922E0,2.2741135E3,1.6434044E1,9.049109E3,2.0665336E0,2.9173832E0,3.624301E0,1.6379238E1,3.9142287E0,8.840578E3,3.4577042E-4,1.3732301E4,7.391201E-6,9.2699E-5,-7.505317E-5,1.7291877E-5,-3.6736423E-4,-7.2868995E-4,-2.2947244E-4,6.492479E-5,-6.510049E-5,-2.837488E-4,6.264729E-4,2.5723016E-4,1.4862998E-3,7.4527675E-4],"split_indices":[2,1,0,0,2,0,2,0,1,1,0,1,2,0,2,0,0,0,0,0,0,0,0,0,0,0,0,0,0],"split_type":[0,0,0,0,0,0,0,0,0,0,0,0,0,0,0,0,0,0,0,0,0,0,0,0,0,0,0,0,0],"sum_hessian":[8.92E2,8.66E2,2.6E1,4.88E2,3.78E2,1.5E1,1.1E1,1.26E2,3.62E2,2.07E2,1.71E2,3E0,1.2E1,1E0,1E1,3.1E1,9.5E1,2.98E2,6.4E1,1.25E2,8.2E1,1.19E2,5.2E1,1E0,2E0,3E0,9E0,6E0,4E0],"tree_param":{"num_deleted":"0","num_feature":"4","num_nodes":"29","size_leaf_vector":"0"}},{"base_weights":[-1.375892E-2,-1.6335392E-2,6.948409E-2,-2.4660684E-3,-3.4187015E-2,2.5382048E-2,1.2249647E-1,7.122258E-3,-5.8138683E-3,-5.082328E-2,-1.3869978E-2,-2.4378035E-2,3.8740378E-2,3.440416E-2,1.2737721E-1,7.319601E-4,9.178167E-3,-7.430517E-3,1.712161E-3,-3.6371976E-2,-7.2149076E-2,-2.2719678E-2,6.4287772E-3,-6.4774975E-3,-2.8185716E-2,6.2177435E-2,2.5491517E-2,1.47356E-1,7.393146E-2],"categories":[],"categories_nodes":[],"categories_segments":[],"categories_sizes":[],"default_left":[1,1,1,1,1,1,1,1,1,1,1,1,1,0,1,0,0,0,0,0,0,0,0,0,0,0,0,0,0],"id":27,"left_children":[1,3,5,7,9,11,13,15,17,19,21,23,25,-1,27,-1,-1,-1,-1,-1,-1,-1,-1,-1,-1,-1,-1,-1,-1],"loss_changes":[1.9265978E-1,2.145762E-1,6.001556E-2,1.5738208E-2,1.2739691E-1,1.1579799E-2,7.7715516E-4,1.6617924E-3,4.4293236E-3,6.1478376E-2,3.1043775E-2,9.006518E-5,2.45169E-3,0E0,8.5134804E-4,0E0,0E0,0E0,0E0,0E0,0E0,0E0,0E0,0E0,0E0,0E0,0E0,0E0,0E0],"parents":[2147483647,0,0,1,1,2,2,3,3,4,4,5,5,6,6,7,7,8,8,9,9,10,10,11,11,12,12,14,14],"right_children":[2,4,6,8,10,12,14,16,18,20,22,24,26,-1,28,-1,-1,-1,-1,-1,-1,-1,-1,-1,-1,-1,-1,-1,-1],"split_conditions":[8.225492E3,3.0487514E0,2.6248703E1,3.7926922E0,2.2741135E3,1.6434044E1,9.049109E3,2.0665336E0,2.9173832E0,3.624301E0,1.6379238E1,3.9142287E0,8.840578E3,3.440416E-4,1.3732301E4,7.319601E-6,9.178167E-5,-7.430517E-5,1.7121609E-5,-3.6371977E-4,-7.2149077E-4,-2.2719677E-4,6.428777E-5,-6.477498E-5,-2.8185715E-4,6.2177435E-4,2.5491515E-4,1.47356E-3,7.393146E-4],"split_indices":[2,1,0,0,2,0,2,0,1,1,0,1,2,0,2,0,0,0,0,0,0,0,0,0,0,0,0,0,0],"split_type":[0,0,0,0,0,0,0,0,0,0,0,0,0,0,0,0,0,0,0,0,0,0,0,0,0,0,0,0,0],"sum_hessian":[8.92E2,8.66E2,2.6E1,4.88E2,3.78E2,1.5E1,1.1E1,1.26E2,3.62E2,2.07E2,1.71E2,3E0,1.2E1,1E0,1E1,3.1E1,9.5E1,2.98E2,6.4E1,1.25E2,8.2E1,1.19E2,5.2E1,1E0,2E0,3E0,9E0,6E0,4E0],"tree_param":{"num_deleted":"0","num_feature":"4","num_nodes":"29","size_leaf_vector":"0"}},{"base_weights":[-1.3619225E-2,-1.617343E-2,6.890359E-2,-2.4413222E-3,-3.384844E-2,2.5161354E-2,1.2148459E-1,7.051816E-3,-5.7558874E-3,-5.0320264E-2,-1.3732223E-2,-2.4220914E-2,3.842041E-2,3.423214E-2,1.2630463E-1,7.2486897E-4,9.087342E-3,-7.356461E-3,1.695303E-3,-3.601114E-2,-7.1436286E-2,-2.2494374E-2,6.365706E-3,-6.44511E-3,-2.7997812E-2,6.1711103E-2,2.5262091E-2,1.4609297E-1,7.334001E-2],"categories":[],"categories_nodes":[],"categories_segments":[],"categories_sizes":[],"default_left":[1,1,1,1,1,1,1,1,1,1,1,1,1,0,1,0,0,0,0,0,0,0,0,0,0,0,0,0,0],"id":28,"left_children":[1,3,5,7,9,11,13,15,17,19,21,23,25,-1,27,-1,-1,-1,-1,-1,-1,-1,-1,-1,-1,-1,-1,-1,-1],"loss_changes":[1.8934116E-1,2.1035133E-1,5.9043556E-2,1.5427282E-2,1.2489095E-1,1.1406773E-2,7.2303414E-4,1.6290038E-3,4.341676E-3,6.0275078E-2,3.0432578E-2,8.8100554E-5,2.4251118E-3,0E0,8.1443787E-4,0E0,0E0,0E0,0E0,0E0,0E0,0E0,0E0,0E0,0E0,0E0,0E0,0E0,0E0],"parents":[2147483647,0,0,1,1,2,2,3,3,4,4,5,5,6,6,7,7,8,8,9,9,10,10,11,11,12,12,14,14],"right_children":[2,4,6,8,10,12,14,16,18,20,22,24,26,-1,28,-1,-1,-1,-1,-1,-1,-1,-1,-1,-1,-1,-1,-1,-1],"split_conditions":[8.225492E3,3.0487514E0,2.6248703E1,3.7926922E0,2.2741135E3,1.6434044E1,9.049109E3,2.0665336E0,2.9173832E0,3.624301E0,1.6379238E1,3.9142287E0,8.840578E3,3.4232138E-4,1.3732301E4,7.2486896E-6,9.0873415E-5,-7.356461E-5,1.695303E-5,-3.601114E-4,-7.1436283E-4,-2.2494374E-4,6.365706E-5,-6.4451095E-5,-2.7997812E-4,6.17111E-4,2.526209E-4,1.4609296E-3,7.334001E-4],"split_indices":[2,1,0,0,2,0,2,0,1,1,0,1,2,0,2,0,0,0,0,0,0,0,0,0,0,0,0,0,0],"split_type":[0,0,0,0,0,0,0,0,0,0,0,0,0,0,0,0,0,0,0,0,0,0,0,0,0,0,0,0,0],"sum_hessian":[8.92E2,8.66E2,2.6E1,4.88E2,3.78E2,1.5E1,1.1E1,1.26E2,3.62E2,2.07E2,1.71E2,3E0,1.2E1,1E0,1E1,3.1E1,9.5E1,2.98E2,6.4E1,1.25E2,8.2E1,1.19E2,5.2E1,1E0,2E0,3E0,9E0,6E0,4E0],"tree_param":{"num_deleted":"0","num_feature":"4","num_nodes":"29","size_leaf_vector":"0"}},{"base_weights":[-1.348094E-2,-1.6013073E-2,6.832795E-2,-2.416823E-3,-3.351321E-2,2.494257E-2,1.2048113E-1,6.9820704E-3,-5.6984834E-3,-4.982223E-2,-1.3595836E-2,-2.4064813E-2,3.8103104E-2,3.4060985E-2,1.2524106E-1,7.178463E-4,8.997415E-3,-7.2831414E-3,1.6786134E-3,-3.5653885E-2,-7.073053E-2,-2.22713E-2,6.30325E-3,-6.412886E-3,-2.781116E-2,6.1248265E-2,2.503473E-2,1.4484073E-1,7.2753295E-2],"categories":[],"categories_nodes":[],"categories_segments":[],"categories_sizes":[],"default_left":[1,1,1,1,1,1,1,1,1,1,1,1,1,0,1,0,0,0,0,0,0,0,0,0,0,0,0,0,0],"id":29,"left_children":[1,3,5,7,9,11,13,15,17,19,21,23,25,-1,27,-1,-1,-1,-1,-1,-1,-1,-1,-1,-1,-1,-1,-1,-1],"loss_changes":[1.8607993E-1,2.0620975E-1,5.808741E-2,1.512249E-2,1.2243423E-1,1.123636E-2,6.7040324E-4,1.596862E-3,4.2557595E-3,5.9095323E-2,2.9833395E-2,8.617109E-5,2.3987722E-3,0E0,7.7854097E-4,0E0,0E0,0E0,0E0,0E0,0E0,0E0,0E0,0E0,0E0,0E0,0E0,0E0,0E0],"parents":[2147483647,0,0,1,1,2,2,3,3,4,4,5,5,6,6,7,7,8,8,9,9,10,10,11,11,12,12,14,14],"right_children":[2,4,6,8,10,12,14,16,18,20,22,24,26,-1,28,-1,-1,-1,-1,-1,-1,-1,-1,-1,-1,-1,-1,-1,-1],"split_conditions":[8.225492E3,3.0487514E0,2.6248703E1,3.7926922E0,2.2741135E3,1.6434044E1,9.049109E3,2.0665336E0,2.9173832E0,3.624301E0,1.6379238E1,3.9142287E0,8.840578E3,3.4060984E-4,1.3732301E4,7.178463E-6,8.997415E-5,-7.283141E-5,1.6786133E-5,-3.5653883E-4,-7.0730527E-4,-2.2271299E-4,6.3032494E-5,-6.412886E-5,-2.781116E-4,6.1248266E-4,2.5034728E-4,1.4484073E-3,7.2753296E-4],"split_indices":[2,1,0,0,2,0,2,0,1,1,0,1,2,0,2,0,0,0,0,0,0,0,0,0,0,0,0,0,0],"split_type":[0,0,0,0,0,0,0,0,0,0,0,0,0,0,0,0,0,0,0,0,0,0,0,0,0,0,0,0,0],"sum_hessian":[8.92E2,8.66E2,2.6E1,4.88E2,3.78E2,1.5E1,1.1E1,1.26E2,3.62E2,2.07E2,1.71E2,3E0,1.2E1,1E0,1E1,3.1E1,9.5E1,2.98E2,6.4E1,1.25E2,8.2E1,1.19E2,5.2E1,1E0,2E0,3E0,9E0,6E0,4E0],"tree_param":{"num_deleted":"0","num_feature":"4","num_nodes":"29","size_leaf_vector":"0"}},{"base_weights":[-1.3344054E-2,-1.5854307E-2,6.775716E-2,-2.3925712E-3,-3.318131E-2,2.472568E-2,1.1948604E-1,6.9130147E-3,-5.641653E-3,-4.9329124E-2,-1.3460806E-2,-2.3909722E-2,3.7788443E-2,3.389068E-2,1.2418646E-1,7.10892E-4,8.908378E-3,-7.210554E-3,1.6620854E-3,-3.5300177E-2,-7.0031755E-2,-2.2050444E-2,6.2414072E-3,-6.380819E-3,-2.7625749E-2,6.07889E-2,2.4809415E-2,1.4359926E-1,7.217126E-2],"categories":[],"categories_nodes":[],"categories_segments":[],"categories_sizes":[],"default_left":[1,1,1,1,1,1,1,1,1,1,1,1,1,0,1,0,0,0,0,0,0,0,0,0,0,0,0,0,0],"id":30,"left_children":[1,3,5,7,9,11,13,15,17,19,21,23,25,-1,27,-1,-1,-1,-1,-1,-1,-1,-1,-1,-1,-1,-1,-1,-1],"loss_changes":[1.8287522E-1,2.021497E-1,5.7146825E-2,1.4823725E-2,1.200259E-1,1.1068513E-2,6.1926246E-4,1.5653544E-3,4.1715456E-3,5.7938576E-2,2.924602E-2,8.4276544E-5,2.372671E-3,0E0,7.4361265E-4,0E0,0E0,0E0,0E0,0E0,0E0,0E0,0E0,0E0,0E0,0E0,0E0,0E0,0E0],"parents":[2147483647,0,0,1,1,2,2,3,3,4,4,5,5,6,6,7,7,8,8,9,9,10,10,11,11,12,12,14,14],"right_children":[2,4,6,8,10,12,14,16,18,20,22,24,26,-1,28,-1,-1,-1,-1,-1,-1,-1,-1,-1,-1,-1,-1,-1,-1],"split_conditions":[8.225492E3,3.0487514E0,2.6248703E1,3.7926922E0,2.2741135E3,1.6434044E1,9.049109E3,2.0665336E0,2.9173832E0,3.624301E0,1.6379238E1,3.9142287E0,8.840578E3,3.389068E-4,1.3732301E4,7.1089203E-6,8.908378E-5,-7.210554E-5,1.6620854E-5,-3.5300176E-4,-7.0031756E-4,-2.2050443E-4,6.2414074E-5,-6.3808184E-5,-2.762575E-4,6.07889E-4,2.4809415E-4,1.4359925E-3,7.217126E-4],"split_indices":[2,1,0,0,2,0,2,0,1,1,0,1,2,0,2,0,0,0,0,0,0,0,0,0,0,0,0,0,0],"split_type":[0,0,0,0,0,0,0,0,0,0,0,0,0,0,0,0,0,0,0,0,0,0,0,0,0,0,0,0,0],"sum_hessian":[8.92E2,8.66E2,2.6E1,4.88E2,3.78E2,1.5E1,1.1E1,1.26E2,3.62E2,2.07E2,1.71E2,3E0,1.2E1,1E0,1E1,3.1E1,9.5E1,2.98E2,6.4E1,1.25E2,8.2E1,1.19E2,5.2E1,1E0,2E0,3E0,9E0,6E0,4E0],"tree_param":{"num_deleted":"0","num_feature":"4","num_nodes":"29","size_leaf_vector":"0"}},{"base_weights":[-1.32085495E-2,-1.5697112E-2,6.719116E-2,-2.3685617E-3,-3.285269E-2,2.4510667E-2,1.1849923E-1,6.844642E-3,-5.5853887E-3,-4.884089E-2,-1.3327116E-2,-2.3755644E-2,3.74764E-2,3.3721223E-2,1.2314075E-1,7.040051E-4,8.820223E-3,-7.1386886E-3,1.6457189E-3,-3.4949973E-2,-6.9339864E-2,-2.1831773E-2,6.1801663E-3,-6.3489154E-3,-2.7441582E-2,6.0332984E-2,2.458613E-2,1.423684E-1,7.159389E-2],"categories":[],"categories_nodes":[],"categories_segments":[],"categories_sizes":[],"default_left":[1,1,1,1,1,1,1,1,1,1,1,1,1,0,1,0,0,0,0,0,0,0,0,0,0,0,0,0,0],"id":31,"left_children":[1,3,5,7,9,11,13,15,17,19,21,23,25,-1,27,-1,-1,-1,-1,-1,-1,-1,-1,-1,-1,-1,-1,-1,-1],"loss_changes":[1.7972587E-1,1.9816954E-1,5.6221552E-2,1.4530862E-2,1.17664844E-1,1.0903209E-2,5.695373E-4,1.534468E-3,4.088993E-3,5.680445E-2,2.8670201E-2,8.2415994E-5,2.3468025E-3,0E0,7.096678E-4,0E0,0E0,0E0,0E0,0E0,0E0,0E0,0E0,0E0,0E0,0E0,0E0,0E0,0E0],"parents":[2147483647,0,0,1,1,2,2,3,3,4,4,5,5,6,6,7,7,8,8,9,9,10,10,11,11,12,12,14,14],"right_children":[2,4,6,8,10,12,14,16,18,20,22,24,26,-1,28,-1,-1,-1,-1,-1,-1,-1,-1,-1,-1,-1,-1,-1,-1],"split_conditions":[8.225492E3,3.0487514E0,2.6248703E1,3.7926922E0,2.2741135E3,1.6434044E1,9.049109E3,2.0665336E0,2.9173832E0,3.624301E0,1.6379238E1,3.9142287E0,8.840578E3,3.3721223E-4,1.3732301E4,7.040051E-6,8.820222E-5,-7.138689E-5,1.6457188E-5,-3.4949972E-4,-6.9339864E-4,-2.1831773E-4,6.1801664E-5,-6.3489155E-5,-2.744158E-4,6.033298E-4,2.458613E-4,1.4236841E-3,7.1593886E-4],"split_indices":[2,1,0,0,2,0,2,0,1,1,0,1,2,0,2,0,0,0,0,0,0,0,0,0,0,0,0,0,0],"split_type":[0,0,0,0,0,0,0,0,0,0,0,0,0,0,0,0,0,0,0,0,0,0,0,0,0,0,0,0,0],"sum_hessian":[8.92E2,8.66E2,2.6E1,4.88E2,3.78E2,1.5E1,1.1E1,1.26E2,3.62E2,2.07E2,1.71E2,3E0,1.2E1,1E0,1E1,3.1E1,9.5E1,2.98E2,6.4E1,1.25E2,8.2E1,1.19E2,5.2E1,1E0,2E0,3E0,9E0,6E0,4E0],"tree_param":{"num_deleted":"0","num_feature":"4","num_nodes":"29","size_leaf_vector":"0"}},{"base_weights":[-1.3074417E-2,-1.5541478E-2,6.6629924E-2,-2.3447946E-3,-3.2527328E-2,2.4297519E-2,1.1752063E-1,6.7769457E-3,-5.5296877E-3,-4.8357498E-2,-1.3194755E-2,-2.360256E-2,3.7166964E-2,3.3552617E-2,1.2210385E-1,6.971847E-4,8.732939E-3,-7.067542E-3,1.6295138E-3,-3.4603246E-2,-6.865482E-2,-2.1615276E-2,6.119535E-3,-6.3171685E-3,-2.7258635E-2,5.9880488E-2,2.4364859E-2,1.4114809E-1,7.102113E-2],"categories":[],"categories_nodes":[],"categories_segments":[],"categories_sizes":[],"default_left":[1,1,1,1,1,1,1,1,1,1,1,1,1,0,1,0,0,0,0,0,0,0,0,0,0,0,0,0,0],"id":32,"left_children":[1,3,5,7,9,11,13,15,17,19,21,23,25,-1,27,-1,-1,-1,-1,-1,-1,-1,-1,-1,-1,-1,-1,-1,-1],"loss_changes":[1.7663108E-1,1.9426773E-1,5.531133E-2,1.424379E-2,1.15350336E-1,1.0740395E-2,5.212277E-4,1.5041917E-3,4.008077E-3,5.5692613E-2,2.8105734E-2,8.0589205E-5,2.3211725E-3,0E0,6.766468E-4,0E0,0E0,0E0,0E0,0E0,0E0,0E0,0E0,0E0,0E0,0E0,0E0,0E0,0E0],"parents":[2147483647,0,0,1,1,2,2,3,3,4,4,5,5,6,6,7,7,8,8,9,9,10,10,11,11,12,12,14,14],"right_children":[2,4,6,8,10,12,14,16,18,20,22,24,26,-1,28,-1,-1,-1,-1,-1,-1,-1,-1,-1,-1,-1,-1,-1,-1],"split_conditions":[8.225492E3,3.0487514E0,2.6248703E1,3.7926922E0,2.2741135E3,1.6434044E1,9.049109E3,2.0665336E0,2.9173832E0,3.624301E0,1.6379238E1,3.9142287E0,8.840578E3,3.3552616E-4,1.3732301E4,6.9718467E-6,8.732939E-5,-7.067542E-5,1.6295138E-5,-3.4603244E-4,-6.865482E-4,-2.1615275E-4,6.1195344E-5,-6.317168E-5,-2.7258633E-4,5.9880485E-4,2.4364858E-4,1.4114808E-3,7.102113E-4],"split_indices":[2,1,0,0,2,0,2,0,1,1,0,1,2,0,2,0,0,0,0,0,0,0,0,0,0,0,0,0,0],"split_type":[0,0,0,0,0,0,0,0,0,0,0,0,0,0,0,0,0,0,0,0,0,0,0,0,0,0,0,0,0],"sum_hessian":[8.92E2,8.66E2,2.6E1,4.88E2,3.78E2,1.5E1,1.1E1,1.26E2,3.62E2,2.07E2,1.71E2,3E0,1.2E1,1E0,1E1,3.1E1,9.5E1,2.98E2,6.4E1,1.25E2,8.2E1,1.19E2,5.2E1,1E0,2E0,3E0,9E0,6E0,4E0],"tree_param":{"num_deleted":"0","num_feature":"4","num_nodes":"29","size_leaf_vector":"0"}},{"base_weights":[-1.2941638E-2,-1.5387387E-2,6.6073395E-2,-2.3212645E-3,-3.2205187E-2,2.4086213E-2,1.165502E-1,6.709919E-3,-5.47454E-3,-4.7878888E-2,-1.30637055E-2,-2.3450475E-2,3.68601E-2,3.338486E-2,1.210757E-1,6.90431E-4,8.64652E-3,-6.9971024E-3,1.61347E-3,-3.425996E-2,-6.797656E-2,-2.1400921E-2,6.0594925E-3,-6.2855855E-3,-2.707691E-2,5.943138E-2,2.4145577E-2,1.3993827E-1,7.045296E-2],"categories":[],"categories_nodes":[],"categories_segments":[],"categories_sizes":[],"default_left":[1,1,1,1,1,1,1,1,1,1,1,1,1,0,1,0,0,0,0,0,0,0,0,0,0,0,0,0,0],"id":33,"left_children":[1,3,5,7,9,11,13,15,17,19,21,23,25,-1,27,-1,-1,-1,-1,-1,-1,-1,-1,-1,-1,-1,-1,-1,-1],"loss_changes":[1.7358978E-1,1.904428E-1,5.441598E-2,1.3962383E-2,1.1308128E-1,1.0580039E-2,4.7427416E-4,1.4745127E-3,3.928762E-3,5.4602593E-2,2.7552364E-2,7.8795245E-5,2.2957753E-3,0E0,6.445646E-4,0E0,0E0,0E0,0E0,0E0,0E0,0E0,0E0,0E0,0E0,0E0,0E0,0E0,0E0],"parents":[2147483647,0,0,1,1,2,2,3,3,4,4,5,5,6,6,7,7,8,8,9,9,10,10,11,11,12,12,14,14],"right_children":[2,4,6,8,10,12,14,16,18,20,22,24,26,-1,28,-1,-1,-1,-1,-1,-1,-1,-1,-1,-1,-1,-1,-1,-1],"split_conditions":[8.225492E3,3.0487514E0,2.6248703E1,3.7926922E0,2.2741135E3,1.6434044E1,9.049109E3,2.0665336E0,2.9173832E0,3.624301E0,1.6379238E1,3.9142287E0,8.840578E3,3.3384858E-4,1.3732301E4,6.90431E-6,8.6465196E-5,-6.997102E-5,1.61347E-5,-3.4259958E-4,-6.7976554E-4,-2.1400921E-4,6.0594924E-5,-6.2855856E-5,-2.707691E-4,5.943138E-4,2.4145577E-4,1.3993826E-3,7.045296E-4],"split_indices":[2,1,0,0,2,0,2,0,1,1,0,1,2,0,2,0,0,0,0,0,0,0,0,0,0,0,0,0,0],"split_type":[0,0,0,0,0,0,0,0,0,0,0,0,0,0,0,0,0,0,0,0,0,0,0,0,0,0,0,0,0],"sum_hessian":[8.92E2,8.66E2,2.6E1,4.88E2,3.78E2,1.5E1,1.1E1,1.26E2,3.62E2,2.07E2,1.71E2,3E0,1.2E1,1E0,1E1,3.1E1,9.5E1,2.98E2,6.4E1,1.25E2,8.2E1,1.19E2,5.2E1,1E0,2E0,3E0,9E0,6E0,4E0],"tree_param":{"num_deleted":"0","num_feature":"4","num_nodes":"29","size_leaf_vector":"0"}},{"base_weights":[-1.2810202E-2,-1.5234824E-2,6.552155E-2,-2.297972E-3,-3.188624E-2,2.3876732E-2,1.1558785E-1,6.6435547E-3,-5.4199444E-3,-4.7405016E-2,-1.2933957E-2,-2.3299377E-2,3.6555786E-2,3.3217937E-2,1.2005621E-1,6.837426E-4,8.5609555E-3,-6.9273664E-3,1.5975807E-3,-3.392008E-2,-6.7304984E-2,-2.1188693E-2,6.0000475E-3,-6.254159E-3,-2.6896397E-2,5.8985643E-2,2.3928266E-2,1.3873881E-1,6.988934E-2],"categories":[],"categories_nodes":[],"categories_segments":[],"categories_sizes":[],"default_left":[1,1,1,1,1,1,1,1,1,1,1,1,1,0,1,0,0,0,0,0,0,0,0,0,0,0,0,0,0],"id":34,"left_children":[1,3,5,7,9,11,13,15,17,19,21,23,25,-1,27,-1,-1,-1,-1,-1,-1,-1,-1,-1,-1,-1,-1,-1,-1],"loss_changes":[1.7060116E-1,1.8669319E-1,5.3535186E-2,1.368654E-2,1.1085689E-1,1.0422102E-2,4.286766E-4,1.4454192E-3,3.8510151E-3,5.3533763E-2,2.700991E-2,7.703365E-5,2.270611E-3,0E0,6.133616E-4,0E0,0E0,0E0,0E0,0E0,0E0,0E0,0E0,0E0,0E0,0E0,0E0,0E0,0E0],"parents":[2147483647,0,0,1,1,2,2,3,3,4,4,5,5,6,6,7,7,8,8,9,9,10,10,11,11,12,12,14,14],"right_children":[2,4,6,8,10,12,14,16,18,20,22,24,26,-1,28,-1,-1,-1,-1,-1,-1,-1,-1,-1,-1,-1,-1,-1,-1],"split_conditions":[8.225492E3,3.0487514E0,2.6248703E1,3.7926922E0,2.2741135E3,1.6434044E1,9.049109E3,2.0665336E0,2.9173832E0,3.624301E0,1.6379238E1,3.9142287E0,8.840578E3,3.3217936E-4,1.3732301E4,6.8374256E-6,8.560955E-5,-6.9273665E-5,1.5975807E-5,-3.3920078E-4,-6.730498E-4,-2.1188693E-4,6.0000475E-5,-6.2541585E-5,-2.6896395E-4,5.898564E-4,2.3928266E-4,1.3873881E-3,6.9889333E-4],"split_indices":[2,1,0,0,2,0,2,0,1,1,0,1,2,0,2,0,0,0,0,0,0,0,0,0,0,0,0,0,0],"split_type":[0,0,0,0,0,0,0,0,0,0,0,0,0,0,0,0,0,0,0,0,0,0,0,0,0,0,0,0,0],"sum_hessian":[8.92E2,8.66E2,2.6E1,4.88E2,3.78E2,1.5E1,1.1E1,1.26E2,3.62E2,2.07E2,1.71E2,3E0,1.2E1,1E0,1E1,3.1E1,9.5E1,2.98E2,6.4E1,1.25E2,8.2E1,1.19E2,5.2E1,1E0,2E0,3E0,9E0,6E0,4E0],"tree_param":{"num_deleted":"0","num_feature":"4","num_nodes":"29","size_leaf_vector":"0"}},{"base_weights":[-1.2680095E-2,-1.5083773E-2,6.497434E-2,-2.274911E-3,-3.157045E-2,2.3669068E-2,1.1463351E-1,6.577847E-3,-5.36589E-3,-4.693583E-2,-1.28055075E-2,-2.314926E-2,3.6254007E-2,3.305185E-2,1.1904531E-1,3.7200265E-3,1.0628165E-2,-6.858323E-3,1.5818524E-3,-3.358357E-2,-6.6640034E-2,-2.097858E-2,5.941175E-3,-6.222889E-3,-2.6717087E-2,5.854325E-2,2.371291E-2,1.3754961E-1,6.933022E-2],"categories":[],"categories_nodes":[],"categories_segments":[],"categories_sizes":[],"default_left":[1,1,1,1,1,1,1,1,1,1,1,1,1,0,1,0,0,0,0,0,0,0,0,0,0,0,0,0,0],"id":35,"left_children":[1,3,5,7,9,11,13,15,17,19,21,23,25,-1,27,-1,-1,-1,-1,-1,-1,-1,-1,-1,-1,-1,-1,-1,-1],"loss_changes":[1.6766414E-1,1.830174E-1,5.2668743E-2,1.3416139E-2,1.08676225E-1,1.0266549E-2,3.8440526E-4,1.4304975E-3,3.7748106E-3,5.2485883E-2,2.647813E-2,7.530418E-5,2.2456776E-3,0E0,5.8302283E-4,0E0,0E0,0E0,0E0,0E0,0E0,0E0,0E0,0E0,0E0,0E0,0E0,0E0,0E0],"parents":[2147483647,0,0,1,1,2,2,3,3,4,4,5,5,6,6,7,7,8,8,9,9,10,10,11,11,12,12,14,14],"right_children":[2,4,6,8,10,12,14,16,18,20,22,24,26,-1,28,-1,-1,-1,-1,-1,-1,-1,-1,-1,-1,-1,-1,-1,-1],"split_conditions":[8.225492E3,3.0487514E0,2.6248703E1,3.7926922E0,2.2741135E3,1.6434044E1,9.049109E3,1.9869084E0,2.9173832E0,3.624301E0,1.6379238E1,3.9142287E0,8.840578E3,3.3051847E-4,1.3732301E4,3.7200265E-5,1.06281645E-4,-6.858323E-5,1.5818525E-5,-3.358357E-4,-6.664003E-4,-2.097858E-4,5.941175E-5,-6.2228886E-5,-2.6717086E-4,5.854325E-4,2.371291E-4,1.375496E-3,6.933022E-4],"split_indices":[2,1,0,0,2,0,2,1,1,1,0,1,2,0,2,0,0,0,0,0,0,0,0,0,0,0,0,0,0],"split_type":[0,0,0,0,0,0,0,0,0,0,0,0,0,0,0,0,0,0,0,0,0,0,0,0,0,0,0,0,0],"sum_hessian":[8.92E2,8.66E2,2.6E1,4.88E2,3.78E2,1.5E1,1.1E1,1.26E2,3.62E2,2.07E2,1.71E2,3E0,1.2E1,1E0,1E1,7.5E1,5.1E1,2.98E2,6.4E1,1.25E2,8.2E1,1.19E2,5.2E1,1E0,2E0,3E0,9E0,6E0,4E0],"tree_param":{"num_deleted":"0","num_feature":"4","num_nodes":"29","size_leaf_vector":"0"}},{"base_weights":[-1.2551245E-2,-1.4934163E-2,6.443173E-2,-2.2519766E-3,-3.125779E-2,2.34632E-2,1.1368712E-1,7.621109E-3,-4.9714954E-3,-4.6471294E-2,-1.2678332E-2,-2.3000114E-2,3.5954744E-2,3.2886595E-2,1.1804293E-1,6.2812807E-4,1.0503166E-2,-5.942692E-3,4.0278933E-3,-3.32504E-2,-6.598167E-2,-2.077055E-2,5.882883E-3,-6.191775E-3,-2.6538968E-2,5.8104172E-2,2.3499498E-2,1.3637061E-1,6.877559E-2],"categories":[],"categories_nodes":[],"categories_segments":[],"categories_sizes":[],"default_left":[1,1,1,1,1,1,1,1,1,1,1,1,1,0,1,0,0,0,0,0,0,0,0,0,0,0,0,0,0],"id":36,"left_children":[1,3,5,7,9,11,13,15,17,19,21,23,25,-1,27,-1,-1,-1,-1,-1,-1,-1,-1,-1,-1,-1,-1,-1,-1],"loss_changes":[1.6477774E-1,1.794153E-1,5.1816396E-2,1.3167558E-2,1.06538445E-1,1.011334E-2,3.413856E-4,2.1297443E-3,3.3801645E-3,5.1458567E-2,2.5956828E-2,7.360568E-5,2.2209752E-3,0E0,5.5354834E-4,0E0,0E0,0E0,0E0,0E0,0E0,0E0,0E0,0E0,0E0,0E0,0E0,0E0,0E0],"parents":[2147483647,0,0,1,1,2,2,3,3,4,4,5,5,6,6,7,7,8,8,9,9,10,10,11,11,12,12,14,14],"right_children":[2,4,6,8,10,12,14,16,18,20,22,24,26,-1,28,-1,-1,-1,-1,-1,-1,-1,-1,-1,-1,-1,-1,-1,-1],"split_conditions":[8.225492E3,3.0487514E0,2.6248703E1,3.5751903E0,2.2741135E3,1.6434044E1,9.049109E3,2.0665336E0,8.410988E0,3.624301E0,1.6379238E1,3.9142287E0,8.840578E3,3.2886595E-4,1.3732301E4,6.2812805E-6,1.05031664E-4,-5.942692E-5,4.0278934E-5,-3.32504E-4,-6.598167E-4,-2.077055E-4,5.8828828E-5,-6.191775E-5,-2.6538968E-4,5.8104174E-4,2.3499498E-4,1.3637061E-3,6.877559E-4],"split_indices":[2,1,0,0,2,0,2,0,0,1,0,1,2,0,2,0,0,0,0,0,0,0,0,0,0,0,0,0,0],"split_type":[0,0,0,0,0,0,0,0,0,0,0,0,0,0,0,0,0,0,0,0,0,0,0,0,0,0,0,0,0],"sum_hessian":[8.92E2,8.66E2,2.6E1,4.88E2,3.78E2,1.5E1,1.1E1,1.05E2,3.83E2,2.07E2,1.71E2,3E0,1.2E1,1E0,1E1,3.1E1,7.4E1,3.46E2,3.7E1,1.25E2,8.2E1,1.19E2,5.2E1,1E0,2E0,3E0,9E0,6E0,4E0],"tree_param":{"num_deleted":"0","num_feature":"4","num_nodes":"29","size_leaf_vector":"0"}},{"base_weights":[-1.2423694E-2,-1.478603E-2,6.3893676E-2,-2.2292691E-3,-3.094822E-2,2.3259114E-2,1.12748615E-1,6.460292E-3,-5.2632773E-3,-4.6011347E-2,-1.2552413E-2,-2.285194E-2,3.565797E-2,3.272216E-2,1.1704901E-1,3.6337893E-3,1.0467098E-2,-6.7307423E-3,1.5680353E-3,-3.2920532E-2,-6.53298E-2,-2.0564573E-2,5.825163E-3,-6.160818E-3,-2.6362041E-2,5.7668388E-2,2.3288006E-2,1.3520174E-1,6.822539E-2],"categories":[],"categories_nodes":[],"categories_segments":[],"categories_sizes":[],"default_left":[1,1,1,1,1,1,1,1,1,1,1,1,1,0,1,0,0,0,0,0,0,0,0,0,0,0,0,0,0],"id":37,"left_children":[1,3,5,7,9,11,13,15,17,19,21,23,25,-1,27,-1,-1,-1,-1,-1,-1,-1,-1,-1,-1,-1,-1,-1,-1],"loss_changes":[1.6194126E-1,1.758841E-1,5.0977953E-2,1.2926096E-2,1.04442745E-1,9.962441E-3,2.9963255E-4,1.4002705E-3,3.6495244E-3,5.045131E-2,2.5445776E-2,7.193838E-5,2.1965038E-3,0E0,5.248934E-4,0E0,0E0,0E0,0E0,0E0,0E0,0E0,0E0,0E0,0E0,0E0,0E0,0E0,0E0],"parents":[2147483647,0,0,1,1,2,2,3,3,4,4,5,5,6,6,7,7,8,8,9,9,10,10,11,11,12,12,14,14],"right_children":[2,4,6,8,10,12,14,16,18,20,22,24,26,-1,28,-1,-1,-1,-1,-1,-1,-1,-1,-1,-1,-1,-1,-1,-1],"split_conditions":[8.225492E3,3.0487514E0,2.6248703E1,3.7926922E0,2.2741135E3,1.6434044E1,9.049109E3,1.9869084E0,2.9173832E0,3.624301E0,1.6379238E1,3.9142287E0,8.840578E3,3.2722158E-4,1.3732301E4,3.6337893E-5,1.0467098E-4,-6.7307425E-5,1.5680353E-5,-3.292053E-4,-6.53298E-4,-2.0564573E-4,5.8251626E-5,-6.160818E-5,-2.636204E-4,5.7668384E-4,2.3288005E-4,1.3520174E-3,6.822539E-4],"split_indices":[2,1,0,0,2,0,2,1,1,1,0,1,2,0,2,0,0,0,0,0,0,0,0,0,0,0,0,0,0],"split_type":[0,0,0,0,0,0,0,0,0,0,0,0,0,0,0,0,0,0,0,0,0,0,0,0,0,0,0,0,0],"sum_hessian":[8.92E2,8.66E2,2.6E1,4.88E2,3.78E2,1.5E1,1.1E1,1.26E2,3.62E2,2.07E2,1.71E2,3E0,1.2E1,1E0,1E1,7.5E1,5.1E1,2.98E2,6.4E1,1.25E2,8.2E1,1.19E2,5.2E1,1E0,2E0,3E0,9E0,6E0,4E0],"tree_param":{"num_deleted":"0","num_feature":"4","num_nodes":"29","size_leaf_vector":"0"}},{"base_weights":[-1.2297435E-2,-1.4639369E-2,6.336014E-2,-2.2067933E-3,-3.0641718E-2,2.3056798E-2,1.1181792E-1,7.4841673E-3,-4.8761554E-3,-4.555596E-2,-1.2427743E-2,-2.2704732E-2,3.5363667E-2,3.2558545E-2,1.1606345E-1,5.7402864E-4,1.03327045E-2,-5.8312193E-3,3.9734044E-3,-3.2593943E-2,-6.468437E-2,-2.0360636E-2,5.7680113E-3,-6.1300173E-3,-2.6186297E-2,5.7235874E-2,2.3078417E-2,1.3404287E-1,6.767958E-2],"categories":[],"categories_nodes":[],"categories_segments":[],"categories_sizes":[],"default_left":[1,1,1,1,1,1,1,1,1,1,1,1,1,0,1,0,0,0,0,0,0,0,0,0,0,0,0,0,0],"id":38,"left_children":[1,3,5,7,9,11,13,15,17,19,21,23,25,-1,27,-1,-1,-1,-1,-1,-1,-1,-1,-1,-1,-1,-1,-1,-1],"loss_changes":[1.5915385E-1,1.7242236E-1,5.015312E-2,1.26862805E-2,1.0238829E-1,9.813822E-3,2.591163E-4,2.08055E-3,3.2686973E-3,4.946381E-2,2.4944773E-2,7.030135E-5,2.1722578E-3,0E0,4.9708784E-4,0E0,0E0,0E0,0E0,0E0,0E0,0E0,0E0,0E0,0E0,0E0,0E0,0E0,0E0],"parents":[2147483647,0,0,1,1,2,2,3,3,4,4,5,5,6,6,7,7,8,8,9,9,10,10,11,11,12,12,14,14],"right_children":[2,4,6,8,10,12,14,16,18,20,22,24,26,-1,28,-1,-1,-1,-1,-1,-1,-1,-1,-1,-1,-1,-1,-1,-1],"split_conditions":[8.225492E3,3.0487514E0,2.6248703E1,3.5751903E0,2.2741135E3,1.6434044E1,9.049109E3,2.0665336E0,8.410988E0,3.624301E0,1.6379238E1,3.9142287E0,8.840578E3,3.2558545E-4,1.3732301E4,5.7402863E-6,1.03327046E-4,-5.831219E-5,3.9734045E-5,-3.259394E-4,-6.468437E-4,-2.0360635E-4,5.768011E-5,-6.130017E-5,-2.6186297E-4,5.723587E-4,2.3078416E-4,1.3404287E-3,6.767957E-4],"split_indices":[2,1,0,0,2,0,2,0,0,1,0,1,2,0,2,0,0,0,0,0,0,0,0,0,0,0,0,0,0],"split_type":[0,0,0,0,0,0,0,0,0,0,0,0,0,0,0,0,0,0,0,0,0,0,0,0,0,0,0,0,0],"sum_hessian":[8.92E2,8.66E2,2.6E1,4.88E2,3.78E2,1.5E1,1.1E1,1.05E2,3.83E2,2.07E2,1.71E2,3E0,1.2E1,1E0,1E1,3.1E1,7.4E1,3.46E2,3.7E1,1.25E2,8.2E1,1.19E2,5.2E1,1E0,2E0,3E0,9E0,6E0,4E0],"tree_param":{"num_deleted":"0","num_feature":"4","num_nodes":"29","size_leaf_vector":"0"}},{"base_weights":[-1.2172449E-2,-1.449416E-2,6.283109E-2,-2.1845389E-3,-3.0338252E-2,2.2856224E-2,1.10894985E-1,6.3448343E-3,-5.1626265E-3,-4.5105074E-2,-1.2304312E-2,-2.2558477E-2,3.507181E-2,3.239575E-2,1.15086205E-1,3.549331E-3,1.0308553E-2,-6.60554E-3,1.5541988E-3,-3.2270588E-2,-6.404532E-2,-2.0158723E-2,5.7114195E-3,-6.0993657E-3,-2.6011726E-2,5.680661E-2,2.2870708E-2,1.3289393E-1,6.713815E-2],"categories":[],"categories_nodes":[],"categories_segments":[],"categories_sizes":[],"default_left":[1,1,1,1,1,1,1,1,1,1,1,1,1,0,1,0,0,0,0,0,0,0,0,0,0,0,0,0,0],"id":39,"left_children":[1,3,5,7,9,11,13,15,17,19,21,23,25,-1,27,-1,-1,-1,-1,-1,-1,-1,-1,-1,-1,-1,-1,-1,-1],"loss_changes":[1.5641457E-1,1.6902886E-1,4.9341746E-2,1.2453953E-2,1.0037425E-1,9.667441E-3,2.1979213E-4,1.3706465E-3,3.5283882E-3,4.849556E-2,2.4453646E-2,6.869435E-5,2.1482427E-3,0E0,4.7004223E-4,0E0,0E0,0E0,0E0,0E0,0E0,0E0,0E0,0E0,0E0,0E0,0E0,0E0,0E0],"parents":[2147483647,0,0,1,1,2,2,3,3,4,4,5,5,6,6,7,7,8,8,9,9,10,10,11,11,12,12,14,14],"right_children":[2,4,6,8,10,12,14,16,18,20,22,24,26,-1,28,-1,-1,-1,-1,-1,-1,-1,-1,-1,-1,-1,-1,-1,-1],"split_conditions":[8.225492E3,3.0487514E0,2.6248703E1,3.7926922E0,2.2741135E3,1.6434044E1,9.049109E3,1.9869084E0,2.9173832E0,3.624301E0,1.6379238E1,3.9142287E0,8.840578E3,3.239575E-4,1.3732301E4,3.549331E-5,1.03085535E-4,-6.60554E-5,1.5541988E-5,-3.2270586E-4,-6.404532E-4,-2.0158723E-4,5.7114194E-5,-6.0993654E-5,-2.6011726E-4,5.680661E-4,2.2870708E-4,1.3289393E-3,6.713815E-4],"split_indices":[2,1,0,0,2,0,2,1,1,1,0,1,2,0,2,0,0,0,0,0,0,0,0,0,0,0,0,0,0],"split_type":[0,0,0,0,0,0,0,0,0,0,0,0,0,0,0,0,0,0,0,0,0,0,0,0,0,0,0,0,0],"sum_hessian":[8.92E2,8.66E2,2.6E1,4.88E2,3.78E2,1.5E1,1.1E1,1.26E2,3.62E2,2.07E2,1.71E2,3E0,1.2E1,1E0,1E1,7.5E1,5.1E1,2.98E2,6.4E1,1.25E2,8.2E1,1.19E2,5.2E1,1E0,2E0,3E0,9E0,6E0,4E0],"tree_param":{"num_deleted":"0","num_feature":"4","num_nodes":"29","size_leaf_vector":"0"}},{"base_weights":[-1.2048732E-2,-1.4350395E-2,6.230648E-2,-2.1625126E-3,-3.0037792E-2,2.2657394E-2,1.0997972E-1,7.34969E-3,-4.7826455E-3,-4.4658653E-2,-1.2182111E-2,-2.2413172E-2,3.4782384E-2,3.2233775E-2,1.1411719E-1,5.2140973E-4,1.01650935E-2,-5.7218443E-3,3.9195833E-3,-3.1950444E-2,-6.3412584E-2,-1.995882E-2,5.655383E-3,-6.0688704E-3,-2.5838315E-2,5.6380562E-2,2.2664875E-2,1.3175483E-1,6.6601045E-2],"categories":[],"categories_nodes":[],"categories_segments":[],"categories_sizes":[],"default_left":[1,1,1,1,1,1,1,1,1,1,1,1,1,0,1,0,0,0,0,0,0,0,0,0,0,0,0,0,0],"id":40,"left_children":[1,3,5,7,9,11,13,15,17,19,21,23,25,-1,27,-1,-1,-1,-1,-1,-1,-1,-1,-1,-1,-1,-1,-1,-1],"loss_changes":[1.5372273E-1,1.6570209E-1,4.8543543E-2,1.2222612E-2,9.839976E-2,9.523266E-3,1.8163025E-4,2.032482E-3,3.160906E-3,4.7546387E-2,2.3972202E-2,6.711669E-5,2.124453E-3,0E0,4.4378638E-4,0E0,0E0,0E0,0E0,0E0,0E0,0E0,0E0,0E0,0E0,0E0,0E0,0E0,0E0],"parents":[2147483647,0,0,1,1,2,2,3,3,4,4,5,5,6,6,7,7,8,8,9,9,10,10,11,11,12,12,14,14],"right_children":[2,4,6,8,10,12,14,16,18,20,22,24,26,-1,28,-1,-1,-1,-1,-1,-1,-1,-1,-1,-1,-1,-1,-1,-1],"split_conditions":[8.225492E3,3.0487514E0,2.6248703E1,3.5751903E0,2.2741135E3,1.6434044E1,9.049109E3,2.0665336E0,8.410988E0,3.624301E0,1.6379238E1,3.9142287E0,8.840578E3,3.2233773E-4,1.3732301E4,5.214097E-6,1.01650934E-4,-5.721844E-5,3.919583E-5,-3.1950444E-4,-6.3412584E-4,-1.9958819E-4,5.6553832E-5,-6.0688704E-5,-2.5838314E-4,5.6380563E-4,2.2664874E-4,1.3175483E-3,6.660104E-4],"split_indices":[2,1,0,0,2,0,2,0,0,1,0,1,2,0,2,0,0,0,0,0,0,0,0,0,0,0,0,0,0],"split_type":[0,0,0,0,0,0,0,0,0,0,0,0,0,0,0,0,0,0,0,0,0,0,0,0,0,0,0,0,0],"sum_hessian":[8.92E2,8.66E2,2.6E1,4.88E2,3.78E2,1.5E1,1.1E1,1.05E2,3.83E2,2.07E2,1.71E2,3E0,1.2E1,1E0,1E1,3.1E1,7.4E1,3.46E2,3.7E1,1.25E2,8.2E1,1.19E2,5.2E1,1E0,2E0,3E0,9E0,6E0,4E0],"tree_param":{"num_deleted":"0","num_feature":"4","num_nodes":"29","size_leaf_vector":"0"}},{"base_weights":[-1.1926264E-2,-1.4208054E-2,6.1786275E-2,-2.1407057E-3,-2.9740311E-2,2.2460286E-2,1.09072074E-1,5.9767063E-3,-5.158843E-3,-4.4216655E-2,-1.2061123E-2,-2.2268806E-2,3.449537E-2,3.2072604E-2,1.1315633E-1,3.7327271E-3,1.0281982E-2,-6.6274055E-3,1.5403518E-3,-3.1633474E-2,-6.27861E-2,-1.9760897E-2,5.599898E-3,-6.038524E-3,-2.5666058E-2,5.5957712E-2,2.2460893E-2,1.306255E-1,6.6068225E-2],"categories":[],"categories_nodes":[],"categories_segments":[],"categories_sizes":[],"default_left":[1,1,1,1,1,1,1,1,1,1,1,1,1,0,1,0,0,0,0,0,0,0,0,0,0,0,0,0,0],"id":41,"left_children":[1,3,5,7,9,11,13,15,17,19,21,23,25,-1,27,-1,-1,-1,-1,-1,-1,-1,-1,-1,-1,-1,-1,-1,-1],"loss_changes":[1.510774E-1,1.6244087E-1,4.775834E-2,1.201107E-2,9.646419E-2,9.381264E-3,1.4460087E-4,1.2465268E-3,3.5224408E-3,4.661569E-2,2.3500226E-2,6.556837E-5,2.100885E-3,0E0,4.182905E-4,0E0,0E0,0E0,0E0,0E0,0E0,0E0,0E0,0E0,0E0,0E0,0E0,0E0,0E0],"parents":[2147483647,0,0,1,1,2,2,3,3,4,4,5,5,6,6,7,7,8,8,9,9,10,10,11,11,12,12,14,14],"right_children":[2,4,6,8,10,12,14,16,18,20,22,24,26,-1,28,-1,-1,-1,-1,-1,-1,-1,-1,-1,-1,-1,-1,-1,-1],"split_conditions":[8.225492E3,3.0487514E0,2.6248703E1,3.9255571E0,2.2741135E3,1.6434044E1,9.049109E3,2.1118865E0,2.9173832E0,3.624301E0,1.6379238E1,3.9142287E0,8.840578E3,3.2072602E-4,1.3732301E4,3.732727E-5,1.0281982E-4,-6.627406E-5,1.5403517E-5,-3.1633474E-4,-6.27861E-4,-1.9760897E-4,5.599898E-5,-6.0385242E-5,-2.5666057E-4,5.5957714E-4,2.2460893E-4,1.306255E-3,6.606822E-4],"split_indices":[2,1,0,0,2,0,2,1,1,1,0,1,2,0,2,0,0,0,0,0,0,0,0,0,0,0,0,0,0],"split_type":[0,0,0,0,0,0,0,0,0,0,0,0,0,0,0,0,0,0,0,0,0,0,0,0,0,0,0,0,0],"sum_hessian":[8.92E2,8.66E2,2.6E1,4.88E2,3.78E2,1.5E1,1.1E1,1.32E2,3.56E2,2.07E2,1.71E2,3E0,1.2E1,1E0,1E1,8.8E1,4.4E1,2.92E2,6.4E1,1.25E2,8.2E1,1.19E2,5.2E1,1E0,2E0,3E0,9E0,6E0,4E0],"tree_param":{"num_deleted":"0","num_feature":"4","num_nodes":"29","size_leaf_vector":"0"}},{"base_weights":[-1.1805032E-2,-1.3888413E-2,6.760497E-2,-2.1191163E-3,-2.8878748E-2,2.4667302E-2,1.12203576E-1,7.2192196E-3,-4.6913675E-3,-4.353911E-2,-1.1388779E-2,-2.6135402E-2,3.6280103E-2,1.2950584E-1,6.553967E-2,4.6791803E-4,1.0003518E-2,-5.615012E-3,3.8664222E-3,-3.129025E-2,-6.197894E-2,-1.9424457E-2,8.146772E-3,-4.5861304E-4,-3.874449E-2,5.1775184E-2,7.330972E-3,2.2572577E-3,8.0795966E-2],"categories":[],"categories_nodes":[],"categories_segments":[],"categories_sizes":[],"default_left":[1,1,1,1,1,1,1,1,1,1,1,1,1,0,1,0,0,0,0,0,0,0,0,0,0,0,0,0,0],"id":42,"left_children":[1,3,5,7,9,11,13,15,17,19,21,23,25,-1,27,-1,-1,-1,-1,-1,-1,-1,-1,-1,-1,-1,-1,-1,-1],"loss_changes":[1.4867797E-1,1.5360561E-1,4.127633E-2,1.1779914E-2,9.770891E-2,8.617696E-3,3.9353967E-4,1.9878694E-3,3.0569825E-3,4.5040965E-2,2.7786974E-2,9.535141E-4,4.554699E-3,0E0,4.644897E-3,0E0,0E0,0E0,0E0,0E0,0E0,0E0,0E0,0E0,0E0,0E0,0E0,0E0,0E0],"parents":[2147483647,0,0,1,1,2,2,3,3,4,4,5,5,6,6,7,7,8,8,9,9,10,10,11,11,12,12,14,14],"right_children":[2,4,6,8,10,12,14,16,18,20,22,24,26,-1,28,-1,-1,-1,-1,-1,-1,-1,-1,-1,-1,-1,-1,-1,-1],"split_conditions":[2.5413074E1,3.0487514E0,9.185846E3,3.5751903E0,4.826503E1,2.8777517E3,1.3732301E4,2.0665336E0,8.410988E0,3.624301E0,5.0643228E3,2.7030178E1,5.511098E0,1.2950584E-3,1.5122283E4,4.67918E-6,1.00035184E-4,-5.615012E-5,3.866422E-5,-3.129025E-4,-6.197894E-4,-1.9424457E-4,8.146772E-5,-4.58613E-6,-3.874449E-4,5.1775185E-4,7.330972E-5,2.2572576E-5,8.0795964E-4],"split_indices":[0,1,2,0,3,2,2,0,0,1,2,0,1,0,2,0,0,0,0,0,0,0,0,0,0,0,0,0,0],"split_type":[0,0,0,0,0,0,0,0,0,0,0,0,0,0,0,0,0,0,0,0,0,0,0,0,0,0,0,0,0],"sum_hessian":[8.92E2,8.7E2,2.2E1,4.88E2,3.82E2,1.2E1,1E1,1.05E2,3.83E2,2.07E2,1.75E2,2E0,1E1,6E0,4E0,3.1E1,7.4E1,3.46E2,3.7E1,1.26E2,8.1E1,1.24E2,5.1E1,1E0,1E0,6E0,4E0,1E0,3E0],"tree_param":{"num_deleted":"0","num_feature":"4","num_nodes":"29","size_leaf_vector":"0"}},{"base_weights":[-1.16854515E-2,-1.3929662E-2,6.081144E-2,-2.097747E-3,-2.915889E-2,2.2161234E-2,1.0727743E-1,5.872643E-3,-5.061232E-3,-4.3347765E-2,-1.183072E-2,-2.218648E-2,3.4101974E-2,3.165336E-2,1.1127477E-1,3.6535265E-3,1.0131058E-2,-6.5054013E-3,1.5265042E-3,-3.100923E-2,-6.155629E-2,-1.9417271E-2,5.5695954E-3,-6.049067E-3,-2.5549263E-2,5.5476926E-2,2.2141796E-2,1.283958E-1,6.505038E-2],"categories":[],"categories_nodes":[],"categories_segments":[],"categories_sizes":[],"default_left":[1,1,1,1,1,1,1,1,1,1,1,1,1,0,1,0,0,0,0,0,0,0,0,0,0,0,0,0,0],"id":43,"left_children":[1,3,5,7,9,11,13,15,17,19,21,23,25,-1,27,-1,-1,-1,-1,-1,-1,-1,-1,-1,-1,-1,-1,-1,-1],"loss_changes":[1.4613669E-1,1.5616436E-1,4.611244E-2,1.1579966E-2,9.267083E-2,9.229315E-3,1.0532141E-4,1.2198258E-3,3.4063589E-3,4.482183E-2,2.2813585E-2,6.2517356E-5,2.0950688E-3,0E0,3.5329163E-4,0E0,0E0,0E0,0E0,0E0,0E0,0E0,0E0,0E0,0E0,0E0,0E0,0E0,0E0],"parents":[2147483647,0,0,1,1,2,2,3,3,4,4,5,5,6,6,7,7,8,8,9,9,10,10,11,11,12,12,14,14],"right_children":[2,4,6,8,10,12,14,16,18,20,22,24,26,-1,28,-1,-1,-1,-1,-1,-1,-1,-1,-1,-1,-1,-1,-1,-1],"split_conditions":[8.225492E3,3.0487514E0,2.6248703E1,3.9255571E0,2.2741135E3,1.6434044E1,9.049109E3,2.1118865E0,2.9173832E0,3.624301E0,1.6379238E1,3.9142287E0,8.840578E3,3.1653358E-4,1.3732301E4,3.6535264E-5,1.0131058E-4,-6.505401E-5,1.5265041E-5,-3.100923E-4,-6.155629E-4,-1.9417271E-4,5.5695953E-5,-6.0490667E-5,-2.5549263E-4,5.5476924E-4,2.2141795E-4,1.283958E-3,6.505038E-4],"split_indices":[2,1,0,0,2,0,2,1,1,1,0,1,2,0,2,0,0,0,0,0,0,0,0,0,0,0,0,0,0],"split_type":[0,0,0,0,0,0,0,0,0,0,0,0,0,0,0,0,0,0,0,0,0,0,0,0,0,0,0,0,0],"sum_hessian":[8.92E2,8.66E2,2.6E1,4.88E2,3.78E2,1.5E1,1.1E1,1.32E2,3.56E2,2.07E2,1.71E2,3E0,1.2E1,1E0,1E1,8.8E1,4.4E1,2.92E2,6.4E1,1.25E2,8.2E1,1.19E2,5.2E1,1E0,2E0,3E0,9E0,6E0,4E0],"tree_param":{"num_deleted":"0","num_feature":"4","num_nodes":"29","size_leaf_vector":"0"}},{"base_weights":[-1.1566654E-2,-1.36165125E-2,6.6563495E-2,-2.0765904E-3,-2.8314698E-2,2.4403345E-2,1.1033789E-1,7.0910477E-3,-4.6018325E-3,-4.2681202E-2,-1.1175223E-2,-2.5818102E-2,3.588162E-2,1.2729527E-1,6.4529985E-2,9.479741E-4,1.0105971E-2,-5.5101803E-3,3.813914E-3,-3.0673075E-2,-6.0758654E-2,-1.909111E-2,8.068264E-3,-4.8416853E-4,-3.8242985E-2,5.1222716E-2,7.2277607E-3,1.9207299E-3,7.970212E-2],"categories":[],"categories_nodes":[],"categories_segments":[],"categories_sizes":[],"default_left":[1,1,1,1,1,1,1,1,1,1,1,1,1,0,1,0,0,0,0,0,0,0,0,0,0,0,0,0,0],"id":44,"left_children":[1,3,5,7,9,11,13,15,17,19,21,23,25,-1,27,-1,-1,-1,-1,-1,-1,-1,-1,-1,-1,-1,-1,-1,-1],"loss_changes":[1.4392544E-1,1.4767668E-1,3.9754696E-2,1.1353229E-2,9.3830794E-2,8.420316E-3,3.3023953E-4,1.9536354E-3,2.9564733E-3,4.328826E-2,2.6963985E-2,9.257975E-4,4.465172E-3,0E0,4.5964923E-3,0E0,0E0,0E0,0E0,0E0,0E0,0E0,0E0,0E0,0E0,0E0,0E0,0E0,0E0],"parents":[2147483647,0,0,1,1,2,2,3,3,4,4,5,5,6,6,7,7,8,8,9,9,10,10,11,11,12,12,14,14],"right_children":[2,4,6,8,10,12,14,16,18,20,22,24,26,-1,28,-1,-1,-1,-1,-1,-1,-1,-1,-1,-1,-1,-1,-1,-1],"split_conditions":[2.5413074E1,3.0487514E0,9.185846E3,3.5751903E0,4.826503E1,2.8777517E3,1.3732301E4,1.7735901E0,8.410988E0,3.624301E0,5.0643228E3,2.7030178E1,5.511098E0,1.2729526E-3,1.5122283E4,9.479741E-6,1.0105971E-4,-5.5101802E-5,3.813914E-5,-3.0673074E-4,-6.075865E-4,-1.909111E-4,8.068264E-5,-4.841685E-6,-3.8242983E-4,5.122271E-4,7.22776E-5,1.9207298E-5,7.9702114E-4],"split_indices":[0,1,2,0,3,2,2,1,0,1,2,0,1,0,2,0,0,0,0,0,0,0,0,0,0,0,0,0,0],"split_type":[0,0,0,0,0,0,0,0,0,0,0,0,0,0,0,0,0,0,0,0,0,0,0,0,0,0,0,0,0],"sum_hessian":[8.92E2,8.7E2,2.2E1,4.88E2,3.82E2,1.2E1,1E1,1.05E2,3.83E2,2.07E2,1.75E2,2E0,1E1,6E0,4E0,3.5E1,7E1,3.46E2,3.7E1,1.26E2,8.1E1,1.24E2,5.1E1,1E0,1E0,6E0,4E0,1E0,3E0],"tree_param":{"num_deleted":"0","num_feature":"4","num_nodes":"29","size_leaf_vector":"0"}},{"base_weights":[-1.1449469E-2,-1.3481416E-2,6.599727E-2,-2.0556324E-3,-2.8034227E-2,2.4174487E-2,1.0942444E-1,5.770455E-3,-4.9654758E-3,-4.2258788E-2,-1.1064096E-2,-2.5689013E-2,3.557594E-2,1.2620418E-1,6.4047925E-2,3.5833209E-3,9.967889E-3,-6.385656E-3,1.5126519E-3,-3.0368758E-2,-6.0158484E-2,-1.9272188E-2,7.3441085E-3,-4.817471E-4,-3.8051773E-2,5.0783664E-2,7.1699442E-3,1.9111335E-3,7.910434E-2],"categories":[],"categories_nodes":[],"categories_segments":[],"categories_sizes":[],"default_left":[1,1,1,1,1,1,1,1,1,1,1,1,1,0,1,0,0,0,0,0,0,0,0,0,0,0,0,0,0],"id":45,"left_children":[1,3,5,7,9,11,13,15,17,19,21,23,25,-1,27,-1,-1,-1,-1,-1,-1,-1,-1,-1,-1,-1,-1,-1,-1],"loss_changes":[1.4141908E-1,1.4476988E-1,3.912835E-2,1.1164498E-2,9.198585E-2,8.304626E-3,2.9236078E-4,1.1852677E-3,3.2940982E-3,4.244125E-2,2.6734471E-2,9.16563E-4,4.387779E-3,0E0,4.5266077E-3,0E0,0E0,0E0,0E0,0E0,0E0,0E0,0E0,0E0,0E0,0E0,0E0,0E0,0E0],"parents":[2147483647,0,0,1,1,2,2,3,3,4,4,5,5,6,6,7,7,8,8,9,9,10,10,11,11,12,12,14,14],"right_children":[2,4,6,8,10,12,14,16,18,20,22,24,26,-1,28,-1,-1,-1,-1,-1,-1,-1,-1,-1,-1,-1,-1,-1,-1],"split_conditions":[2.5413074E1,3.0487514E0,9.185846E3,3.9255571E0,4.826503E1,2.8777517E3,1.3732301E4,2.1118865E0,2.9173832E0,3.624301E0,1.6379238E1,2.7030178E1,5.511098E0,1.2620417E-3,1.5122283E4,3.5833207E-5,9.967889E-5,-6.385656E-5,1.51265185E-5,-3.036876E-4,-6.0158485E-4,-1.9272187E-4,7.3441086E-5,-4.8174707E-6,-3.805177E-4,5.0783664E-4,7.169944E-5,1.9111334E-5,7.910434E-4],"split_indices":[0,1,2,0,3,2,2,1,1,1,0,0,1,0,2,0,0,0,0,0,0,0,0,0,0,0,0,0,0],"split_type":[0,0,0,0,0,0,0,0,0,0,0,0,0,0,0,0,0,0,0,0,0,0,0,0,0,0,0,0,0],"sum_hessian":[8.92E2,8.7E2,2.2E1,4.88E2,3.82E2,1.2E1,1E1,1.32E2,3.56E2,2.07E2,1.75E2,2E0,1E1,6E0,4E0,8.8E1,4.4E1,2.92E2,6.4E1,1.26E2,8.1E1,1.21E2,5.4E1,1E0,1E0,6E0,4E0,1E0,3E0],"tree_param":{"num_deleted":"0","num_feature":"4","num_nodes":"29","size_leaf_vector":"0"}},{"base_weights":[-1.1333487E-2,-1.3524329E-2,5.9436638E-2,-2.034898E-3,-2.8312739E-2,2.181967E-2,1.04639545E-1,5.7137692E-3,-4.9159564E-3,-4.207735E-2,-1.1502553E-2,-2.1959592E-2,3.3611774E-2,3.0985072E-2,1.0851858E-1,3.28498E-4,7.347249E-3,-6.3220165E-3,1.4977598E-3,-3.0096024E-2,-5.9758916E-2,-1.572383E-2,1.79936E-2,-5.9628114E-3,-2.5304249E-2,5.4945253E-2,2.1717208E-2,1.2512243E-1,6.356948E-2],"categories":[],"categories_nodes":[],"categories_segments":[],"categories_sizes":[],"default_left":[1,1,1,1,1,1,1,1,1,1,1,1,1,0,1,0,0,0,0,0,0,0,0,0,0,0,0,0,0],"id":46,"left_children":[1,3,5,7,9,11,13,15,17,19,21,23,25,-1,27,-1,-1,-1,-1,-1,-1,-1,-1,-1,-1,-1,-1,-1,-1],"loss_changes":[1.3926007E-1,1.4725474E-1,4.3627493E-2,1.0944704E-2,8.721116E-2,8.998095E-3,6.605685E-5,1.1675516E-3,3.2289196E-3,4.226604E-2,2.1698898E-2,6.3130516E-5,2.1055248E-3,0E0,2.5562942E-4,0E0,0E0,0E0,0E0,0E0,0E0,0E0,0E0,0E0,0E0,0E0,0E0,0E0,0E0],"parents":[2147483647,0,0,1,1,2,2,3,3,4,4,5,5,6,6,7,7,8,8,9,9,10,10,11,11,12,12,14,14],"right_children":[2,4,6,8,10,12,14,16,18,20,22,24,26,-1,28,-1,-1,-1,-1,-1,-1,-1,-1,-1,-1,-1,-1,-1,-1],"split_conditions":[8.225492E3,3.0487514E0,2.6248703E1,3.9255571E0,2.2741135E3,1.6434044E1,9.049109E3,2.0665336E0,2.9173832E0,3.624301E0,2.0095333E1,3.9142287E0,8.840578E3,3.0985073E-4,1.3732301E4,3.2849798E-6,7.347249E-5,-6.322016E-5,1.4977598E-5,-3.0096024E-4,-5.975891E-4,-1.572383E-4,1.7993599E-4,-5.9628113E-5,-2.5304247E-4,5.494525E-4,2.1717207E-4,1.2512242E-3,6.3569477E-4],"split_indices":[2,1,0,0,2,0,2,0,1,1,0,1,2,0,2,0,0,0,0,0,0,0,0,0,0,0,0,0,0],"split_type":[0,0,0,0,0,0,0,0,0,0,0,0,0,0,0,0,0,0,0,0,0,0,0,0,0,0,0,0,0],"sum_hessian":[8.92E2,8.66E2,2.6E1,4.88E2,3.78E2,1.5E1,1.1E1,1.32E2,3.56E2,2.07E2,1.71E2,3E0,1.2E1,1E0,1E1,3.1E1,1.01E2,2.92E2,6.4E1,1.25E2,8.2E1,1.5E2,2.1E1,1E0,2E0,3E0,9E0,6E0,4E0],"tree_param":{"num_deleted":"0","num_feature":"4","num_nodes":"29","size_leaf_vector":"0"}},{"base_weights":[-1.1218132E-2,-1.3390063E-2,5.894045E-2,-2.0144908E-3,-2.8031923E-2,2.1629846E-2,1.0377622E-1,6.912953E-3,-4.473591E-3,-4.1660897E-2,-1.1387397E-2,-2.1818165E-2,3.333463E-2,3.0830145E-2,1.0760494E-1,3.2531525E-4,9.631506E-3,-5.360988E-3,3.74747E-3,-2.9797453E-2,-5.916852E-2,-1.8731728E-2,5.456136E-3,-5.932994E-3,-2.5135556E-2,5.453316E-2,2.1521755E-2,1.24049954E-1,6.306093E-2],"categories":[],"categories_nodes":[],"categories_segments":[],"categories_sizes":[],"default_left":[1,1,1,1,1,1,1,1,1,1,1,1,1,0,1,0,0,0,0,0,0,0,0,0,0,0,0,0,0],"id":47,"left_children":[1,3,5,7,9,11,13,15,17,19,21,23,25,-1,27,-1,-1,-1,-1,-1,-1,-1,-1,-1,-1,-1,-1,-1,-1],"loss_changes":[1.3686416E-1,1.4435063E-1,4.2922266E-2,1.07661765E-2,8.5500926E-2,8.864094E-3,3.400445E-5,1.8952042E-3,2.8215027E-3,4.143867E-2,2.1379378E-2,6.1660074E-5,2.0817528E-3,0E0,2.3509562E-4,0E0,0E0,0E0,0E0,0E0,0E0,0E0,0E0,0E0,0E0,0E0,0E0,0E0,0E0],"parents":[2147483647,0,0,1,1,2,2,3,3,4,4,5,5,6,6,7,7,8,8,9,9,10,10,11,11,12,12,14,14],"right_children":[2,4,6,8,10,12,14,16,18,20,22,24,26,-1,28,-1,-1,-1,-1,-1,-1,-1,-1,-1,-1,-1,-1,-1,-1],"split_conditions":[8.225492E3,3.0487514E0,2.6248703E1,3.5751903E0,2.2741135E3,1.6434044E1,9.049109E3,2.0665336E0,8.410988E0,3.624301E0,1.6379238E1,3.9142287E0,8.840578E3,3.0830145E-4,1.3732301E4,3.2531525E-6,9.631506E-5,-5.3609878E-5,3.74747E-5,-2.9797453E-4,-5.916852E-4,-1.8731727E-4,5.456136E-5,-5.932994E-5,-2.5135555E-4,5.453316E-4,2.1521754E-4,1.2404996E-3,6.306093E-4],"split_indices":[2,1,0,0,2,0,2,0,0,1,0,1,2,0,2,0,0,0,0,0,0,0,0,0,0,0,0,0,0],"split_type":[0,0,0,0,0,0,0,0,0,0,0,0,0,0,0,0,0,0,0,0,0,0,0,0,0,0,0,0,0],"sum_hessian":[8.92E2,8.66E2,2.6E1,4.88E2,3.78E2,1.5E1,1.1E1,1.05E2,3.83E2,2.07E2,1.71E2,3E0,1.2E1,1E0,1E1,3.1E1,7.4E1,3.46E2,3.7E1,1.25E2,8.2E1,1.19E2,5.2E1,1E0,2E0,3E0,9E0,6E0,4E0],"tree_param":{"num_deleted":"0","num_feature":"4","num_nodes":"29","size_leaf_vector":"0"}},{"base_weights":[-1.1104059E-2,-1.3087213E-2,6.4479865E-2,-1.9941763E-3,-2.7216215E-2,2.3796001E-2,1.0669899E-1,6.8447627E-3,-4.4288984E-3,-4.101583E-2,-1.075294E-2,-2.5242312E-2,3.5006814E-2,1.22986674E-1,6.255644E-2,8.2954246E-4,9.798328E-3,-5.307534E-3,3.7109796E-3,-2.9475253E-2,-5.838946E-2,-1.848791E-2,8.047525E-3,-5.9659034E-4,-3.7266877E-2,5.0064303E-2,6.924969E-3,1.2684315E-3,7.7561334E-2],"categories":[],"categories_nodes":[],"categories_segments":[],"categories_sizes":[],"default_left":[1,1,1,1,1,1,1,1,1,1,1,1,1,0,1,0,0,0,0,0,0,0,0,0,0,0,0,0,0],"id":48,"left_children":[1,3,5,7,9,11,13,15,17,19,21,23,25,-1,27,-1,-1,-1,-1,-1,-1,-1,-1,-1,-1,-1,-1,-1,-1],"loss_changes":[1.3469964E-1,1.3646063E-1,3.696666E-2,1.0553772E-2,8.6571544E-2,8.030524E-3,2.1517277E-4,1.8751044E-3,2.7660588E-3,3.9983302E-2,2.5742881E-2,8.668292E-4,4.30457E-3,0E0,4.4997204E-3,0E0,0E0,0E0,0E0,0E0,0E0,0E0,0E0,0E0,0E0,0E0,0E0,0E0,0E0],"parents":[2147483647,0,0,1,1,2,2,3,3,4,4,5,5,6,6,7,7,8,8,9,9,10,10,11,11,12,12,14,14],"right_children":[2,4,6,8,10,12,14,16,18,20,22,24,26,-1,28,-1,-1,-1,-1,-1,-1,-1,-1,-1,-1,-1,-1,-1,-1],"split_conditions":[2.5413074E1,3.0487514E0,9.185846E3,3.5751903E0,4.826503E1,2.8777517E3,1.3732301E4,1.7735901E0,8.410988E0,3.624301E0,5.0643228E3,2.7030178E1,5.511098E0,1.2298668E-3,1.5122283E4,8.295425E-6,9.7983284E-5,-5.3075335E-5,3.7109796E-5,-2.9475254E-4,-5.8389455E-4,-1.848791E-4,8.047525E-5,-5.9659033E-6,-3.7266876E-4,5.0064304E-4,6.924969E-5,1.2684315E-5,7.756133E-4],"split_indices":[0,1,2,0,3,2,2,1,0,1,2,0,1,0,2,0,0,0,0,0,0,0,0,0,0,0,0,0,0],"split_type":[0,0,0,0,0,0,0,0,0,0,0,0,0,0,0,0,0,0,0,0,0,0,0,0,0,0,0,0,0],"sum_hessian":[8.92E2,8.7E2,2.2E1,4.88E2,3.82E2,1.2E1,1E1,1.05E2,3.83E2,2.07E2,1.75E2,2E0,1E1,6E0,4E0,3.5E1,7E1,3.46E2,3.7E1,1.26E2,8.1E1,1.24E2,5.1E1,1E0,1E0,6E0,4E0,1E0,3E0],"tree_param":{"num_deleted":"0","num_feature":"4","num_nodes":"29","size_leaf_vector":"0"}},{"base_weights":[-1.0991544E-2,-1.3127693E-2,5.800966E-2,-1.9740493E-3,-2.7483905E-2,1.874393E-2,9.885399E-2,5.5707665E-3,-4.7793332E-3,-4.0842257E-2,-1.1169827E-2,-2.1738015E-2,3.067592E-2,4.0377203E-2,1.0581548E-1,3.8292164E-3,1.0732153E-2,-6.152692E-3,1.484872E-3,-2.9209435E-2,-5.800965E-2,-1.529955E-2,1.7682819E-2,-5.9435666E-3,-2.5021642E-2,5.1991645E-2,2.121361E-2,1.21932514E-1,6.2088538E-2],"categories":[],"categories_nodes":[],"categories_segments":[],"categories_sizes":[],"default_left":[1,1,1,1,1,1,1,1,1,1,1,1,1,0,1,0,0,0,0,0,0,0,0,0,0,0,0,0,0],"id":49,"left_children":[1,3,5,7,9,11,13,15,17,19,21,23,25,-1,27,-1,-1,-1,-1,-1,-1,-1,-1,-1,-1,-1,-1,-1,-1],"loss_changes":[1.3238692E-1,1.387733E-1,4.1449204E-2,1.0376481E-2,8.2138985E-2,7.912286E-3,1.0195822E-3,1.1544162E-3,3.0804062E-3,3.9844245E-2,2.0764936E-2,5.8734557E-5,1.317421E-3,0E0,1.816228E-4,0E0,0E0,0E0,0E0,0E0,0E0,0E0,0E0,0E0,0E0,0E0,0E0,0E0,0E0],"parents":[2147483647,0,0,1,1,2,2,3,3,4,4,5,5,6,6,7,7,8,8,9,9,10,10,11,11,12,12,14,14],"right_children":[2,4,6,8,10,12,14,16,18,20,22,24,26,-1,28,-1,-1,-1,-1,-1,-1,-1,-1,-1,-1,-1,-1,-1,-1],"split_conditions":[8.225492E3,3.0487514E0,5.146863E0,3.9255571E0,2.2741135E3,1.6434044E1,9.049109E3,2.398387E0,2.9173832E0,3.624301E0,2.0095333E1,3.9142287E0,8.840578E3,4.0377202E-4,1.3732301E4,3.8292164E-5,1.0732153E-4,-6.152692E-5,1.4848719E-5,-2.9209434E-4,-5.800965E-4,-1.529955E-4,1.7682818E-4,-5.9435664E-5,-2.5021643E-4,5.199164E-4,2.1213609E-4,1.2193251E-3,6.2088534E-4],"split_indices":[2,1,1,0,2,0,2,1,1,1,0,1,2,0,2,0,0,0,0,0,0,0,0,0,0,0,0,0,0],"split_type":[0,0,0,0,0,0,0,0,0,0,0,0,0,0,0,0,0,0,0,0,0,0,0,0,0,0,0,0,0],"sum_hessian":[8.92E2,8.66E2,2.6E1,4.88E2,3.78E2,1.4E1,1.2E1,1.32E2,3.56E2,2.07E2,1.71E2,3E0,1.1E1,2E0,1E1,1E2,3.2E1,2.92E2,6.4E1,1.25E2,8.2E1,1.5E2,2.1E1,1E0,2E0,2E0,9E0,6E0,4E0],"tree_param":{"num_deleted":"0","num_feature":"4","num_nodes":"29","size_leaf_vector":"0"}},{"base_weights":[-1.0879482E-2,-1.2829354E-2,6.343432E-2,-1.8519295E-3,-2.655344E-2,2.3447577E-2,1.0492462E-1,6.724409E-3,-4.239403E-3,-4.0131647E-2,-1.0551214E-2,-2.498168E-2,3.4523956E-2,1.2088738E-1,6.159184E-2,2.3541567E-4,9.403387E-3,-5.512224E-3,2.5071902E-3,-2.88583E-2,-5.7239655E-2,-1.799848E-2,7.983424E-3,-6.8202615E-4,-3.6790494E-2,4.9446143E-2,6.7281066E-3,9.5164776E-4,7.6513976E-2],"categories":[],"categories_nodes":[],"categories_segments":[],"categories_sizes":[],"default_left":[1,1,1,1,1,1,1,1,1,1,1,1,1,0,1,0,0,0,0,0,0,0,0,0,0,0,0,0,0],"id":50,"left_children":[1,3,5,7,9,11,13,15,17,19,21,23,25,-1,27,-1,-1,-1,-1,-1,-1,-1,-1,-1,-1,-1,-1,-1,-1],"loss_changes":[1.3021162E-1,1.3117145E-1,3.5698198E-2,9.959263E-3,8.366454E-2,7.835938E-3,1.6313791E-4,1.840476E-3,3.2769577E-3,3.86568E-2,2.4851482E-2,8.357583E-4,4.2298455E-3,0E0,4.4515915E-3,0E0,0E0,0E0,0E0,0E0,0E0,0E0,0E0,0E0,0E0,0E0,0E0,0E0,0E0],"parents":[2147483647,0,0,1,1,2,2,3,3,4,4,5,5,6,6,7,7,8,8,9,9,10,10,11,11,12,12,14,14],"right_children":[2,4,6,8,10,12,14,16,18,20,22,24,26,-1,28,-1,-1,-1,-1,-1,-1,-1,-1,-1,-1,-1,-1,-1,-1],"split_conditions":[2.5413074E1,3.04275E0,9.185846E3,3.5751903E0,2.2741135E3,2.8777517E3,1.3732301E4,2.0665336E0,2.9173832E0,3.624301E0,5.0643228E3,2.7030178E1,5.511098E0,1.2088737E-3,1.5122283E4,2.3541568E-6,9.403387E-5,-5.512224E-5,2.5071902E-5,-2.88583E-4,-5.7239656E-4,-1.799848E-4,7.983424E-5,-6.820261E-6,-3.6790493E-4,4.9446145E-4,6.7281064E-5,9.516478E-6,7.6513976E-4],"split_indices":[0,1,2,0,2,2,2,0,1,1,2,0,1,0,2,0,0,0,0,0,0,0,0,0,0,0,0,0,0],"split_type":[0,0,0,0,0,0,0,0,0,0,0,0,0,0,0,0,0,0,0,0,0,0,0,0,0,0,0,0,0],"sum_hessian":[8.92E2,8.7E2,2.2E1,4.84E2,3.86E2,1.2E1,1E1,1.05E2,3.79E2,2.08E2,1.78E2,2E0,1E1,6E0,4E0,3.1E1,7.4E1,3.19E2,6E1,1.27E2,8.1E1,1.27E2,5.1E1,1E0,1E0,6E0,4E0,1E0,3E0],"tree_param":{"num_deleted":"0","num_feature":"4","num_nodes":"29","size_leaf_vector":"0"}},{"base_weights":[-1.0769259E-2,-1.2870298E-2,5.709629E-2,-1.9336873E-3,-2.6947163E-2,1.8482495E-2,9.725865E-2,5.4744757E-3,-4.6881745E-3,-3.9970342E-2,-1.0872361E-2,-2.1657925E-2,3.0322427E-2,3.9916594E-2,1.04055695E-1,3.7483836E-3,1.059147E-2,-6.036442E-3,1.4615261E-3,-2.8608669E-2,-5.68735E-2,-1.8057043E-2,5.4644216E-3,-5.9537664E-3,-2.4908056E-2,5.1591802E-2,2.090937E-2,1.19851194E-1,6.113085E-2],"categories":[],"categories_nodes":[],"categories_segments":[],"categories_sizes":[],"default_left":[1,1,1,1,1,1,1,1,1,1,1,1,1,0,1,0,0,0,0,0,0,0,0,0,0,0,0,0,0],"id":51,"left_children":[1,3,5,7,9,11,13,15,17,19,21,23,25,-1,27,-1,-1,-1,-1,-1,-1,-1,-1,-1,-1,-1,-1,-1,-1],"loss_changes":[1.2806608E-1,1.334253E-1,4.0074572E-2,1.0004048E-2,7.890719E-2,7.7856183E-3,9.132847E-4,1.1350084E-3,2.9688664E-3,3.8511008E-2,2.0169728E-2,5.5865617E-5,1.3237661E-3,0E0,1.3160706E-4,0E0,0E0,0E0,0E0,0E0,0E0,0E0,0E0,0E0,0E0,0E0,0E0,0E0,0E0],"parents":[2147483647,0,0,1,1,2,2,3,3,4,4,5,5,6,6,7,7,8,8,9,9,10,10,11,11,12,12,14,14],"right_children":[2,4,6,8,10,12,14,16,18,20,22,24,26,-1,28,-1,-1,-1,-1,-1,-1,-1,-1,-1,-1,-1,-1,-1,-1],"split_conditions":[8.225492E3,3.0487514E0,5.146863E0,3.9255571E0,4.826503E1,1.6434044E1,9.049109E3,2.398387E0,2.9173832E0,3.624301E0,1.6379238E1,3.9142287E0,8.840578E3,3.9916593E-4,1.3732301E4,3.7483835E-5,1.05914696E-4,-6.0364415E-5,1.46152615E-5,-2.8608667E-4,-5.68735E-4,-1.8057042E-4,5.4644213E-5,-5.9537662E-5,-2.4908056E-4,5.15918E-4,2.090937E-4,1.1985119E-3,6.113085E-4],"split_indices":[2,1,1,0,3,0,2,1,1,1,0,1,2,0,2,0,0,0,0,0,0,0,0,0,0,0,0,0,0],"split_type":[0,0,0,0,0,0,0,0,0,0,0,0,0,0,0,0,0,0,0,0,0,0,0,0,0,0,0,0,0],"sum_hessian":[8.92E2,8.66E2,2.6E1,4.88E2,3.78E2,1.4E1,1.2E1,1.32E2,3.56E2,2.08E2,1.7E2,3E0,1.1E1,2E0,1E1,1E2,3.2E1,2.92E2,6.4E1,1.26E2,8.2E1,1.18E2,5.2E1,1E0,2E0,2E0,9E0,6E0,4E0],"tree_param":{"num_deleted":"0","num_feature":"4","num_nodes":"29","size_leaf_vector":"0"}},{"base_weights":[-1.06596155E-2,-1.2578001E-2,6.2452275E-2,-1.813456E-3,-2.603595E-2,2.3186607E-2,1.0317967E-1,6.606096E-3,-4.1572955E-3,-3.9343067E-2,-1.0353139E-2,-2.4685405E-2,3.413474E-2,1.1882391E-1,6.0641807E-2,7.0731697E-4,9.503982E-3,-5.40728E-3,2.4681517E-3,-2.8292818E-2,-5.611244E-2,-1.7690739E-2,7.907742E-3,-7.0593506E-4,-3.6322173E-2,4.89042E-2,6.630546E-3,6.4124167E-4,7.548164E-2],"categories":[],"categories_nodes":[],"categories_segments":[],"categories_sizes":[],"default_left":[1,1,1,1,1,1,1,1,1,1,1,1,1,0,1,0,0,0,0,0,0,0,0,0,0,0,0,0,0],"id":52,"left_children":[1,3,5,7,9,11,13,15,17,19,21,23,25,-1,27,-1,-1,-1,-1,-1,-1,-1,-1,-1,-1,-1,-1,-1,-1],"loss_changes":[1.2603484E-1,1.2613343E-1,3.4388952E-2,9.598492E-3,8.0356866E-2,7.656047E-3,1.1450797E-4,1.8052408E-3,3.1603947E-3,3.7141293E-2,2.4124287E-2,8.1148965E-4,4.1441815E-3,0E0,4.403591E-3,0E0,0E0,0E0,0E0,0E0,0E0,0E0,0E0,0E0,0E0,0E0,0E0,0E0,0E0],"parents":[2147483647,0,0,1,1,2,2,3,3,4,4,5,5,6,6,7,7,8,8,9,9,10,10,11,11,12,12,14,14],"right_children":[2,4,6,8,10,12,14,16,18,20,22,24,26,-1,28,-1,-1,-1,-1,-1,-1,-1,-1,-1,-1,-1,-1,-1,-1],"split_conditions":[2.5413074E1,3.04275E0,9.185846E3,3.5751903E0,2.2741135E3,2.8777517E3,1.3732301E4,1.7735901E0,2.9173832E0,3.624301E0,5.0643228E3,2.7030178E1,5.511098E0,1.1882391E-3,1.5122283E4,7.0731694E-6,9.503982E-5,-5.4072796E-5,2.4681516E-5,-2.8292817E-4,-5.6112435E-4,-1.7690739E-4,7.9077414E-5,-7.0593505E-6,-3.632217E-4,4.8904197E-4,6.630546E-5,6.4124165E-6,7.5481634E-4],"split_indices":[0,1,2,0,2,2,2,1,1,1,2,0,1,0,2,0,0,0,0,0,0,0,0,0,0,0,0,0,0],"split_type":[0,0,0,0,0,0,0,0,0,0,0,0,0,0,0,0,0,0,0,0,0,0,0,0,0,0,0,0,0],"sum_hessian":[8.92E2,8.7E2,2.2E1,4.84E2,3.86E2,1.2E1,1E1,1.05E2,3.79E2,2.08E2,1.78E2,2E0,1E1,6E0,4E0,3.5E1,7E1,3.19E2,6E1,1.27E2,8.1E1,1.27E2,5.1E1,1E0,1E0,6E0,4E0,1E0,3E0],"tree_param":{"num_deleted":"0","num_feature":"4","num_nodes":"29","size_leaf_vector":"0"}},{"base_weights":[-1.0551603E-2,-1.2618114E-2,5.6197178E-2,-1.8941342E-3,-2.6421301E-2,1.8224295E-2,9.5689185E-2,5.379904E-3,-4.5987642E-3,-3.918546E-2,-1.066615E-2,-2.1577805E-2,2.997297E-2,3.9461102E-2,1.02325104E-1,3.67423E-3,1.04372725E-2,-5.9223934E-3,1.4384972E-3,-2.8044967E-2,-5.5759646E-2,-1.7745592E-2,5.4304474E-3,-5.963534E-3,-2.4794718E-2,5.1195145E-2,2.0609021E-2,1.17805414E-1,6.0187645E-2],"categories":[],"categories_nodes":[],"categories_segments":[],"categories_sizes":[],"default_left":[1,1,1,1,1,1,1,1,1,1,1,1,1,0,1,0,0,0,0,0,0,0,0,0,0,0,0,0,0],"id":53,"left_children":[1,3,5,7,9,11,13,15,17,19,21,23,25,-1,27,-1,-1,-1,-1,-1,-1,-1,-1,-1,-1,-1,-1,-1,-1],"loss_changes":[1.2388694E-1,1.2828773E-1,3.874602E-2,9.645123E-3,7.5799406E-2,7.6610805E-3,8.1275403E-4,1.1089384E-3,2.8613396E-3,3.702694E-2,1.9582659E-2,5.305477E-5,1.329598E-3,0E0,8.4891915E-5,0E0,0E0,0E0,0E0,0E0,0E0,0E0,0E0,0E0,0E0,0E0,0E0,0E0,0E0],"parents":[2147483647,0,0,1,1,2,2,3,3,4,4,5,5,6,6,7,7,8,8,9,9,10,10,11,11,12,12,14,14],"right_children":[2,4,6,8,10,12,14,16,18,20,22,24,26,-1,28,-1,-1,-1,-1,-1,-1,-1,-1,-1,-1,-1,-1,-1,-1],"split_conditions":[8.225492E3,3.0487514E0,5.146863E0,3.9255571E0,4.826503E1,1.6434044E1,9.049109E3,2.398387E0,2.9173832E0,3.624301E0,1.6379238E1,3.9142287E0,8.840578E3,3.94611E-4,1.3732301E4,3.6742298E-5,1.04372724E-4,-5.9223934E-5,1.4384972E-5,-2.8044966E-4,-5.5759645E-4,-1.774559E-4,5.4304473E-5,-5.963534E-5,-2.4794717E-4,5.1195145E-4,2.060902E-4,1.1780541E-3,6.018764E-4],"split_indices":[2,1,1,0,3,0,2,1,1,1,0,1,2,0,2,0,0,0,0,0,0,0,0,0,0,0,0,0,0],"split_type":[0,0,0,0,0,0,0,0,0,0,0,0,0,0,0,0,0,0,0,0,0,0,0,0,0,0,0,0,0],"sum_hessian":[8.92E2,8.66E2,2.6E1,4.88E2,3.78E2,1.4E1,1.2E1,1.32E2,3.56E2,2.08E2,1.7E2,3E0,1.1E1,2E0,1E1,1E2,3.2E1,2.92E2,6.4E1,1.26E2,8.2E1,1.18E2,5.2E1,1E0,2E0,2E0,9E0,6E0,4E0],"tree_param":{"num_deleted":"0","num_feature":"4","num_nodes":"29","size_leaf_vector":"0"}},{"base_weights":[-1.044416E-2,-1.2331572E-2,6.148544E-2,-1.7757557E-3,-2.5528574E-2,2.2928068E-2,1.0146365E-1,6.4899283E-3,-4.0767733E-3,-3.856998E-2,-1.01588415E-2,-2.4394212E-2,3.3749774E-2,1.1679565E-1,5.9706133E-2,1.02878315E-4,9.128537E-3,-5.304334E-3,2.429722E-3,-2.773845E-2,-5.500736E-2,-1.738841E-2,7.832385E-3,-7.295534E-4,-3.5861764E-2,4.8368175E-2,6.5340577E-3,3.3709407E-4,7.446412E-2],"categories":[],"categories_nodes":[],"categories_segments":[],"categories_sizes":[],"default_left":[1,1,1,1,1,1,1,1,1,1,1,1,1,0,1,0,0,0,0,0,0,0,0,0,0,0,0,0,0],"id":54,"left_children":[1,3,5,7,9,11,13,15,17,19,21,23,25,-1,27,-1,-1,-1,-1,-1,-1,-1,-1,-1,-1,-1,-1,-1,-1],"loss_changes":[1.21992655E-1,1.2128946E-1,3.31271E-2,9.250908E-3,7.717958E-2,7.4807E-3,6.906688E-5,1.7854711E-3,3.0479925E-3,3.5684943E-2,2.3418516E-2,7.879641E-4,4.060314E-3,0E0,4.355736E-3,0E0,0E0,0E0,0E0,0E0,0E0,0E0,0E0,0E0,0E0,0E0,0E0,0E0,0E0],"parents":[2147483647,0,0,1,1,2,2,3,3,4,4,5,5,6,6,7,7,8,8,9,9,10,10,11,11,12,12,14,14],"right_children":[2,4,6,8,10,12,14,16,18,20,22,24,26,-1,28,-1,-1,-1,-1,-1,-1,-1,-1,-1,-1,-1,-1,-1,-1],"split_conditions":[2.5413074E1,3.04275E0,9.185846E3,3.5751903E0,2.2741135E3,2.8777517E3,1.3732301E4,2.0665336E0,2.9173832E0,3.624301E0,5.0643228E3,2.7030178E1,5.511098E0,1.1679565E-3,1.5122283E4,1.0287831E-6,9.1285365E-5,-5.3043343E-5,2.429722E-5,-2.773845E-4,-5.500736E-4,-1.7388411E-4,7.832384E-5,-7.295534E-6,-3.5861763E-4,4.8368174E-4,6.534057E-5,3.3709407E-6,7.446412E-4],"split_indices":[0,1,2,0,2,2,2,0,1,1,2,0,1,0,2,0,0,0,0,0,0,0,0,0,0,0,0,0,0],"split_type":[0,0,0,0,0,0,0,0,0,0,0,0,0,0,0,0,0,0,0,0,0,0,0,0,0,0,0,0,0],"sum_hessian":[8.92E2,8.7E2,2.2E1,4.84E2,3.86E2,1.2E1,1E1,1.05E2,3.79E2,2.08E2,1.78E2,2E0,1E1,6E0,4E0,3.1E1,7.4E1,3.19E2,6E1,1.27E2,8.1E1,1.27E2,5.1E1,1E0,1E0,6E0,4E0,1E0,3E0],"tree_param":{"num_deleted":"0","num_feature":"4","num_nodes":"29","size_leaf_vector":"0"}},{"base_weights":[-1.033833E-2,-1.2209243E-2,6.0961854E-2,-1.7578674E-3,-2.5275672E-2,2.2712877E-2,1.006232E-1,5.286905E-3,-4.40715E-3,-3.8188234E-2,-1.0057787E-2,-2.427224E-2,3.3462193E-2,1.1579455E-1,5.9258677E-2,3.596427E-3,1.0300582E-2,-5.8105094E-3,2.405824E-3,-2.7463233E-2,-5.4463994E-2,-1.7538117E-2,7.125832E-3,-7.259026E-4,-3.568246E-2,4.7953594E-2,6.4817965E-3,3.3541024E-4,7.390564E-2],"categories":[],"categories_nodes":[],"categories_segments":[],"categories_sizes":[],"default_left":[1,1,1,1,1,1,1,1,1,1,1,1,1,0,1,0,0,0,0,0,0,0,0,0,0,0,0,0,0],"id":55,"left_children":[1,3,5,7,9,11,13,15,17,19,21,23,25,-1,27,-1,-1,-1,-1,-1,-1,-1,-1,-1,-1,-1,-1,-1,-1],"loss_changes":[1.1986737E-1,1.1890121E-1,3.2605685E-2,9.075143E-3,7.5662166E-2,7.3779556E-3,4.1283667E-5,1.0901976E-3,3.3890298E-3,3.4986764E-2,2.3133479E-2,7.8010454E-4,3.9899945E-3,0E0,4.2904466E-3,0E0,0E0,0E0,0E0,0E0,0E0,0E0,0E0,0E0,0E0,0E0,0E0,0E0,0E0],"parents":[2147483647,0,0,1,1,2,2,3,3,4,4,5,5,6,6,7,7,8,8,9,9,10,10,11,11,12,12,14,14],"right_children":[2,4,6,8,10,12,14,16,18,20,22,24,26,-1,28,-1,-1,-1,-1,-1,-1,-1,-1,-1,-1,-1,-1,-1,-1],"split_conditions":[2.5413074E1,3.04275E0,9.185846E3,3.9255571E0,2.2741135E3,2.8777517E3,1.3732301E4,2.398387E0,2.9173832E0,3.624301E0,1.6379238E1,2.7030178E1,5.511098E0,1.1579455E-3,1.5122283E4,3.596427E-5,1.0300582E-4,-5.810509E-5,2.405824E-5,-2.7463233E-4,-5.4463994E-4,-1.7538117E-4,7.125832E-5,-7.259026E-6,-3.5682457E-4,4.7953593E-4,6.481796E-5,3.3541023E-6,7.390564E-4],"split_indices":[0,1,2,0,2,2,2,1,1,1,0,0,1,0,2,0,0,0,0,0,0,0,0,0,0,0,0,0,0],"split_type":[0,0,0,0,0,0,0,0,0,0,0,0,0,0,0,0,0,0,0,0,0,0,0,0,0,0,0,0,0],"sum_hessian":[8.92E2,8.7E2,2.2E1,4.84E2,3.86E2,1.2E1,1E1,1.32E2,3.52E2,2.08E2,1.78E2,2E0,1E1,6E0,4E0,1E2,3.2E1,2.92E2,6E1,1.27E2,8.1E1,1.24E2,5.4E1,1E0,1E0,6E0,4E0,1E0,3E0],"tree_param":{"num_deleted":"0","num_feature":"4","num_nodes":"29","size_leaf_vector":"0"}},{"base_weights":[-1.0233532E-2,-1.2250964E-2,5.4927472E-2,-1.8359178E-3,-2.5656521E-2,1.7924901E-2,9.339756E-2,5.235081E-3,-4.4650687E-3,-3.7781328E-2,-1.0038316E-2,-2.1366127E-2,2.9528169E-2,3.8827088E-2,9.978973E-2,5.6566787E-5,6.808389E-3,-5.4063424E-3,3.578947E-3,-2.7224492E-2,-5.3669516E-2,-1.5490451E-2,1.0231689E-2,-5.885184E-3,-2.4564713E-2,5.075413E-2,2.0207563E-2,1.14802025E-1,5.8814563E-2],"categories":[],"categories_nodes":[],"categories_segments":[],"categories_sizes":[],"default_left":[1,1,1,1,1,1,1,1,1,1,1,1,1,0,1,0,0,0,0,0,0,0,0,0,0,0,0,0,0],"id":56,"left_children":[1,3,5,7,9,11,13,15,17,19,21,23,25,-1,27,-1,-1,-1,-1,-1,-1,-1,-1,-1,-1,-1,-1,-1,-1],"loss_changes":[1.18064806E-1,1.21003E-1,3.676015E-2,9.114239E-3,7.1391106E-2,7.4694655E-3,6.6016614E-4,1.0832185E-3,2.7224184E-3,3.426516E-2,1.8614467E-2,5.3500757E-5,1.3484498E-3,0E0,1.44168735E-5,0E0,0E0,0E0,0E0,0E0,0E0,0E0,0E0,0E0,0E0,0E0,0E0,0E0,0E0],"parents":[2147483647,0,0,1,1,2,2,3,3,4,4,5,5,6,6,7,7,8,8,9,9,10,10,11,11,12,12,14,14],"right_children":[2,4,6,8,10,12,14,16,18,20,22,24,26,-1,28,-1,-1,-1,-1,-1,-1,-1,-1,-1,-1,-1,-1,-1,-1],"split_conditions":[8.225492E3,3.0487514E0,5.146863E0,3.9255571E0,2.3314893E3,1.6434044E1,9.049109E3,2.0665336E0,8.410988E0,3.624301E0,1.7904364E1,3.9142287E0,8.840578E3,3.8827086E-4,1.3732301E4,5.6566785E-7,6.8083886E-5,-5.4063425E-5,3.5789468E-5,-2.722449E-4,-5.366951E-4,-1.5490451E-4,1.0231688E-4,-5.8851838E-5,-2.4564713E-4,5.075413E-4,2.0207564E-4,1.1480203E-3,5.8814563E-4],"split_indices":[2,1,1,0,2,0,2,0,0,1,0,1,2,0,2,0,0,0,0,0,0,0,0,0,0,0,0,0,0],"split_type":[0,0,0,0,0,0,0,0,0,0,0,0,0,0,0,0,0,0,0,0,0,0,0,0,0,0,0,0,0],"sum_hessian":[8.92E2,8.66E2,2.6E1,4.88E2,3.78E2,1.4E1,1.2E1,1.32E2,3.56E2,2.12E2,1.66E2,3E0,1.1E1,2E0,1E1,3.1E1,1.01E2,3.19E2,3.7E1,1.29E2,8.3E1,1.31E2,3.5E1,1E0,2E0,2E0,9E0,6E0,4E0],"tree_param":{"num_deleted":"0","num_feature":"4","num_nodes":"29","size_leaf_vector":"0"}},{"base_weights":[-1.0129273E-2,-1.2129391E-2,5.4471884E-2,-1.8174561E-3,-2.5402231E-2,1.7772656E-2,9.2627004E-2,6.3280337E-3,-4.061218E-3,-3.7407313E-2,-9.938251E-3,-2.1228593E-2,2.929202E-2,3.8568243E-2,9.894966E-2,5.6246476E-4,9.162294E-3,-4.8823725E-3,3.5440964E-3,-2.6954342E-2,-5.313921E-2,-1.5336726E-2,1.0132219E-2,-5.8557615E-3,-2.440095E-2,5.041577E-2,2.0025691E-2],"categories":[],"categories_nodes":[],"categories_segments":[],"categories_sizes":[],"default_left":[1,1,1,1,1,1,1,1,1,1,1,1,1,0,0,0,0,0,0,0,0,0,0,0,0,0,0],"id":57,"left_children":[1,3,5,7,9,11,13,15,17,19,21,23,25,-1,-1,-1,-1,-1,-1,-1,-1,-1,-1,-1,-1,-1,-1],"loss_changes":[1.1604516E-1,1.1861898E-1,3.6160886E-2,8.962926E-3,6.9988206E-2,7.3608705E-3,6.270185E-4,1.7270055E-3,2.4154373E-3,3.359446E-2,1.8249832E-2,5.218631E-5,1.3392642E-3,0E0,5.2154064E-7,0E0,0E0,0E0,0E0,0E0,0E0,0E0,0E0,0E0,0E0,0E0,0E0],"parents":[2147483647,0,0,1,1,2,2,3,3,4,4,5,5,6,6,7,7,8,8,9,9,10,10,11,11,12,12],"right_children":[2,4,6,8,10,12,14,16,18,20,22,24,26,-1,-1,-1,-1,-1,-1,-1,-1,-1,-1,-1,-1,-1,-1],"split_conditions":[8.225492E3,3.0487514E0,5.146863E0,3.5751903E0,2.3314893E3,1.6434044E1,9.049109E3,1.7735901E0,8.410988E0,3.624301E0,1.7904364E1,3.9142287E0,8.840578E3,3.8568242E-4,9.894966E-4,5.6246477E-6,9.162293E-5,-4.8823724E-5,3.5440964E-5,-2.695434E-4,-5.313921E-4,-1.5336726E-4,1.01322184E-4,-5.8557613E-5,-2.4400948E-4,5.041577E-4,2.0025691E-4],"split_indices":[2,1,1,0,2,0,2,1,0,1,0,1,2,0,0,0,0,0,0,0,0,0,0,0,0,0,0],"split_type":[0,0,0,0,0,0,0,0,0,0,0,0,0,0,0,0,0,0,0,0,0,0,0,0,0,0,0],"sum_hessian":[8.92E2,8.66E2,2.6E1,4.88E2,3.78E2,1.4E1,1.2E1,1.05E2,3.83E2,2.12E2,1.66E2,3E0,1.1E1,2E0,1E1,3.5E1,7E1,3.46E2,3.7E1,1.29E2,8.3E1,1.31E2,3.5E1,1E0,2E0,2E0,9E0],"tree_param":{"num_deleted":"0","num_feature":"4","num_nodes":"27","size_leaf_vector":"0"}},{"base_weights":[-1.0026853E-2,-1.18519915E-2,5.952632E-2,-1.7030913E-3,-2.4540272E-2,2.2350311E-2,9.8050125E-2,6.2656705E-3,-3.921475E-3,-3.7071303E-2,-9.771971E-3,-2.3862733E-2,3.2922022E-2,1.12969875E-1,5.7552446E-2,2.1007436E-5,8.846518E-3,-5.111097E-3,2.3834542E-3,-2.6660042E-2,-5.287094E-2,-1.6830804E-2,7.791537E-3,-8.240938E-4,-3.4970004E-2,4.7258157E-2,6.267029E-3,-4.5509636E-4,7.2168104E-2],"categories":[],"categories_nodes":[],"categories_segments":[],"categories_sizes":[],"default_left":[1,1,1,1,1,1,1,1,1,1,1,1,1,0,1,0,0,0,0,0,0,0,0,0,0,0,0,0,0],"id":58,"left_children":[1,3,5,7,9,11,13,15,17,19,21,23,25,-1,27,-1,-1,-1,-1,-1,-1,-1,-1,-1,-1,-1,-1,-1,-1],"loss_changes":[1.1406669E-1,1.121187E-1,3.0748248E-2,8.5982885E-3,7.125676E-2,7.1367715E-3,1.4467537E-4,1.7081653E-3,2.862366E-3,3.2969743E-2,2.2323174E-2,7.388707E-4,3.9072568E-3,0E0,4.271934E-3,0E0,0E0,0E0,0E0,0E0,0E0,0E0,0E0,0E0,0E0,0E0,0E0,0E0,0E0],"parents":[2147483647,0,0,1,1,2,2,3,3,4,4,5,5,6,6,7,7,8,8,9,9,10,10,11,11,12,12,14,14],"right_children":[2,4,6,8,10,12,14,16,18,20,22,24,26,-1,28,-1,-1,-1,-1,-1,-1,-1,-1,-1,-1,-1,-1,-1,-1],"split_conditions":[2.5413074E1,3.04275E0,9.185846E3,3.5751903E0,2.2741135E3,2.8777517E3,1.3732301E4,2.0665336E0,2.9173832E0,3.624301E0,5.0643228E3,2.7030178E1,5.511098E0,1.1296987E-3,1.5122283E4,2.1007435E-7,8.8465174E-5,-5.111097E-5,2.3834542E-5,-2.666004E-4,-5.287094E-4,-1.6830803E-4,7.791536E-5,-8.240938E-6,-3.4970004E-4,4.7258157E-4,6.267029E-5,-4.5509637E-6,7.2168105E-4],"split_indices":[0,1,2,0,2,2,2,0,1,1,2,0,1,0,2,0,0,0,0,0,0,0,0,0,0,0,0,0,0],"split_type":[0,0,0,0,0,0,0,0,0,0,0,0,0,0,0,0,0,0,0,0,0,0,0,0,0,0,0,0,0],"sum_hessian":[8.92E2,8.7E2,2.2E1,4.84E2,3.86E2,1.2E1,1E1,1.05E2,3.79E2,2.08E2,1.78E2,2E0,1E1,6E0,4E0,3.1E1,7.4E1,3.19E2,6E1,1.27E2,8.1E1,1.27E2,5.1E1,1E0,1E0,6E0,4E0,1E0,3E0],"tree_param":{"num_deleted":"0","num_feature":"4","num_nodes":"29","size_leaf_vector":"0"}},{"base_weights":[-9.92524E-3,-1.1891667E-2,5.3586513E-2,-1.7803141E-3,-2.4906337E-2,1.7522687E-2,9.107658E-2,5.1045613E-3,-4.340281E-3,-3.6673892E-2,-9.748277E-3,-2.1150388E-2,2.8953487E-2,3.8127627E-2,9.723752E-2,3.434911E-3,1.006002E-2,-5.5991304E-3,1.4009976E-3,-2.6425341E-2,-5.209815E-2,-1.5062259E-2,1.0007106E-2,-5.86544E-3,-2.4290225E-2,5.0027724E-2,1.9735869E-2,1.12001576E-1,5.712034E-2],"categories":[],"categories_nodes":[],"categories_segments":[],"categories_sizes":[],"default_left":[1,1,1,1,1,1,1,1,1,1,1,1,1,0,1,0,0,0,0,0,0,0,0,0,0,0,0,0,0],"id":59,"left_children":[1,3,5,7,9,11,13,15,17,19,21,23,25,-1,27,-1,-1,-1,-1,-1,-1,-1,-1,-1,-1,-1,-1,-1,-1],"loss_changes":[1.121651E-1,1.1404932E-1,3.490904E-2,8.640805E-3,6.724599E-2,7.2433413E-3,5.3335726E-4,1.0658712E-3,2.5880286E-3,3.229353E-2,1.7682342E-2,4.9496186E-5,1.3437103E-3,0E0,1.1764467E-4,0E0,0E0,0E0,0E0,0E0,0E0,0E0,0E0,0E0,0E0,0E0,0E0,0E0,0E0],"parents":[2147483647,0,0,1,1,2,2,3,3,4,4,5,5,6,6,7,7,8,8,9,9,10,10,11,11,12,12,14,14],"right_children":[2,4,6,8,10,12,14,16,18,20,22,24,26,-1,28,-1,-1,-1,-1,-1,-1,-1,-1,-1,-1,-1,-1,-1,-1],"split_conditions":[8.225492E3,3.0487514E0,5.146863E0,3.9255571E0,2.3314893E3,1.6434044E1,9.049109E3,2.398387E0,2.9173832E0,3.624301E0,1.7904364E1,3.9142287E0,8.840578E3,3.8127627E-4,1.3732301E4,3.434911E-5,1.006002E-4,-5.5991302E-5,1.40099755E-5,-2.642534E-4,-5.209815E-4,-1.5062258E-4,1.00071054E-4,-5.8654397E-5,-2.4290224E-4,5.002772E-4,1.9735869E-4,1.1200157E-3,5.712034E-4],"split_indices":[2,1,1,0,2,0,2,1,1,1,0,1,2,0,2,0,0,0,0,0,0,0,0,0,0,0,0,0,0],"split_type":[0,0,0,0,0,0,0,0,0,0,0,0,0,0,0,0,0,0,0,0,0,0,0,0,0,0,0,0,0],"sum_hessian":[8.92E2,8.66E2,2.6E1,4.88E2,3.78E2,1.4E1,1.2E1,1.32E2,3.56E2,2.12E2,1.66E2,3E0,1.1E1,2E0,1E1,1E2,3.2E1,2.92E2,6.4E1,1.29E2,8.3E1,1.31E2,3.5E1,1E0,2E0,2E0,9E0,6E0,4E0],"tree_param":{"num_deleted":"0","num_feature":"4","num_nodes":"29","size_leaf_vector":"0"}},{"base_weights":[-9.824056E-3,-1.161924E-2,5.8585886E-2,-1.6676764E-3,-2.4060814E-2,2.206673E-2,9.64189E-2,6.1554504E-3,-3.8455285E-3,-3.6344577E-2,-9.583901E-3,-2.3603119E-2,3.2516077E-2,1.1104157E-1,5.6663387E-2,-2.2823719E-5,8.709441E-3,-5.0138156E-3,2.3462328E-3,-2.6137685E-2,-5.1834058E-2,-1.6535955E-2,7.713152E-3,-8.7001175E-4,-3.4534667E-2,4.671324E-2,6.1368286E-3,-7.3841214E-4,7.119844E-2],"categories":[],"categories_nodes":[],"categories_segments":[],"categories_sizes":[],"default_left":[1,1,1,1,1,1,1,1,1,1,1,1,1,0,1,0,0,0,0,0,0,0,0,0,0,0,0,0,0],"id":60,"left_children":[1,3,5,7,9,11,13,15,17,19,21,23,25,-1,27,-1,-1,-1,-1,-1,-1,-1,-1,-1,-1,-1,-1,-1,-1],"loss_changes":[1.1034863E-1,1.0780109E-1,2.9649846E-2,8.286913E-3,6.847224E-2,6.971341E-3,1.026541E-4,1.6728002E-3,2.76059E-3,3.1687975E-2,2.1652304E-2,7.1547856E-4,3.8329456E-3,0E0,4.224265E-3,0E0,0E0,0E0,0E0,0E0,0E0,0E0,0E0,0E0,0E0,0E0,0E0,0E0,0E0],"parents":[2147483647,0,0,1,1,2,2,3,3,4,4,5,5,6,6,7,7,8,8,9,9,10,10,11,11,12,12,14,14],"right_children":[2,4,6,8,10,12,14,16,18,20,22,24,26,-1,28,-1,-1,-1,-1,-1,-1,-1,-1,-1,-1,-1,-1,-1,-1],"split_conditions":[2.5413074E1,3.04275E0,9.185846E3,3.5751903E0,2.2741135E3,2.8777517E3,1.3732301E4,2.0665336E0,2.9173832E0,3.624301E0,5.0643228E3,2.7030178E1,5.511098E0,1.1104157E-3,1.5122283E4,-2.2823718E-7,8.7094406E-5,-5.0138155E-5,2.3462328E-5,-2.6137684E-4,-5.1834056E-4,-1.6535954E-4,7.713152E-5,-8.700117E-6,-3.4534666E-4,4.671324E-4,6.1368286E-5,-7.384121E-6,7.119844E-4],"split_indices":[0,1,2,0,2,2,2,0,1,1,2,0,1,0,2,0,0,0,0,0,0,0,0,0,0,0,0,0,0],"split_type":[0,0,0,0,0,0,0,0,0,0,0,0,0,0,0,0,0,0,0,0,0,0,0,0,0,0,0,0,0],"sum_hessian":[8.92E2,8.7E2,2.2E1,4.84E2,3.86E2,1.2E1,1E1,1.05E2,3.79E2,2.08E2,1.78E2,2E0,1E1,6E0,4E0,3.1E1,7.4E1,3.19E2,6E1,1.27E2,8.1E1,1.27E2,5.1E1,1E0,1E0,6E0,4E0,1E0,3E0],"tree_param":{"num_deleted":"0","num_feature":"4","num_nodes":"29","size_leaf_vector":"0"}},{"base_weights":[-9.724494E-3,-1.1658598E-2,5.2741896E-2,-1.7439128E-3,-2.4420133E-2,1.7275877E-2,8.960716E-2,3.6768913E-3,-4.885851E-3,-3.7050866E-2,-1.0832941E-2,-2.107212E-2,2.8618885E-2,3.769202E-2,9.561972E-2,4.970106E-3,-8.238156E-3,-6.5212515E-3,1.3786788E-3,-2.6321346E-2,-5.227965E-2,-1.7228186E-2,5.299233E-3,-5.8746785E-3,-2.4179706E-2,4.9642783E-2,1.9449828E-2,1.10089794E-1,5.623768E-2],"categories":[],"categories_nodes":[],"categories_segments":[],"categories_sizes":[],"default_left":[1,1,1,1,1,1,1,1,1,1,1,1,1,0,1,0,0,0,0,0,0,0,0,0,0,0,0,0,0],"id":61,"left_children":[1,3,5,7,9,11,13,15,17,19,21,23,25,-1,27,-1,-1,-1,-1,-1,-1,-1,-1,-1,-1,-1,-1,-1,-1],"loss_changes":[1.08504005E-1,1.0965599E-1,3.3753492E-2,8.34653E-3,6.464116E-2,7.127785E-3,4.537627E-4,2.8145127E-3,3.1849453E-3,3.0649811E-2,1.907443E-2,4.6861474E-5,1.347688E-3,0E0,7.727742E-5,0E0,0E0,0E0,0E0,0E0,0E0,0E0,0E0,0E0,0E0,0E0,0E0,0E0,0E0],"parents":[2147483647,0,0,1,1,2,2,3,3,4,4,5,5,6,6,7,7,8,8,9,9,10,10,11,11,12,12,14,14],"right_children":[2,4,6,8,10,12,14,16,18,20,22,24,26,-1,28,-1,-1,-1,-1,-1,-1,-1,-1,-1,-1,-1,-1,-1,-1],"split_conditions":[8.225492E3,3.0487514E0,5.146863E0,4.5372586E0,4.642412E1,1.6434044E1,9.049109E3,1.6160986E3,2.9173832E0,3.624301E0,1.6379238E1,3.9142287E0,8.840578E3,3.7692022E-4,1.3732301E4,4.970106E-5,-8.2381564E-5,-6.5212516E-5,1.3786788E-5,-2.6321344E-4,-5.227965E-4,-1.7228186E-4,5.2992327E-5,-5.8746784E-5,-2.4179705E-4,4.964278E-4,1.9449828E-4,1.1008979E-3,5.6237675E-4],"split_indices":[2,1,1,0,3,0,2,2,1,1,0,1,2,0,2,0,0,0,0,0,0,0,0,0,0,0,0,0,0],"split_type":[0,0,0,0,0,0,0,0,0,0,0,0,0,0,0,0,0,0,0,0,0,0,0,0,0,0,0,0,0],"sum_hessian":[8.92E2,8.66E2,2.6E1,4.88E2,3.78E2,1.4E1,1.2E1,1.79E2,3.09E2,1.95E2,1.83E2,3E0,1.1E1,2E0,1E1,1.62E2,1.7E1,2.45E2,6.4E1,1.16E2,7.9E1,1.31E2,5.2E1,1E0,2E0,2E0,9E0,6E0,4E0],"tree_param":{"num_deleted":"0","num_feature":"4","num_nodes":"29","size_leaf_vector":"0"}},{"base_weights":[-9.625634E-3,-1.139185E-2,5.767869E-2,-1.6333524E-3,-2.3592055E-2,2.1819059E-2,9.481474E-2,6.0504675E-3,-3.7724355E-3,-3.5633907E-2,-9.400218E-3,-2.33285E-2,3.2148477E-2,1.0914617E-1,5.5787783E-2,4.021417E-4,8.829189E-3,-4.920034E-3,2.3095976E-3,-2.5627919E-2,-5.0818447E-2,-1.6249618E-2,7.6406132E-3,-8.921549E-4,-3.4100596E-2,4.620093E-2,6.0453475E-3,-1.0159016E-3,7.024268E-2],"categories":[],"categories_nodes":[],"categories_segments":[],"categories_sizes":[],"default_left":[1,1,1,1,1,1,1,1,1,1,1,1,1,0,1,0,0,0,0,0,0,0,0,0,0,0,0,0,0],"id":62,"left_children":[1,3,5,7,9,11,13,15,17,19,21,23,25,-1,27,-1,-1,-1,-1,-1,-1,-1,-1,-1,-1,-1,-1,-1,-1],"loss_changes":[1.0681151E-1,1.0365896E-1,2.8559998E-2,7.994444E-3,6.580177E-2,6.8125003E-3,6.340444E-5,1.6601328E-3,2.6636613E-3,3.0452311E-2,2.1016939E-2,6.946364E-4,3.755643E-3,0E0,4.176817E-3,0E0,0E0,0E0,0E0,0E0,0E0,0E0,0E0,0E0,0E0,0E0,0E0,0E0,0E0],"parents":[2147483647,0,0,1,1,2,2,3,3,4,4,5,5,6,6,7,7,8,8,9,9,10,10,11,11,12,12,14,14],"right_children":[2,4,6,8,10,12,14,16,18,20,22,24,26,-1,28,-1,-1,-1,-1,-1,-1,-1,-1,-1,-1,-1,-1,-1,-1],"split_conditions":[2.5413074E1,3.04275E0,9.185846E3,3.5751903E0,2.2741135E3,2.8777517E3,1.3732301E4,1.7735901E0,2.9173832E0,3.624301E0,5.0643228E3,2.7030178E1,5.511098E0,1.0914616E-3,1.5122283E4,4.021417E-6,8.829189E-5,-4.9200342E-5,2.3095976E-5,-2.562792E-4,-5.081845E-4,-1.6249617E-4,7.640613E-5,-8.921548E-6,-3.4100594E-4,4.620093E-4,6.0453473E-5,-1.0159016E-5,7.0242677E-4],"split_indices":[0,1,2,0,2,2,2,1,1,1,2,0,1,0,2,0,0,0,0,0,0,0,0,0,0,0,0,0,0],"split_type":[0,0,0,0,0,0,0,0,0,0,0,0,0,0,0,0,0,0,0,0,0,0,0,0,0,0,0,0,0],"sum_hessian":[8.92E2,8.7E2,2.2E1,4.84E2,3.86E2,1.2E1,1E1,1.05E2,3.79E2,2.08E2,1.78E2,2E0,1E1,6E0,4E0,3.5E1,7E1,3.19E2,6E1,1.27E2,8.1E1,1.27E2,5.1E1,1E0,1E0,6E0,4E0,1E0,3E0],"tree_param":{"num_deleted":"0","num_feature":"4","num_nodes":"29","size_leaf_vector":"0"}},{"base_weights":[-9.528065E-3,-1.14303855E-2,5.1910438E-2,-1.6168815E-3,-2.3827562E-2,1.7032119E-2,8.816154E-2,4.9353945E-3,-4.0810057E-3,-3.6194474E-2,-1.0534681E-2,-2.0993844E-2,2.8288096E-2,3.7261274E-2,9.402875E-2,3.282609E-3,9.844362E-3,-5.3928145E-3,2.2868796E-3,-2.575978E-2,-5.1263645E-2,-1.6704476E-2,5.2631884E-3,-5.883515E-3,-2.4069449E-2,4.926089E-2,1.916745E-2,1.0821064E-1,5.5368353E-2],"categories":[],"categories_nodes":[],"categories_segments":[],"categories_sizes":[],"default_left":[1,1,1,1,1,1,1,1,1,1,1,1,1,0,1,0,0,0,0,0,0,0,0,0,0,0,0,0,0],"id":63,"left_children":[1,3,5,7,9,11,13,15,17,19,21,23,25,-1,27,-1,-1,-1,-1,-1,-1,-1,-1,-1,-1,-1,-1,-1,-1],"loss_changes":[1.04963355E-1,1.0544047E-1,3.2636613E-2,7.850767E-3,6.258078E-2,7.014166E-3,3.7872046E-4,1.0467765E-3,2.9611005E-3,2.9813439E-2,1.8217267E-2,4.4280663E-5,1.3512205E-3,0E0,3.9614737E-5,0E0,0E0,0E0,0E0,0E0,0E0,0E0,0E0,0E0,0E0,0E0,0E0,0E0,0E0],"parents":[2147483647,0,0,1,1,2,2,3,3,4,4,5,5,6,6,7,7,8,8,9,9,10,10,11,11,12,12,14,14],"right_children":[2,4,6,8,10,12,14,16,18,20,22,24,26,-1,28,-1,-1,-1,-1,-1,-1,-1,-1,-1,-1,-1,-1,-1,-1],"split_conditions":[8.225492E3,3.04275E0,5.146863E0,3.9255571E0,4.642412E1,1.6434044E1,9.049109E3,2.398387E0,2.9173832E0,3.624301E0,1.6379238E1,3.9142287E0,8.840578E3,3.7261273E-4,1.3732301E4,3.282609E-5,9.844362E-5,-5.3928143E-5,2.2868795E-5,-2.575978E-4,-5.1263644E-4,-1.6704475E-4,5.2631884E-5,-5.8835147E-5,-2.4069448E-4,4.926089E-4,1.916745E-4,1.0821064E-3,5.536835E-4],"split_indices":[2,1,1,0,3,0,2,1,1,1,0,1,2,0,2,0,0,0,0,0,0,0,0,0,0,0,0,0,0],"split_type":[0,0,0,0,0,0,0,0,0,0,0,0,0,0,0,0,0,0,0,0,0,0,0,0,0,0,0,0,0],"sum_hessian":[8.92E2,8.66E2,2.6E1,4.84E2,3.82E2,1.4E1,1.2E1,1.32E2,3.52E2,1.97E2,1.85E2,3E0,1.1E1,2E0,1E1,1E2,3.2E1,2.92E2,6E1,1.18E2,7.9E1,1.33E2,5.2E1,1E0,2E0,2E0,9E0,6E0,4E0],"tree_param":{"num_deleted":"0","num_feature":"4","num_nodes":"29","size_leaf_vector":"0"}},{"base_weights":[-9.430984E-3,-1.1168699E-2,5.6785543E-2,-1.6005062E-3,-2.3130983E-2,2.1573734E-2,9.323717E-2,3.603392E-3,-4.6563926E-3,-3.493488E-2,-9.219559E-3,-2.305852E-2,3.178492E-2,1.0728313E-1,5.4925393E-2,4.8773685E-3,-8.133361E-3,-6.3535925E-3,2.2643881E-3,-2.5124427E-2,-4.982272E-2,-1.5967274E-2,7.567498E-3,-9.140074E-4,-3.3673774E-2,4.5694236E-2,5.9548914E-3,-1.287669E-3,6.930058E-2],"categories":[],"categories_nodes":[],"categories_segments":[],"categories_sizes":[],"default_left":[1,1,1,1,1,1,1,1,1,1,1,1,1,0,1,0,0,0,0,0,0,0,0,0,0,0,0,0,0],"id":64,"left_children":[1,3,5,7,9,11,13,15,17,19,21,23,25,-1,27,-1,-1,-1,-1,-1,-1,-1,-1,-1,-1,-1,-1,-1,-1],"loss_changes":[1.0338762E-1,9.965541E-2,2.750966E-2,7.729502E-3,6.322679E-2,6.65764E-3,2.681464E-5,2.7310923E-3,3.6086473E-3,2.9274046E-2,2.0396926E-2,6.7443063E-4,3.6799544E-3,0E0,4.1296007E-3,0E0,0E0,0E0,0E0,0E0,0E0,0E0,0E0,0E0,0E0,0E0,0E0,0E0,0E0],"parents":[2147483647,0,0,1,1,2,2,3,3,4,4,5,5,6,6,7,7,8,8,9,9,10,10,11,11,12,12,14,14],"right_children":[2,4,6,8,10,12,14,16,18,20,22,24,26,-1,28,-1,-1,-1,-1,-1,-1,-1,-1,-1,-1,-1,-1,-1,-1],"split_conditions":[2.5413074E1,3.04275E0,9.185846E3,4.5372586E0,2.2741135E3,2.8777517E3,1.3732301E4,1.6160986E3,2.9173832E0,3.624301E0,5.0643228E3,2.7030178E1,5.511098E0,1.0728313E-3,1.5122283E4,4.8773683E-5,-8.133361E-5,-6.3535925E-5,2.264388E-5,-2.5124426E-4,-4.982272E-4,-1.5967274E-4,7.567498E-5,-9.140074E-6,-3.3673775E-4,4.5694233E-4,5.9548915E-5,-1.2876689E-5,6.9300574E-4],"split_indices":[0,1,2,0,2,2,2,2,1,1,2,0,1,0,2,0,0,0,0,0,0,0,0,0,0,0,0,0,0],"split_type":[0,0,0,0,0,0,0,0,0,0,0,0,0,0,0,0,0,0,0,0,0,0,0,0,0,0,0,0,0],"sum_hessian":[8.92E2,8.7E2,2.2E1,4.84E2,3.86E2,1.2E1,1E1,1.79E2,3.05E2,2.08E2,1.78E2,2E0,1E1,6E0,4E0,1.62E2,1.7E1,2.45E2,6E1,1.27E2,8.1E1,1.27E2,5.1E1,1E0,1E0,6E0,4E0,1E0,3E0],"tree_param":{"num_deleted":"0","num_feature":"4","num_nodes":"29","size_leaf_vector":"0"}},{"base_weights":[-9.3355365E-3,-1.1058053E-2,5.630132E-2,-1.584652E-3,-2.2901831E-2,2.1371122E-2,9.246417E-2,5.9006754E-3,-3.6684943E-3,-3.458912E-2,-9.127833E-3,-2.294323E-2,3.1514026E-2,1.0636357E-1,5.4512173E-2,-1.8472344E-4,8.418437E-3,-4.7837407E-3,2.2421172E-3,-2.4875147E-2,-4.9330577E-2,-1.6096849E-2,6.8768016E-3,-9.094402E-4,-3.3505406E-2,4.5302574E-2,5.907255E-3,-1.2812316E-3,6.878083E-2],"categories":[],"categories_nodes":[],"categories_segments":[],"categories_sizes":[],"default_left":[1,1,1,1,1,1,1,1,1,1,1,1,1,0,1,0,0,0,0,0,0,0,0,0,0,0,0,0,0],"id":65,"left_children":[1,3,5,7,9,11,13,15,17,19,21,23,25,-1,27,-1,-1,-1,-1,-1,-1,-1,-1,-1,-1,-1,-1,-1,-1],"loss_changes":[1.01585716E-1,9.769065E-2,2.7076967E-2,7.586794E-3,6.1983794E-2,6.566225E-3,4.5001507E-6,1.6256429E-3,2.5156052E-3,2.8701305E-2,2.0075738E-2,6.677032E-4,3.6162678E-3,0E0,4.0686103E-3,0E0,0E0,0E0,0E0,0E0,0E0,0E0,0E0,0E0,0E0,0E0,0E0,0E0,0E0],"parents":[2147483647,0,0,1,1,2,2,3,3,4,4,5,5,6,6,7,7,8,8,9,9,10,10,11,11,12,12,14,14],"right_children":[2,4,6,8,10,12,14,16,18,20,22,24,26,-1,28,-1,-1,-1,-1,-1,-1,-1,-1,-1,-1,-1,-1,-1,-1],"split_conditions":[2.5413074E1,3.04275E0,9.185846E3,3.5751903E0,2.2741135E3,2.8777517E3,1.3732301E4,2.0665336E0,2.9173832E0,3.624301E0,1.6379238E1,2.7030178E1,5.511098E0,1.0636357E-3,1.5122283E4,-1.8472343E-6,8.418437E-5,-4.7837406E-5,2.242117E-5,-2.4875146E-4,-4.9330574E-4,-1.6096848E-4,6.8768015E-5,-9.094402E-6,-3.3505406E-4,4.530257E-4,5.907255E-5,-1.28123165E-5,6.878083E-4],"split_indices":[0,1,2,0,2,2,2,0,1,1,0,0,1,0,2,0,0,0,0,0,0,0,0,0,0,0,0,0,0],"split_type":[0,0,0,0,0,0,0,0,0,0,0,0,0,0,0,0,0,0,0,0,0,0,0,0,0,0,0,0,0],"sum_hessian":[8.92E2,8.7E2,2.2E1,4.84E2,3.86E2,1.2E1,1E1,1.05E2,3.79E2,2.08E2,1.78E2,2E0,1E1,6E0,4E0,3.1E1,7.4E1,3.19E2,6E1,1.27E2,8.1E1,1.24E2,5.4E1,1E0,1E0,6E0,4E0,1E0,3E0],"tree_param":{"num_deleted":"0","num_feature":"4","num_nodes":"29","size_leaf_vector":"0"}},{"base_weights":[-9.240917E-3,-1.109805E-2,5.0735958E-2,-1.6557027E-3,-2.3251638E-2,1.6747553E-2,8.6050585E-2,3.552552E-3,-4.6745096E-3,-3.527571E-2,-1.0317018E-2,-2.0794816E-2,2.7866047E-2,3.6661398E-2,9.169758E-2,4.5125373E-3,-1.1606547E-2,-6.242669E-3,1.3322863E-3,-2.505518E-2,-4.978229E-2,-1.6442087E-2,5.132529E-3,-5.811453E-3,-2.385212E-2,4.88362E-2,1.8788395E-2],"categories":[],"categories_nodes":[],"categories_segments":[],"categories_sizes":[],"default_left":[1,1,1,1,1,1,1,1,1,1,1,1,1,0,0,0,0,0,0,0,0,0,0,0,0,0,0],"id":66,"left_children":[1,3,5,7,9,11,13,15,17,19,21,23,25,-1,-1,-1,-1,-1,-1,-1,-1,-1,-1,-1,-1,-1,-1],"loss_changes":[1.00029916E-1,9.9457026E-2,3.096664E-2,7.7050147E-3,5.858074E-2,6.8406886E-3,2.6394427E-4,2.6718276E-3,2.9283972E-3,2.781263E-2,1.7496223E-2,4.4619315E-5,1.3667624E-3,0E0,0E0,0E0,0E0,0E0,0E0,0E0,0E0,0E0,0E0,0E0,0E0,0E0,0E0],"parents":[2147483647,0,0,1,1,2,2,3,3,4,4,5,5,6,6,7,7,8,8,9,9,10,10,11,11,12,12],"right_children":[2,4,6,8,10,12,14,16,18,20,22,24,26,-1,-1,-1,-1,-1,-1,-1,-1,-1,-1,-1,-1,-1,-1],"split_conditions":[8.225492E3,3.0487514E0,5.146863E0,4.5372586E0,4.642412E1,1.6434044E1,9.049109E3,1.8858687E3,2.9173832E0,3.624301E0,1.6379238E1,3.9142287E0,8.840578E3,3.6661397E-4,9.169758E-4,4.5125373E-5,-1.16065465E-4,-6.242669E-5,1.3322862E-5,-2.505518E-4,-4.978229E-4,-1.6442087E-4,5.132529E-5,-5.811453E-5,-2.3852118E-4,4.88362E-4,1.8788395E-4],"split_indices":[2,1,1,0,3,0,2,2,1,1,0,1,2,0,0,0,0,0,0,0,0,0,0,0,0,